tree
version=v3
num_class=1
num_tree_per_iteration=1
label_index=0
max_feature_idx=162
objective=binary sigmoid:1
feature_names=Column_0 Column_1 Column_2 Column_3 Column_4 Column_5 Column_6 Column_7 Column_8 Column_9 Column_10 Column_11 Column_12 Column_13 Column_14 Column_15 Column_16 Column_17 Column_18 Column_19 Column_20 Column_21 Column_22 Column_23 Column_24 Column_25 Column_26 Column_27 Column_28 Column_29 Column_30 Column_31 Column_32 Column_33 Column_34 Column_35 Column_36 Column_37 Column_38 Column_39 Column_40 Column_41 Column_42 Column_43 Column_44 Column_45 Column_46 Column_47 Column_48 Column_49 Column_50 Column_51 Column_52 Column_53 Column_54 Column_55 Column_56 Column_57 Column_58 Column_59 Column_60 Column_61 Column_62 Column_63 Column_64 Column_65 Column_66 Column_67 Column_68 Column_69 Column_70 Column_71 Column_72 Column_73 Column_74 Column_75 Column_76 Column_77 Column_78 Column_79 Column_80 Column_81 Column_82 Column_83 Column_84 Column_85 Column_86 Column_87 Column_88 Column_89 Column_90 Column_91 Column_92 Column_93 Column_94 Column_95 Column_96 Column_97 Column_98 Column_99 Column_100 Column_101 Column_102 Column_103 Column_104 Column_105 Column_106 Column_107 Column_108 Column_109 Column_110 Column_111 Column_112 Column_113 Column_114 Column_115 Column_116 Column_117 Column_118 Column_119 Column_120 Column_121 Column_122 Column_123 Column_124 Column_125 Column_126 Column_127 Column_128 Column_129 Column_130 Column_131 Column_132 Column_133 Column_134 Column_135 Column_136 Column_137 Column_138 Column_139 Column_140 Column_141 Column_142 Column_143 Column_144 Column_145 Column_146 Column_147 Column_148 Column_149 Column_150 Column_151 Column_152 Column_153 Column_154 Column_155 Column_156 Column_157 Column_158 Column_159 Column_160 Column_161 Column_162
feature_infos=[0:75] [-6847:81204] [0:2] [0:11] [0:3] [0:1] [0:1] [0:11] [0:30] [0:35] [3:3880] [0:81204] [3:3880] [-6641:81883] [-6847:81204] [3:3880] [-627:81204] [740:3880] [-627:5250.75] [400:inf] [-6847:-627] [3:740] [-627:14524832] [740:inf] [-79551:80943] [-3448:3788] [-1:inf] [0.00025773048400878906:0.333251953125] [-44.857143402099609:2131] [-1171:inf] [-6847:81204] [3:3880] none [0:1] [0:1] none none none [0:1] none none [0:1] [0:1] none none [0:1] [0:1] [0:1] [0:1] [0:1] [0:1] [0:1] none [0:1] [0:1] [0:1] [0:1] [0:1] [0:1] none [0:1] [0:1] [0:1] [0:1] [0:1] [0:1] none none none [0:1] [0:1] [0:1] [0:1] [0:1] [0:1] [0:1] [0:1] [0:1] [0:1] [0:1] [0:1] [0:1] [0:1] [0:1] [0:1] [0:1] [0:1] [0:1] [0:1] [0:1] [0:1] [0:1] [0:1] [0:1] [0:1] [0:1] [-6846:1] [0:3177] [-6641:2770] [-1410482:73437504] [-6847:81204] [3:3880] [-81204:6847] [-3880:-3] none [0:1] [0:1] none none none [0:1] none none [0:1] [0:1] none none [0:1] [0:1] [0:1] [0:1] [0:1] [0:1] [0:1] none [0:1] [0:1] [0:1] [0:1] [0:1] [0:1] none [0:1] [0:1] [0:1] [0:1] [0:1] [0:1] none none none [0:1] [0:1] [0:1] [0:1] [0:1] [0:1] [0:1] [0:1] [0:1] [0:1] [0:1] [0:1] [0:1] [0:1] [0:1] [8.9589681010693312e-05:0.99995517730712891] [0.00017917936202138662:1] [-81204:6847] [-3880:-3] [-7053:80814] [-6847:81204] [3:3880]
tree_sizes=5526 6057 5275 5250 5243 5011 4412 5252 4858 4198 3894 4627 4732 3601 3999 4614 3166 3896 3795

Tree=0
num_leaves=52
num_cat=0
split_feature=10 10 5 7 27 7 99 98 7 7 7 8 27 5 0 5 13 5 7 3 9 8 0 10 0 5 27 8 6 10 8 18 8 24 22 22 18 18 0 2 26 10 7 22 7 18 24 98 24 18 8
split_gain=1302.54 357.92 277.302 243.711 126.329 91.896 64.7169 62.0223 54.6937 48.9175 65.9338 60.9995 47.5489 35.525 29.9715 26.7009 20.0022 19.9329 19.6144 16.356 16.2337 13.7207 12.1351 12.0975 11.417 13.9882 10.9653 10.7928 10.4368 8.93123 8.51361 8.05095 7.88527 6.78253 6.5458 6.28614 6.27077 5.39645 4.25585 4.10063 4.66988 3.38189 3.20274 2.6729 2.11525 2.69544 2.10338 1.35163 0.87693 0.502163 0.036872
threshold=205.50000000000003 447.50000000000006 1.0000000180025095e-35 3.5000000000000004 0.012577056884765627 3.5000000000000004 86719.000000000015 164.50000000000003 1.0000000180025095e-35 8.5000000000000018 4.5000000000000009 15.500000000000002 0.0015072822570800783 1.0000000180025095e-35 15.500000000000002 1.0000000180025095e-35 1264.5000000000002 1.0000000180025095e-35 8.5000000000000018 4.5000000000000009 2.5000000000000004 26.500000000000004 11.500000000000002 113.50000000000001 10.500000000000002 1.0000000180025095e-35 0.0020904541015625004 20.500000000000004 1.0000000180025095e-35 300.50000000000006 3.5000000000000004 1535.877136230469 28.500000000000004 1015.5000000000001 1525827.5000000002 10526020.500000002 1570.219909667969 1543.0398559570315 19.500000000000004 1.0000000180025095e-35 0.0017841227236203851 854.50000000000011 1.0000000180025095e-35 12650516.500000002 9.5000000000000018 1524.5833740234377 3053.0000000000005 123.50000000000001 728.50000000000011 1519.0397949218752 3.5000000000000004
decision_type=2 2 2 2 2 2 2 10 2 2 2 2 2 2 2 2 2 2 2 2 2 2 2 2 2 2 2 2 2 2 2 2 2 10 2 2 2 2 2 2 2 2 2 2 2 2 10 8 10 2 2
left_child=3 2 8 7 9 6 22 23 29 10 47 -12 39 42 -8 31 27 26 21 -18 33 -7 -4 50 25 -25 35 -10 34 48 -26 -11 -17 -15 -19 -14 -28 -30 -31 40 49 -42 -9 -6 -41 -46 -20 -5 -2 -3 -1
right_child=1 12 5 4 43 18 14 13 16 15 11 -13 17 20 -16 32 19 28 46 -21 -22 -23 -24 24 30 -27 36 -29 37 38 -32 -33 -34 -35 -36 -37 -38 -39 -40 44 41 -43 -44 -45 45 -47 -48 -49 -50 -51 -52
leaf_value=0.38467892330809972 0.44505020179344956 -0.1599996525924457 0.032342010690518008 -0.038481485809849406 0.46541194349810472 -0.10825001919937087 -0.18447036040274423 0.43831692179976423 0.26965782615670697 0.028471854141805544 0.066283031060541536 0.36323067297052519 -0.0040861294018898903 0.1059497249462267 0.052255240304494716 -0.16138191102655075 -0.0010665376591108416 0.023538158527302969 -0.24323417598678637 0.25465061762730545 0.36414419191964714 0.10962011120118474 0.28454809325220332 0.39001802363056831 0.23100237280516911 0.020581584274434933 0.032342010690518008 0.089716749474412202 -0.055716257149161549 0.23887898235723809 0.42631292488359568 0.27006228134777083 0.097505547022038647 -0.089670948411823256 -0.17025285622081959 -0.13534042046727751 0.2749077223530898 0.19998505234309463 0.36927730167711714 -0.24569350731268003 -0.054269712298743764 -0.16724482423431336 0.27703999017504982 0.2871313769145703 -0.014134847273506043 -0.21134791520956059 -0.096900960008091772 -0.21276946591976886 0.3322676321368509 -0.22884814980277574 0.47815797887731415
leaf_weight=12.954979062080382 41.356279313564301 38.36666876077652 8.4705632328987104 4.9826842546463013 43.349353015422821 84.456498116254807 29.896105527877808 18.934200167655948 60.788747906684875 10.961905360221865 52.069050461053848 57.55000314116478 65.024029523134232 17.937663316726688 72.498055905103683 40.110608249902725 35.626192420721054 8.7196974456310254 55.058661013841629 12.954979062080382 6.2283553183078757 13.453247487545012 48.082903057336807 7.9722948074340803 10.961905360221861 6.9757579565048218 8.4705632328987104 16.691992253065109 6.97575795650482 26.906494975090027 142.50476968288422 9.4671000838279706 5.4809526801109305 10.961905360221861 92.428792923688889 19.930737018585205 6.9757579565048209 4.9826842546463013 19.18333438038826 115.8474089205265 25.909958124160767 30.394373953342438 10.712771147489546 6.4774895310401908 7.2248921692371351 7.2248921692371368 9.4671000838279706 13.70238170027733 10.961905360221861 57.55000314116478 213.25888609886169
leaf_count=52 166 154 34 20 174 339 120 76 244 44 209 231 261 72 291 161 143 35 221 52 25 54 193 32 44 28 34 67 28 108 572 38 22 44 371 80 28 20 77 465 104 122 43 26 29 29 38 55 44 231 856
internal_value=0.117833 -0.0258334 0.0860194 0.326198 0.16449 -0.0329453 0.0755736 0.411882 0.256269 0.0912455 0.163264 0.2229 -0.148645 0.228549 -0.018867 -0.0474593 0.168422 -0.0759361 -0.138327 0.0683568 0.0920176 -0.0786566 0.246035 0.441658 0.396752 0.221829 -0.00924477 0.231013 -0.133684 0.367344 0.413094 0.142106 -0.131242 0.0277742 -0.154513 -0.0371797 0.144472 0.0491397 0.296881 -0.202814 -0.174087 -0.118736 0.386366 0.445606 -0.234171 -0.126093 -0.224971 -0.175495 0.425394 -0.20411 0.473869
internal_weight=0 1041.88 545.853 703.555 244.152 321.383 158.948 459.403 224.47 194.325 128.304 109.619 496.026 64.7749 102.394 66.0206 126.062 213.508 162.436 48.5812 35.1279 97.9097 56.5535 394.629 168.415 14.9481 100.401 77.4807 113.107 98.408 153.467 20.429 45.5916 28.8996 101.148 84.9548 15.4463 11.9584 46.0898 282.518 152.221 56.3043 29.647 49.8268 130.297 14.4498 64.5258 18.6851 52.3182 95.9167 226.214
internal_count=7006 4182 2191 2824 980 1290 638 1844 901 780 515 440 1991 260 411 265 506 857 652 195 141 393 227 1584 676 60 403 311 454 395 616 82 183 116 406 341 62 48 185 1134 611 226 119 200 523 58 259 75 210 385 908
is_linear=0
shrinkage=1


Tree=1
num_leaves=57
num_cat=0
split_feature=10 10 5 7 27 7 98 27 99 7 5 5 27 77 0 56 7 7 7 7 7 10 7 10 7 56 0 18 0 29 0 99 0 18 56 3 7 3 97 5 25 5 0 3 2 10 29 26 0 7 18 51 22 97 7 97
split_gain=862.528 232.316 175.36 169.107 93.3301 60.8898 43.803 40.3879 40.281 40.2787 25.5017 24.3538 20.5557 20.365 18.71 16.4899 14.0642 13.511 17.2938 13.0351 12.2394 10.8482 9.67204 9.48591 12.2387 19.0392 9.13139 8.89093 8.67678 8.14246 7.97808 7.82669 7.70048 6.55881 6.33868 5.79346 5.66388 5.1907 5.09195 4.88818 4.01622 4.00235 3.94835 3.79515 2.87335 3.76317 5.30125 2.5853 1.78647 1.18875 2.51462 1.00177 0.988143 0.502095 0.224925 0.0119596
threshold=205.50000000000003 410.50000000000006 1.0000000180025095e-35 3.5000000000000004 0.0087356567382812517 3.5000000000000004 164.50000000000003 0.0015072822570800783 86719.000000000015 2.5000000000000004 1.0000000180025095e-35 1.0000000180025095e-35 0.012901306152343752 1.0000000180025095e-35 12.500000000000002 1.0000000180025095e-35 8.5000000000000018 8.5000000000000018 4.5000000000000009 10.500000000000002 8.5000000000000018 520.50000000000011 4.5000000000000009 134.50000000000003 2.5000000000000004 1.0000000180025095e-35 11.500000000000002 1497.1651611328127 21.500000000000004 0.38519358634948736 35.500000000000007 26406.000000000004 38.500000000000007 1560.8245239257815 1.0000000180025095e-35 3.5000000000000004 1.0000000180025095e-35 3.5000000000000004 16.500000000000004 1.0000000180025095e-35 164.50000000000003 1.0000000180025095e-35 6.5000000000000009 1.5000000000000002 1.0000000180025095e-35 888.50000000000011 0.41477975249290472 0.00070224754745140683 27.500000000000004 6.5000000000000009 1528.6127929687502 1.0000000180025095e-35 12650516.500000002 558.50000000000011 1.0000000180025095e-35 389.50000000000006
decision_type=2 2 2 2 2 2 10 2 2 2 2 2 2 2 2 2 2 2 2 2 2 2 2 2 2 2 2 2 2 2 2 2 2 2 2 2 2 2 2 2 10 2 2 2 2 2 2 2 2 2 2 2 2 2 2 2
left_child=3 2 9 6 10 8 23 44 32 35 15 47 16 27 -10 43 37 18 -12 22 31 34 -11 42 39 -26 -13 -9 -23 -29 -28 -7 -4 -17 -15 36 -2 -6 -19 -25 -37 -18 -1 -5 45 46 -3 -8 -22 55 -51 -44 -14 -47 -49 -46
right_child=1 7 5 4 12 20 11 13 14 19 17 26 52 21 -16 33 41 38 -20 -21 48 28 -24 24 25 -27 30 29 -30 -31 -32 -33 -34 -35 -36 40 -38 -39 -40 -41 -42 -43 51 -45 49 53 -48 54 -50 50 -52 -53 -54 -55 -56 -57
leaf_value=0.1005800850068555 0.19798398882444332 -0.27527808781887569 0.13988915516992403 0.058098924104844046 0.23148418875717619 -0.0055276643782322639 0.11453537150824644 0.037215383934400305 -0.28380457872306092 -0.095184839312074679 -0.27581763307354262 -0.24879752587401432 0.2986534570936491 0.112137108697444 -0.058218112591162552 -0.14575386271622037 0.071823171875855199 -0.049340140593858495 -0.012647290427606844 -0.26465608935588153 -0.23751020991041594 -0.19734897768590673 0.075733076860521775 0.28670359835426851 0.20012928920836923 -0.19056069718923999 0.081501790070466387 -0.2481616915056517 -0.0089075721398143067 -0.15657608799892719 -0.14864918057873183 -0.17983189962151369 -0.095816223799873021 0.085056120913794178 -0.062419169423258924 0.28879164603711199 0.07532830702135887 0.073970689539585646 -0.25682492117226724 0.17311350758958521 0.13054820554393537 -0.12034246912753428 0.29986885608083763 0.22746962133231441 -0.32253720943790282 -0.23849728470741749 -0.15089041495117453 0.29501914168133214 -0.33706531541764279 -0.1488790638310126 -0.28759385921384539 0.15983912620017512 0.16310321915758882 -0.30238351432013338 0.17687351124434947 -0.26637075356781548
leaf_weight=5.2933471649885169 50.496022209525108 23.015946492552757 47.439113661646843 9.1143238395452517 21.002680853009224 11.964691579341887 8.4531866908073443 6.7446115612983695 17.59984689950943 16.087675228714943 11.634308129549025 4.9797772616147986 39.568334892392159 16.578943401575089 75.626374661922455 14.092753276228907 6.190846487879754 6.2135916799306861 49.821081221103668 5.2135534882545462 37.511110574007034 24.70613032579422 60.307896763086319 57.964184761047363 14.848006784915926 6.4915473312139502 22.785770133137706 67.895118519663811 15.953294038772581 111.87115223705769 7.2092549204826346 76.026410907506943 5.6351618766784659 6.6310142427682868 15.094423085451128 35.994342476129532 23.544390454888344 15.451822504401205 28.579028397798538 28.20682193338871 10.498000696301458 10.683391183614731 258.90031671524048 14.963910371065138 55.655844897031784 48.575342297554016 46.279678970575333 13.5868998169899 21.225091174244881 13.654450893402101 14.801918864250181 5.2976238280534735 6.1229303479194632 33.65269735455513 6.6221213936805716 44.82019367814064
leaf_count=22 209 93 193 37 86 48 35 27 71 65 47 20 167 67 303 57 25 25 202 21 152 99 244 242 62 27 92 273 64 450 29 305 23 27 61 149 95 63 115 117 43 43 1092 61 226 196 186 57 86 55 60 22 25 136 27 182
internal_value=0 -0.116093 -0.0171095 0.173633 0.0383777 -0.115824 0.247098 -0.206798 -0.024228 0.12587 -0.0660184 0.0919729 0.186351 -0.148925 -0.103082 0.0578467 0.0994515 -0.123678 -0.0656885 0.0170171 -0.206459 -0.057906 0.0390603 0.273005 0.218203 0.078415 -0.0204706 -0.183783 -0.125182 -0.192217 0.0235013 -0.156423 0.113698 -0.0714408 0.0295162 0.198907 0.160335 0.168067 -0.221921 0.251667 0.256177 -0.0497744 0.294079 0.167705 -0.259573 -0.235802 -0.195165 0.225672 -0.277971 -0.285705 -0.227554 0.297606 0.283945 -0.267595 0.265381 -0.300036
internal_weight=0 1034.47 495.17 680.709 240.07 293.028 440.639 539.3 146.3 202.142 141.05 63.637 99.02 258.844 93.2262 44.802 53.3287 96.248 61.4554 81.6091 146.727 72.3328 76.3956 377.002 107.511 21.3396 34.9748 186.511 40.6594 179.766 29.995 87.9911 53.0743 20.7238 31.6734 120.533 74.0404 36.4545 34.7926 86.171 46.4923 16.8742 269.491 24.0782 280.456 151.524 69.2956 28.6622 58.7362 128.932 28.4564 264.198 45.6913 82.228 20.209 100.476
internal_count=7006 4182 2007 2824 980 1181 1844 2175 590 826 571 260 409 1041 374 182 217 389 249 330 591 291 309 1584 448 89 141 750 163 723 121 353 216 84 128 496 304 149 140 359 192 68 1136 98 1134 611 279 119 238 523 115 1114 192 332 84 408
is_linear=0
shrinkage=0.2


Tree=2
num_leaves=49
num_cat=0
split_feature=27 98 10 75 75 6 6 27 10 75 56 9 82 9 13 27 13 4 24 69 125 3 82 22 13 27 22 24 81 10 29 99 25 29 160 99 10 1 11 98 22 22 98 98 3 71 4 22
split_gain=594.559 161.129 112.957 71.6673 64.7187 39.9844 35.6513 31.1401 27.7188 25.5763 33.4808 22.4951 20.4806 19.0815 18.3765 12.0613 11.5151 10.9402 9.16635 8.80805 7.31393 6.84718 6.61104 6.47251 6.41494 6.24346 8.94478 5.89942 5.86583 6.35134 5.74841 5.71465 5.45994 4.67722 3.15142 3.14108 3.12044 3.04283 2.61602 2.12526 2.09706 1.79006 2.0121 1.61285 0.910718 0.703912 0.185549 0.140852
threshold=0.0040092468261718759 126.50000000000001 613.50000000000011 1.0000000180025095e-35 1.0000000180025095e-35 1.0000000180025095e-35 1.0000000180025095e-35 0.012901306152343752 380.50000000000006 1.0000000180025095e-35 1.0000000180025095e-35 2.5000000000000004 1.0000000180025095e-35 1.0000000180025095e-35 492.50000000000006 0.0049877166748046884 115.50000000000001 1.5000000000000002 1131.5000000000002 1.0000000180025095e-35 1.0000000180025095e-35 10.500000000000002 1.0000000180025095e-35 8378051.0000000009 1065.5000000000002 0.0020904541015625004 6445127.0000000009 271.50000000000006 1.0000000180025095e-35 888.50000000000011 0.37741598486900335 208633.00000000003 75.500000000000014 2.7769554853439335 306.50000000000006 154540.00000000003 658.50000000000011 4322.5000000000009 5442.0000000000009 178.50000000000003 5773027.0000000009 11947374.000000002 354.50000000000006 1135.5000000000002 1.5000000000000002 1.0000000180025095e-35 1.5000000000000002 11159066.000000002
decision_type=2 10 2 2 2 2 2 2 2 2 2 2 2 2 2 2 2 2 10 2 2 2 2 2 2 2 2 10 2 2 2 2 10 2 2 2 2 2 2 10 2 2 8 10 2 2 2 2
left_child=2 7 3 5 6 14 11 9 17 10 21 18 13 24 20 -13 -12 19 -3 -5 -1 -2 32 -16 -6 26 -10 -27 37 30 36 -15 -11 39 -32 -14 -30 43 -39 -7 -19 -31 -43 46 -8 -37 -4 -9
right_child=1 4 28 8 12 33 44 47 25 22 16 15 35 31 23 -17 -18 40 -20 -21 -22 -23 -24 -25 -26 27 -28 -29 29 41 34 -33 -34 -35 -36 45 -38 38 -40 -41 -42 42 -44 -45 -46 -47 -48 -49
leaf_value=-0.14498374134966407 0.18718705829882112 -0.074047663964095928 -0.26430352084834136 -0.012653478768650207 0.04441836211422337 0.19037451250359558 0.1159611881810758 0.28242909722000359 0.0025373130894237317 0.19980626860625647 0.24827652420748889 -0.059104783773612918 0.28250871410523914 0.21935341171601427 -0.19234856927837729 0.22395102963968513 -0.034033405912122089 0.12589981181587057 -0.17579441087660763 0.11419748793735073 0.031854390288945655 -0.043340393444498373 0.2741005098054618 -0.12399251029306707 -0.12885735041230792 -0.044897056934494528 -0.14999812129965603 0.094756968789448726 -0.070490164974907579 -0.24244316517643352 -0.12836402137589284 0.069567958489168399 0.036360193589270555 -0.045597214724990551 -0.011158253026318083 0.10837927964884664 -0.25674058901129088 -0.032764896364861067 -0.20703573226643901 0.069894540452240125 0.28927411169389655 -0.027411155315505139 -0.20169340402442062 -0.1277348221995884 0.24268434388155602 0.20118653643455078 -0.20408345652145657 0.2324399914752181
leaf_weight=12.581564188003538 101.21929118037224 94.00341160595417 111.20912052690983 34.481964230537415 14.845672160387037 10.072144567966463 6.2091933190822628 117.81230966746807 26.576890245079994 80.111432865262032 5.5129707902669898 10.523945748806002 24.5593022108078 21.625648766756058 148.52505949139595 12.311135962605475 58.656131193041801 7.274522781372073 58.488951921463013 58.328664854168892 29.889863044023514 5.1110403984785071 61.564215958118439 101.00189822912216 18.195841953158379 30.378089964389801 35.509530603885651 18.85941618680954 5.3262651115655926 60.144649773836136 50.188321724534035 20.804830387234688 9.5876840800046903 8.5049663782119733 11.404304802417753 10.426423266530037 20.601661756634712 6.1546171754598609 8.2538715004920942 16.447156727313995 11.264393776655195 4.7489973008632642 6.1797242313623428 6.7932300418615332 11.433251142501829 11.454340577125549 20.598366141319275 36.449470221996307
leaf_count=52 445 388 471 142 61 42 26 544 107 347 24 43 111 91 609 52 247 31 241 244 124 21 280 415 74 124 144 77 22 254 205 87 41 35 47 46 87 26 35 68 48 20 26 29 49 51 87 166
internal_value=0 0.124424 -0.115617 -0.0609172 0.0133514 -0.120385 -0.0586509 0.197735 0.0265498 0.161473 0.107452 -0.0861625 0.126921 0.0613851 -0.14458 0.0961709 -0.00672092 0.0967407 -0.113865 0.0673953 -0.0224282 0.175839 0.22138 -0.165218 -0.0518792 -0.0438673 -0.0855885 0.00932572 -0.211665 -0.182001 -0.143073 0.148842 0.182864 0.079914 -0.10713 0.230276 -0.222082 -0.241183 -0.13882 0.12034 0.233854 -0.227581 -0.133713 -0.250873 0.20578 0.162916 -0.256322 0.272016
internal_weight=0 790.906 861.299 549.696 314.882 327.023 192.97 476.025 222.673 321.763 170.499 175.327 121.912 75.472 291.998 22.8351 64.1691 111.35 152.492 92.8106 42.4714 106.33 151.263 249.527 33.0415 111.324 62.0864 49.2375 311.603 158.594 87.5206 42.4305 89.6991 35.0243 61.5926 46.4401 25.9279 153.009 14.4085 26.5193 18.5389 71.0734 10.9287 138.601 17.6424 21.8808 131.807 154.262
internal_count=7006 3435 3571 2262 1320 1345 799 2115 917 1405 737 724 521 313 1200 95 271 465 629 386 176 466 668 1024 135 452 251 201 1309 661 361 178 388 145 252 208 109 648 61 110 79 300 46 587 75 97 558 710
is_linear=0
shrinkage=0.2


Tree=3
num_leaves=49
num_cat=0
split_feature=103 103 5 103 0 0 77 77 9 100 103 3 13 0 0 98 8 5 0 160 8 160 5 0 25 6 22 57 22 10 5 128 0 0 10 0 10 8 8 26 2 11 8 8 0 8 102 11
split_gain=421.482 135.568 102.159 47.3546 43.5684 37.4756 35.8417 29.6841 28.7152 23.8765 19.1384 15.075 14.8519 13.6222 12.1646 11.1247 10.325 9.80775 9.34857 8.15179 11.8905 8.10337 8.0784 7.66493 7.26849 6.63338 5.1491 5.05005 9.34026 5.02727 4.82913 6.49206 4.13352 3.63776 3.54977 3.35653 3.31945 2.11725 2.11583 2.02958 2.56405 1.94232 1.342 2.54002 1.27001 0.885986 0.858036 0.107376
threshold=-174.49999999999997 -440.49999999999994 1.0000000180025095e-35 -114.49999999999999 42.500000000000007 11.500000000000002 1.0000000180025095e-35 1.0000000180025095e-35 1.0000000180025095e-35 61.500000000000007 -663.49999999999989 4.5000000000000009 1264.5000000000002 42.500000000000007 42.500000000000007 77.500000000000014 12.500000000000002 1.0000000180025095e-35 9.5000000000000018 294.50000000000006 4.5000000000000009 -149.49999999999997 1.0000000180025095e-35 12.500000000000002 237.50000000000003 1.0000000180025095e-35 1525827.5000000002 1.0000000180025095e-35 6002512.5000000009 477.50000000000006 1.0000000180025095e-35 1.0000000180025095e-35 19.500000000000004 9.5000000000000018 567.50000000000011 14.500000000000002 279.50000000000006 24.500000000000004 5.5000000000000009 0.00018309988081455233 1.0000000180025095e-35 1057.5000000000002 22.500000000000004 26.500000000000004 11.500000000000002 10.500000000000002 301.50000000000006 4151.0000000000009
decision_type=2 2 2 2 2 2 2 2 2 2 2 2 2 2 2 10 2 2 2 2 2 2 2 2 10 2 2 2 2 2 2 2 2 2 2 2 2 2 2 2 2 2 2 2 2 2 2 2
left_child=1 10 6 7 5 21 11 8 19 -7 33 12 -3 15 18 44 -13 27 -10 23 -21 -4 42 -2 36 26 -19 29 -29 -12 37 -32 -24 -1 -27 -26 -8 -17 -6 46 -41 -34 -9 -44 45 -5 -35 -40
right_child=3 2 4 13 38 9 24 22 14 -11 17 16 -14 -15 -16 30 -18 25 -20 20 -22 -23 32 -25 35 34 -28 28 -30 -31 31 -33 41 39 -36 -37 -38 -39 47 40 -42 -43 43 -45 -46 -47 -48 -49
leaf_value=-0.27649950254105166 -0.14920648129623779 0.044836295770926848 -0.032789998969032418 0.091328939944522652 -0.1156556270831125 0.12168118267078375 0.23034395596346516 0.26505052785062805 -0.071067360320689929 -0.042907379071205481 0.017915293042470335 0.0032781847442551089 -0.11060874681680265 -0.077165760052567478 -0.15169351812732199 0.23070342186222145 0.20399113101459659 -0.018423460402788649 0.15231467983215077 0.10606558607952561 -0.15543268743286257 -0.22093197944198451 -0.07884829841800052 0.075742673692072299 -0.092885712418883867 0.090275699800450068 -0.1787231505000122 0.10650868766897198 -0.096442291546858225 -0.1187096254654345 0.012256140859592562 0.1622216321967547 0.22168587256940653 -0.25525179277616833 -0.11538626683700198 0.12284662000666441 0.14557061246726863 0.099094532093343832 -0.29581712629084167 -0.14887689117673616 -0.19973620155175065 0.038561240636405536 0.044704675059669914 0.24069911094184074 0.25359139477990728 0.20874644370836501 -0.1380551896575602 -0.17107434838281468
leaf_weight=19.973407313227654 6.9751413762569419 61.766806080937386 11.501986920833586 6.1609387248754528 5.0953951478004447 40.940314501523972 54.790226697921753 35.872417539358139 7.7286436706781378 223.87064862251282 13.079435959458349 16.959088414907455 39.602423802018166 6.114625856280326 5.7290510237216941 33.863959178328514 25.147005200386047 9.0257630050182325 81.782500743865967 7.9465502202510825 35.24252487719059 51.719954892992973 4.6670673489570609 25.722582370042801 4.9830471426248533 6.3767904192209226 90.319672390818596 16.565388977527618 17.997246280312538 55.017357230186462 17.427822440862656 34.250567361712456 4.470330134034155 24.394028007984165 5.3543573617935181 4.7974408268928528 38.940239295363426 7.9820288419723502 31.645093962550163 116.97005124390125 84.909971565008163 4.8845053315162659 5.2729810327291471 5.6497649550437927 152.43764048814774 10.852941200137137 6.8828314989805213 4.7099262028932563
leaf_count=91 29 258 47 30 21 173 264 179 32 931 53 72 160 27 24 163 107 37 365 33 147 220 20 110 21 26 385 67 74 226 75 162 20 111 22 21 171 39 133 511 390 21 26 28 778 55 31 20
internal_value=0 -0.0703315 -0.00871552 0.151342 -0.0752131 -0.0504168 0.0906757 0.0846286 0.0415038 -0.01714 -0.151521 0.0256301 -0.0163254 0.208378 0.114179 0.215255 0.124888 -0.106683 0.132519 -0.0499709 -0.106151 -0.187632 0.203629 0.0250794 0.17985 -0.147797 -0.164452 -0.0613118 0.0010607 -0.0925751 0.156983 0.112709 0.0652232 -0.188875 -0.00510744 0.014351 0.196822 0.208181 -0.266273 -0.180348 -0.171049 0.137704 0.243115 0.156559 0.24643 0.172869 -0.233986 -0.284121
internal_weight=0 1083.34 616.47 501.035 369.483 328.033 246.986 231.944 171.127 264.811 466.866 143.475 101.369 269.091 95.2402 262.976 42.1061 213.736 89.5111 75.8868 43.1891 63.2219 60.8171 32.6977 103.511 111.077 99.3454 102.659 34.5626 68.0968 93.5244 51.6784 14.0219 253.13 11.7311 9.78049 93.7305 41.846 41.4504 233.157 201.88 9.35484 46.7952 10.9227 169.452 17.0139 31.2769 36.355
internal_count=7006 4643 2619 2363 1545 1371 1074 1034 740 1104 2024 597 418 1329 421 1302 179 890 397 319 180 267 294 139 477 470 422 420 141 279 439 237 61 1134 48 42 435 202 174 1043 901 41 233 54 863 85 142 153
is_linear=0
shrinkage=0.2


Tree=4
num_leaves=49
num_cat=0
split_feature=27 10 7 7 8 27 0 0 5 27 8 8 7 7 7 8 8 8 7 149 10 7 7 9 29 1 0 24 6 76 8 24 3 8 5 11 0 53 0 99 5 29 27 97 8 22 29 53
split_gain=295.372 95.9433 82.8366 82.6575 43.7842 33.0944 29.0578 24.4061 23.9156 17.8167 17.2079 42.263 31.1719 37.3266 14.8316 14.4416 13.6215 23.5857 12.8223 9.89109 8.59696 8.19395 7.99505 6.3855 6.35095 6.17068 7.47176 6.64891 6.13641 6.55883 5.72948 5.83471 5.67786 4.74986 8.33777 4.59565 4.49866 4.42619 3.38028 3.22131 2.67589 2.33074 2.30588 5.08936 2.46568 1.84779 1.1574 0.820638
threshold=0.0057315826416015634 410.50000000000006 3.5000000000000004 3.5000000000000004 3.5000000000000004 0.012901306152343752 42.500000000000007 7.5000000000000009 1.0000000180025095e-35 0.0015072822570800783 15.500000000000002 5.5000000000000009 7.5000000000000009 4.5000000000000009 8.5000000000000018 26.500000000000004 20.500000000000004 14.500000000000002 8.5000000000000018 1.0000000180025095e-35 134.50000000000003 9.5000000000000018 7.5000000000000009 2.5000000000000004 0.08252913132309915 986.50000000000011 19.500000000000004 -1549.4999999999998 1.0000000180025095e-35 1.0000000180025095e-35 25.500000000000004 -3571.4999999999995 1.5000000000000002 3.5000000000000004 1.0000000180025095e-35 423.50000000000006 6.5000000000000009 1.0000000180025095e-35 9.5000000000000018 786731.50000000012 1.0000000180025095e-35 0.074487421661615386 0.0010509490966796877 502.50000000000006 6.5000000000000009 12650516.500000002 0.0092133576981723326 1.0000000180025095e-35
decision_type=2 2 2 2 2 2 2 2 2 2 2 2 2 2 2 2 2 2 2 2 2 2 2 2 2 2 2 10 2 2 2 10 2 2 2 2 2 2 2 2 2 2 2 2 2 2 2 2
left_child=1 2 4 20 24 10 7 -6 16 38 11 18 13 -12 15 -10 17 -4 -5 30 33 -14 -18 -13 -1 26 27 -22 29 -21 31 -11 41 34 -2 -30 -35 -26 -3 -16 -34 -27 44 -44 -40 46 -7 -38
right_child=3 9 8 5 6 45 -8 -9 14 19 12 23 21 -15 39 -17 22 -19 -20 28 25 -23 -24 -25 37 32 -28 -29 35 -31 -32 -33 40 36 -36 -37 47 -39 42 -41 -42 -43 43 -45 -46 -47 -48 -49
leaf_value=0.040717198585812978 0.22057042660214865 -0.25145345814221626 -0.077931719078172951 0.16066957749611016 -0.16031416992119074 0.095015926806663542 -0.23840018753025904 0.11467122516812117 -0.11767660858129472 -0.23069693834894145 -0.20421218770282984 -0.25037704483489626 -0.23848965689048091 0.24474403679647183 -0.23377611704249782 0.08919160188075316 0.011003654387293133 0.16357742332225478 -0.13614818844234275 -0.15852173248655643 -0.069258229780195593 -0.024508211626974793 -0.27229568448414326 -0.006661851824562884 -0.11572709317880901 0.033654670416922598 0.24636337279090884 0.15184808053764554 -0.081903893165104866 -0.072034368076057495 0.16195272809471586 -0.020332563981838213 0.19405661757025267 0.020655757322344058 -0.080556761901588697 0.10297066581552348 0.24517103898495549 -0.28501359452696201 -0.11074681354361958 -0.10961437269533691 0.036520582001592361 -0.15313862845595944 -0.15871877259463169 -0.061608891781154876 -0.19608483139262689 0.073084152259394172 0.23887576187094137 0.197763932509191
leaf_weight=5.8805451840162268 7.9450400918722135 17.881974920630455 32.05414380133152 23.02842861413956 12.81649276614189 4.2569995969533947 9.617680147290228 264.18519906699657 85.153595834970474 4.9265238195657721 8.5745635777711851 34.90763121843338 10.766665220260622 35.540252342820168 50.180163323879242 15.334765017032622 6.4412323832511893 30.98951655626297 6.9455894976854315 93.166768670082092 6.6324734389781979 19.162562862038612 9.2835722714662534 4.9433937519788733 19.295777499675751 4.7660077810287493 30.395475745201111 21.220803737640381 12.674051448702814 59.907327145338058 5.3179330825805655 59.574357569217682 9.255777969956398 4.2260545641183844 5.6776742488145828 8.0303646177053434 137.86994342505932 10.217490032315256 21.305429950356483 12.9205906689167 8.3781397938728333 4.5190721601247787 86.232076704502106 30.844740748405457 80.326091274619102 5.1142361015081397 24.182954847812653 47.961753070354462
leaf_count=25 42 91 133 96 59 25 40 1180 363 21 37 145 46 163 226 63 27 133 29 406 32 82 38 21 81 22 152 107 52 259 22 248 47 20 27 33 780 42 103 58 36 20 404 146 390 25 142 267
internal_value=0 -0.0589562 -0.00301285 0.132335 0.0633914 0.0246957 0.0893703 0.101476 -0.0911514 -0.12458 -0.0173594 -0.0880341 0.0495417 0.155173 -0.13455 -0.0856032 -0.000525391 0.0414069 0.0899521 -0.086088 0.198173 -0.10614 -0.161866 -0.220949 -0.144024 0.141915 0.178289 0.0986846 -0.111536 -0.125285 -0.0221434 -0.0393153 0.0600256 0.220979 0.0978177 -0.00891285 0.22931 -0.180948 -0.163742 -0.210227 0.124549 -0.0626906 -0.155583 -0.133791 -0.179309 0.200812 0.220872 0.233935
internal_weight=0 1044.56 564.371 466.271 322.013 177.423 286.619 277.002 242.358 480.188 143.869 69.825 74.044 44.1148 163.589 100.488 78.7685 63.0437 29.974 243.597 288.848 29.9292 15.7248 39.851 35.3938 85.1678 58.2488 27.8533 173.779 153.074 69.8188 64.5009 26.919 203.68 13.6227 20.7044 190.058 29.5133 236.59 63.1008 17.6339 9.28508 218.708 117.077 101.632 33.5542 28.44 185.832
internal_count=7006 4643 2468 2363 1427 811 1279 1239 1041 2175 619 291 328 200 710 426 331 266 125 1041 1552 128 65 166 148 416 291 139 750 665 291 269 125 1136 69 85 1067 123 1134 284 83 42 1043 550 493 192 167 1047
is_linear=0
shrinkage=0.2


Tree=5
num_leaves=47
num_cat=0
split_feature=27 12 7 5 7 0 3 7 27 8 8 12 8 8 7 7 27 12 8 0 8 0 4 7 25 29 97 0 18 22 99 8 3 22 99 79 8 22 0 99 11 25 29 22 18 53
split_gain=210.412 66.0111 63.9009 58.6428 33.2567 26.8199 28.0596 25.6638 25.003 11.8495 15.6784 11.8271 11.5437 28.4603 21.8388 27.0259 10.4645 8.89733 8.396 7.70986 8.05767 7.8244 7.73719 7.68147 6.33307 6.16443 5.86425 5.59931 4.89194 3.98714 3.89546 3.26188 3.01425 2.08376 1.80881 1.75191 4.19258 1.71029 1.50262 1.74339 5.17486 1.60256 1.10121 0.589111 0.269093 0.0112905
threshold=0.0057315826416015634 473.50000000000006 3.5000000000000004 1.0000000180025095e-35 8.5000000000000018 42.500000000000007 10.500000000000002 2.5000000000000004 0.012901306152343752 20.500000000000004 14.500000000000002 257.50000000000006 15.500000000000002 6.5000000000000009 7.5000000000000009 4.5000000000000009 0.0012507438659667971 113.50000000000001 3.5000000000000004 10.500000000000002 4.5000000000000009 28.500000000000004 1.0000000180025095e-35 8.5000000000000018 -802.49999999999989 0.16248067468404773 76.500000000000014 39.500000000000007 1483.0361328125002 10355224.500000002 599373.00000000012 8.5000000000000018 3.5000000000000004 8897355.0000000019 786731.50000000012 1.0000000180025095e-35 9.5000000000000018 12650516.500000002 9.5000000000000018 824134.50000000012 235.50000000000003 885.00000000000011 0.0092133576981723326 13976693.000000002 1541.9500732421877 1.0000000180025095e-35
decision_type=2 2 2 2 2 2 2 2 2 2 2 2 2 2 2 2 2 2 2 2 2 2 2 2 8 2 2 2 2 2 2 2 2 2 2 2 2 2 2 2 2 10 2 2 2 2
left_child=1 3 17 7 5 6 -5 11 12 10 -9 30 13 23 15 -14 38 35 -13 22 21 -21 -19 -4 -18 -16 -11 -22 -26 -30 -1 -7 -15 44 -35 43 -37 42 -3 40 -40 -41 -10 -2 -6 -38
right_child=2 16 8 4 33 31 -8 9 37 26 -12 18 14 32 25 -17 24 19 -20 20 27 -23 -24 -25 28 -27 -28 -29 29 -31 -32 -33 -34 34 -36 36 45 -39 39 41 -42 -43 -44 -45 -46 -47
leaf_value=0.20687828219820062 0.22786638836008907 -0.23800223166001824 0.1280759282181505 0.0056255309207913148 -0.25878007459432562 -0.088961966985186824 -0.24053957923186184 -0.054478381621358957 0.083414435871791065 -0.29388789862546444 0.12113843804243729 -0.11253030917560598 -0.1737408617592964 -0.23951538450635113 -0.16570091225930281 0.21728074358171545 0.10514332875542261 0.11276312226998192 0.09167009964274625 -0.060215497800244558 0.19027818967702537 0.2309786081908799 -0.18570718274853104 -0.09379065510577346 0.09273892687796137 0.013411396424235181 -0.064557251043434544 -0.016558419814268973 -0.080282454015805638 -0.14154620092283374 0.031527105594407794 -0.25088521928065011 -0.11585173066804258 -0.16305963431798046 -0.034887699263271114 -0.0050324137047312208 0.21319062929607735 0.062502642691191823 -0.178777668263573 -0.20019012277048387 -0.068235832063233665 -0.12843537469625868 0.2249645866877521 0.095606152284752749 -0.1862309506737384 0.11365034563570826
leaf_weight=51.203017055988312 115.64675682783127 10.083572342991827 22.651106640696529 258.9674017727375 14.6161822527647 8.1579127460718173 19.057835891842842 45.86590164899826 4.0287855118513169 6.3253160864114788 35.140767827630043 8.1591599881649 8.253634184598921 20.437494590878487 16.346846923232082 32.473347052931786 5.9359031617641449 7.6148911267518979 82.821648865938187 12.06757737696171 85.424145638942719 4.2846082150936118 4.9884703159332275 7.7679725587368003 4.8818241506814948 13.649064257740973 13.548601686954497 5.4284490644931784 163.09530521929264 60.614911556243896 6.0035137087106696 21.315943419933319 17.448894008994102 19.088555783033375 6.3851726651191703 5.3621474504470852 12.132678017020224 4.9531378000974646 33.629527866840363 41.42416425049305 36.8077332675457 29.028316110372543 20.942688673734665 3.1476856619119635 26.073135122656822 3.6475860476493827
leaf_count=274 751 58 97 1102 70 36 85 189 25 26 155 34 37 87 70 163 27 38 380 59 475 23 22 33 21 58 56 27 742 282 29 98 74 93 30 33 81 25 175 215 187 152 142 20 127 23
internal_value=0 -0.0496732 0.117457 -0.00936623 -0.0594201 -0.031491 -0.0119606 0.0656709 0.0215306 -0.0121309 0.0221919 0.118392 -0.014506 -0.0726838 0.0418876 0.13602 -0.114613 0.179567 0.0724465 0.137543 0.154806 0.0240519 -0.00982112 0.0703655 -0.0875807 -0.0861574 -0.146996 0.177879 -0.0929728 -0.0973761 0.189239 -0.209981 -0.186519 -0.187087 -0.13319 0.214452 0.147974 0.184547 -0.155848 -0.148514 -0.122582 -0.172592 0.205777 0.225097 -0.217263 0.197464
internal_weight=0 1008.23 428.698 622.73 373.662 307.499 278.025 249.068 168.953 100.881 81.0067 148.187 139.028 68.3055 70.7229 40.727 385.501 259.745 90.9808 119.808 107.205 16.3522 12.6034 30.4191 234.528 29.9959 19.8739 90.8526 228.592 223.71 57.2065 29.4739 37.8864 66.163 25.4737 139.937 21.1424 29.9246 150.973 140.89 70.4373 70.4525 24.9715 118.794 40.6893 15.7803
internal_count=7006 4643 2363 2784 1641 1321 1187 1143 811 426 344 717 619 291 328 200 1859 1552 414 644 584 82 60 130 1072 128 82 502 1045 1024 303 134 161 320 123 908 137 192 787 729 362 367 167 771 197 104
is_linear=0
shrinkage=0.2


Tree=6
num_leaves=41
num_cat=0
split_feature=10 10 5 77 24 8 0 9 27 13 5 27 0 24 0 8 8 10 0 9 45 97 29 79 18 0 26 18 8 8 78 98 56 28 8 0 10 0 97 0
split_gain=155.461 62.4009 45.9218 25.4283 24.5842 29.5098 20.5753 15.7579 14.2997 13.1033 11.7666 11.2831 10.5391 10.4598 7.73089 7.09028 7.26668 6.76258 6.33417 6.06227 6.03561 6.0247 5.29715 5.04488 4.99102 3.43651 2.88203 3.4671 2.6324 2.05615 1.94363 2.19342 2.16559 2.5802 1.91273 1.14018 0.536182 0.356583 0.0457318 0.0351352
threshold=134.50000000000003 410.50000000000006 1.0000000180025095e-35 1.0000000180025095e-35 1015.5000000000001 16.500000000000004 7.5000000000000009 1.0000000180025095e-35 0.012901306152343752 214.50000000000003 1.0000000180025095e-35 0.0015072822570800783 9.5000000000000018 -211.49999999999997 42.500000000000007 20.500000000000004 15.500000000000002 279.50000000000006 42.500000000000007 1.0000000180025095e-35 1.0000000180025095e-35 133.50000000000003 0.22745981812477115 1.0000000180025095e-35 1492.2069091796877 9.5000000000000018 0.00018309988081455233 1508.781921386719 20.500000000000004 26.500000000000004 1.0000000180025095e-35 113.50000000000001 1.0000000180025095e-35 5.8227136135101327 1.5000000000000002 21.500000000000004 501.50000000000006 40.500000000000007 21.500000000000004 9.5000000000000018
decision_type=2 2 2 2 10 2 2 2 2 2 2 2 2 10 2 2 2 2 2 2 2 2 2 2 2 2 2 2 2 2 2 8 2 2 2 2 2 2 2 2
left_child=8 2 3 7 5 9 -7 13 10 -4 30 25 22 -2 19 16 -6 28 20 -14 24 -9 -12 -19 -13 -3 35 -28 -5 -17 32 -32 38 -34 -10 -27 -20 39 -1 -36
right_child=1 11 4 17 15 6 -8 21 34 -11 12 18 14 -15 -16 29 -18 23 36 -21 -22 -23 -24 -25 -26 26 27 -29 -30 -31 31 -33 33 -35 37 -37 -38 -39 -40 -41
leaf_value=0.15812950918079285 0.047168765294929679 -0.22095347316140584 0.13372984682482808 0.20974005814641583 -0.11372224659630768 -0.21759303714183359 0.096913185146904668 0.046669341718459413 0.031865875065908079 -0.073668605099173071 0.020884063482966307 0.111961000123994 0.02501651412914618 -0.097434124867076102 -0.11620501953771101 -0.24107092098963992 0.02770943646100444 0.10611558579033242 -0.24034957556819397 0.13982030564095752 0.1085873991484405 0.1644548356645863 -0.25751467150822605 -0.09796594032524622 -0.063538141568704423 -0.11258025981362199 -0.046758755082663611 -0.12062067406699035 0.1047121661155611 -0.1205055843515422 0.15859361430697921 -0.011554453633003059 0.18004217600860564 0.047329867222388307 0.12059664166161144 -0.21952623160787055 -0.12610993516650965 0.095073101711788593 0.22924522405997197 0.21337730430437737
leaf_weight=10.86867995560169 32.371131375432014 14.155695825815199 12.390949428081511 49.934246510267258 65.45375482738018 8.188293054699896 106.29497173428535 60.024021342396736 2.9229847043752661 157.86987316608429 4.8229548782110196 5.9087204635143271 29.953940644860268 49.775302335619926 6.7033680677413932 18.122076079249386 18.2173952460289 31.510845795273781 6.0794718414545041 48.761265695095062 8.2592847198247892 24.252548649907112 5.0708777606487274 4.9786749780178061 204.31512556970119 10.074753418564798 33.236967608332634 134.37859919667244 15.368307828903196 12.753310069441794 5.4257799014449102 5.6119162887334824 13.965119808912279 11.061047464609144 4.0692956894636145 14.874887228012083 7.9246422946453094 3.2119110301136962 24.761825077235699 82.971819274127483
leaf_count=70 146 91 59 322 293 39 485 279 20 706 21 24 151 214 30 84 81 157 31 291 36 108 23 24 912 57 177 724 95 59 35 30 91 63 28 85 38 23 165 639
internal_value=0 -0.0324255 0.00611272 0.0699907 -0.0368561 -0.00527666 0.0729165 0.0215747 0.139136 -0.0579593 0.103168 -0.0908897 0.0563003 -0.040556 0.0791524 -0.114713 -0.0829613 0.148276 -0.0602891 0.0968999 -0.0514377 0.0819264 -0.131262 0.0766043 -0.0581551 -0.124899 -0.116856 -0.106298 0.186759 -0.196033 0.164024 0.077667 0.17839 0.125019 0.202021 -0.181695 -0.18708 0.207167 0.211926 0.210302
internal_weight=0 1106.71 667.506 268.215 399.291 284.744 114.483 166.423 260.183 170.261 167.007 439.208 95.3124 82.1464 85.4186 114.547 83.6712 101.792 232.487 78.7152 218.483 84.2766 9.89383 36.4895 210.224 206.721 192.565 167.616 65.3026 30.8754 71.6944 11.0377 60.6567 25.0262 93.176 24.9496 14.0041 90.253 35.6305 87.0411
internal_count=7006 5326 3151 1345 1806 1289 524 747 1680 765 970 2175 516 360 472 517 374 598 1041 442 972 387 44 181 936 1134 1043 901 417 143 454 65 389 154 710 142 69 690 235 667
is_linear=0
shrinkage=0.2


Tree=7
num_leaves=49
num_cat=0
split_feature=27 12 7 7 8 0 9 7 12 0 6 8 7 8 0 8 0 5 97 9 75 5 81 12 29 8 8 27 97 98 1 7 25 8 72 147 97 99 27 4 18 18 25 97 18 98 99 69
split_gain=111.805 40.5217 48.3627 36.1945 25.3197 23.5679 27.9389 25.2408 19.6567 16.8653 13.383 12.3383 11.6689 10.5748 8.15248 8.70408 8.93488 7.63757 6.86689 6.77483 6.70055 6.51366 6.23938 5.16543 5.95253 5.8957 5.08346 4.87856 4.64189 4.27562 4.05108 4.61614 4.32087 4.26695 3.75803 5.034 3.47683 3.34882 3.21225 3.00874 1.94058 1.89948 1.78477 1.50368 1.27527 0.796688 0.57541 0.287724
threshold=0.0069198608398437509 613.50000000000011 2.5000000000000004 7.5000000000000009 1.5000000000000002 39.500000000000007 1.0000000180025095e-35 4.5000000000000009 358.50000000000006 7.5000000000000009 1.0000000180025095e-35 6.5000000000000009 9.5000000000000018 5.5000000000000009 42.500000000000007 3.5000000000000004 7.5000000000000009 1.0000000180025095e-35 81.500000000000014 1.5000000000000002 1.0000000180025095e-35 1.0000000180025095e-35 1.0000000180025095e-35 888.50000000000011 0.41477975249290472 6.5000000000000009 10.500000000000002 0.0015277862548828127 233.50000000000003 123.50000000000001 4322.5000000000009 6.5000000000000009 500.50000000000006 12.500000000000002 1.0000000180025095e-35 1.0000000180025095e-35 558.50000000000011 241378.50000000003 0.0080337524414062517 2.5000000000000004 1536.4956665039065 1533.2187500000002 -117.49999999999999 249.50000000000003 1543.755798339844 1135.5000000000002 81603.000000000015 1.0000000180025095e-35
decision_type=2 2 2 2 2 2 2 2 2 2 2 2 2 2 2 2 2 2 2 2 2 2 2 2 2 2 2 2 2 10 2 2 8 2 2 2 2 2 2 2 2 2 10 2 2 10 2 2
left_child=1 2 4 14 34 6 7 -4 10 -8 -6 18 19 37 15 21 20 40 38 47 -17 46 30 24 27 36 -10 -24 -26 -18 31 45 -33 -32 35 -1 -25 -7 -5 -15 -14 -35 -19 -27 -40 -3 -2 -13
right_child=3 22 5 11 8 13 9 -9 26 -11 -12 12 17 39 -16 16 29 42 -20 -21 -22 -23 23 25 28 43 -28 -29 -30 -31 33 32 -34 41 -36 -37 -38 -39 44 -41 -42 -43 -44 -45 -46 -47 -48 -49
leaf_value=0.052818660154956169 0.17617454059491411 -0.17828416039411379 -0.2145285172438185 0.0078089599533906961 0.072804121020469736 0.1230957570944235 -0.25493732477798686 -0.045111292256853341 0.05060188106773459 0.033984110272755531 0.21019342799202226 -0.18829017606682436 0.031073811333072056 -0.21207451678467393 -0.072115610986688242 -0.19199072239219869 0.19542329404589343 -0.16033597196637786 -0.093457677822683882 -0.0014892579356560658 0.14498167951167473 -0.11269660489559144 -0.17415170225317878 0.099112009709115143 -0.054313188133648799 -0.21941060047725675 -0.031717730465273444 0.042056740031377444 0.065343026055901116 0.10388069145899792 -0.17124625708678551 -0.17235861883595882 0.0058811488679289051 -0.030361250649576302 -0.28554720532333294 -0.19889207103585516 -0.1099811482532978 -0.079729781823566256 0.25919104507373081 -0.034100201166791078 0.21041008500837283 0.16102812426950389 -0.0080489931682363996 -0.12272559064416295 0.098000965174673924 -0.056974742753038668 0.047176680509096319 -0.32546333736081512
leaf_weight=4.9874531477689761 4.6752628833055478 73.069870099425316 46.135369777679443 4.2645942419767442 183.93803539127111 5.0441185384988767 7.573826164007186 142.50796118378639 44.883216664195061 181.27003349363804 33.19891694188118 7.3264382407069224 4.456110917031765 50.056789234280586 5.6900951117277137 4.0680291950702658 152.40215230733156 5.8321800976991653 4.9835471361875525 5.2673648521304122 3.648746483027935 7.4185872077941895 16.099745139479641 6.4004071801900846 26.592625573277473 11.529811501502989 86.24302239716053 5.1368045657873145 23.669759944081306 27.431429162621498 3.6976318806409818 8.1657865643501264 13.48995363712311 3.5249640494585037 7.039829120039939 6.6156782507896423 4.7604747265577316 6.3454291373491287 7.6848198026418668 4.5124833136796942 5.4916525632143021 3.4449087381362915 5.8626894950866699 27.882578447461128 4.6480182036757469 3.3035258203744879 2.9732196182012558 6.1141460463404655
leaf_count=22 32 443 205 18 967 23 39 655 195 820 179 33 23 251 28 19 1216 27 23 27 23 36 94 36 129 70 384 24 114 161 21 46 78 20 30 28 28 30 46 23 32 20 27 166 27 20 19 29
internal_value=0 -0.0292703 -0.0081735 0.114906 0.0454808 -0.0525691 -0.033098 -0.0873558 0.0577787 0.0212574 0.0945808 -0.0191377 -0.0838603 -0.162083 0.15467 0.161326 0.173025 0.0167146 0.100408 -0.195696 -0.0341402 0.0141746 -0.103037 -0.0711397 -0.0358208 -0.119592 -0.00338967 -0.122265 0.00219196 0.182039 -0.137992 -0.150634 -0.0654707 -0.0191717 -0.176433 -0.0946349 0.00839413 0.0125028 0.160408 -0.198139 0.139208 0.0717429 -0.0899505 -0.155222 0.209106 -0.173752 0.136154 -0.266996
internal_weight=0 1041.12 810.352 270.239 366.906 443.446 377.487 188.643 348.263 188.844 217.137 61.9316 40.3506 65.9588 208.308 202.617 187.55 21.6426 21.581 18.7079 7.71678 15.0671 230.769 122.072 71.4989 50.5733 131.126 21.2365 50.2624 179.834 108.697 98.0291 21.6557 10.6675 18.643 11.6031 11.1609 11.3895 16.5974 54.5693 9.94776 6.96987 11.6949 39.4124 12.3328 76.3734 7.64848 13.4406
internal_count=7006 5160 3851 1846 1805 2046 1719 860 1725 859 1146 312 198 327 1534 1506 1419 109 114 89 42 87 1309 661 361 300 579 118 243 1377 648 587 124 61 80 50 64 53 91 274 55 40 54 236 73 463 51 62
is_linear=0
shrinkage=0.2


Tree=8
num_leaves=45
num_cat=0
split_feature=10 27 6 5 77 9 27 130 99 25 147 26 27 5 0 10 18 18 25 128 18 0 25 24 10 10 69 3 0 83 99 26 22 24 24 8 0 26 28 25 99 8 22 8
split_gain=80.8254 31.9734 28.1032 23.5409 14.4659 14.033 12.7235 11.6378 9.45011 9.42604 8.9143 8.6958 8.33174 7.31346 7.6938 7.05192 6.34683 5.90461 5.61713 5.16827 5.12606 4.77944 4.31884 4.06284 3.88087 3.44643 3.23699 2.99023 2.70664 2.63981 2.94886 2.73915 2.5885 3.31415 5.66945 1.93785 1.8516 2.25864 9.52283 2.00863 1.42957 0.544432 0.389893 0.344761
threshold=134.50000000000003 0.0026140213012695317 1.0000000180025095e-35 1.0000000180025095e-35 1.0000000180025095e-35 2.5000000000000004 0.012901306152343752 1.0000000180025095e-35 284964.00000000006 27.500000000000004 1.0000000180025095e-35 1.0000000180025095e-35 0.0012507438659667971 1.0000000180025095e-35 17.500000000000004 507.50000000000006 1588.9014892578127 1507.7000732421877 -39.499999999999993 1.0000000180025095e-35 1504.9614868164065 10.500000000000002 158.50000000000003 -298.49999999999994 348.50000000000006 255.50000000000003 1.0000000180025095e-35 1.5000000000000002 11.500000000000002 1.0000000180025095e-35 86719.000000000015 0.001098298002034426 11159066.000000002 296.50000000000006 786.50000000000011 25.500000000000004 9.5000000000000018 0.0013183921691961589 0.66459339857101452 999.50000000000011 22522.000000000004 2.5000000000000004 12746298.000000002 19.500000000000004
decision_type=2 2 2 2 2 2 2 2 2 10 2 2 2 2 2 2 2 2 10 2 2 2 10 10 2 2 2 2 2 2 2 2 2 8 10 2 2 2 2 10 2 2 2 2
left_child=6 12 3 4 7 11 10 -3 24 -7 29 -5 36 14 15 -14 -10 20 -16 23 -15 -21 -19 40 28 -6 -23 -25 -4 30 35 -32 41 43 -35 -1 -2 39 -39 -38 -12 -8 -36 -34
right_child=1 2 8 5 25 9 32 -9 16 -11 19 -13 13 17 18 -17 -18 22 -20 21 -22 26 -24 27 -26 -27 -28 -29 -30 -31 31 -33 33 34 42 -37 37 38 -40 -41 -42 -43 -44 -45
leaf_value=0.17676287946293912 -0.20730334333465772 0.22609677040332565 0.059370139310101738 0.22999313698162652 0.15783282411635774 0.14259810094622827 0.085152057302786632 -0.0099778602018172485 -0.12436816796607141 -0.048414997238759812 0.14011007933259736 -0.060097266225551497 0.012262866679031823 -0.040154420317171001 -0.075042649635335981 -0.11336073282928752 0.13904462913225851 -0.045344917090004537 0.049750064874406391 -0.084089088339404192 0.15743299803444899 0.14570878021660769 -0.11913968948780163 -0.19306306333944709 -0.020271556587366207 0.065468390336178961 0.037275724019608499 -0.029242909238677235 0.2006699889595483 0.21666723732286425 0.081009365343107986 -0.10038563188346668 0.20292445060643802 -0.18755285699658791 0.044043991373853231 0.040619594673109834 -0.14743234694128002 -0.092533901305206084 0.20622260171825785 -0.06051401681044475 0.0027766639507743295 0.20936562656423857 0.17428658023922192 0.082940762474832744
leaf_weight=22.06321915239096 6.951678901910781 8.083942696452139 7.2746515274047843 3.3393885046243659 39.508241325616837 25.046262234449387 3.168258808553218 120.25646033883095 8.2390001565217954 16.589375898241997 5.0553405806422216 287.36631052941084 29.573383972048759 18.746091224253181 17.302779495716095 43.687709398567677 5.2319634407758704 52.274849504232407 69.645145371556282 6.0078822299838057 6.2888439744710913 24.064958848059177 86.75410508364439 5.2398362085223225 3.9551703482866278 30.350054636597633 21.158164255321026 17.928380012512207 42.032214745879173 12.759120643138884 15.569646418094637 3.3713415041565886 7.2515799850225431 2.8426513001322773 2.3372490555047989 5.8871226757764807 46.332506418228149 48.857386067509651 3.8337888568639746 16.077918626368046 6.2639962881803513 49.770110465586185 2.5725177899003029 3.1999981477856636
leaf_count=163 58 40 36 16 308 118 27 548 39 77 32 1347 125 91 78 224 25 261 318 28 31 170 442 26 18 170 144 89 227 118 104 18 70 22 22 46 301 305 21 102 32 517 22 30
internal_value=0 -0.0228176 0.00745106 -0.00801271 0.0464159 -0.0405095 0.111222 0.00634379 0.128882 0.0670689 0.0765213 -0.0560746 -0.0632575 -0.046274 -0.01574 -0.0631106 -0.0197894 -0.0758454 0.0244084 0.0346054 0.0131734 0.0744026 -0.0918568 -0.0248966 0.166191 0.119031 0.0966722 -0.0720533 0.181242 0.135364 0.109625 0.0456723 0.18031 0.106657 0.00526415 0.150221 -0.107719 -0.100163 -0.0677384 -0.126204 0.0698426 0.203459 0.12853 0.175562
internal_weight=0 1043.6 597.273 530.54 198.199 332.341 216.511 128.34 66.733 41.6356 145.369 290.706 446.326 324.273 160.209 73.2611 13.471 164.064 86.9479 85.7186 25.0349 51.231 139.029 34.4876 53.262 69.8583 45.2231 23.1682 49.3069 59.6505 46.8913 18.941 71.1424 18.204 7.75242 27.9503 122.053 115.102 52.6912 62.4104 11.3193 52.9384 4.90977 10.4516
internal_count=7006 5326 2969 2624 1066 1558 1680 588 345 195 970 1363 2357 1570 745 349 64 825 396 521 122 342 703 179 281 478 314 115 263 449 331 122 710 166 66 209 787 729 326 403 64 544 44 100
is_linear=0
shrinkage=0.2


Tree=9
num_leaves=39
num_cat=0
split_feature=12 0 12 7 13 7 56 5 7 12 98 98 99 153 3 1 1 29 7 11 5 0 1 99 0 12 80 29 18 99 1 18 18 99 2 98 9 12
split_gain=58.1738 29.7503 29.5618 31.6782 19.8926 18.8464 17.9225 10.0716 13.934 7.31839 7.10691 5.54132 4.89348 4.87859 5.8253 4.3681 4.10224 3.4941 3.40467 3.37505 3.30309 5.11034 3.03907 3.31178 2.9877 6.01866 2.94168 2.42504 2.20257 1.78056 1.64317 1.29889 1.20115 1.095 0.768405 0.50474 0.369823 5.61746
threshold=119.50000000000001 42.500000000000007 613.50000000000011 8.5000000000000018 255.50000000000003 7.5000000000000009 1.0000000180025095e-35 1.0000000180025095e-35 9.5000000000000018 62.500000000000007 22.500000000000004 77.500000000000014 2002516.5000000002 1.0000000180025095e-35 7.5000000000000009 4322.5000000000009 25.500000000000004 1.2770671844482424 6.5000000000000009 5442.0000000000009 1.0000000180025095e-35 13.500000000000002 561.50000000000011 223467.00000000003 56.500000000000007 207.50000000000003 1.0000000180025095e-35 0.062086144462227828 1637.1624755859377 944786.50000000012 7593.5000000000009 1538.5252075195315 1557.2766723632815 24608.000000000004 1.5000000000000002 317.50000000000006 1.0000000180025095e-35 40.500000000000007
decision_type=2 2 2 2 2 2 2 2 2 2 8 10 2 2 2 2 2 2 2 2 2 2 2 2 2 2 2 2 2 2 2 2 2 2 2 8 2 2
left_child=5 2 3 4 10 11 -6 8 -5 -7 -2 30 -9 14 17 18 -11 -4 -15 -17 28 -22 33 -24 26 -26 31 -23 34 -27 36 35 -33 -18 -13 -3 37 -1
right_child=1 24 13 7 6 9 -8 12 -10 16 -12 20 -14 15 -16 19 22 -19 -20 -21 21 27 23 -25 25 29 -28 -29 -30 -31 -32 32 -34 -35 -36 -37 -38 -39
leaf_value=-0.045080525809258087 0.17332561111539019 -0.26523710985283117 -0.095623677787788464 -0.27865931442280217 0.043943942280806524 0.17328212667400322 -0.025627117103918975 -0.14496226916372851 0.023483061351812193 -0.23161655644916254 0.042029086032719064 0.20077124105662436 0.071834789078417963 -0.14648927147759255 0.13009623562351477 0.1383673038166221 0.0013664699027209634 -0.020606316008678092 -0.048268305598129294 -0.083656699057011175 -0.10875146397826646 0.010199545006541922 -0.13492688769965308 0.043981092711720446 0.084248350576872633 -0.22895402473091242 -0.028724736235189414 0.13789726069572802 0.0033397262585672279 -0.058314890067485331 -0.0044741539848080743 -0.028843333178292775 -0.16752848004950804 0.12593190125908388 0.059308249556815268 -0.15740380004051277 0.20941941954785906 0.19842856119362523
leaf_weight=4.279455333948138 44.756868362426758 14.285734280943872 50.117698274552822 6.1404485255479804 346.09899801760912 6.1268141344189635 257.65483181923628 67.180393561720848 45.741939634084702 3.527257643640044 26.937573336064816 15.520342431962495 3.9202526509761801 64.407459534704685 6.156097635626792 4.1272175908088666 6.181561082601549 49.614923693239689 19.482893563807011 5.1720495000481606 5.5018612295389202 9.4789296239614504 11.014249324798586 5.8040203750133506 5.6737696230411556 5.6033462136983854 4.93005447089672 15.797620937228201 3.2073254957795134 5.222150444984436 1.6956927999854077 3.6132208406925193 12.116513527929781 4.337723396718502 2.7263232469558707 8.3226365894079191 44.180366173386574 19.878381386399269
leaf_count=48 281 78 308 26 1702 61 1239 362 199 17 162 145 21 459 35 23 35 278 121 34 31 64 54 27 27 34 27 120 27 32 17 20 69 22 28 49 513 211
internal_value=0 -0.0163351 -0.00805824 0.00915489 0.0261752 0.113006 0.0142601 -0.0838414 -0.0163646 -0.0119054 0.125112 0.150612 -0.13227 -0.0768279 -0.0468418 -0.110136 -0.0524846 -0.0588154 -0.124423 0.0183547 0.0985332 0.0540551 -0.0228111 -0.0740762 -0.152333 -0.074177 -0.180045 0.0919813 0.157657 -0.157302 0.187733 -0.198413 -0.138916 0.0585377 0.183368 -0.232992 0.192498 0.155223
internal_weight=0 1057.28 997.51 798.431 675.448 159.258 603.754 122.983 51.8824 36.9916 71.6944 122.266 71.1006 199.078 105.889 93.1896 30.8648 99.7326 83.8904 9.29927 52.2324 30.7784 27.3376 16.8183 59.7674 16.4993 43.2682 25.2766 21.454 10.8255 70.0339 38.3381 15.7297 10.5193 18.2467 22.6084 68.3382 24.1578
internal_count=7006 5586 5250 3992 3384 1420 2941 608 225 216 443 1204 383 1258 621 637 155 586 580 57 415 215 138 81 336 93 243 184 200 66 789 216 89 57 173 127 772 259
is_linear=0
shrinkage=0.2


Tree=10
num_leaves=36
num_cat=0
split_feature=10 0 10 4 82 4 4 6 3 10 24 26 13 10 97 0 24 76 28 2 0 97 10 25 4 10 97 5 0 22 69 97 1 25 29
split_gain=54.797 18.2405 18.7989 16.6479 16.1636 14.66 14.4941 12.9911 10.001 8.91252 7.41685 7.60104 8.25116 6.84743 6.6209 6.38845 6.3672 6.37669 12.3778 8.28814 5.80414 4.7303 4.42431 3.00112 2.26839 2.51861 2.5951 2.07919 3.24528 1.81585 1.73755 1.07848 3.75505 0.269689 0.0427046
threshold=175.50000000000003 42.500000000000007 365.50000000000006 1.5000000000000002 1.0000000180025095e-35 2.5000000000000004 1.0000000180025095e-35 1.0000000180025095e-35 10.500000000000002 93.500000000000014 9374.5000000000018 0.00085873782518319796 1078.5000000000002 271.50000000000006 77.500000000000014 12.500000000000002 -10217.999999999998 1.0000000180025095e-35 13.832320690155031 1.0000000180025095e-35 11.500000000000002 22.500000000000004 788.50000000000011 -950.99999999999989 1.5000000000000002 501.50000000000006 81.500000000000014 1.0000000180025095e-35 17.500000000000004 13705672.000000002 1.0000000180025095e-35 67.500000000000014 957.50000000000011 -388.49999999999994 220.00000000000003
decision_type=2 2 2 2 2 2 2 2 2 2 8 2 2 2 2 2 10 2 2 2 2 2 2 10 2 2 2 2 2 2 2 2 2 8 2
left_child=4 2 3 6 9 15 8 -8 -2 20 11 14 -13 -7 -11 -5 -4 18 -18 -19 21 -1 24 -22 31 26 -26 29 -29 34 -25 32 -3 -30 -6
right_child=1 22 16 5 27 13 7 -9 -10 10 -12 12 -14 -15 -16 -17 17 19 -20 -21 23 -23 -24 30 25 -27 -28 28 33 -31 -32 -33 -34 -35 -36
leaf_value=0.095336960705068308 0.041522961261035982 -0.22283511568010017 -0.22869667827835605 -0.037506990840360091 0.20777276488242122 0.071684799928534035 -0.070477654015405927 0.12117990772109272 -0.16696624622162243 0.035650181881997117 -0.22772343584853424 0.018567280901225908 -0.17332034538974225 -0.17472970542976163 0.15632774475648925 0.20117225995463947 -0.075150663571354359 0.013123784740781495 0.20004127505808672 -0.072462392877158846 -0.039599789829242199 -0.19479216516226 0.031606290287238735 0.18057179804863974 -0.022682244422471545 0.049433393582446694 -0.19255107283865014 -0.011474546765502793 0.073824155703577782 -0.0023648656955750618 0.10137091488524275 -0.23023351446226981 0.044646681742872361 0.21402476375316445 0.089605480673770513
leaf_weight=3.8558190315961829 190.43177331984043 4.0879626944661167 6.7527272999286643 4.8031470999121657 36.837273567914963 8.7412870377302188 134.17387180030346 14.990448571741579 8.8025455027818662 46.935835868120193 3.507270783185958 102.13437522947788 8.929718464612959 7.7063668966293326 29.567045882344246 36.818866930902004 214.74854942411184 126.55139043927193 5.9098631069064131 69.385102830827236 3.3286443427205077 3.4645234644412994 4.9848734810948363 29.986251451075077 5.8490847274661091 3.2063588798046103 9.692831523716448 6.3257759362459165 2.0924934446811676 1.7653391137719143 25.000511549413204 18.151265747845173 3.19647566229105 4.3106048330664635 2.0260242596268645
leaf_count=33 964 24 38 27 428 46 628 75 48 267 19 602 47 39 166 200 1202 657 30 403 36 26 36 347 36 21 61 37 17 20 272 112 20 35 23
internal_value=0 -0.0248132 -0.0177203 0.0129915 0.0728597 0.111278 -0.00363179 -0.0506135 0.0316114 0.0516814 0.0295693 0.0354309 0.00188661 -0.0468068 0.0835488 0.173421 -0.047173 -0.0437504 -0.0670078 -0.0173742 0.114798 -0.048193 -0.142081 0.135675 -0.161914 -0.10123 -0.133304 0.172237 0.0917918 0.194937 0.146746 -0.201718 -0.113365 0.182782 0.203752
internal_weight=0 878.985 829.816 406.468 310.068 58.0697 348.399 149.164 199.234 256.71 191.074 187.567 111.064 16.4477 76.5029 41.622 423.348 416.595 220.658 195.936 65.6357 7.32034 49.1689 58.3154 44.184 18.7483 15.5419 53.3575 12.7289 40.6286 54.9868 25.4357 7.28444 6.4031 38.8633
internal_count=7042 4667 4357 2027 2375 312 1715 703 1012 1815 1101 1082 649 85 433 227 2330 2292 1232 1060 714 59 310 655 274 118 97 560 89 471 619 156 44 52 451
is_linear=0
shrinkage=0.2


Tree=11
num_leaves=43
num_cat=0
split_feature=27 7 7 10 5 8 8 6 69 8 8 8 13 97 0 5 3 7 5 0 75 98 98 98 7 5 72 25 28 99 8 5 25 18 9 8 10 27 0 98 3 158
split_gain=38.712 20.4361 19.7913 15.604 15.9782 11.5776 19.0596 10.1874 9.79932 7.97767 7.67018 12.4674 6.31037 5.93729 5.83152 7.38457 5.75549 5.22227 7.62509 5.18897 5.14388 4.85673 5.08276 4.42241 4.36879 4.73087 4.26428 4.08339 3.5893 3.95009 3.14994 2.92455 2.48315 1.92119 1.63248 6.99395 1.37159 1.23044 0.918735 0.477014 0.246863 0.109338
threshold=0.0068264007568359384 10.500000000000002 3.5000000000000004 365.50000000000006 1.0000000180025095e-35 20.500000000000004 26.500000000000004 1.0000000180025095e-35 1.0000000180025095e-35 3.5000000000000004 15.500000000000002 6.5000000000000009 150.50000000000003 272.50000000000006 11.500000000000002 1.0000000180025095e-35 3.5000000000000004 7.5000000000000009 1.0000000180025095e-35 24.500000000000004 1.0000000180025095e-35 -129.49999999999997 105.50000000000001 135.50000000000003 1.5000000000000002 1.0000000180025095e-35 1.0000000180025095e-35 -445.49999999999994 13.832320690155031 49834.000000000007 18.500000000000004 1.0000000180025095e-35 -306.49999999999994 1509.4332275390627 1.0000000180025095e-35 25.500000000000004 253.50000000000003 0.0074901580810546884 41.500000000000007 99.500000000000014 2.5000000000000004 -4.4999999999999991
decision_type=2 2 2 2 2 2 2 2 2 2 2 2 2 2 2 2 2 2 2 2 2 8 10 10 2 2 2 10 2 2 2 2 10 2 2 2 2 2 2 10 2 2
left_child=1 3 9 4 12 10 39 8 -6 24 11 23 40 -14 15 41 -13 37 -19 -8 28 -22 -23 -4 25 -2 -9 -3 29 -5 -30 -29 -17 -33 35 -16 -35 -12 -36 -7 -1 -11
right_child=2 27 5 20 7 6 19 26 -10 14 17 16 13 -15 34 32 -18 18 -20 -21 21 22 -24 -25 -26 -27 -28 31 30 -31 -32 33 -34 36 38 -37 -38 -39 -40 -41 -42 -43
leaf_value=0.11493405348683874 0.18985954538770303 0.042266781812150794 0.15687200046361738 -0.01353143359859973 0.0041223320437817415 -0.36995183956669964 0.18435105547883079 0.16040870240745864 -0.072845592576769355 0.19093627577678629 0.061669345099255757 -0.16040893240832121 0.055712677850719476 -0.12217506237541881 0.15352099975957087 0.035255041303613552 0.026450149119686225 0.14484349774106342 -0.18665397455461769 -0.078095009071845148 -0.18104274550631308 0.03068190469988992 -0.034355378222495778 -0.076277537940177942 -0.19551939218201 -0.070217477276417278 0.003359805113640927 -0.29103542184928449 0.15078437636140615 -0.081495861450874396 -0.070194538347693985 -0.014476275569436509 -0.18784176610451581 -0.053884554948751752 0.19797730306775668 -0.17596205308913559 -0.20252456326120416 0.2209008026891971 0.040902353423916876 -0.19390582965090858 0.22562221706115138 0.064660082847212821
leaf_weight=4.7143218070268613 4.3400472328066808 2.9459237977862349 16.542270649224523 44.177208013832569 161.45950727164745 4.899260453879835 5.823323152959345 16.414372555911541 111.11555404216051 4.9567929282784462 3.2239005342125955 16.366777658462528 173.07857079803944 7.0262333601713172 27.347246252000335 2.8429073393344879 10.311665780842302 6.018015578389166 3.7555912435054779 4.7728092819452286 6.1117583513259888 73.19655142724514 136.19794426858425 3.4325922578573218 2.9825421869754782 5.2901729568839073 11.584749557077886 8.7428118139505404 5.1144682243466359 156.97802568227053 3.8162774816155434 4.088144704699519 4.3171298168599606 4.0510041415691402 55.926034927368164 2.1001649387180796 12.289375200867651 13.85772782191634 2.0696594156324855 5.392752580344677 7.3957929834723473 1.5900720432400683
leaf_count=33 44 17 106 243 788 24 42 85 527 58 17 87 991 34 289 18 56 41 17 32 35 399 742 15 18 28 56 38 27 947 21 25 24 26 728 25 82 135 19 26 58 19
internal_value=0 -0.0164878 0.0785644 -0.01092 0.0132998 0.0106404 -0.117733 -0.0154989 -0.0273884 0.134406 0.0480891 -0.00140591 0.0581978 0.0482075 0.152961 0.0294637 -0.0896595 0.131365 0.0125251 0.0692403 -0.0389332 -0.0171163 -0.0115872 0.115265 -0.0146656 0.0531259 0.0975302 -0.171119 -0.0611467 -0.0666948 0.0585479 -0.19328 -0.105146 -0.141061 0.171828 0.125559 -0.170352 0.195382 0.193073 -0.30044 0.19333 0.171655
internal_weight=0 950.499 208.159 918.381 492.789 94.3967 20.8881 300.574 272.575 113.763 73.5085 46.6533 192.215 180.105 101.15 13.7069 26.6784 26.8552 9.77361 10.5961 425.592 215.506 209.394 19.9749 12.6128 9.63022 27.9991 32.1173 210.086 201.155 8.93075 29.1713 7.16004 20.4285 87.4431 29.4474 16.3404 17.0816 57.9957 10.292 12.1101 6.54686
internal_count=7042 5174 1868 4986 2572 598 124 1456 1315 1270 474 264 1116 1025 1180 119 143 210 58 74 2414 1176 1141 121 90 72 141 188 1238 1190 48 171 42 133 1061 314 108 152 747 50 91 77
is_linear=0
shrinkage=0.2


Tree=12
num_leaves=44
num_cat=0
split_feature=27 7 7 0 0 12 4 22 8 8 8 8 27 97 8 24 12 7 126 9 7 9 7 127 8 12 26 0 147 27 0 4 98 13 98 1 18 27 69 99 56 98 158
split_gain=27.8084 15.0201 14.1365 12.0103 14.4636 14.572 12.8072 11.3507 8.3752 12.9436 6.8625 12.2744 8.5241 7.85908 6.60023 6.19213 5.03783 4.92264 4.71795 5.77138 4.64688 6.30007 5.30735 4.57659 4.86686 4.34607 4.27207 6.10778 5.61204 4.04471 3.927 3.55114 3.44643 2.39858 1.4487 2.67288 0.852205 0.721645 0.482795 1.66618 0.444832 0.433051 0.240006
threshold=0.0069198608398437509 10.500000000000002 3.5000000000000004 12.500000000000002 41.500000000000007 365.50000000000006 1.5000000000000002 11159066.000000002 20.500000000000004 26.500000000000004 14.500000000000002 8.5000000000000018 0.0091323852539062517 74.500000000000014 4.5000000000000009 -8142.9999999999991 159.50000000000003 7.5000000000000009 1.0000000180025095e-35 1.0000000180025095e-35 1.0000000180025095e-35 1.5000000000000002 6.5000000000000009 1.0000000180025095e-35 20.500000000000004 488.50000000000006 0.0015936265117488804 11.500000000000002 1.0000000180025095e-35 0.0054779052734375009 30.500000000000004 1.0000000180025095e-35 87.500000000000014 214.50000000000003 221.50000000000003 833.50000000000011 1548.4461059570315 0.0074901580810546884 1.0000000180025095e-35 390439.50000000006 1.0000000180025095e-35 271.50000000000006 -1015.4999999999999
decision_type=2 2 2 2 2 2 2 2 2 2 2 2 2 2 2 10 2 2 2 2 2 2 2 2 2 2 2 2 2 2 2 2 10 2 8 2 2 2 2 2 2 8 2
left_child=1 3 14 7 5 6 -5 20 10 42 11 13 -13 -4 18 -7 -6 37 19 -2 21 -1 -22 -9 -25 -18 38 28 -28 34 40 36 -19 -29 -3 -36 -20 -12 -16 -40 -11 -37 -10
right_child=2 29 8 4 16 15 -8 23 9 30 17 12 -14 -15 26 -17 25 32 31 -21 22 -23 -24 24 -26 -27 27 33 -30 -31 -32 -33 -34 -35 35 41 -38 -39 39 -41 -42 -43 -44
leaf_value=-0.066614035912891431 0.066981743763551468 -0.2390841634654835 0.14709099291696431 0.022584443300950666 0.10652027933230557 -0.21309261348509786 0.12985439156076756 0.19410220785392687 -0.14586986965017071 0.059615462261999277 0.075814588509663425 0.018445862983380905 -0.25771914833590043 -0.1043484958404118 0.22273414351674053 -0.016564778905587021 -0.13505494232538084 0.16195411797863243 0.21824462742236236 -0.29154856102849197 -0.14203952233263514 0.13507366401349008 -0.040898486022905495 -0.041860648668677815 0.12871390810172098 -0.013134191539786009 0.12559844353306479 0.19253836591022069 -0.18481214248392477 0.051242668504273087 -0.087890345549252902 -0.043323122870116651 -0.060658617422183606 0.082469594488782064 -0.014990754238485796 -0.074745126034085271 0.043252911054683707 0.20897141995732002 0.17346566664160912 -0.0064660013978532146 0.19071522539803332 -0.2063143600302666 -0.29045481248407334
leaf_weight=25.851892463862896 2.9047147184610376 9.9741678610444069 18.423244152218107 313.09922683984041 4.2549701631069174 5.6696183159947386 51.137863755226135 5.5294973552227011 4.0740639045834541 2.8269225880503637 3.4045329689979615 8.0051112622022647 8.9287665113806707 5.9831689298152915 21.27010541036725 310.83270931243896 43.956972986459732 3.280236039310692 4.1908062696456909 2.8959241695702076 61.956074893474579 7.1898711621761313 32.389522813260555 22.068738177418712 8.5587296560406667 16.099042989313602 3.2600399553775778 15.454143058508633 4.5641478635370731 3.1691344678401938 3.8769732527434826 4.7990273386240005 7.505218505859375 20.16053743287921 5.9108356013894179 2.7029933556914241 2.0983107872307301 13.315689899027346 15.056977842003109 2.2920281589031211 3.6215878166258335 8.2971054464578682 6.0312399268150347
leaf_count=160 35 59 129 1614 19 35 305 32 20 25 18 38 46 29 277 1746 266 32 34 16 333 42 178 127 49 110 46 247 26 16 23 33 35 278 35 20 20 142 211 23 26 58 29
internal_value=0 -0.0133865 0.0706718 -0.00871116 0.00208357 0.0106892 0.0379241 -0.0576338 0.0127133 -0.0971374 0.0461347 -0.00574127 -0.132755 0.0839516 0.122388 -0.0206717 -0.0879125 0.121844 0.00799086 -0.126957 -0.0855776 -0.02034 -0.108022 0.0405084 0.00808981 -0.10304 0.145595 0.0991664 -0.055857 -0.150425 0.0591016 0.0827671 0.0142165 0.133754 -0.175075 -0.127276 0.172437 0.18705 0.194414 0.150537 0.147418 -0.181984 -0.248658
internal_weight=0 938.649 188.224 908.595 745.05 680.739 364.237 163.544 89.2768 20.4308 68.846 41.3403 16.9339 24.4064 98.9468 316.502 64.311 27.5057 16.8888 5.80064 127.387 33.0418 94.3456 36.157 30.6275 60.056 82.058 43.4389 7.82419 30.0542 10.3255 11.0881 10.7855 35.6147 26.8851 16.9109 6.28912 16.7202 38.6191 17.349 6.44851 11.0001 10.1053
internal_count=7042 5204 1838 5016 4095 3700 1919 921 592 123 469 242 84 158 1246 1781 395 227 138 51 713 202 511 208 176 376 1108 597 72 188 74 87 67 525 172 113 54 160 511 234 51 78 49
is_linear=0
shrinkage=0.2


Tree=13
num_leaves=33
num_cat=0
split_feature=13 27 9 83 7 4 148 98 26 22 3 77 54 12 98 22 24 25 7 98 7 42 24 99 22 27 22 24 25 98 99 29
split_gain=20.9883 13.5698 25.0015 15.4906 8.74208 7.93953 6.87252 8.87178 6.14206 5.57948 5.56426 5.67296 5.66158 5.43529 5.1174 4.85652 4.73682 4.676 3.50066 3.6527 2.23188 2.5123 1.82916 1.64943 1.42623 1.40449 1.37664 1.3764 1.34847 0.873123 1.54257 0.825069
threshold=150.50000000000003 0.0044345855712890634 2.5000000000000004 1.0000000180025095e-35 10.500000000000002 1.5000000000000002 1.0000000180025095e-35 443.50000000000006 0.0063898416701704272 12650516.500000002 4.5000000000000009 1.0000000180025095e-35 1.0000000180025095e-35 580.50000000000011 18.500000000000004 4485494.0000000009 452.50000000000006 -211.49999999999997 6.5000000000000009 170.50000000000003 8.5000000000000018 1.0000000180025095e-35 -285.49999999999994 -180264.99999999997 511758.50000000006 0.0039443969726562509 5931794.0000000009 321.50000000000006 106.50000000000001 366.50000000000006 1279004.5000000002 9.8430447578430194
decision_type=2 2 2 2 2 2 2 10 2 2 2 2 2 2 10 2 10 10 2 8 2 2 10 2 2 2 2 10 10 10 2 2
left_child=13 4 3 5 6 15 7 9 26 -2 11 -8 -12 20 -10 -3 -9 -7 24 27 21 23 -23 -1 -4 29 -5 -20 -26 -6 -31 -25
right_child=1 2 18 8 25 17 10 16 14 -11 12 -13 -14 -15 -16 -17 -18 -19 19 -21 -22 22 -24 31 28 -27 -28 -29 -30 30 -32 -33
leaf_value=0.053700086679305259 0.010534079583072157 0.017199097632711116 -0.010613193869558045 0.21781809914451317 -0.20595420159453309 0.15122655795794049 -0.068311294142802001 -0.1388184489551377 0.12904811332753938 0.10498720373477176 0.038073240321896719 3.5651325043641697e-06 -0.059792743187875752 -0.17347401877639118 -0.18702426698092561 -0.046265157269461059 -0.022782476501295695 0.013433690919348302 0.17340753590179186 -0.11393637943252638 0.0094579975364263956 0.10347151523357152 -0.12248340614810292 0.20516365555086802 0.19472128856589652 -0.019521611285264705 0.11692508570945107 0.019835314162090632 0.018679477769059382 0.012423045097409945 -0.17845894658044628 0.10913926023711538
leaf_weight=5.3040221631526938 217.91542349010706 68.266379188746214 1.4310119375586499 11.872706238180401 10.997133091092115 15.408050667494534 198.29417274147272 20.626634895801544 2.9479076005518428 27.415476068854332 65.857974581420422 64.325089812278748 35.730235926806927 1.5934018045663823 3.5885138511657715 160.32581351324916 41.983776103705168 25.40126121789217 5.318244416266678 3.0819794386625281 4.8826300315558901 2.3053757473826408 1.7117710001766671 25.582831528037786 37.417541716247797 3.0919877365231505 18.118076529353857 4.1526267677545547 2.0320512428879729 3.0907821431756011 2.5899827107787132 8.2585817873477918
leaf_count=30 1162 438 16 119 79 109 1103 126 30 147 375 369 197 10 31 1008 251 170 37 15 25 28 19 340 403 19 179 25 13 24 21 124
internal_value=0 -0.0053389 0.0261507 0.00393731 -0.0217062 -0.01277 -0.0177426 0.00425165 0.124538 0.0214298 -0.036304 -0.0516349 0.00343228 0.126621 -0.0460914 -0.0273191 -0.0624168 0.0675721 0.151188 0.053856 0.139542 0.15377 0.00244461 0.1689 0.179294 -0.149908 0.161983 0.113546 0.186264 -0.171871 -0.0869663 0.18512
internal_weight=0 1051.28 359.362 305.929 691.919 269.402 672.149 307.941 36.5272 245.331 364.207 262.619 101.588 49.6386 6.53642 228.592 62.6104 40.8093 53.4335 12.5529 48.0452 43.1626 4.01715 39.1454 40.8806 19.7699 29.9908 9.47087 39.4496 16.6779 5.68076 33.8414
internal_count=7042 6466 2593 2084 3873 1725 3730 1686 359 1309 2044 1472 572 576 61 1446 377 279 509 77 566 541 47 494 432 143 298 62 416 124 45 464
is_linear=0
shrinkage=0.2


Tree=14
num_leaves=37
num_cat=0
split_feature=13 8 8 0 7 7 7 7 8 10 8 97 7 8 7 10 7 98 97 75 13 81 22 97 13 10 22 147 18 0 10 10 151 22 98 22
split_gain=15.3342 14.1667 28.2305 21.1246 17.98 16.902 28.2129 34.5028 14.8919 16.2146 13.7543 12.1976 10.9528 27.9129 14.3944 9.79417 13.9602 6.60032 6.59735 6.46791 5.61002 5.53216 5.46418 5.37338 5.3404 4.30484 4.06867 3.01248 2.86307 3.95375 2.43418 2.16529 2.59912 2.12382 1.75113 0.0757798
threshold=150.50000000000003 14.500000000000002 20.500000000000004 11.500000000000002 1.0000000180025095e-35 7.5000000000000009 6.5000000000000009 3.5000000000000004 3.5000000000000004 392.50000000000006 27.500000000000004 23.500000000000004 7.5000000000000009 6.5000000000000009 4.5000000000000009 442.50000000000006 5.5000000000000009 231.50000000000003 143.50000000000003 1.0000000180025095e-35 398.50000000000006 1.0000000180025095e-35 12568279.500000002 46.500000000000007 459.50000000000006 580.50000000000011 3850040.5000000005 1.0000000180025095e-35 1511.1829223632815 9.5000000000000018 237.50000000000003 380.50000000000006 1.0000000180025095e-35 8147883.5000000009 154.50000000000003 12132234.000000002
decision_type=2 2 2 2 2 2 2 2 2 2 2 2 2 2 2 2 2 8 2 2 2 2 2 2 2 2 2 2 2 2 2 2 2 2 10 2
left_child=25 4 3 23 8 6 7 -4 27 18 -8 17 14 -14 -13 16 -5 20 -10 22 -6 -17 -7 -3 -11 28 -19 -2 35 -30 -25 32 -31 -29 -21 -1
right_child=1 2 5 15 11 19 10 -9 9 24 -12 12 13 -15 -16 21 -18 26 -20 34 -22 -23 -24 30 -26 -27 -28 33 29 31 -32 -33 -34 -35 -36 -37
leaf_value=0.23159570304859103 -0.30227205448583672 0.061708909747212271 0.0073278282759164553 0.15296695997656992 -0.03485089764458172 -0.10838984255234912 0.002753090322599217 -0.2417892370916441 0.1779412495724626 -0.1999617051459677 0.28071861237030576 -0.068469483498848016 0.073293619118851724 -0.12331968624657673 -0.21560519547166956 -0.036281853099438516 0.0070020431665547755 0.072449272414936802 0.018633079005559321 -0.30383928400961602 0.13139832434582996 0.073503764453441353 0.093533218889337078 -0.040825658199477102 0.0078524942220142818 -0.16130421978306461 -0.078222495399720926 0.016816103146558882 -0.11289364433937657 -0.017486040060109013 -0.1875701732223343 -0.036026985623472896 0.15528136732283027 -0.17722741142513745 -0.14279993414516767 0.091766037948304291
leaf_weight=8.5416044984012824 3.7594860494136793 6.272522900253537 141.10375293716788 110.94298380613327 11.020323071628807 32.964798793196678 11.366929121315481 25.500577718019485 40.674587527289987 4.488498017191886 18.252836175262928 188.66708328202367 64.59988946095109 50.797410327941179 30.494697127491236 30.154161594808102 34.346788078546524 9.1642376631498319 14.16655673086643 7.3604863509535781 26.917118929326534 44.423070281744003 5.6617641150951377 7.3372557274997261 61.161674797534943 1.4529829993844021 24.738459520041943 4.1330995932221413 2.7030134573578826 3.8623802699148717 14.089722193777559 3.0977209508419028 23.650965405628085 3.7353302091360092 8.5893590897321683 1.8444723412394513
leaf_count=121 20 39 983 768 68 203 68 134 439 22 99 1069 353 300 159 201 194 52 96 34 183 260 30 40 350 10 127 23 24 52 89 14 332 21 42 23
internal_value=0 -0.00424323 0.0200393 0.0678358 -0.0267113 -0.0272137 0.000339669 -0.0318821 0.037205 0.0583984 0.177232 -0.0475261 -0.0635541 -0.0135356 -0.0897299 0.0885934 0.118713 0.0269806 0.137742 -0.124698 0.0834126 0.0292091 -0.0773555 -0.094563 -0.0088352 0.113711 -0.0366846 -0.170966 0.125886 0.092929 -0.140945 0.113774 0.13124 -0.0839335 -0.229223 0.215949
internal_weight=0 1036.89 498.367 247.567 538.518 250.801 196.224 166.604 132.119 120.491 29.6198 406.399 334.559 115.397 219.162 219.867 145.29 71.8401 54.8411 54.5764 37.9374 74.5772 38.6266 27.6995 65.6502 45.1531 33.9027 11.6279 43.7002 33.3141 21.427 30.6111 27.5133 7.86843 15.9498 10.3861
internal_count=7042 6466 3184 1591 3282 1593 1284 1117 971 907 167 2311 1881 653 1228 1423 962 430 535 309 251 461 233 168 372 576 179 64 566 422 129 398 384 44 76 144
is_linear=0
shrinkage=0.2


Tree=15
num_leaves=43
num_cat=0
split_feature=27 24 4 99 0 8 8 7 98 8 29 25 7 18 98 8 24 8 8 10 97 5 7 0 8 160 8 22 25 22 74 8 8 7 10 24 22 0 22 25 99 158
split_gain=12.6326 9.49613 9.34766 8.82815 8.80309 8.50772 10.2015 7.56475 6.73366 6.72926 5.62546 4.89308 4.83972 4.69998 5.40107 4.53449 6.94589 4.43907 7.22453 6.51543 4.48403 4.47749 4.51641 3.72754 4.60182 4.19571 3.38638 3.09008 3.58632 2.93996 3.92853 3.48633 2.71608 3.01204 2.43978 2.31355 2.10605 1.14775 0.616043 0.42697 0.310577 0.661613
threshold=0.0071678161621093759 -8142.9999999999991 1.5000000000000002 2485136.0000000005 41.500000000000007 12.500000000000002 20.500000000000004 3.5000000000000004 871.50000000000011 7.5000000000000009 0.16248067468404773 429.00000000000006 3.5000000000000004 1645.8510742187502 197.50000000000003 20.500000000000004 -1088.9999999999998 14.500000000000002 8.5000000000000018 111.50000000000001 74.500000000000014 1.0000000180025095e-35 7.5000000000000009 10.500000000000002 3.5000000000000004 433.50000000000006 14.500000000000002 4231458.5000000009 -126.49999999999999 9607096.0000000019 1.0000000180025095e-35 5.5000000000000009 23.500000000000004 6.5000000000000009 115.50000000000001 -2617.4999999999995 9226593.0000000019 38.500000000000007 9226593.0000000019 -270.49999999999994 390439.50000000006 -5461.4999999999991
decision_type=2 10 2 2 2 2 2 2 8 2 2 10 2 2 8 2 10 2 2 2 2 2 2 2 2 2 2 2 8 2 2 2 2 2 2 10 2 2 2 8 2 2
left_child=1 12 4 8 5 9 -7 10 11 -3 29 -4 27 36 -15 17 -17 18 20 -20 -9 35 -23 34 -25 -26 -10 -1 -29 40 31 -31 -18 -34 -12 -19 -6 38 -5 -32 -2 -42
right_child=7 2 3 37 13 6 -8 15 26 -11 23 -13 -14 14 -16 16 32 21 19 -21 -22 22 -24 24 25 -27 -28 28 -30 30 39 -33 33 -35 -36 -37 -38 -39 -40 -41 41 -43
leaf_value=-0.18316249179998756 0.20650396980331034 -0.011672049034062715 0.058462114682753231 -0.19685404735252926 -0.18293917527813175 0.03864959685809425 -0.026697729920013586 0.12557106464135481 0.084465351278686651 -0.072582970714393166 0.039722404489402514 -0.049348986494984967 -0.26932280593264324 0.19176487255211402 -0.099690494401444715 0.15416670511647484 -0.27578722618436302 -0.023624402636860671 -0.21555114496761019 0.033324324464301634 -0.073913166535646391 0.097286548497367245 -0.15607087839900888 -0.092313210255349956 0.1282994092695135 -0.14302984154466225 0.32635910961204456 -0.14394021485181305 0.096911397703707963 -0.065891248850545661 -0.011909820610490939 0.18350559176058984 -0.21857919474890194 -0.00014500306593082622 -0.18949548723253617 0.21490537842359922 -0.063817428783693356 -0.01652944305255865 -0.057942026020463215 -0.15258554217313972 0.15135455118862232 -0.010475485515881927
leaf_weight=4.4886027798056629 20.466891711577777 201.83838215097785 106.23091518133879 5.3049484416842443 19.080348826944832 221.25982575491071 166.87620410695672 14.731300950050356 5.7467056438326818 112.75205063447356 2.8688730224966994 19.2773712053895 6.7714668065309516 3.3949171304702741 5.3965641483664513 3.2925758920609978 3.5067696422338477 1.7074275724589831 8.5887012779712659 7.1928623914718619 5.6534851640462866 6.8276455383747816 3.5431535467505455 5.0606711730361011 23.409130129963163 1.7846910841763008 4.2990700826048851 3.042050939053297 5.7882931977510435 2.4234276413917533 1.5527485851198433 8.6904860734939557 2.9904430508613569 7.2393572889268398 3.3118931092321873 10.394297886639832 10.370011433959005 3.3309896215796462 2.8544034510850906 1.6552496999502175 1.8056438062340023 1.4442662671208371
leaf_count=28 379 1101 648 34 128 1270 960 120 40 645 35 128 38 17 40 26 19 18 46 35 28 66 17 37 439 25 27 20 39 26 22 159 14 53 18 118 75 23 20 18 27 16
internal_value=0 -0.00840033 -0.00525301 0.0406594 -0.014402 -0.00924878 0.0105572 0.0540624 0.0551191 -0.033646 0.0989195 0.0416725 -0.141403 -0.106738 0.0201264 0.00927784 -0.0790574 0.0357278 -0.00797784 -0.106388 0.0694703 0.103695 0.00524428 0.0412401 0.0701891 0.104863 0.206085 -0.0635958 0.00836641 0.151966 0.0737914 0.128272 -0.140927 -0.0763594 -0.0914782 0.181937 -0.14409 -0.121641 -0.158717 -0.101841 0.194806 0.0926244
internal_weight=0 908.103 888.013 147.044 740.968 702.726 388.136 150.142 135.554 314.59 74.474 125.508 20.0904 38.2418 8.79148 75.668 17.0291 58.6389 36.1663 15.7816 20.3848 22.4725 10.3708 36.4353 30.2545 25.1938 10.0458 13.3189 8.83034 38.0387 14.3219 11.1139 13.7366 10.2298 6.18077 12.1017 29.4504 11.4903 8.15935 3.208 23.7168 3.24991
internal_count=7042 5281 5156 920 4236 3976 2230 1761 843 1746 1201 776 125 260 57 560 112 448 229 81 148 219 83 554 501 464 67 87 59 647 225 185 86 67 53 136 203 77 54 40 422 43
is_linear=0
shrinkage=0.2


Tree=16
num_leaves=29
num_cat=0
split_feature=12 6 70 97 0 8 8 7 18 56 8 1 26 24 4 27 7 1 97 24 12 24 22 8 22 22 53 0
split_gain=9.30553 9.15821 8.78843 8.49483 7.8275 7.24326 11.7549 9.04111 6.19489 5.98572 5.39939 4.31178 9.48645 4.74708 4.29359 5.10605 6.15946 4.61714 4.18089 4.74088 7.44964 3.41719 2.26081 2.2039 3.02256 3.20735 0.752434 0.411597
threshold=62.500000000000007 1.0000000180025095e-35 1.0000000180025095e-35 100.50000000000001 6.5000000000000009 14.500000000000002 20.500000000000004 1.0000000180025095e-35 1704.243103027344 1.0000000180025095e-35 4.5000000000000009 1405.5000000000002 0.0024242460494861011 2325.0000000000005 1.5000000000000002 0.0026779174804687504 5.5000000000000009 41.500000000000007 109.50000000000001 1319.5000000000002 733.50000000000011 3250.5000000000005 8222689.0000000009 1.5000000000000002 11159066.000000002 12057520.000000002 1.0000000180025095e-35 23.500000000000004
decision_type=2 2 2 2 2 2 2 2 2 2 2 2 2 10 2 2 2 2 2 10 2 10 2 2 2 2 2 2
left_child=23 2 4 14 10 7 -7 -6 11 -10 -2 12 -4 -13 15 17 -17 -3 -5 20 -20 -21 -12 -1 -25 -26 -27 -16
right_child=1 3 8 18 5 6 -8 -9 9 -11 22 13 -14 -15 27 16 -18 -19 19 21 -22 -23 -24 24 25 26 -28 -29
leaf_value=-0.10052943889576181 0.094127291137507133 -0.12777238907994412 0.025636431797642956 -0.16398562197694394 0.03966025199772253 0.060449112876836297 -0.01261421677495041 -0.032630324689206049 0.22416842014264954 -0.057128726997540374 -0.076074160376979061 -0.17876143914915535 -0.10236006293271319 -0.041782714683257012 0.096277510790795384 0.169013017231292 -0.0013279799034950461 0.12063630222096698 0.033610591762323658 0.2242538072099437 -0.14268075021454379 -0.010621195717375617 -0.22257281579038313 0.19778958052333037 -0.16735180457783774 0.16137158138229701 -0.0059855944464915559 0.27771056908193781
leaf_weight=0.93179108947515743 3.5498742386698749 7.0764770284295064 43.846000967547297 4.8573461193591347 89.24669455178082 174.19819381833076 176.74068571254611 297.88538038730621 5.2132559753954393 5.4350597858428955 9.4484944008290785 22.878968873992562 47.536213461309671 18.831374263390899 1.9765112660825241 25.9618518371135 12.398161333054302 3.9522483050823212 36.990633070468903 5.719867527484892 11.955846808850763 3.8405930027365685 9.4944920502603036 13.278686741366984 1.5888015553355206 2.643871434032917 1.4558757543563841 5.1225289534777403
leaf_count=10 20 39 276 29 670 1119 1157 1745 35 31 67 134 309 110 20 238 66 21 205 30 99 20 60 370 29 58 23 52
internal_value=0 -0.00236571 -0.00926501 0.049376 -0.000670625 0.00293502 0.0237138 -0.0159123 -0.0544564 0.0872456 -0.114602 -0.0662967 -0.0412906 -0.119079 0.105125 0.0812824 0.115174 -0.0363964 -0.00108936 0.0146845 -0.0112264 0.137018 -0.156181 0.132799 0.148245 0.0215024 0.111457 0.243519
internal_weight=0 1024.16 904.305 119.852 760.564 738.071 350.939 387.132 143.741 10.6483 22.4929 133.093 91.3822 41.7103 56.4878 49.3887 38.36 11.0287 63.3643 58.5069 48.9465 9.56046 18.943 19.899 18.9672 5.68855 4.09975 7.09904
internal_count=7042 6552 5733 819 4838 4691 2276 2415 895 66 147 829 585 244 436 364 304 60 383 354 304 50 127 490 480 110 81 72
is_linear=0
shrinkage=0.2


Tree=17
num_leaves=36
num_cat=0
split_feature=13 9 99 8 160 26 4 4 26 8 22 160 0 13 8 8 160 26 98 10 0 102 11 10 9 0 0 0 14 22 0 98 22 8 14
split_gain=9.44661 7.87129 10.2765 6.80373 7.26531 7.68083 6.71433 7.668 7.82537 5.55237 5.26946 5.21779 5.17823 4.96876 4.91547 4.61695 4.60049 8.21777 4.43034 4.29995 4.35396 3.83332 4.00335 3.45157 2.76454 4.03147 2.97446 1.94485 1.91851 1.57788 3.74554 1.33902 1.57262 0.69393 0.192233
threshold=133.50000000000003 1.0000000180025095e-35 467261.00000000006 7.5000000000000009 1970.0000000000002 0.00035707910137716686 1.5000000000000002 1.0000000180025095e-35 0.0018467236659489574 14.500000000000002 13310866.500000002 -672.49999999999989 35.500000000000007 13652.000000000002 7.5000000000000009 17.500000000000004 4944.5000000000009 0.00033692758006509399 25.500000000000004 968.50000000000011 43.500000000000007 -632.49999999999989 4289.0000000000009 580.50000000000011 1.5000000000000002 23.500000000000004 26.500000000000004 9.5000000000000018 7593.5000000000009 4929147.5000000009 31.500000000000004 -413.49999999999994 13567828.000000002 3.5000000000000004 1.0000000180025095e-35
decision_type=2 2 2 2 2 2 2 2 2 2 2 2 2 2 2 2 2 2 10 2 2 2 2 2 2 2 2 2 2 2 2 8 2 2 2
left_child=23 3 6 11 10 13 7 12 -9 -7 15 34 -3 -6 24 -5 17 -13 -12 20 -8 22 -16 27 25 -4 -26 -1 -18 30 33 -31 -33 -29 -2
right_child=1 2 14 4 5 9 19 8 -10 -11 18 16 -14 -15 21 -17 28 -19 -20 -21 -22 -23 -24 -25 26 -27 -28 29 -30 31 -32 32 -34 -35 -36
leaf_value=-0.031958551296536318 -0.19835688677466984 0.058420575026708332 -0.22887657391054789 -0.090754956489570937 -0.036704925368266986 -0.006935881828757518 0.12489263056080435 0.044917670736300173 -0.054481014691862076 0.22531189520856665 -0.11945578833182302 0.19933714961129323 -0.041940342610344176 0.16518068291008095 -0.04132679992134089 -0.033511984985010138 -0.2091227636860109 0.017352292202894727 0.094880284344993807 -0.12440525305120426 -0.046682810011178688 0.15265568803689514 0.035411201555743885 -0.1502070802008045 0.040085468550866317 -0.049137350221536584 -0.12254063145743986 -0.010112530332250406 -0.026256901278400135 0.028741793544544737 -0.15181294440184906 0.20228504587828638 0.015021025473761926 0.14799934291255182 -0.07740203836415141
leaf_weight=2.856306890025734 3.0001450516283503 162.50859290920198 9.5618642643094081 117.47923673316836 52.068459086120129 6.7079179137945202 49.721514584496617 50.184825345873833 82.730316795408726 9.5656923614442331 4.2714794389903572 10.021305501461027 22.879009496420622 4.4915715344250193 83.959257446229458 110.70104240626097 3.4253324717283231 112.92146450653672 14.979987014085053 2.7302637174725524 6.2368536219000807 4.693891540169715 39.223026180639863 1.3091146871447552 9.94217571988702 10.75457441061735 6.8874795511364928 1.2137791886925713 5.546319704502821 3.0477202665060759 1.8984298184514043 15.726110154762869 2.1782363206148139 5.4617324266582727 2.7344720214605331
leaf_count=28 21 1146 56 744 330 41 406 349 512 60 26 58 161 28 528 696 21 679 98 23 37 35 249 10 59 66 42 10 31 26 29 269 26 123 19
internal_value=0 -0.00320687 0.0130942 -0.0224898 -0.0384403 0.0169224 0.0312941 0.0196979 -0.016902 0.134176 -0.054739 0.0146304 0.0458939 -0.0183668 -0.028428 -0.0632213 0.0231812 0.0335096 0.044153 0.0929558 0.105339 -0.00958305 -0.0168137 0.103118 -0.0915636 -0.139774 -0.0292752 0.117095 -0.108623 0.132027 0.0523651 0.161171 0.181289 0.121439 -0.158796
internal_weight=0 999.928 542.014 457.914 320.265 72.8336 376.991 318.303 132.915 16.2736 247.432 137.649 185.388 56.56 165.022 228.18 131.914 122.943 19.2515 58.6886 55.9584 127.876 123.182 33.6914 37.1461 20.3164 16.8297 32.3823 8.97165 29.526 8.57394 20.9521 17.9043 6.67551 5.73462
internal_count=7042 6521 3669 2852 2023 459 2634 2168 861 101 1564 829 1307 358 1035 1440 789 737 124 466 443 812 777 521 223 122 101 511 52 483 162 321 295 133 40
is_linear=0
shrinkage=0.2


Tree=18
num_leaves=35
num_cat=0
split_feature=10 9 83 98 152 8 8 5 7 7 8 27 0 98 98 18 18 17 98 18 25 2 7 160 0 18 26 8 0 57 25 18 8 29
split_gain=7.48686 16.384 8.16707 6.44357 6.04557 6.65206 6.35596 5.53988 4.75592 4.70768 4.536 4.30217 4.04238 3.77294 3.62653 3.52593 3.67244 3.47509 6.20665 4.36884 2.55482 2.37977 4.41351 2.91601 2.10241 1.9933 1.82248 6.53203 1.78631 1.68373 1.39805 1.03916 0.787312 0.434301
threshold=285.50000000000006 2.5000000000000004 1.0000000180025095e-35 -12.499999999999998 1.0000000180025095e-35 27.500000000000004 23.500000000000004 1.0000000180025095e-35 10.500000000000002 7.5000000000000009 16.500000000000004 0.00079512596130371105 41.500000000000007 1135.5000000000002 236.50000000000003 1593.7236938476565 1513.5843505859377 3582.0000000000005 333.50000000000006 1597.960144042969 111.50000000000001 1.0000000180025095e-35 2.5000000000000004 -1216.9999999999998 16.500000000000004 1512.288024902344 0.016261236742138866 4.5000000000000009 20.500000000000004 1.0000000180025095e-35 -168.49999999999997 1600.8984985351565 21.500000000000004 1.067321300506592
decision_type=2 2 2 8 2 2 2 2 2 2 2 2 2 10 10 2 2 2 10 2 10 2 2 2 2 2 2 2 2 2 10 2 2 2
left_child=1 2 3 32 6 -6 -5 26 11 12 24 21 14 17 20 16 -9 18 -13 -19 -3 22 23 -2 -11 -10 30 -28 -16 -23 -4 -27 -1 -24
right_child=8 9 7 4 5 -7 -8 15 25 10 -12 13 -14 -15 28 -17 -18 19 -20 -21 -22 29 33 -25 -26 31 27 -29 -30 -31 -32 -33 -34 -35
leaf_value=0.2006596874533958 -0.078189687384858764 0.1865713211645289 0.09215401562020753 0.087855154985221229 -0.030315510334182741 0.067172491130835718 -0.11309470770186301 0.085459148797695658 0.0011866998907937708 -0.028296263277679812 -0.13857555513551184 3.5836357982141923e-05 -0.099257392331474847 0.17660492594910071 -0.05934082374166965 0.13455775750290547 -0.095476258964563507 -0.0058826110691738223 -0.091683785400128878 0.094919986312553842 0.0026215929945972633 -0.2083672366681186 -0.045496597502323072 0.15190263561015394 0.15807036319845211 -0.21698261149966103 -0.24882444009460114 0.16985872440114744 0.1058361246087699 -0.023958900972178596 0.20371313276884276 -0.044023316980501825 0.030590242469454094 -0.17183382518741566
leaf_weight=5.6006790501996875 2.9058567509055138 38.466398157179356 10.57406018301845 38.667901551350951 285.70979245565832 30.189753007143736 6.6976125389337531 5.9020086750388208 3.2212494164705268 3.602562513202427 4.7502970974892369 67.311892963945866 2.1917248759418717 3.4618104398250571 4.2370290011167508 5.5093460083007804 12.648705525323747 359.47524257749319 51.662811528891325 17.172066029161215 3.2987734526395789 7.4146823361515981 2.343581423163414 4.7534556686878222 5.2736494410783052 6.6363398246467096 1.4780349023640145 3.149283142760396 4.5673447363078594 2.9327069744467735 12.701999863609672 2.3597461320459843 1.7408009488135574 4.9542073234915733
leaf_count=82 23 568 170 267 1904 205 47 35 26 24 29 371 22 27 20 35 70 2089 296 94 22 67 20 36 38 57 12 56 23 25 196 24 26 36
internal_value=0 0.0181533 0.00348661 -0.0070394 -0.0109995 -0.0208366 0.0565856 0.0770171 -0.0160672 0.109795 0.00451794 -0.0130697 0.136459 -0.00890651 0.148212 0.00595902 -0.0366362 -0.0105159 -0.0401761 -0.00107434 0.172399 -0.0920949 -0.0372746 0.0655543 0.0867366 -0.135118 0.136214 0.0175919 0.0281925 -0.162127 0.158283 -0.179646 0.167987 -0.140601
internal_weight=0 486.958 420.57 368.607 361.265 315.9 45.3655 51.9634 536.606 66.3878 13.6265 524.388 52.7613 499.084 50.5695 24.0601 18.5507 495.622 118.975 376.647 41.7652 25.3045 14.9571 7.65931 8.87621 12.2173 27.9034 4.62732 8.80437 10.3474 23.2761 8.99609 7.34148 7.29779
internal_count=7042 3851 3105 2531 2423 2109 314 574 3191 746 91 3084 655 2877 633 140 105 2850 667 2183 590 207 115 59 62 107 434 68 43 92 366 81 108 56
is_linear=0
shrinkage=0.2


end of trees

feature_importances:
Column_8=88
Column_0=77
Column_7=72
Column_10=45
Column_22=38
Column_27=36
Column_98=35
Column_5=34
Column_18=31
Column_99=25
Column_24=24
Column_97=23
Column_25=22
Column_9=18
Column_12=17
Column_29=17
Column_3=16
Column_13=16
Column_4=15
Column_26=15
Column_1=11
Column_6=10
Column_56=8
Column_160=8
Column_11=7
Column_2=6
Column_69=6
Column_75=6
Column_77=6
Column_28=4
Column_53=4
Column_103=4
Column_147=4
Column_81=3
Column_82=3
Column_83=3
Column_158=3
Column_14=2
Column_57=2
Column_72=2
Column_76=2
Column_79=2
Column_102=2
Column_128=2
Column_17=1
Column_42=1
Column_45=1
Column_51=1
Column_54=1
Column_70=1
Column_71=1
Column_74=1
Column_78=1
Column_80=1
Column_100=1
Column_125=1
Column_126=1
Column_127=1
Column_130=1
Column_148=1
Column_149=1
Column_151=1
Column_152=1
Column_153=1

parameters:
[boosting: gbdt]
[objective: binary]
[metric: auc,l2]
[tree_learner: serial]
[device_type: cpu]
[linear_tree: 0]
[data: ]
[valid: ]
[num_iterations: 200]
[learning_rate: 0.2]
[num_leaves: 60]
[num_threads: -1]
[deterministic: 0]
[force_col_wise: 0]
[force_row_wise: 0]
[histogram_pool_size: -1]
[max_depth: 6]
[min_data_in_leaf: 20]
[min_sum_hessian_in_leaf: 0.001]
[bagging_fraction: 0.742424]
[pos_bagging_fraction: 1]
[neg_bagging_fraction: 1]
[bagging_freq: 10]
[bagging_seed: 3]
[feature_fraction: 0.769724]
[feature_fraction_bynode: 1]
[feature_fraction_seed: 2]
[extra_trees: 0]
[extra_seed: 6]
[early_stopping_round: 2]
[first_metric_only: 0]
[max_delta_step: 0]
[lambda_l1: 0]
[lambda_l2: 0.88816]
[linear_lambda: 0]
[min_gain_to_split: 0]
[drop_rate: 0.1]
[max_drop: 50]
[skip_drop: 0.5]
[xgboost_dart_mode: 0]
[uniform_drop: 0]
[drop_seed: 4]
[top_rate: 0.2]
[other_rate: 0.1]
[min_data_per_group: 100]
[max_cat_threshold: 32]
[cat_l2: 10]
[cat_smooth: 10]
[max_cat_to_onehot: 4]
[top_k: 20]
[monotone_constraints: ]
[monotone_constraints_method: basic]
[monotone_penalty: 0]
[feature_contri: ]
[forcedsplits_filename: ]
[refit_decay_rate: 0.9]
[cegb_tradeoff: 1]
[cegb_penalty_split: 0]
[cegb_penalty_feature_lazy: ]
[cegb_penalty_feature_coupled: ]
[path_smooth: 0]
[interaction_constraints: ]
[verbosity: -1]
[saved_feature_importance_type: 0]
[max_bin: 255]
[max_bin_by_feature: ]
[min_data_in_bin: 3]
[bin_construct_sample_cnt: 200000]
[data_random_seed: 1]
[is_enable_sparse: 1]
[enable_bundle: 1]
[use_missing: 1]
[zero_as_missing: 0]
[feature_pre_filter: 1]
[pre_partition: 0]
[two_round: 0]
[header: 0]
[label_column: ]
[weight_column: ]
[group_column: ]
[ignore_column: ]
[categorical_feature: ]
[forcedbins_filename: ]
[objective_seed: 5]
[num_class: 1]
[is_unbalance: 0]
[scale_pos_weight: 1]
[sigmoid: 1]
[boost_from_average: 1]
[reg_sqrt: 0]
[alpha: 0.9]
[fair_c: 1]
[poisson_max_delta_step: 0.7]
[tweedie_variance_power: 1.5]
[lambdarank_truncation_level: 30]
[lambdarank_norm: 1]
[label_gain: ]
[eval_at: ]
[multi_error_top_k: 1]
[auc_mu_weights: ]
[num_machines: 1]
[local_listen_port: 12400]
[time_out: 120]
[machine_list_filename: ]
[machines: ]
[gpu_platform_id: -1]
[gpu_device_id: -1]
[gpu_use_dp: 0]
[num_gpu: 1]

end of parameters

pandas_categorical:null
