tree
version=v3
num_class=1
num_tree_per_iteration=1
label_index=0
max_feature_idx=7
objective=binary sigmoid:1
feature_names=Column_0 Column_1 Column_2 Column_3 Column_4 Column_5 Column_6 Column_7
feature_infos=[18:95] [-6847:81204] [0:1] [0:1] [0:11] [1:31] [1:63] [3:3881]
tree_sizes=3223 3226 3238 3232 3230 3227 3254 3238 3244 3244 3255 3237 3254

Tree=0
num_leaves=30
num_cat=0
split_feature=7 7 2 4 7 4 7 1 4 7 2 2 4 4 5 0 4 0 5 6 4 2 1 0 4 5 5 7 5
split_gain=1253.16 323.65 254.822 226.42 127.65 83.866 53.8802 53.7086 51.9761 48.4689 46.9397 40.0283 35.4752 40.0959 39.3683 32.3727 30.9745 29.4328 28.832 22.9073 20.0815 19.9756 19.3909 18.6406 18.5578 18.7297 20.2488 16.0096 15.5309
threshold=206.50000000000003 447.50000000000006 1.0000000180025095e-35 3.5000000000000004 87.500000000000014 3.5000000000000004 136.50000000000003 223.50000000000003 1.0000000180025095e-35 651.50000000000011 1.0000000180025095e-35 1.0000000180025095e-35 8.5000000000000018 4.5000000000000009 17.500000000000004 33.500000000000007 2.5000000000000004 60.500000000000007 8.5000000000000018 3.5000000000000004 8.5000000000000018 1.0000000180025095e-35 17.500000000000004 29.500000000000004 10.500000000000002 22.500000000000004 16.500000000000004 165.50000000000003 16.500000000000004
decision_type=2 2 2 2 2 2 2 2 2 2 2 2 2 2 2 2 2 2 2 2 2 2 2 2 2 2 2 2 2
left_child=3 2 8 6 -5 7 -1 -4 -2 21 28 16 13 -12 18 -9 -8 -17 -15 22 -7 -3 -13 -24 25 26 -10 -25 -6
right_child=1 9 5 4 10 20 11 15 24 -11 12 19 -14 14 -16 17 -18 -19 -20 -21 -22 -23 23 27 -26 -27 -28 -29 -30
leaf_value=0.46394257206824996 0.36462943368836259 -0.002742223407921407 0.25101752123144871 0.4288301414525264 0.093207394855116657 -0.078970701432373697 0.44661704397384971 -0.17533044466460765 0.14778585283639761 -0.20149933035313219 -0.21733243354661622 0.46008324177853865 -0.13921203967486875 0.20385919755981807 0.34651855828603684 0.11500486855262416 0.0091944045306045358 -0.26049403736201637 -0.15229474405975332 0.41998313464559889 -0.22660923828428467 -0.13223845985634519 -0.18754365651039198 0.29757370751797552 -0.19100782223546361 0.017015240844229534 0.34225530626553802 0.059591392024756953 0.30970107513604572
leaf_weight=277.30992946028709 91.19086629152298 91.6891770362854 46.093743890523911 55.561648041009903 20.929051280021667 93.433264642953873 80.477185279130936 31.891887664794922 56.558269530534744 277.5590848326683 13.703545480966566 7.2255057990550986 41.608947187662125 17.939186811447144 25.912158727645874 63.783775329589844 6.9763504266738883 9.4679041504859907 18.188342183828354 16.693409949541092 61.790532350540161 100.16045969724655 6.9763504266738883 19.434119045734406 5.4814181923866263 22.174828141927719 34.383441388607025 26.659624844789505 35.878373622894287
leaf_count=1113 366 368 185 223 84 375 323 128 227 1114 55 29 167 72 104 256 28 38 73 67 248 402 28 78 22 89 138 107 144
internal_value=0.116382 -0.0278612 0.0814399 0.326376 0.165284 -0.0347902 0.410106 0.0712744 0.251217 -0.148023 0.0810232 0.319099 0.0088193 0.09046 0.159043 -0.0075971 0.411608 0.065846 0.0242098 0.213673 -0.137997 -0.0704811 0.155984 0.113787 0.163824 0.181377 0.221545 0.160174 0.230079
internal_weight=0 985.659 516.25 671.474 229.721 306.461 441.752 151.237 209.789 469.409 174.16 164.443 117.352 75.7432 62.0397 105.144 87.4535 73.2517 36.1275 76.989 155.224 191.85 60.2956 53.0701 118.598 113.117 90.9417 46.0937 56.8074
internal_count=6651 3956 2072 2695 922 1230 1773 607 842 1884 699 660 471 304 249 422 351 294 145 309 623 770 242 213 476 454 365 185 228
is_linear=0
shrinkage=1


Tree=1
num_leaves=30
num_cat=0
split_feature=7 7 2 4 7 4 4 1 7 4 4 5 5 4 5 5 2 5 5 3 4 5 4 7 2 5 1 5 5
split_gain=828.409 258.696 200.606 121.091 73.9862 73.3103 52.6991 46.0724 40.1001 24.5638 35.8619 28.2652 47.8984 35.1152 21.4578 19.2097 18.0213 17.6488 21.8904 17.6441 17.3919 20.1129 38.5137 15.3483 13.5768 12.8643 18.9707 11.8802 24.5853
threshold=175.50000000000003 409.50000000000006 1.0000000180025095e-35 3.5000000000000004 77.500000000000014 3.5000000000000004 2.5000000000000004 146.50000000000003 664.50000000000011 8.5000000000000018 4.5000000000000009 16.500000000000004 6.5000000000000009 7.5000000000000009 4.5000000000000009 4.5000000000000009 1.0000000180025095e-35 21.500000000000004 15.500000000000002 1.0000000180025095e-35 8.5000000000000018 27.500000000000004 6.5000000000000009 134.50000000000003 1.0000000180025095e-35 8.5000000000000018 1011.5000000000001 21.500000000000004 17.500000000000004
decision_type=2 2 2 2 2 2 2 2 2 2 2 2 2 2 2 2 2 2 2 2 2 2 2 2 2 2 2 2 2
left_child=3 2 6 23 -5 7 14 -4 16 10 -6 12 -12 -13 -2 -9 -3 18 25 -17 21 27 -23 -1 -11 26 -8 28 -7
right_child=1 8 5 4 9 20 17 15 -10 24 11 13 -14 -15 -16 19 -18 -19 -20 -21 -22 22 -24 -25 -26 -27 -28 -29 -30
leaf_value=0.29535244960845819 -0.06603191761282054 -0.087699302235859922 0.1654492926981497 0.29745295762605656 -0.24939011013573303 -0.21627216068106817 0.19096595645750158 -0.26734907780878003 -0.25847889898266124 0.04867057489017531 0.19614615389690535 0.29098339305159093 -0.23957307604451375 -0.26272258172989915 0.2327340971134936 -0.066030534285885678 -0.196215070740269 -0.16033930944613364 0.18350823028946456 0.23270749834974583 -0.28015302544554316 -0.34361511842066023 0.30453955959427409 0.2019835093150702 -0.18340019634027599 -0.16089887948955611 -0.21060111409340881 -0.35431782669116341 0.063988591729688418
leaf_weight=257.8729944229126 10.316634774208067 113.82070662081242 42.430721089243889 43.94837212562561 12.81097763776779 54.593225702643394 14.922016739845278 17.632363259792328 265.05049489438534 14.243951112031935 21.057577803730965 36.95064140856266 19.122985392808914 5.1167329251766196 131.20667116343975 105.25012989342213 133.3123733997345 18.149680376052856 31.696101933717728 8.4135271161794645 66.721770778298378 5.7289976328611347 9.6442352384328842 98.936993137001991 33.975222021341324 18.403335466980934 6.7121943086385718 13.954101592302321 16.163219407200813
leaf_count=1088 42 457 173 184 52 219 60 71 1071 58 85 152 77 21 542 424 536 73 130 34 270 23 39 411 137 74 27 56 65
internal_value=0 -0.101194 -0.00873151 0.20122 0.0708899 -0.106357 0.134909 -0.0153948 -0.204413 0.00117304 0.0601359 0.108689 -0.0113357 0.222988 0.210911 -0.0739517 -0.146314 0.0150998 0.0597139 -0.043659 -0.201001 -0.147916 0.0620786 0.269552 -0.114904 -0.0385864 0.0658245 -0.186065 -0.152251
internal_weight=0 1084.12 571.939 544.036 187.226 340.532 231.407 173.727 512.184 143.278 95.0589 82.2479 40.1806 42.0674 141.523 131.296 247.133 89.8833 71.7336 113.664 166.806 100.084 15.3732 356.81 48.2192 40.0375 21.6342 84.7105 70.7564
internal_count=6651 4386 2322 2265 766 1374 948 702 2064 582 387 335 162 173 584 529 993 364 291 458 672 402 62 1499 195 161 87 340 284
is_linear=0
shrinkage=0.2


Tree=2
num_leaves=30
num_cat=0
split_feature=7 7 2 7 2 1 0 3 5 7 0 6 7 3 7 1 6 6 0 0 7 2 0 6 5 7 6 5 7
split_gain=572.383 147.719 121.514 99.4347 61.168 38.9956 41.5738 28.5768 26.648 22.2013 20.3721 14.904 14.2969 13.5423 13.2543 12.9723 11.3458 10.9944 10.5909 10.3326 12.2271 9.92762 14.8748 9.27197 8.59295 8.61357 7.76735 7.31029 7.31016
threshold=257.50000000000006 119.50000000000001 1.0000000180025095e-35 609.50000000000011 1.0000000180025095e-35 950.50000000000011 26.500000000000004 1.0000000180025095e-35 16.500000000000004 477.50000000000006 60.500000000000007 3.5000000000000004 200.50000000000003 1.0000000180025095e-35 77.500000000000014 623.50000000000011 1.5000000000000002 1.5000000000000002 58.500000000000007 29.500000000000004 447.50000000000006 1.0000000180025095e-35 28.500000000000004 1.5000000000000002 4.5000000000000009 329.50000000000006 1.5000000000000002 8.5000000000000018 323.50000000000006
decision_type=2 2 2 2 2 2 2 2 2 2 2 2 2 2 2 2 2 2 2 2 2 2 2 2 2 2 2 2 2
left_child=1 14 15 4 9 6 -4 10 13 24 19 -7 -13 17 -1 -3 -17 27 -10 -6 23 -16 -23 -21 25 -2 -24 -8 -25
right_child=3 2 5 -5 7 11 8 -9 18 -11 -12 12 -14 -15 21 16 -18 -19 -20 20 -22 22 26 28 -26 -27 -28 -29 -30
leaf_value=0.27537654565244046 -0.24351516342847251 0.21164063796219904 -0.28286202326367682 -0.2097431724350666 -0.20721766171475939 -0.15022652333136244 -0.019891644333703763 0.098307985427305872 0.17935051313990408 -0.08399118660096698 -0.28755114526254388 0.28249875821295567 -0.13480466040148462 0.22878242754833919 0.2451404613617878 0.026386110114613916 0.17361301619107236 0.033166956600020184 -0.10876988848369661 -0.12661282703795051 -0.18306583991009523 -0.11191884928670873 0.081528070525473409 0.052904716122565004 0.076683654549096134 0.057177860487560787 0.22005426689428847 -0.21195319162568979 -0.073206206521725173
leaf_weight=148.79590849578381 6.9402069747447959 119.74550040066242 15.165007933974264 299.97501514852047 44.332796663045883 100.63159091770649 13.691684290766714 21.37570433318615 61.201835229992867 59.627983644604683 33.356235772371292 6.5309772193431836 6.3471411913633347 7.6971671730279914 70.855098605155945 37.31172339618206 47.739199727773666 32.218035593628883 5.4749361723661414 60.510484829545021 51.109129339456558 8.2037354558706266 25.360351756215096 30.987219512462616 132.8445860594511 8.1609319746494275 45.841582119464874 18.791749715805054 44.801552921533585
leaf_count=683 28 520 63 1258 183 417 57 88 260 239 138 28 26 33 318 158 206 135 23 249 210 35 111 127 558 33 206 78 183
internal_value=0 0.122924 0.0532804 -0.118937 -0.0637574 -0.0354186 0.0300573 -0.123638 0.0644281 0.0189122 -0.141577 -0.124317 0.0775861 -0.0195974 0.232893 0.16919 0.109174 -0.049575 0.155515 -0.120405 -0.0997303 0.190606 0.141599 -0.0683259 0.0604264 -0.0819806 0.170971 -0.131432 -0.0216417
internal_weight=0 771.603 472.547 794.022 494.047 267.75 154.24 286.473 139.075 207.574 265.097 113.51 12.8781 72.3986 299.057 204.796 85.0509 64.7015 66.6768 231.741 187.408 150.261 79.4057 136.299 147.946 15.1011 71.2019 32.4834 75.7888
internal_count=6651 3357 2004 3294 2036 1120 649 1178 586 858 1090 471 54 303 1353 884 364 270 283 952 769 670 352 559 619 61 317 135 310
is_linear=0
shrinkage=0.2


Tree=3
num_leaves=30
num_cat=0
split_feature=7 7 2 4 4 7 4 1 4 4 5 5 4 4 3 4 4 5 7 6 5 4 5 4 5 5 7 7 1
split_gain=400.296 116.908 101.683 82.4382 46.4913 42.8951 39.5714 29.4608 15.3438 22.5815 17.2571 28.8368 22.7655 14.7271 14.4823 14.1251 17.4622 24.8448 14.0936 12.3145 12.3423 14.9387 12.7014 12.2003 35.1848 30.4454 11.5677 11.2548 11.11
threshold=175.50000000000003 520.50000000000011 1.0000000180025095e-35 3.5000000000000004 3.5000000000000004 77.500000000000014 1.0000000180025095e-35 115.50000000000001 8.5000000000000018 4.5000000000000009 16.500000000000004 6.5000000000000009 7.5000000000000009 10.500000000000002 1.0000000180025095e-35 8.5000000000000018 4.5000000000000009 27.500000000000004 297.50000000000006 1.5000000000000002 24.500000000000004 9.5000000000000018 16.500000000000004 5.5000000000000009 6.5000000000000009 16.500000000000004 812.50000000000011 113.50000000000001 658.50000000000011
decision_type=2 2 2 2 2 2 2 2 2 2 2 2 2 2 2 2 2 2 2 2 2 2 2 2 2 2 2 2 2
left_child=3 2 6 27 7 -5 18 -4 9 -7 11 -11 -12 19 -9 16 -6 23 -2 20 21 22 -8 25 -25 -18 -3 -1 -19
right_child=1 26 4 5 15 8 13 14 -10 10 12 -13 -14 -15 -16 -17 17 28 -20 -21 -22 -23 -24 24 -26 -27 -28 -29 -30
leaf_value=0.24836018231431423 0.23239278795948271 -0.12925764780409832 0.12769471130487031 0.23382142597379618 -0.25790084916191819 -0.21159982060895893 -0.13269281119777335 -0.074744383292904643 -0.10376393704093086 0.14882561654547721 0.23473839067789487 -0.19676415081419951 -0.21347807723507992 -0.28567060090339313 0.15113352325040008 -0.22395380510032431 -0.23135348585521692 0.30865569613814325 0.091199475441814587 0.078744902625125887 -0.22965898904790549 0.1989992654914981 0.078629156679949574 0.040439986570325909 -0.30620632847377854 0.16647428229556949 -0.20144059442549636 0.17061344133174924 -0.068693981053983319
leaf_weight=170.03314326703548 59.193996593356133 201.52215667068958 43.745296970009804 36.148841738700867 25.649370074272156 12.359342098236082 29.355387136340141 147.09980224072933 46.618127018213272 20.093975439667702 32.898388788104057 18.339189425110817 5.1418736428022376 6.3635378479957572 12.173600643873213 72.972653329372406 14.004930824041368 8.8089299201965314 54.586709782481194 74.310937002301216 11.133028492331503 11.773106977343557 18.402731314301491 18.7780382335186 30.857463389635086 16.735623344779015 160.78667315840721 135.6888972222805 4.7251669764518729
leaf_count=868 274 863 185 184 109 52 121 606 195 85 152 77 21 26 51 319 59 37 234 313 45 49 80 78 130 69 718 631 20
internal_value=0 -0.0700798 -0.0200005 0.151698 -0.084225 0.0407104 0.0758146 -0.0174272 -0.0110145 0.0377456 0.0783562 -0.0161952 0.173594 0.00878519 -0.0573627 -0.154597 -0.112054 -0.0718953 0.16485 0.0219726 -0.037767 -0.00142731 -0.0512719 -0.114134 -0.175318 -0.0149967 -0.161357 0.213947 0.177556
internal_weight=0 1022.98 660.67 477.322 395.551 171.6 265.119 203.019 135.451 88.8328 76.4734 38.4332 38.0403 151.339 159.273 192.532 119.56 93.9102 113.781 144.975 70.6643 59.5312 47.7581 80.3761 49.6355 30.7406 362.309 305.722 13.5341
internal_count=6651 4386 2805 2265 1663 766 1142 842 582 387 335 162 173 634 657 821 502 393 508 608 295 250 201 336 208 128 1581 1499 57
is_linear=0
shrinkage=0.2


Tree=4
num_leaves=30
num_cat=0
split_feature=7 7 4 2 4 0 5 4 0 7 5 0 4 4 7 5 5 0 4 5 1 5 5 4 3 5 4 2 5
split_gain=282.147 112.122 97.3598 44.0856 37.5702 25.419 24.3531 42.407 23.3691 17.583 15.851 16.3829 14.7825 43.9534 13.5855 12.7043 12.4523 11.7585 11.4719 17.7553 11.1252 10.2607 9.94858 13.0751 9.59762 9.15008 13.5102 8.73177 8.57083
threshold=138.50000000000003 409.50000000000006 2.5000000000000004 1.0000000180025095e-35 7.5000000000000009 57.500000000000007 16.500000000000004 7.5000000000000009 31.500000000000004 671.50000000000011 4.5000000000000009 60.500000000000007 4.5000000000000009 3.5000000000000004 62.500000000000007 4.5000000000000009 6.5000000000000009 24.500000000000004 5.5000000000000009 28.500000000000004 538.50000000000011 8.5000000000000018 21.500000000000004 9.5000000000000018 1.0000000180025095e-35 9.5000000000000018 9.5000000000000018 1.0000000180025095e-35 4.5000000000000009
decision_type=2 2 2 2 2 2 2 2 2 2 2 2 2 2 2 2 2 2 2 2 2 2 2 2 2 2 2 2 2
left_child=4 2 3 15 17 6 21 12 -5 24 -10 -12 13 20 -6 -2 -7 -1 -14 -20 -8 -4 23 -9 -3 -16 -27 -28 -19
right_child=1 9 5 8 14 16 7 22 10 -11 11 -13 18 -15 25 -17 -18 28 19 -21 -22 -23 -24 -25 -26 26 27 -29 -30
leaf_value=-0.086893050830178148 -0.028308306960928495 -0.099663306174157529 -0.043581484616792107 -0.14634602462091906 0.23513204467468807 0.025590408571986568 0.23879679946327839 -0.26782551221854733 -0.14759172886803151 -0.16296771557148698 0.10844560503153394 -0.23217812620155615 0.24653462321267502 -0.27064676736881588 0.086163054085540702 0.17900356287746055 -0.23155032954812516 0.056128234484749046 -0.16591066518134323 0.22325118798118071 -0.0081852366267310735 -0.14503894545963641 -0.1927007802153291 0.085846563187344474 0.021460558932187412 -0.24736389369525941 0.18655565548104569 -0.10128262495101703 0.2187348708304766
leaf_weight=5.3985697180032721 12.806282952427862 207.89306084811687 79.801105350255966 30.582334026694298 10.12087833881378 9.0085241943597776 19.837317079305652 5.6996372342109689 13.476823791861532 220.16131593286991 80.348121702671051 5.944573685526847 31.232646331191063 14.52332393825054 19.914613246917725 148.65294902026653 45.049706235527992 13.855294942855833 8.4058366119861621 10.263315975666044 11.477514922618864 79.891532987356186 32.902554422616959 14.588279187679291 29.881827980279922 12.288375467061998 7.4827873855829248 9.2987944483757019 231.60936731100082
leaf_count=28 55 891 341 131 58 39 88 25 57 1049 340 26 139 64 89 724 204 76 37 46 48 347 146 66 124 52 33 39 1289
internal_value=0 -0.0463386 0.00677645 0.0927489 0.169387 -0.0624055 -0.0402008 0.0179719 0.00620865 -0.122231 0.0531105 0.0846432 0.0974755 0.0153739 0.0258644 0.16255 -0.188744 0.203168 0.172638 0.0480992 0.148639 -0.0944214 -0.125011 -0.0146654 -0.0844377 -0.0179189 -0.0892922 0.027543 0.209594
internal_weight=0 1112.43 654.492 291.811 309.969 362.681 308.623 148.93 130.352 457.936 99.7695 86.2927 95.74 45.8382 59.1054 161.459 54.0582 250.863 49.9018 18.6692 31.3148 159.693 53.1905 20.2879 237.775 48.9846 29.07 16.7816 245.465
internal_count=6651 4987 2923 1333 1664 1590 1347 659 554 2064 423 366 422 200 271 779 243 1393 222 83 136 688 237 91 1015 213 124 72 1365
is_linear=0
shrinkage=0.2


Tree=5
num_leaves=30
num_cat=0
split_feature=7 7 4 5 0 4 0 2 7 3 6 4 5 5 5 0 0 2 7 4 4 4 4 5 4 5 4 5 5
split_gain=203.415 78.6194 70.174 30.0451 28.7545 27.1836 26.6882 18.5025 16.6635 13.9168 12.8492 30.2239 12.6042 14.9466 11.4696 10.1325 10.0511 9.99586 9.88083 9.71801 9.097 9.09235 9.45782 7.91137 8.68788 7.09605 11.9608 8.47401 9.54275
threshold=134.50000000000003 379.50000000000006 3.5000000000000004 4.5000000000000009 60.500000000000007 7.5000000000000009 26.500000000000004 1.0000000180025095e-35 664.50000000000011 1.0000000180025095e-35 1.5000000000000002 2.5000000000000004 20.500000000000004 15.500000000000002 8.5000000000000018 30.500000000000004 24.500000000000004 1.0000000180025095e-35 62.500000000000007 8.5000000000000018 2.5000000000000004 4.5000000000000009 7.5000000000000009 6.5000000000000009 9.5000000000000018 27.500000000000004 6.5000000000000009 22.500000000000004 17.500000000000004
decision_type=2 2 2 2 2 2 2 2 2 2 2 2 2 2 2 2 2 2 2 2 2 2 2 2 2 2 2 2 2
left_child=5 2 3 -2 6 16 17 12 20 10 11 -8 13 14 -4 -12 -1 -5 -7 25 -3 -14 -23 -20 -25 27 -27 28 -9
right_child=1 8 7 4 -6 18 9 19 -10 -11 15 -13 21 -15 -16 -17 -18 -19 23 -21 -22 22 -24 24 -26 26 -28 -29 -30
leaf_value=-0.080188635305832312 -0.1052706472511902 -0.029512144326879604 0.061177906197721454 0.072929136018062821 -0.25269708800597152 0.21977710386687163 0.09114860907260805 -0.11146458627428342 -0.14035943791375055 0.22599253460401078 -0.011667414565838495 -0.20056168288938034 -0.37669883990531428 0.16296388594157576 -0.17598241842207829 0.1508348035693807 0.19530199360947431 -0.23986558042639544 0.11933652439526297 -0.17006164858870917 -0.10281479287876479 0.10396893850445582 -0.18702912107442382 -0.17884229769510662 0.032682767395392463 -0.17988750764630337 0.18425857758092581 -0.2655454967639273 0.04882910853877661
leaf_weight=5.363525077700614 35.724731773138046 139.19156926870346 19.824443161487579 6.0554194748401651 9.4784948825836164 8.8123300373554212 79.343248263001442 57.34333673119545 209.68461538851261 38.124283879995346 17.292878344655037 17.163331300020218 4.345755189657214 27.357545897364616 13.66127936542034 135.00563070178032 209.75652621686459 12.095455437898636 13.026181772351263 63.96393458545208 132.04098707437515 7.9455593973398235 9.871960908174513 14.353868171572687 16.657581925392151 5.4921738058328602 9.9241892844438553 9.9213713109493238 19.942223489284515
leaf_count=27 154 595 83 32 43 58 383 261 1071 192 82 72 18 130 56 636 1314 53 60 311 591 37 41 63 74 27 47 49 91
internal_value=0 -0.0377871 0.0105122 0.0682434 0.0879876 0.156829 0.0986831 -0.0705014 -0.0980194 0.113572 0.0962288 0.0390541 0.00664091 0.0536821 -0.0359063 0.13239 0.188386 -0.135752 0.0282233 -0.108913 -0.0652318 -0.122025 -0.0574619 -0.0106822 -0.0655861 -0.0706204 0.0540788 -0.0927158 -0.0700901
internal_weight=0 1080.79 599.877 350.283 314.559 267.97 305.08 249.594 480.917 286.929 248.805 96.5066 83.0065 60.8433 33.4857 152.299 215.12 18.1509 52.85 166.587 271.233 22.1633 17.8175 44.0376 31.0115 102.623 15.4164 87.2069 77.2856
internal_count=6651 5055 2798 1647 1493 1596 1450 1151 2257 1365 1173 455 365 269 139 718 1341 85 255 786 1186 96 78 197 137 475 74 401 352
is_linear=0
shrinkage=0.2


Tree=6
num_leaves=30
num_cat=0
split_feature=7 4 7 2 4 7 0 0 1 4 7 4 6 4 7 1 6 3 0 1 4 1 0 0 2 7 1 0 7
split_gain=147.918 43.1589 42.6608 36.9944 22.4034 20.4313 17.1273 16.5369 15.87 14.2804 13.9394 12.249 11.1099 11.3498 10.6358 10.1169 9.91457 8.92586 8.52804 7.80603 7.78446 7.36764 7.87591 7.00891 6.83297 6.62132 7.18167 6.94177 6.61681
threshold=175.50000000000003 3.5000000000000004 609.50000000000011 1.0000000180025095e-35 8.5000000000000018 77.500000000000014 60.500000000000007 29.500000000000004 1660.5000000000002 1.0000000180025095e-35 279.50000000000006 6.5000000000000009 3.5000000000000004 1.0000000180025095e-35 136.50000000000003 1133.5000000000002 1.5000000000000002 1.0000000180025095e-35 44.500000000000007 230.50000000000003 4.5000000000000009 980.50000000000011 39.500000000000007 29.500000000000004 1.0000000180025095e-35 413.50000000000006 -1.0000000180025095e-35 33.500000000000007 323.50000000000006
decision_type=2 2 2 2 2 2 2 2 2 2 2 2 2 2 2 2 2 2 2 2 2 2 2 2 2 2 2 2 2
left_child=1 12 3 9 6 -3 7 11 17 10 -2 -5 13 24 -15 25 19 28 -17 -7 -21 22 -16 -4 -1 26 -11 -27 -9
right_child=2 5 23 4 -6 16 -8 8 -10 15 -12 -13 -14 14 21 18 -18 -19 -20 20 -22 -23 -24 -25 -26 27 -28 -29 -30
leaf_value=0.2187676838957279 0.18557097484727003 0.18433031357742583 -0.20175563932745755 -0.16744071471831576 -0.16301030843093953 0.049266292229254383 -0.17998492460775434 0.057010192562477469 -0.077067661036337887 0.27873283584184472 0.04094257017805867 0.085300521763081769 0.23160440822171041 0.13824618318295065 -0.039977725927255639 -0.011124525955171188 0.049799779886181762 0.16212270838779413 -0.17297274968550014 -0.30178280884750258 -0.073317041065287927 -0.12708234177351338 0.19996679227784411 -0.10177574638411335 0.042678367356331293 -0.16384247699083998 0.049386865860210273 0.037273053815159961 -0.027046390018642535
leaf_weight=60.855587348341942 40.997605949640274 25.351190373301506 32.624954074621201 42.874310106039047 65.827637419104576 17.372737109661102 29.509392186999321 81.33770215511322 71.972945556044579 5.7826304584741584 76.038356080651283 9.2436394244432432 64.255775317549706 58.831796869635582 12.244156137108805 37.575614392757416 54.932143732905388 19.386954993009567 19.806749373674393 6.8751435130834571 41.140078350901604 12.041049584746359 9.698539122939108 204.03212337195873 10.394041478633879 11.591713264584543 72.039343774318695 16.452290654182434 69.221892774105072
leaf_count=414 247 184 173 198 349 88 151 360 315 28 347 44 451 411 60 165 268 90 87 31 195 53 50 1085 60 48 325 68 306
internal_value=0 0.106767 -0.0427046 -0.0169 -0.0567744 0.0216761 -0.035099 -0.0204797 0.0015584 0.0384947 0.0917666 -0.122506 0.16101 0.133189 0.0868899 0.000257167 -0.0127689 0.0348928 -0.0672743 -0.0653266 -0.106811 -0.00221886 0.0666705 -0.11567 0.193213 0.0369016 0.0668976 -0.0462562 0.0183747
internal_weight=0 373.992 906.316 669.659 389.374 145.671 323.547 294.037 241.919 280.284 117.036 52.1179 228.321 164.065 92.8155 163.248 120.32 169.947 57.3824 65.388 48.0152 33.9837 21.9427 236.657 71.2496 105.866 77.822 28.044 150.56
internal_count=6651 2265 4386 3128 1813 766 1464 1313 1071 1315 594 242 1499 1048 574 721 582 756 252 314 226 163 110 1258 474 469 353 116 666
is_linear=0
shrinkage=0.2


Tree=7
num_leaves=30
num_cat=0
split_feature=2 4 0 1 4 0 0 4 5 5 4 0 1 6 5 5 6 3 1 6 0 0 0 4 5 4 6 4 5
split_gain=38.3947 28.1424 24.1126 26.5044 17.7239 17.6322 15.4906 13.7804 9.69025 9.53187 10.2583 9.25064 9.23679 8.78751 8.74072 13.0007 7.97275 6.84045 6.31281 6.11057 5.853 5.71364 6.03756 5.28053 8.91926 6.96378 5.4322 6.72949 5.37079
threshold=1.0000000180025095e-35 8.5000000000000018 29.500000000000004 1612.5000000000002 10.500000000000002 60.500000000000007 60.500000000000007 6.5000000000000009 15.500000000000002 4.5000000000000009 5.5000000000000009 35.500000000000007 1495.5000000000002 6.5000000000000009 23.500000000000004 7.5000000000000009 4.5000000000000009 1.0000000180025095e-35 105.50000000000001 1.5000000000000002 38.500000000000007 35.500000000000007 60.500000000000007 9.5000000000000018 21.500000000000004 2.5000000000000004 3.5000000000000004 4.5000000000000009 19.500000000000004
decision_type=2 2 2 2 2 2 2 2 2 2 2 2 2 2 2 2 2 2 2 2 2 2 2 2 2 2 2 2 2
left_child=4 2 7 5 6 8 11 17 20 -5 13 19 23 21 15 -9 -3 18 -2 -1 -4 -11 -23 25 -25 -13 27 28 -27
right_child=1 16 3 9 -6 -7 -8 14 -10 10 -12 12 -14 -15 -16 -17 -18 -19 -20 -21 -22 22 -24 24 -26 26 -28 -29 -30
leaf_value=-0.016835039638607743 -0.02812237790636421 -0.13862371995248673 -0.031103763739807389 -0.20472267294414653 -0.24113354161712983 -0.13514712347146743 -0.32189118770106134 0.16326354520073794 0.080515740898647825 -0.12672246562606895 -0.18670280376035636 0.10400087977757198 0.012134554896562203 0.221244842297383 0.25129416105687458 -0.24344621153711565 0.13554476826477144 0.0033704449841601212 -0.22045291729909164 0.047622200615662989 0.04630424738804443 0.0080917598744648916 -0.14375241200618347 0.2425222638951432 -0.087764776052613208 -0.033496625577335015 0.18423221061707473 0.042120916614439723 -0.30399783363168564
leaf_weight=108.51237135380507 8.1526832133531553 99.150953650474548 72.455944858491421 17.754520297050476 8.6864700168371183 22.95047565549612 4.4366078227758399 5.7723479419946688 159.9630898758769 22.942730508744717 18.396437838673592 146.79770204424858 79.157474376261234 5.3326846361160269 5.2363770008087149 6.5854340195655823 4.3249521702527991 8.5096649527549726 43.272703915834427 128.20854733139277 84.483643986284733 71.158701375126839 12.140015766024588 18.261751145124439 3.9016452282667151 8.6706938445568067 6.9003881812095633 34.626732379198074 4.3314329087734214
leaf_count=589 39 536 360 88 39 126 21 26 904 112 96 901 440 33 28 33 23 42 225 732 437 361 67 90 17 42 42 182 20
internal_value=0 -0.0311795 -0.0136074 0.00287852 0.0400641 0.0336203 0.0446166 -0.117105 0.0458968 -0.0678102 -0.0489076 0.0477139 0.0708715 -0.0259828 0.0382879 -0.0537698 -0.126997 -0.162705 -0.190121 0.0180826 0.0105706 -0.0386664 -0.0142418 0.0916548 0.184193 0.0813469 0.0202504 -0.0039763 -0.125883
internal_weight=0 668.583 565.107 487.578 552.492 339.853 543.805 77.5292 316.903 147.725 129.971 539.369 302.648 111.574 17.5942 12.3578 103.476 59.9351 51.4254 236.721 156.94 106.241 83.2987 223.49 22.1634 201.327 54.5292 47.6289 13.0021
internal_count=6651 3536 2977 2584 3115 1827 3076 393 1701 757 669 3055 1734 573 87 59 559 306 264 1321 797 540 428 1294 107 1187 286 244 62
is_linear=0
shrinkage=0.2


Tree=8
num_leaves=30
num_cat=0
split_feature=7 4 6 7 7 2 5 0 0 6 3 4 4 5 4 5 5 5 7 0 0 7 0 0 0 4 5 5 5
split_gain=108.335 41.7429 27.8911 20.6161 19.2304 18.565 14.6099 13.0666 11.284 10.8587 9.67167 9.57864 9.47394 7.19347 6.98702 8.35263 10.5691 8.13964 6.72214 6.60659 6.95861 6.49141 6.16758 5.47273 5.32547 5.16723 5.8285 10.8525 8.59149
threshold=249.50000000000003 2.5000000000000004 3.5000000000000004 609.50000000000011 119.50000000000001 1.0000000180025095e-35 5.5000000000000009 61.500000000000007 34.500000000000007 1.5000000000000002 1.0000000180025095e-35 4.5000000000000009 6.5000000000000009 28.500000000000004 1.0000000180025095e-35 11.500000000000002 4.5000000000000009 27.500000000000004 163.50000000000003 57.500000000000007 44.500000000000007 183.50000000000003 25.500000000000004 59.500000000000007 27.500000000000004 8.5000000000000018 17.500000000000004 21.500000000000004 8.5000000000000018
decision_type=2 2 2 2 2 2 2 2 2 2 2 2 2 2 2 2 2 2 2 2 2 2 2 2 2 2 2 2 2
left_child=1 5 4 7 23 -1 -7 10 -8 11 14 -6 -4 25 15 16 -2 -17 -10 20 -11 -20 -16 -3 -5 26 28 -28 -13
right_child=3 2 12 24 9 6 8 -9 18 19 -12 13 -14 -15 22 17 -18 -19 21 -21 -22 -23 -24 -25 -26 -27 27 -29 -30
leaf_value=0.17936196921201997 -0.17476854232729647 0.092922862663754199 0.22295304443193387 -0.2087297970412689 -0.18319057613021983 -0.10422279963739725 -0.023233621444817287 -0.17449324537899524 0.21107025045756386 -0.0043677937540596654 0.064128441792513119 0.044847193416951696 0.035932228520276346 0.1317096267516272 -0.17222339423069943 -0.052722773536308526 0.15167005501058117 0.18542852926783732 -0.099120731061601214 -0.12629050848201107 0.13746936385566674 0.13071705312923815 -0.039083945650241134 -0.14932050905159308 -0.093113131847291961 -0.13599481458982607 0.24028436235376699 -0.12469725517743223 -0.18743909142854273
leaf_weight=136.41579020023346 4.554194480180743 67.745008930563927 31.343555748462677 17.24681743979454 28.752561949193478 16.879955627024174 21.256285890936852 22.887214042246342 30.404738448560238 46.146609447896481 48.506825521588326 12.016717478632929 16.613426625728607 7.8972419947385779 14.55415867269039 51.590976074337959 26.073190093040466 6.3196355104446402 6.5336123853921917 11.337478205561636 19.615593820810318 18.711980953812599 269.36575481295586 3.8245575726032248 207.77500866353512 26.840839505195618 7.5475380867719633 5.5402016192674637 13.307518869638441
leaf_count=1042 20 441 223 103 139 88 116 143 232 228 222 51 88 45 81 245 127 30 31 59 98 87 1259 20 1155 144 40 27 67
internal_value=0 0.0683215 0.0189559 -0.0528021 -0.00781673 0.132289 0.0636547 -0.0277858 0.100624 -0.0428478 -0.0197543 -0.0856504 0.158457 -0.0470348 -0.0306986 0.018333 0.102556 -0.0263502 0.147872 0.0137769 0.0381412 0.0710164 -0.0459902 0.0797121 -0.102099 -0.0689026 -0.0216981 0.0860979 -0.0775746
internal_weight=0 528.731 298.529 668.874 250.572 230.202 93.7866 443.852 76.9066 179.002 420.965 101.903 47.957 73.1501 372.458 88.538 30.6274 57.9106 55.6503 77.0997 65.7622 25.2456 283.92 71.5696 225.022 65.2528 38.412 13.0877 25.3242
internal_count=6651 3266 1670 3385 1359 1596 554 2127 466 898 1984 513 311 374 1762 422 147 275 350 385 326 118 1340 461 1258 329 185 67 118
is_linear=0
shrinkage=0.2


Tree=9
num_leaves=30
num_cat=0
split_feature=1 0 3 4 5 4 4 2 0 5 0 0 5 6 5 0 5 5 0 5 5 5 5 6 4 4 4 5 1
split_gain=22.2547 18.4002 14.1534 8.60244 9.04051 8.56284 17.3695 9.41553 9.20178 10.1796 8.49197 5.80825 5.49548 7.15622 6.17834 7.27914 5.37654 7.53747 5.3134 8.66426 6.34647 5.65438 5.0904 5.45227 5.4514 5.26246 5.027 7.04732 4.9053
threshold=800.50000000000011 25.500000000000004 1.0000000180025095e-35 2.5000000000000004 2.5000000000000004 8.5000000000000018 9.5000000000000018 1.0000000180025095e-35 38.500000000000007 18.500000000000004 61.500000000000007 59.500000000000007 21.500000000000004 3.5000000000000004 16.500000000000004 62.500000000000007 21.500000000000004 14.500000000000002 37.500000000000007 7.5000000000000009 5.5000000000000009 15.500000000000002 6.5000000000000009 1.5000000000000002 7.5000000000000009 3.5000000000000004 1.5000000000000002 17.500000000000004 520.50000000000011
decision_type=2 2 2 2 2 2 2 2 2 2 2 2 2 2 2 2 2 2 2 2 2 2 2 2 2 2 2 2 2
left_child=1 26 3 4 -2 8 -7 16 9 -3 -10 18 14 -14 22 -16 17 -8 19 -6 -20 -21 24 -24 25 -5 27 -1 -9
right_child=2 5 -4 12 11 6 7 28 10 -11 -12 -13 13 -15 15 -17 -18 -19 20 21 -22 -23 23 -25 -26 -27 -28 -29 -30
leaf_value=0.082132239168029586 -0.1938100769967992 -0.011836639496513658 0.076145785335135704 -0.043045233587703846 0.10160785053322965 -0.24506277840749027 3.8704534662694063e-05 -0.1172042298092944 0.07624442132560301 0.065915213886849067 -0.092136253971394577 -0.16425221552220501 -0.14730632550686307 0.066835069282538823 0.017813515968083758 -0.25468665273846086 -0.075856836987397591 0.21365323719500112 -0.096597989501994899 -0.15109884377013197 0.062468441594471458 -0.018728987428560571 -0.15807569618450601 -0.059299622158828239 0.025248244256094978 -0.28229995690648146 -0.19633298250737918 -0.21423424042716596 0.066548358438597202
leaf_weight=8.1664735972881335 9.8019097372889501 185.33825022727251 44.304061360657215 13.147017464041712 15.429270870983599 12.474155724048613 11.396671898663046 22.189833223819736 248.30802781134844 105.63648944348097 12.473303906619547 7.8332190811634055 49.395613305270672 7.0603656098246566 61.874399773776531 4.046039752662181 6.6267550289630881 15.583038061857222 11.347462043166159 20.237811453640461 79.74835991114378 35.344690829515457 39.115900553762913 52.576863303780556 33.22850876301527 5.001638025045394 17.414970546960831 5.0951492041349402 7.7521604746580115
leaf_count=50 52 1050 262 69 87 64 53 128 1526 658 76 47 286 45 342 25 29 86 61 111 468 213 214 281 173 25 97 29 44
internal_value=0 0.0248026 -0.0314976 -0.0422305 -0.00843433 0.0322028 -0.030681 0.0118461 0.0408727 0.0164088 0.0681457 0.00240826 -0.0650986 -0.120427 -0.0500819 0.00058484 0.0843467 0.123884 0.010596 -0.0303813 0.0425366 -0.0671834 -0.0734048 -0.101614 -0.0229215 -0.110635 -0.126097 -0.0327789 -0.0695415
internal_weight=0 658.455 489.493 445.189 179.743 627.779 76.0226 63.5485 551.756 290.975 260.781 169.941 265.446 56.456 208.99 65.9204 33.6065 26.9797 162.108 71.0118 91.0958 55.5825 143.07 91.6928 51.3772 18.1487 30.6766 13.2616 29.942
internal_count=6651 3890 2761 2499 1039 3714 404 340 3310 1708 1602 987 1460 331 1129 367 168 139 940 411 529 324 762 495 267 94 176 79 172
is_linear=0
shrinkage=0.2


Tree=10
num_leaves=30
num_cat=0
split_feature=7 7 4 1 7 0 4 3 7 2 5 1 5 5 1 5 0 4 5 7 2 1 1 4 0 2 0 5 4
split_gain=95.4095 26.6217 20.26 15.8008 13.0147 10.7299 9.31477 8.1366 7.18967 7.10718 6.66877 5.98672 5.83852 8.05561 6.5243 6.16892 5.58275 5.41169 6.44486 8.43158 6.0432 5.20442 5.50671 4.87433 4.81139 4.5508 4.60115 4.20162 8.98613
threshold=177.50000000000003 364.50000000000006 1.0000000180025095e-35 -1.0000000180025095e-35 93.500000000000014 59.500000000000007 10.500000000000002 1.0000000180025095e-35 924.50000000000011 1.0000000180025095e-35 12.500000000000002 -1.0000000180025095e-35 21.500000000000004 14.500000000000002 980.50000000000011 27.500000000000004 28.500000000000004 5.5000000000000009 29.500000000000004 165.50000000000003 1.0000000180025095e-35 1356.0000000000002 691.50000000000011 9.5000000000000018 29.500000000000004 1.0000000180025095e-35 30.500000000000004 28.500000000000004 8.5000000000000018
decision_type=2 2 2 2 2 2 2 2 2 2 2 2 2 2 2 2 2 2 2 2 2 2 2 2 2 2 2 2 2
left_child=2 3 25 -2 24 6 7 9 27 12 11 -6 13 21 15 -14 -11 -12 19 20 23 22 -5 -19 -4 -1 -27 -3 -29
right_child=1 8 4 5 10 -7 -8 -9 -10 16 17 -13 14 -15 -16 -17 -18 18 -20 -21 -22 -23 -24 -25 -26 26 -28 28 -30
leaf_value=0.21630523973750682 0.18659159587178886 -0.063420584468469071 -0.0078257856968892842 0.014488822284064437 0.26477485960272829 -0.12349200456987686 -0.1603210272731663 0.10302321178657188 -0.12073084779857191 -0.11492597669357224 0.10589122616414044 -0.02094119342803677 -0.076723834732322138 0.14778382003335799 -0.1713408938758211 0.16860087087462489 -0.010811737698776226 -0.090025043211611366 0.23263537941389953 0.24232878743604297 -0.13484258721488585 -0.076258733694350156 0.18990558265551805 0.17783308455847335 0.15485387724244049 -0.11689453116572746 0.15713227478269221 0.068693249039760818 -0.1639686677130664
leaf_weight=54.494457423686981 17.796303629875183 326.93726744502783 8.1479053273797017 27.963599883019924 2.9226082414388648 28.365137346088886 13.040989868342875 34.31477814167738 86.090482838451862 23.789725258946419 63.424888357520103 69.649925760924816 8.9214405119419151 30.227169096469879 9.7097802087664586 7.3579313382506362 148.39505100995302 4.888410530984407 4.3807199597358695 4.049746945500373 17.209537640213966 16.015080794692039 9.4939001053571683 5.8020710796117783 66.525787442922592 3.3609685748815528 8.155801407992838 26.016167342662811 8.7602658346295339
leaf_count=529 109 1655 57 163 19 180 79 189 526 145 439 370 51 174 51 41 715 25 24 21 90 75 47 27 611 17 56 126 54
internal_value=0 -0.0358735 0.0938271 0.00341053 0.0674523 -0.0057751 0.00441501 0.0112772 -0.0687958 6.27606e-05 0.0371762 -0.00894833 0.0398232 0.0655115 -0.0428154 0.0346489 -0.0252781 0.0706976 0.00908713 -0.0224436 -0.0618918 0.0187404 0.0594901 0.055769 0.137122 0.192166 0.0767198 -0.056393 0.00966358
internal_weight=0 823.195 313.013 375.391 247.002 357.595 329.229 316.188 447.804 281.874 172.328 72.5725 109.689 83.6997 25.9892 16.2794 172.185 99.7554 36.3305 31.9498 27.9 53.4726 37.4575 10.6905 74.6737 66.0112 11.5168 361.714 34.7764
internal_count=6665 4380 2285 2019 1683 1910 1730 1651 2361 1462 1015 389 602 459 143 92 860 626 187 163 142 285 210 52 668 602 73 1835 180
is_linear=0
shrinkage=0.2


Tree=11
num_leaves=30
num_cat=0
split_feature=7 6 2 4 1 7 5 5 5 7 6 1 4 5 7 1 7 5 5 7 5 4 1 6 7 5 4 5 7
split_gain=66.1767 25.2855 22.6715 16.9529 12.8642 7.53743 7.51815 8.59436 7.89713 7.35913 6.7832 7.80152 6.21579 13.0497 6.13831 5.32418 5.32214 4.5257 6.18292 7.82369 6.04363 7.55869 5.12404 5.04801 4.90643 4.74062 6.37185 11.4662 4.82613
threshold=285.50000000000006 3.5000000000000004 1.0000000180025095e-35 1.0000000180025095e-35 62.500000000000007 924.50000000000011 13.500000000000002 9.5000000000000018 21.500000000000004 179.50000000000003 1.5000000000000002 9434.0000000000018 2.5000000000000004 27.500000000000004 66.500000000000014 223.50000000000003 260.50000000000006 28.500000000000004 21.500000000000004 268.50000000000006 15.500000000000002 5.5000000000000009 2106.5000000000005 1.5000000000000002 222.50000000000003 9.5000000000000018 7.5000000000000009 5.5000000000000009 91.500000000000014
decision_type=2 2 2 2 2 2 2 2 2 2 2 2 2 2 2 2 2 2 2 2 2 2 2 2 2 2 2 2 2
left_child=1 2 3 -1 16 10 7 -5 -8 -3 11 -2 -10 -14 -6 -12 -4 18 19 20 25 22 23 -22 -20 26 27 -16 -27
right_child=5 9 4 6 14 -7 8 -9 12 -11 15 -13 13 -15 17 -17 -18 -19 24 -21 21 -23 -24 -25 -26 28 -28 -29 -30
leaf_value=0.16670856809079521 -0.070382466055995727 0.19527819483553843 0.1267845195907765 0.029704742013436355 0.13629847083139476 -0.10477349777149228 0.13321566350157243 -0.15561978993574646 0.1378350812321775 0.069150753875467458 0.023282056850106838 0.18769759631762389 -0.25257907674783309 0.077468830246718828 -0.16431957939489791 -0.037067085423622116 -0.13172587577776104 0.065921330424863631 -0.074495958738190135 0.13558185534620049 -0.058033073389207747 -0.11850541176287516 0.20739076046796648 0.1392502297943182 -0.25373469483197669 -0.32239353143804056 0.048681881865457369 0.03907655468754747 -0.090955059510877581
leaf_weight=64.986612141132355 211.604267552495 54.139220595359802 33.410217680037022 41.306742049753666 8.9256473630666715 80.077081844210625 46.365930609405041 13.058226518332956 8.7033366635441798 28.40473860502243 87.826226688921452 4.6607025265693656 8.2536091059446353 11.056824922561644 24.983095027506351 174.37778178602457 3.4068041890859595 17.311009593307972 24.72735320776701 11.235502034425734 11.978591211140161 10.033115632832049 8.8532464653253538 8.9397407546639425 8.0676274299621564 3.8859476223587981 26.621941715478897 19.763479791581631 37.596126921474934
leaf_count=644 1130 547 222 228 91 526 315 70 69 157 433 27 41 58 126 892 17 110 140 55 75 58 46 55 47 25 139 107 215
internal_value=0 0.0503435 0.0317862 0.08354 -0.00683951 -0.0480189 0.0414237 -0.0150942 0.0826841 0.152066 -0.0384925 -0.064703 -0.00119745 -0.0644003 -0.0249432 -0.0168513 0.102456 -0.031753 -0.0403904 -0.0244764 -0.03637 0.0305568 0.0811102 0.0266432 -0.119478 -0.059985 -0.0286347 -0.0746424 -0.113645
internal_weight=0 536.015 453.471 193.731 259.739 558.546 128.745 54.365 74.3797 82.544 478.469 216.265 28.0138 19.3104 222.922 262.204 36.817 213.997 196.686 163.891 152.655 39.8047 29.7716 20.9183 32.795 112.851 71.3685 44.7466 41.4821
internal_count=6665 3657 2953 1425 1528 3008 781 298 483 704 2482 1157 168 99 1289 1325 239 1198 1088 901 846 234 176 130 187 612 372 233 240
is_linear=0
shrinkage=0.2


Tree=12
num_leaves=30
num_cat=0
split_feature=7 7 1 4 5 4 5 5 4 4 5 5 4 5 5 5 2 5 4 6 1 7 4 4 1 7 4 5 5
split_gain=51.1219 16.0999 13.448 12.6156 7.79028 7.37309 10.5141 9.0601 14.4511 7.82641 7.23454 8.28621 6.11422 6.0747 6.01853 15.1023 5.77381 5.72431 12.0107 10.7751 5.62279 5.43881 5.41236 5.33717 6.39455 4.43382 4.55436 4.57249 5.65996
threshold=145.50000000000003 364.50000000000006 -1.0000000180025095e-35 3.5000000000000004 4.5000000000000009 1.0000000180025095e-35 16.500000000000004 20.500000000000004 1.5000000000000002 7.5000000000000009 21.500000000000004 4.5000000000000009 1.5000000000000002 27.500000000000004 21.500000000000004 27.500000000000004 1.0000000180025095e-35 9.5000000000000018 9.5000000000000018 3.5000000000000004 472.50000000000006 66.500000000000014 1.5000000000000002 4.5000000000000009 1011.5000000000001 1243.0000000000002 6.5000000000000009 7.5000000000000009 13.500000000000002
decision_type=2 2 2 2 2 2 2 2 2 2 2 2 2 2 2 2 2 2 2 2 2 2 2 2 2 2 2 2 2
left_child=3 2 -2 4 12 10 17 22 -9 20 11 -4 16 -12 21 -16 -1 -7 19 23 -10 -5 -8 24 -19 26 -3 -28 -29
right_child=1 25 5 14 -6 6 7 8 9 -11 13 -13 -14 -15 15 -17 -18 18 -20 -21 -22 -23 -24 -25 -26 -27 27 28 -30
leaf_value=0.22208218939812305 0.16870471427437228 -0.053547100328773772 -0.15011216837583236 0.19978636670581573 0.15730511729176702 -0.016614726091252609 0.22968936848309762 -0.34191614532883791 0.10676618368876477 -0.089904619638354319 -0.11258176586656346 0.12092604811105134 -0.26330900397688767 0.1327072449535929 -0.24330414780094026 0.10298350721701871 -0.099090339334685557 -0.18202971691819408 0.08577304808658108 0.097788062529312575 -0.013709679154131939 0.041021944780058273 0.061997611673693366 -0.23889455741285648 -0.012752219644533722 -0.12228861459630327 0.072864802850996765 -0.14840624252651746 0.0023550013055092444
leaf_weight=4.4924946650862676 19.353474780917168 313.75810106098652 4.8625869005918494 10.026505123823879 95.899664051830769 123.19404119998217 9.0552944317460042 4.8913016244769087 29.788581341505051 23.957238234579563 14.567929185926916 47.746259972453117 2.8515340536832801 5.4366665408015242 9.3527305796742457 10.61349483579397 4.2166616693139076 20.19463387876749 13.288635298609732 7.6824795529246321 32.07474922388792 58.044843129813671 48.689117789268494 19.134245134890079 15.950791068375109 29.974206566810608 23.871374510228634 12.645481131970881 45.070264682173729
leaf_count=43 143 1672 24 116 1112 604 50 24 173 148 89 369 18 45 47 74 24 101 80 44 175 329 280 115 77 209 135 77 268
internal_value=0 -0.0205205 0.00630752 0.0926851 0.138633 -0.00122009 -0.0133237 0.0269613 -0.0124701 0.00683167 0.0566844 0.095543 -0.0162871 -0.0454613 0.0364693 -0.0597907 0.0674726 -0.0433076 -0.0863246 -0.122757 0.044412 0.0647683 0.0887854 -0.153576 -0.107665 -0.0482591 -0.0426051 -0.000506195 -0.0309553
internal_weight=0 865.187 439.868 195.498 107.46 420.515 347.901 148.456 90.7119 85.8206 72.6134 52.6088 11.5607 20.0046 88.0376 19.9662 8.70916 199.445 76.2508 62.9621 61.8633 68.0713 57.7444 55.2797 36.1454 425.319 395.345 81.5871 57.7157
internal_count=6665 4902 2541 1763 1197 2398 1871 850 520 496 527 393 85 134 566 121 67 1021 417 337 348 445 330 293 178 2361 2152 480 345
is_linear=0
shrinkage=0.2


end of trees

feature_importances:
Column_5=93
Column_4=86
Column_7=63
Column_0=46
Column_1=31
Column_2=25
Column_6=22
Column_3=11

parameters:
[boosting: gbdt]
[objective: binary]
[metric: auc]
[tree_learner: serial]
[device_type: cpu]
[linear_tree: 0]
[data: ]
[valid: ]
[num_iterations: 200]
[learning_rate: 0.2]
[num_leaves: 30]
[num_threads: -1]
[deterministic: 0]
[force_col_wise: 0]
[force_row_wise: 0]
[histogram_pool_size: -1]
[max_depth: 12]
[min_data_in_leaf: 20]
[min_sum_hessian_in_leaf: 0.001]
[bagging_fraction: 0.748008]
[pos_bagging_fraction: 1]
[neg_bagging_fraction: 1]
[bagging_freq: 10]
[bagging_seed: 3]
[feature_fraction: 0.821763]
[feature_fraction_bynode: 1]
[feature_fraction_seed: 2]
[extra_trees: 0]
[extra_seed: 6]
[early_stopping_round: 2]
[first_metric_only: 0]
[max_delta_step: 0]
[lambda_l1: 0]
[lambda_l2: 0.139711]
[linear_lambda: 0]
[min_gain_to_split: 0]
[drop_rate: 0.1]
[max_drop: 50]
[skip_drop: 0.5]
[xgboost_dart_mode: 0]
[uniform_drop: 0]
[drop_seed: 4]
[top_rate: 0.2]
[other_rate: 0.1]
[min_data_per_group: 100]
[max_cat_threshold: 32]
[cat_l2: 10]
[cat_smooth: 10]
[max_cat_to_onehot: 4]
[top_k: 20]
[monotone_constraints: ]
[monotone_constraints_method: basic]
[monotone_penalty: 0]
[feature_contri: ]
[forcedsplits_filename: ]
[refit_decay_rate: 0.9]
[cegb_tradeoff: 1]
[cegb_penalty_split: 0]
[cegb_penalty_feature_lazy: ]
[cegb_penalty_feature_coupled: ]
[path_smooth: 0]
[interaction_constraints: ]
[verbosity: 1]
[saved_feature_importance_type: 0]
[max_bin: 255]
[max_bin_by_feature: ]
[min_data_in_bin: 3]
[bin_construct_sample_cnt: 200000]
[data_random_seed: 1]
[is_enable_sparse: 1]
[enable_bundle: 1]
[use_missing: 1]
[zero_as_missing: 0]
[feature_pre_filter: 1]
[pre_partition: 0]
[two_round: 0]
[header: 0]
[label_column: ]
[weight_column: ]
[group_column: ]
[ignore_column: ]
[categorical_feature: ]
[forcedbins_filename: ]
[objective_seed: 5]
[num_class: 1]
[is_unbalance: 0]
[scale_pos_weight: 1]
[sigmoid: 1]
[boost_from_average: 1]
[reg_sqrt: 0]
[alpha: 0.9]
[fair_c: 1]
[poisson_max_delta_step: 0.7]
[tweedie_variance_power: 1.5]
[lambdarank_truncation_level: 30]
[lambdarank_norm: 1]
[label_gain: ]
[eval_at: ]
[multi_error_top_k: 1]
[auc_mu_weights: ]
[num_machines: 1]
[local_listen_port: 12400]
[time_out: 120]
[machine_list_filename: ]
[machines: ]
[gpu_platform_id: -1]
[gpu_device_id: -1]
[gpu_use_dp: 0]
[num_gpu: 1]

end of parameters

pandas_categorical:null
