tree
version=v3
num_class=1
num_tree_per_iteration=1
label_index=0
max_feature_idx=23
objective=binary sigmoid:1
feature_names=Column_0 Column_1 Column_2 Column_3 Column_4 Column_5 Column_6 Column_7 Column_8 Column_9 Column_10 Column_11 Column_12 Column_13 Column_14 Column_15 Column_16 Column_17 Column_18 Column_19 Column_20 Column_21 Column_22 Column_23
feature_infos=[-6847:81204] [0:1] [0:1] [0:11] [0:35] [3:3881] [370.59561128526644:740] [0.0002576655501159495:0.33333333333333331] none [0:1] [0:1] [0:1] [0:1] [0:1] [0:1] [0:1] [0:1] [0:1] [0:1] [0:3176] [-1410482:73437504] [0:1] [8.9589679268948217e-05:0.99995520516036551] [0.00017917935853789643:1]
tree_sizes=6361 6436

Tree=0
num_leaves=60
num_cat=0
split_feature=23 7 1 3 7 3 3 20 1 7 23 1 3 3 4 3 3 3 1 3 20 7 0 3 20 3 2 6 7 23 2 20 2 3 19 3 4 23 19 4 19 0 2 23 6 16 6 7 7 4 4 3 7 6 3 7 20 0 3
split_gain=1725.23 453.744 361.421 331.45 164.549 109.324 81.4614 80.2923 66.0433 61.3341 52.3501 42.7378 38.8735 33.9766 32.1808 30.6051 28.98 27.6492 24.534 21.0425 19.1414 18.5309 17.0971 15.265 16.8668 14.7812 13.8935 12.9748 12.9149 12.8281 11.1903 11.0156 10.5265 9.6411 9.62422 9.43105 9.01568 8.93577 8.41249 8.18365 8.17011 7.98138 7.31989 6.7766 6.4998 6.22415 6.29285 6.19601 5.87525 5.61679 5.30704 5.29635 5.12126 4.93957 4.89097 4.86598 4.84921 4.65046 4.5105
threshold=0.40315355671026704 0.0022701504844361993 1.0000000180025095e-35 3.5000000000000004 0.011561079925153704 3.5000000000000004 1.0000000180025095e-35 86719.000000000015 1.0000000180025095e-35 0.0068260180784642634 0.83334079913993919 1.0000000180025095e-35 8.5000000000000018 4.5000000000000009 2.5000000000000004 10.500000000000002 2.5000000000000004 8.5000000000000018 1.0000000180025095e-35 10.500000000000002 11730.500000000002 0.0079682539682539699 974.50000000000011 4.5000000000000009 26406.000000000004 4.5000000000000009 1.0000000180025095e-35 380.20135552317146 0.002460028322097288 0.31333990324314648 1.0000000180025095e-35 85042.500000000015 1.0000000180025095e-35 7.5000000000000009 17.500000000000004 9.5000000000000018 1.0000000180025095e-35 0.67125067192259469 269.50000000000006 1.0000000180025095e-35 102.50000000000001 -1.0000000180025095e-35 1.0000000180025095e-35 0.61516753270023306 387.2220837829081 1.0000000180025095e-35 383.12882985322454 0.0021436251849537278 0.012903762903762906 1.5000000000000002 2.5000000000000004 5.5000000000000009 0.0066007319623562219 380.20135552317146 7.5000000000000009 0.0012507822277847312 655.50000000000011 704.50000000000011 1.5000000000000002
decision_type=2 2 2 2 2 2 2 2 2 2 2 2 2 2 2 2 2 2 2 2 2 2 2 2 2 2 2 2 2 2 2 2 2 2 2 2 2 2 2 2 2 2 2 2 2 2 2 2 2 2 2 2 2 2 2 2 2 2 2
left_child=3 10 6 9 8 7 37 41 19 11 18 16 13 -10 20 22 -1 23 27 25 -13 31 28 -7 -25 -5 36 47 -8 -22 -20 -15 51 52 -14 40 58 -3 -29 56 -35 -4 -31 49 50 46 -38 -2 -6 -43 53 -26 57 -24 -23 -12 -30 -27 -9
right_child=1 2 5 4 48 17 15 26 12 -11 55 14 34 21 -16 -17 -18 -19 30 -21 29 54 44 24 32 33 -28 38 39 42 -32 -33 -34 35 -36 -37 45 -39 -40 -41 -42 43 -44 -45 -46 -47 -48 -49 -50 -51 -52 -53 -54 -55 -56 -57 -58 -59 -60
leaf_value=0.27999255972564047 0.020284117203318061 0.25865335314884313 0.26547439873074713 0.038591137954252008 0.19421068167315564 -0.044760625872580215 0.038591137954252008 0.039006678843157908 -0.017055991852506627 0.28873398355122304 -0.047089739983344855 0.23996414809875327 0.091999428986878851 0.14685935379006343 0.27638174366656815 -0.041044070197007329 0.07606102725091414 -0.053036897355540305 -0.017563619087908669 -0.013331700603371674 0.17954217267237493 0.22968935708662322 0.097159606244399954 0.13836848482836311 0.054920874920446255 0.23450772343227932 0.17164319919749843 0.13162665314764715 0.20671042552650004 0.061924436775286654 0.081711414129389162 0.059722288912595602 0.15951503346766033 0.079321248103948805 -0.022409867872226194 0.21324913251675504 0.06064335222454955 0.17928492937850382 0.044343586090101139 0.21162042841665524 0.2153054314193128 0.15706620078729427 0.18216325424176977 0.11143261519890596 0.16981842092348381 0.0066448340278009582 0.13882611531230427 0.10694540937608753 0.28133847046250487 0.22968935708662322 0.18216325424176977 -0.0034120772338108035 0.26957243926218299 0.0076720602458200809 0.14274516158561679 -0.018636166865089634 0.1301738835280786 0.12588862173703128 -0.022910781245353742
leaf_weight=90.933987647294998 77.23160594701767 106.38030883669853 7.7231605947017661 5.7300868928432456 11.211039572954176 26.657360762357712 5.7300868928432456 28.899568676948547 19.432468593120575 413.56279313564301 252.87122592329979 13.453247487545012 9.2179658710956556 23.916884422302246 20.67813965678215 7.9722948074340811 7.224892169237136 84.954766541719437 129.79892483353615 4.9826842546463004 17.68852910399437 15.446321189403534 37.619266122579575 14.948052763938902 26.408226549625397 8.2214290201663953 7.7231605947017661 26.906494975090027 10.712771147489546 34.131387144327164 13.204113274812697 34.629655569791794 4.9826842546463004 15.695455402135851 45.840695142745972 17.937663316726685 40.85801088809967 18.435931742191315 17.68852910399437 52.318184673786163 5.2318184673786154 35.626192420721054 5.2318184673786154 19.432468593120575 13.453247487545012 14.698918551206587 13.204113274812697 9.4671000838279706 64.276626884937286 15.446321189403532 5.2318184673786154 52.567318886518478 19.432468593120575 6.7266237437725058 11.709307998418808 125.06537479162216 30.643508166074753 7.224892169237136 26.657360762357712
leaf_count=365 310 427 31 23 45 107 23 116 78 1660 1015 54 37 96 83 32 29 341 521 20 71 62 151 60 106 33 31 108 43 137 53 139 20 63 184 72 164 74 71 210 21 143 21 78 54 59 53 38 258 62 21 211 78 27 47 502 123 29 107
internal_value=0.117833 0.0465717 0.101571 0.223422 0.141105 0.0421201 0.186283 0.0932753 0.101172 0.267043 -0.0137116 0.219144 0.0635335 0.099504 0.169178 0.141122 0.264765 -0.00868716 0.0200878 0.172402 0.136306 0.12694 0.1508 0.0222142 0.0414291 0.185242 0.0458725 0.0519669 0.176471 0.110507 -0.00864993 0.0952298 0.0241388 0.197368 -0.00390189 0.161722 0.037764 0.247398 0.0963187 0.185507 0.115662 0.173205 0.0788719 0.161549 0.110087 0.0630326 0.0797665 0.0295604 0.269339 0.180421 0.0933086 0.0152642 0.235206 0.0818682 0.193991 -0.0379832 0.151314 0.18661 0.00771583
internal_weight=0 1368.25 716.012 923.042 320.137 420.788 295.224 210.269 244.65 602.905 652.233 189.342 160.193 105.135 91.1831 170.408 98.1589 210.518 274.297 84.4565 70.505 85.7022 162.436 125.564 98.9063 79.4738 132.041 131.294 99.4046 57.0517 143.003 58.5465 83.9582 73.7437 55.0587 38.8649 124.318 124.816 44.595 93.6745 20.9273 78.2281 39.3632 70.505 63.031 68.761 54.0621 86.6987 75.4877 51.0725 49.5777 78.9755 34.8788 44.3459 27.1556 377.937 41.3563 15.4463 55.5569
internal_count=9197 5492 2874 3705 1285 1689 1185 844 982 2420 2618 760 643 422 366 684 394 845 1101 339 283 344 652 504 397 319 530 527 399 229 574 235 337 296 221 156 499 501 179 376 84 314 158 283 253 276 217 348 303 205 199 317 140 178 109 1517 166 62 223
is_linear=0
shrinkage=1


Tree=1
num_leaves=60
num_cat=0
split_feature=7 7 1 5 1 0 14 0 5 14 2 4 7 1 10 1 0 10 0 2 4 7 19 5 2 10 5 10 0 0 19 7 6 4 6 14 4 0 6 14 19 7 6 7 7 22 6 7 14 7 4 0 0 6 6 19 5 14 0
split_gain=1410.53 362.39 290.189 183.711 134.605 71.1639 67.5355 46.9793 42.1375 39.7812 37.4929 34.9349 34.3653 24.4151 23.7495 19.737 17.6982 17.3591 15.877 15.2096 12.2031 11.1041 10.5222 9.58068 8.97354 8.53946 8.32417 8.18145 7.2921 6.98791 6.1865 5.97532 7.82909 5.95416 5.9226 5.76536 5.97153 7.88516 5.63029 5.6949 5.63435 5.545 5.5285 5.51054 5.40865 5.26155 5.24586 5.18302 5.16961 5.03782 4.9357 4.85363 4.85086 4.38747 4.5877 4.38249 4.13159 4.03152 4.84675
threshold=0.0048426434032174852 0.0022701504844361993 1.0000000180025095e-35 130.50000000000003 1.0000000180025095e-35 61.500000000000007 1.0000000180025095e-35 103.50000000000001 651.50000000000011 1.0000000180025095e-35 1.0000000180025095e-35 2.5000000000000004 0.012579113924050636 1.0000000180025095e-35 1.0000000180025095e-35 1.0000000180025095e-35 974.50000000000011 1.0000000180025095e-35 103.50000000000001 1.0000000180025095e-35 1.0000000180025095e-35 0.0020898664407194207 59.500000000000007 406.50000000000006 1.0000000180025095e-35 1.0000000180025095e-35 300.50000000000006 1.0000000180025095e-35 718.50000000000011 943.50000000000011 215.50000000000003 0.0059347703578472811 379.03106782938738 2.5000000000000004 379.3272819065308 1.0000000180025095e-35 2.5000000000000004 598.50000000000011 381.6591538196264 1.0000000180025095e-35 474.50000000000006 0.001746726223166014 372.6913736958133 0.0051679931627584006 0.0099504950495049524 0.45278623902526433 384.83422705305264 0.0033613540324949724 1.0000000180025095e-35 0.0043956256279465188 1.5000000000000002 533.50000000000011 1405.5000000000002 388.61377105297214 393.408789070257 1.0000000180025095e-35 398.50000000000006 1.0000000180025095e-35 290.50000000000006
decision_type=2 2 2 2 2 2 2 2 2 2 2 2 2 2 2 2 2 2 2 2 2 2 2 2 2 2 2 2 2 2 2 2 2 2 2 2 2 2 2 2 2 2 2 2 2 2 2 2 2 2 2 2 2 2 2 2 2 2 2
left_child=1 8 6 12 9 22 16 25 15 17 20 19 13 48 -15 21 23 -5 -16 31 57 38 56 27 -17 -6 -8 49 51 -12 -23 -9 50 53 -19 36 46 -38 40 52 -1 -41 -37 -13 -20 -34 -22 -44 -2 -3 -33 -29 -40 -18 -55 -27 -4 58 -7
right_child=3 2 5 4 7 10 26 11 -10 -11 29 43 -14 14 18 24 33 34 44 -21 35 30 -24 -25 -26 55 -28 28 -30 -31 -32 32 45 -35 -36 42 37 -39 39 41 -42 -43 47 -45 -46 -47 -48 -49 -50 -51 -52 -53 -54 54 -56 -57 -58 -59 -60
leaf_value=-0.097712061588372812 0.12123314767140164 0.062013952926316097 0.02476230140609139 0.10005007385160264 0.1141282296567981 -0.077493904339387659 0.14308604607781311 -0.079469334419604576 -0.13982959894294061 0.16047064872321054 0.087632238302769713 -0.0075641887854372945 0.16359696975003524 0.1105245408386588 0.1312979876588434 -0.12149653669070803 -0.043459361835643445 -0.015225482432374532 -0.036411078957569211 0.048580092653413474 -0.10266280566746602 0.042270803341010396 0.12230013934225908 -0.07208251717085977 -0.032657499173558702 -0.044824787839486811 0.087878877777577788 0.016243348334750728 0.1100758072464926 -0.028990843085207624 -0.054781010095543696 -0.027294549223665532 -0.010385427318476215 0.056628054935708189 0.064218787972202637 0.057011737783100119 0.020861810103700119 -0.078921766457495185 -0.029652506696100894 -0.043169972247401822 -0.018990665405332993 0.086378529801372894 0.01143832570683756 0.10794776301276457 0.037041986009356556 -0.12401848586556802 -0.04827629613282778 -0.097379800472807684 0.16584897573939553 0.14058726061475596 0.067391132703939469 -0.079710976453847671 -0.14533954146388206 0.08935357416799064 -0.036184101246565084 0.056756532155790275 -0.058047560733871822 -0.064611183530693547 -0.12686672311429104
leaf_weight=67.480116292834282 78.231557741761208 47.765301421284676 42.252364814281464 56.50048416852951 28.831224709749222 29.692138373851776 64.90831732749939 67.681948497891426 379.09848694503307 82.107703059911728 12.914036124944689 5.1848594397306469 236.62715689837933 93.989392474293709 10.103862971067427 130.2399540245533 48.150692090392113 25.485508188605309 22.553702220320702 14.144997179508207 88.400987505912781 14.453088432550432 10.117255538702009 5.7478596717119208 13.227908000349997 5.4625867307186153 57.690505057573318 26.57244847714901 6.2220552116632453 7.7051271796226493 10.730886235833166 46.237448766827583 5.9675668627023724 8.1868498176336271 13.845209330320357 5.4876988828182247 12.439120441675184 19.730168610811234 11.219592854380609 6.2354461401700991 10.998576924204825 5.482944130897522 7.230537265539172 17.728054642677307 16.770779311656952 13.20363590121269 24.93226683139801 9.7233831286430341 58.766663074493408 10.140044555068014 5.4626967906951895 5.7266607582569113 4.988931030035018 4.9641245603561384 5.2190848290920258 12.876161396503447 6.2302058935165396 19.476059898734093 121.69455699622631
leaf_count=270 318 193 170 229 117 119 264 271 1517 335 52 21 966 382 41 521 193 103 91 57 354 58 41 23 53 22 234 107 25 31 43 186 24 33 56 22 50 79 45 25 44 22 29 72 68 53 100 39 240 41 22 23 20 20 21 52 25 78 487
internal_value=0 -0.064452 -0.0149091 0.095844 0.0448932 -0.0682487 0.061614 -0.00694446 -0.118089 0.109534 -0.0848847 -0.0307814 0.135201 0.110841 0.081191 -0.0878043 0.0203812 0.0649215 0.0245375 -0.0481127 -0.0928516 -0.0592351 0.0335578 0.0463753 -0.113533 0.0808293 0.117848 0.0539733 0.0177363 0.0445984 0.000502249 -0.0582071 -0.037239 -0.019622 0.0134657 -0.0730032 -0.0802742 -0.0407693 -0.0732716 -0.0333852 -0.0869835 0.0190966 -0.0247164 0.0824378 -0.00497106 -0.0904861 -0.091122 -0.0525519 0.141226 0.0775075 -0.0164125 -0.00229 -0.070439 -0.0309468 0.0270707 0.0258875 0.0133487 -0.111928 -0.117643
internal_weight=0 1363.48 709.32 917.763 400.72 418.026 291.294 222.781 654.156 177.939 359.426 175.611 517.043 280.416 143.418 275.057 168.695 95.8312 49.4283 152.698 338.807 131.59 58.5998 102.174 143.468 47.17 122.599 96.4265 38.5212 20.6192 25.184 138.553 70.8713 66.5208 39.3307 167.944 145.503 32.1693 106.406 27.9269 78.4787 11.7184 22.4416 22.9129 39.3245 19.1712 113.333 16.9539 136.998 57.9053 51.7001 32.2991 16.2085 58.3339 10.1832 18.3387 48.4826 170.863 151.387
internal_count=9197 5471 2853 3726 1620 1676 1177 897 2618 723 1440 706 2106 1140 582 1101 679 388 200 613 1357 527 236 412 574 191 498 389 155 83 101 556 285 267 159 673 583 129 426 112 314 47 90 93 159 77 454 68 558 234 208 130 65 234 41 74 195 684 606
is_linear=0
shrinkage=0.1


end of trees

feature_importances:
Column_7=19
Column_3=16
Column_0=13
Column_6=11
Column_4=10
Column_1=8
Column_2=7
Column_19=7
Column_14=6
Column_5=5
Column_20=5
Column_23=5
Column_10=4
Column_16=1
Column_22=1

parameters:
[boosting: gbdt]
[objective: binary]
[metric: auc,l2]
[tree_learner: serial]
[device_type: cpu]
[linear_tree: 0]
[data: ]
[valid: ]
[num_iterations: 200]
[learning_rate: 0.1]
[num_leaves: 60]
[num_threads: -1]
[deterministic: 0]
[force_col_wise: 0]
[force_row_wise: 0]
[histogram_pool_size: -1]
[max_depth: 9]
[min_data_in_leaf: 20]
[min_sum_hessian_in_leaf: 0.001]
[bagging_fraction: 0.966057]
[pos_bagging_fraction: 1]
[neg_bagging_fraction: 1]
[bagging_freq: 2]
[bagging_seed: 3]
[feature_fraction: 0.830422]
[feature_fraction_bynode: 1]
[feature_fraction_seed: 2]
[extra_trees: 0]
[extra_seed: 6]
[early_stopping_round: 2]
[first_metric_only: 0]
[max_delta_step: 0]
[lambda_l1: 0]
[lambda_l2: 0.802788]
[linear_lambda: 0]
[min_gain_to_split: 0]
[drop_rate: 0.1]
[max_drop: 50]
[skip_drop: 0.5]
[xgboost_dart_mode: 0]
[uniform_drop: 0]
[drop_seed: 4]
[top_rate: 0.2]
[other_rate: 0.1]
[min_data_per_group: 100]
[max_cat_threshold: 32]
[cat_l2: 10]
[cat_smooth: 10]
[max_cat_to_onehot: 4]
[top_k: 20]
[monotone_constraints: ]
[monotone_constraints_method: basic]
[monotone_penalty: 0]
[feature_contri: ]
[forcedsplits_filename: ]
[refit_decay_rate: 0.9]
[cegb_tradeoff: 1]
[cegb_penalty_split: 0]
[cegb_penalty_feature_lazy: ]
[cegb_penalty_feature_coupled: ]
[path_smooth: 0]
[interaction_constraints: ]
[verbosity: 1]
[saved_feature_importance_type: 0]
[max_bin: 255]
[max_bin_by_feature: ]
[min_data_in_bin: 3]
[bin_construct_sample_cnt: 200000]
[data_random_seed: 1]
[is_enable_sparse: 1]
[enable_bundle: 1]
[use_missing: 1]
[zero_as_missing: 0]
[feature_pre_filter: 1]
[pre_partition: 0]
[two_round: 0]
[header: 0]
[label_column: ]
[weight_column: ]
[group_column: ]
[ignore_column: ]
[categorical_feature: ]
[forcedbins_filename: ]
[objective_seed: 5]
[num_class: 1]
[is_unbalance: 0]
[scale_pos_weight: 1]
[sigmoid: 1]
[boost_from_average: 1]
[reg_sqrt: 0]
[alpha: 0.9]
[fair_c: 1]
[poisson_max_delta_step: 0.7]
[tweedie_variance_power: 1.5]
[lambdarank_truncation_level: 30]
[lambdarank_norm: 1]
[label_gain: ]
[eval_at: ]
[multi_error_top_k: 1]
[auc_mu_weights: ]
[num_machines: 1]
[local_listen_port: 12400]
[time_out: 120]
[machine_list_filename: ]
[machines: ]
[gpu_platform_id: -1]
[gpu_device_id: -1]
[gpu_use_dp: 0]
[num_gpu: 1]

end of parameters

pandas_categorical:null
