tree
version=v3
num_class=1
num_tree_per_iteration=1
label_index=0
max_feature_idx=10
objective=binary sigmoid:1
feature_names=Column_0 Column_1 Column_2 Column_3 Column_4 Column_5 Column_6 Column_7 Column_8 Column_9 Column_10
feature_infos=[18:95] [-6847:81204] [0:2] [0:11] [0:3] [0:1] [0:1] [0:11] [1:31] [1:63] [3:3881]
tree_sizes=3227 3245 3254 3256 3253 3253 3268 3263 3248 3247 3263 3249 3260 3275 3266

Tree=0
num_leaves=30
num_cat=0
split_feature=10 10 5 7 10 7 1 7 5 10 10 5 7 7 8 8 7 9 7 8 8 8 8 8 1 6 8 7 5
split_gain=1501.85 419.056 331.139 273.472 141.915 111.76 63.1025 62.3052 59.1171 58.3035 56.1714 46.4184 38.703 45.0863 33.0837 36.9058 31.4614 28.9734 25.1492 24.9254 30.5362 22.263 21.194 26.4841 20.4734 17.3596 17.1455 41.1364 16.334
threshold=205.50000000000003 447.50000000000006 1.0000000180025095e-35 3.5000000000000004 87.500000000000014 3.5000000000000004 202.50000000000003 2.5000000000000004 1.0000000180025095e-35 136.50000000000003 651.50000000000011 1.0000000180025095e-35 8.5000000000000018 4.5000000000000009 17.500000000000004 8.5000000000000018 2.5000000000000004 3.5000000000000004 8.5000000000000018 21.500000000000004 15.500000000000002 4.5000000000000009 16.500000000000004 21.500000000000004 1035.5000000000002 1.0000000180025095e-35 27.500000000000004 6.5000000000000009 1.0000000180025095e-35
decision_type=2 2 2 2 2 2 2 2 2 2 2 2 2 2 2 2 2 2 2 2 2 2 2 2 2 2 2 2 2
left_child=3 2 7 9 -5 6 -4 21 22 -1 25 16 13 -10 15 -15 -11 24 26 20 -9 -2 -6 -24 -13 28 -7 -28 -3
right_child=1 10 5 4 8 18 -8 19 12 11 -12 17 -14 14 -16 -17 -18 -19 -20 -21 -22 -23 23 -25 -26 -27 27 -29 -30
leaf_value=0.46403634225997403 0.086346125628208842 -0.034021552567937 0.25440281081120802 0.42153560589218797 0.097829182663709727 -0.11417799988085943 -0.0012053745327590681 0.078859597245622234 -0.20983242490780896 0.44924004206210094 -0.20280902950492752 0.24444699813186732 -0.13104824554818961 0.22799828506124464 0.31431620726911152 -0.14106242140359898 0.029493869035029111 0.442048772038584 -0.23568842096399328 -0.059389458792038899 0.32318161902761172 0.36249490273861634 0.41530555167173266 0.069644516871061352 0.021586402092665893 0.07580229479017922 -0.27360006595722169 0.42026618817604816 -0.1469817245014638
leaf_weight=335.83291876316071 12.705844849348066 95.916671901941299 55.556929439306259 67.515371650457382 27.653897613286972 97.41147717833519 126.80931428074837 45.591560930013657 16.442858040332794 94.920135051012039 329.60456344485283 44.595024079084396 48.830305695533752 21.674676507711411 30.892642378807068 21.674676507711411 7.7231605947017661 18.68506595492363 72.747190117835999 20.17987123131752 37.120997697114944 144.24870917201042 32.387447655200958 12.207576423883436 26.159092336893082 27.155629187822342 5.9792211055755597 7.972294807434082 109.86818781495094
leaf_count=1348 51 385 223 271 111 391 509 183 66 381 1323 179 196 87 124 87 31 75 292 81 149 579 130 49 105 109 24 32 441
internal_value=0.117833 -0.0243883 0.0881446 0.329099 0.169047 -0.0343088 0.076665 0.260847 0.0885452 0.413769 -0.149679 0.325881 0.0125016 0.0898014 0.15617 0.0434645 0.417656 0.220552 -0.14423 0.13989 0.188512 0.34014 0.235387 0.320685 0.162051 -0.0744994 -0.0844797 0.122882 -0.0943328
internal_weight=0 1188.87 626.323 807.195 279.279 366.476 182.366 259.847 211.764 527.915 562.545 192.082 139.515 90.6849 74.242 43.3494 102.643 89.4392 184.11 102.892 82.7126 156.955 72.2489 44.595 70.7541 232.94 111.363 13.9515 205.785
internal_count=8012 4772 2514 3240 1121 1471 732 1043 850 2119 2258 771 560 364 298 174 412 359 739 413 332 630 290 179 284 935 447 56 826
is_linear=0
shrinkage=1


Tree=1
num_leaves=30
num_cat=0
split_feature=5 7 0 0 1 7 7 8 8 1 2 9 7 8 7 8 7 7 4 0 9 7 8 8 8 1 8 7 7
split_gain=250.816 164.415 98.9562 103.774 67.5458 45.0247 30.768 30.1238 24.7126 22.2377 22.0332 18.0615 36.4686 17.4139 34.4367 22.2766 29.3656 16.4183 13.0808 15.9355 12.2513 11.5229 20.5537 11.3592 10.2799 9.91777 9.81398 10.1877 27.0777
threshold=1.0000000180025095e-35 8.5000000000000018 60.500000000000007 29.500000000000004 819.50000000000011 2.5000000000000004 10.500000000000002 15.500000000000002 18.500000000000004 99.500000000000014 1.0000000180025095e-35 3.5000000000000004 4.5000000000000009 21.500000000000004 7.5000000000000009 16.500000000000004 7.5000000000000009 6.5000000000000009 1.5000000000000002 37.500000000000007 1.5000000000000002 3.5000000000000004 4.5000000000000009 7.5000000000000009 2.5000000000000004 -1.0000000180025095e-35 20.500000000000004 3.5000000000000004 4.5000000000000009
decision_type=2 2 2 2 2 2 2 2 2 2 2 2 2 2 2 2 2 2 2 2 2 2 2 2 2 2 2 2 2
left_child=5 2 3 9 8 10 11 21 18 -2 24 12 -7 15 -15 16 -14 -11 25 -20 -9 22 -6 -18 -1 -5 -10 -28 -29
right_child=1 -3 -4 4 7 6 -8 20 26 17 -12 -13 13 14 -16 -17 23 -19 19 -21 -22 -23 -24 -25 -26 -27 27 28 -30
leaf_value=-0.060622089226570586 0.00034526128535409693 -0.25106549174331672 -0.25937736018335861 0.19023856822736562 -0.25959166590708233 -0.15538330433296177 -0.29255570029333683 -0.069005652973043716 0.2149570500946886 -0.27161199757642734 0.064560374744104254 0.15641671898413023 -0.29260988476734567 0.15320040917446176 -0.26607983496634641 0.12971921025483846 0.11138586058878724 -0.070483976672351373 -0.1147583955640052 0.20603393409149429 0.051264183668059071 -0.21062703091335419 -0.041002848571652983 -0.044601629924523545 0.14768199372929217 -0.0054198103358248009 0.13698751825408995 -0.34319398815448721 0.095058458485376515
leaf_weight=9.7489385604858381 20.799203589558601 162.52441342175007 70.443529412150383 11.009497120976446 21.533790677785873 44.40791280567646 12.417010962963102 52.506015539169312 40.168533653020859 74.672373041510582 256.29460115730762 38.61528192460537 12.420667916536329 13.364853397011755 18.934196248650551 102.14961713552475 40.427359595894814 20.746838375926018 7.8963227570056906 28.712661147117615 95.489587113261223 40.101019620895386 85.599244698882103 34.700135558843613 338.07963201403618 175.91145545244217 94.126101061701775 6.9303672313690177 30.231125384569168
leaf_count=40 85 657 284 45 87 180 50 213 165 302 1057 158 50 54 76 420 163 84 32 118 390 162 347 140 1398 716 387 28 124
internal_value=0 -0.0663019 -0.0320565 -0.012199 0.017241 0.0770121 0.0160263 -0.055127 0.0713319 -0.187039 0.109057 0.0285901 0.0100607 0.043157 -0.0925893 0.0662706 -0.00776129 -0.227883 0.0275181 0.136839 0.00859439 -0.119177 -0.0849433 0.0393386 0.141843 0.0061062 0.128452 0.101982 0.0133135
internal_weight=0 1039.4 876.878 806.434 690.216 921.56 317.437 295.23 394.986 116.218 604.123 305.02 266.405 221.997 32.299 189.698 87.5482 95.4192 223.53 36.609 147.996 147.234 107.133 75.1275 347.829 186.921 171.456 131.288 37.1615
internal_count=8012 4226 3569 3285 2814 3786 1291 1199 1615 471 2495 1241 1083 903 130 773 353 386 911 150 603 596 434 303 1438 761 704 539 152
is_linear=0
shrinkage=0.2


Tree=2
num_leaves=30
num_cat=0
split_feature=10 10 5 10 1 6 1 5 0 0 10 9 10 0 0 4 0 10 9 1 8 9 5 1 10 10 4 10 0
split_gain=998.207 321.967 212.545 80.1108 68.9824 46.2359 27.4406 27.1891 25.5355 27.9775 24.8858 24.4531 24.2841 19.0227 18.2763 17.9745 16.8874 14.1714 12.4744 12.0628 11.3989 11.2527 13.8938 14.4495 10.729 10.6859 9.26699 8.60467 7.42923
threshold=365.50000000000006 134.50000000000003 1.0000000180025095e-35 613.50000000000011 61.500000000000007 1.0000000180025095e-35 974.50000000000011 1.0000000180025095e-35 29.500000000000004 59.500000000000007 78.500000000000014 1.5000000000000002 477.50000000000006 25.500000000000004 60.500000000000007 1.0000000180025095e-35 59.500000000000007 183.50000000000003 1.5000000000000002 -1.0000000180025095e-35 4.5000000000000009 1.5000000000000002 1.0000000180025095e-35 111.50000000000001 203.50000000000003 801.50000000000011 1.5000000000000002 251.50000000000003 58.500000000000007
decision_type=2 2 2 2 2 2 2 2 2 2 2 2 2 2 2 2 2 2 2 2 2 2 2 2 2 2 2 2 2
left_child=1 10 6 7 18 8 27 12 -6 11 -1 -10 -2 -12 21 -13 20 -11 19 -4 24 22 -15 -24 -8 -5 -25 -3 -9
right_child=3 2 4 25 5 -7 16 28 9 17 13 15 -14 14 -16 -17 -18 -19 -20 -21 -22 -23 23 26 -26 -27 -28 -29 -30
leaf_value=0.29625955249788694 0.027367758776471185 0.21982128738203965 0.30109180201763935 -0.21485134433264741 -0.2240201114192597 0.15932045150379681 0.14057653243928808 -0.15312912222192254 -0.12302696984384663 -0.03761218775827474 -0.081702607262608348 0.096789626002193541 -0.1350125338911046 0.23896419841295444 -0.060555541614935759 -0.057242598189872373 -0.29468810307527749 -0.28440963189874446 0.1981760921813227 -0.04146977036987913 0.11037502476814842 0.25755627104992213 0.30406711126540309 -0.024487727047874528 -0.24004465274539299 -0.28472322766192271 0.25124082734514325 0.13867724877338244 -0.25830959272744114
leaf_weight=194.49824579060078 71.321727514266968 146.37344591319561 5.0577464103698757 146.76438136398792 64.62354388833046 27.406386360526085 4.8179145604372007 145.61975902318954 117.93390348553658 12.431847527623175 9.1443845778703672 50.017225697636604 76.19484806060791 51.68193331360817 9.4696968495845777 76.879351869225502 4.892117202281951 37.026925340294838 40.533974602818489 21.945528298616409 90.228251680731773 145.87546920776367 9.4240102469921094 27.767789542675018 7.6852897256612778 217.16268256306648 5.9120869338512412 81.335629776120186 32.943417564034462
leaf_count=836 295 619 21 595 266 112 20 594 483 51 38 204 306 221 39 314 20 153 169 90 379 622 40 115 31 879 25 339 136
internal_value=0 0.107943 0.0307572 -0.19204 -0.0584589 -0.0910605 0.151506 -0.120045 -0.11018 -0.0851805 0.242181 -0.0574631 -0.0565051 0.201612 0.21197 0.0034709 0.068285 -0.222379 0.128022 0.0227097 0.0855753 0.222694 0.169036 0.0851849 -0.0933792 -0.256547 0.0239249 0.190839 -0.172537
internal_weight=0 1242.96 789.189 690.007 453.856 386.319 335.333 326.08 358.913 294.289 453.774 244.83 147.517 259.275 250.131 126.897 107.624 49.4588 67.5372 27.0033 102.731 240.661 94.7858 43.1039 12.5032 363.927 33.6799 227.709 178.563
internal_count=8012 5207 3271 2805 1863 1583 1408 1331 1471 1205 1936 1001 601 1100 1062 518 450 204 280 111 430 1023 401 180 51 1474 140 958 730
is_linear=0
shrinkage=0.2


Tree=3
num_leaves=30
num_cat=0
split_feature=10 10 10 0 1 0 0 10 10 9 3 3 3 1 9 1 10 3 6 8 8 0 10 0 6 0 1 0 1
split_gain=670.166 152.169 131.691 51.2325 40.5343 40.841 38.8909 25.0725 23.9468 20.9327 18.6794 19.2235 17.2164 15.2717 13.8497 13.1833 12.7463 11.9726 11.7474 9.52353 9.49457 9.43369 9.28313 8.54867 8.46444 7.98741 7.9686 7.9129 7.49407
threshold=257.50000000000006 119.50000000000001 477.50000000000006 60.500000000000007 866.50000000000011 28.500000000000004 60.500000000000007 679.50000000000011 151.50000000000003 1.5000000000000002 10.500000000000002 3.5000000000000004 5.5000000000000009 -1.0000000180025095e-35 5.5000000000000009 1695.0000000000002 76.500000000000014 3.5000000000000004 1.0000000180025095e-35 2.5000000000000004 29.500000000000004 33.500000000000007 365.50000000000006 25.500000000000004 1.0000000180025095e-35 74.500000000000014 186.50000000000003 53.500000000000007 2379.5000000000005
decision_type=2 2 2 2 2 2 2 2 2 2 2 2 2 2 2 2 2 2 2 2 2 2 2 2 2 2 2 2 2
left_child=1 16 6 4 5 23 10 24 -6 13 11 15 -13 -7 18 19 -1 26 -10 -2 22 -14 -21 -3 -4 -5 -15 -17 -23
right_child=2 3 7 25 8 9 -8 -9 14 -11 -12 12 21 17 -16 27 -18 -19 -20 20 -22 28 -24 -25 -26 -27 -28 -29 -30
leaf_value=0.26514649773524401 -0.21008649369812227 -0.18081835118121312 -0.1503480834348796 -0.2418634146713016 0.12015500717646566 0.29646517536031974 -0.24516683118943372 -0.22547032330880667 -0.067770554828057286 0.19421150377746269 -0.21748325663160287 0.1036934146871193 -0.17122111594052891 0.083642894439675305 0.22452993092771301 -0.094595114061743993 0.18914607613916212 0.14987887992145285 0.12599240880731474 0.040765249594032119 -0.19543358686299056 -0.032040315380439645 -0.055114625158902891 0.0055508159266609708 -0.031338350029971075 -0.028383071637028835 -0.0489294586467513 -0.30012219327039041 0.1925898580788625
leaf_weight=170.41035249829292 9.7611659914255124 16.222932770848274 182.08167308568954 24.084250509738922 53.223937317728996 12.227856770157812 33.515778437256813 290.71953673660755 131.94936336576939 155.92240940034389 18.51135228574276 85.391889840364456 15.777949810028074 34.061836808919907 7.7751981168985358 57.032718151807785 183.19563615322113 39.43097884953022 13.825623929500578 104.98219491541386 10.125977396965025 29.115882813930511 65.649768754839897 25.035974115133286 27.519377171993256 9.8895302116870862 38.783368036150932 8.6252762675285322 7.4615267515182486
leaf_count=806 40 69 751 102 230 56 147 1226 552 686 79 359 66 147 33 239 826 170 58 441 43 121 272 107 111 42 166 36 31
internal_value=0 0.12297 -0.117014 0.0583354 0.0736405 0.118049 -0.0379859 -0.187454 0.00455239 0.145383 -0.0211487 -0.0119214 0.0483297 0.0842316 -0.0355191 -0.0443188 0.225774 0.0611127 -0.0493922 -0.0176837 -0.00729148 -0.0419694 0.00387575 -0.0677344 -0.134723 -0.179726 0.0130609 -0.121603 0.0137905
internal_weight=0 916.039 946.272 562.433 528.459 321.685 445.951 500.321 206.774 280.426 412.436 393.924 137.747 124.504 153.55 256.177 353.606 112.276 145.775 190.519 180.758 52.3554 170.632 41.2589 209.601 33.9738 72.8452 65.658 36.5774
internal_count=8012 4050 3962 2418 2274 1401 1874 2088 873 1225 1727 1648 577 539 643 1071 1632 483 610 796 756 218 713 176 862 144 313 275 152
is_linear=0
shrinkage=0.2


Tree=4
num_leaves=30
num_cat=0
split_feature=7 5 8 7 0 7 8 8 7 2 8 8 7 7 0 1 5 8 8 7 0 5 8 7 7 0 9 1 1
split_gain=134.68 52.134 49.7434 34.0854 33.4442 30.8269 27.6012 42.2209 37.376 27.4062 22.9484 22.0788 22.0257 21.1166 18.2899 16.5425 14.1447 13.4069 23.5875 14.7932 12.6175 10.379 10.1572 10.8409 9.53476 10.6111 9.73739 8.4406 7.97907
threshold=3.5000000000000004 1.0000000180025095e-35 4.5000000000000009 8.5000000000000018 60.500000000000007 4.5000000000000009 17.500000000000004 6.5000000000000009 7.5000000000000009 1.0000000180025095e-35 21.500000000000004 27.500000000000004 7.5000000000000009 10.500000000000002 29.500000000000004 675.00000000000011 1.0000000180025095e-35 15.500000000000002 7.5000000000000009 9.5000000000000018 59.500000000000007 1.0000000180025095e-35 19.500000000000004 6.5000000000000009 2.5000000000000004 35.500000000000007 1.5000000000000002 3042.0000000000005 2530.5000000000005
decision_type=2 2 2 2 2 2 2 2 2 2 2 2 2 2 2 2 2 2 2 2 2 2 2 2 2 2 2 2 2
left_child=2 10 21 5 9 -3 7 12 20 15 13 -12 -7 17 16 -4 -11 18 -2 -20 22 -1 -8 -24 25 -17 -26 -19 -16
right_child=1 3 4 -5 -6 6 8 -9 -10 14 11 -13 -14 -15 28 24 -18 27 19 -21 -22 -23 23 -25 26 -27 -28 -29 -30
leaf_value=-0.0200061830617695 0.078477687245053565 -0.21349961435022413 0.11889639383818623 -0.19008062496771586 -0.18185245848023135 -0.2566821277588423 0.23329055438886162 -0.20376463323117458 -0.27170759675518474 0.019089695140475586 -0.31961010862628358 -0.015801619108793758 0.081683908577467185 -0.26367034718267185 0.060461609153838053 -0.022565710364755798 -0.1285962608675196 0.11773032805525069 -0.25174013307841231 -0.0019504098695957636 -0.24160675736851062 -0.15243870111322519 -0.01870824454341271 0.14914385072255337 -0.18128874141462697 0.099886113015433931 0.020815080718739644 -0.012504980682227435 -0.027395201103715097
leaf_weight=42.355866089463234 46.778107315301895 49.750403314828873 338.94867268204689 147.22925120592117 23.006476998329163 9.1672550886869413 19.26037435233593 71.035807713866234 13.312840729951857 56.276418775320053 15.789477452635763 24.280450224876404 47.864705815911293 9.3673564940690976 275.41909004747868 35.908095821738243 48.119265198707581 88.304232493042946 20.046293303370476 17.996793165802956 4.3884310424327841 53.661934182047844 30.182218670845032 31.40415894985199 11.797963351011274 133.70526246726513 49.693699479103088 25.698013722896576 48.651653707027435
leaf_count=188 202 219 1574 657 104 39 84 309 57 250 66 105 208 39 1247 162 210 406 84 76 20 233 134 139 50 601 220 115 214
internal_value=0 -0.0697009 0.0436081 -0.112352 0.0565446 -0.0709422 -0.0396441 -0.100872 0.0399247 0.0620377 0.00307276 -0.135527 0.0272883 0.0297496 0.0238189 0.0907638 -0.0489846 0.0435763 -0.016633 -0.13358 0.0886035 -0.094021 0.106533 0.066885 0.0495025 0.0739624 -0.0179657 0.0883734 0.0472719
internal_weight=0 671.856 1117.54 423.595 1021.53 276.366 226.616 128.068 98.548 998.52 248.261 40.0699 57.032 208.191 428.466 570.054 104.396 198.823 84.8212 38.0431 85.2352 96.0178 80.8468 61.5864 231.105 169.613 61.4917 114.002 324.071
internal_count=8012 2959 5053 1866 4632 1209 990 556 434 4528 1093 171 247 922 1921 2607 460 883 362 160 377 421 357 273 1033 763 270 521 1461
is_linear=0
shrinkage=0.2


Tree=5
num_leaves=30
num_cat=0
split_feature=10 10 5 10 1 9 10 5 0 3 9 10 1 8 8 1 0 0 3 1 10 1 0 0 9 1 4 8 5
split_gain=476.829 166.153 108.29 39.0146 32.1206 19.3422 17.3136 14.8268 17.9566 14.2499 10.7525 10.5092 11.8948 10.3148 13.9649 15.9064 10.1624 9.43205 10.0931 8.72848 8.43955 8.17782 8.11483 7.41751 7.29803 6.88004 6.6878 6.63931 6.20866
threshold=384.50000000000006 134.50000000000003 1.0000000180025095e-35 679.50000000000011 61.500000000000007 3.5000000000000004 78.500000000000014 1.0000000180025095e-35 28.500000000000004 4.5000000000000009 1.5000000000000002 201.50000000000003 598.50000000000011 16.500000000000004 21.500000000000004 1369.5000000000002 61.500000000000007 37.500000000000007 4.5000000000000009 2144.5000000000005 165.50000000000003 111.50000000000001 25.500000000000004 31.500000000000004 1.5000000000000002 -1.0000000180025095e-35 1.0000000180025095e-35 8.5000000000000018 1.0000000180025095e-35
decision_type=2 2 2 2 2 2 2 2 2 2 2 2 2 2 2 2 2 2 2 2 2 2 2 2 2 2 2 2 2
left_child=1 6 9 28 24 13 -1 -8 -9 19 21 -7 -13 17 16 22 23 27 20 26 -19 -10 -16 -15 25 -4 -3 -6 -2
right_child=3 2 4 -5 5 11 7 8 10 -11 -12 12 -14 14 15 -17 -18 18 -20 -21 -22 -23 -24 -25 -26 -27 -28 -29 -30
leaf_value=0.23715437522335084 -0.067525166793791017 0.13398065798622733 0.24350214352611183 -0.19816805360450482 -0.10265227653375684 0.2094356910962866 0.205229492326098 -0.11797156450906679 0.22317953152158268 0.16873535601090905 0.179019182402361 0.16830386542154269 -0.099058268250602322 -0.074023878725075667 -0.25647170039346873 -0.19364415938965612 -0.23388167683587879 0.041877400109159094 0.03650156197288381 -0.0043668830678250696 -0.13782633132061659 0.0044232210050019821 0.010650754799252348 0.11242651013413558 0.14465944682233875 -0.033410925727219508 0.054271797210360087 -0.2072801231845027 -0.12216641774302223
leaf_weight=152.71438434720039 157.51930394768715 98.666630029678345 4.2430506199598339 274.50734835863113 49.745997175574303 13.447221279144285 104.58483818173409 13.170596137642859 8.6131820529699308 112.05752949416637 66.852132350206375 10.305196300148966 18.788251921534538 11.060352593660353 5.0623762607574454 34.23417329788208 4.8461392372846595 12.723301023244856 27.697265595197678 39.42041352391243 58.577087447047234 33.092692106962204 44.704505786299706 37.357194185256958 38.068407475948334 23.218752920627594 73.453659981489182 47.364953279495239 176.27317270636559
leaf_count=836 649 451 21 1226 214 61 529 55 43 525 328 44 81 49 24 156 25 54 119 170 259 145 198 159 174 98 330 208 781
internal_value=0 0.0768334 0.0231857 -0.142315 -0.0412382 -0.063763 0.185117 0.150001 0.102549 0.111071 0.129304 0.0632342 -0.00435088 -0.0799689 -0.0379184 -0.0887151 0.0421923 -0.109401 -0.0659575 0.0805232 -0.105759 0.0496096 -0.0165305 0.0698331 0.0879734 0.0093886 0.0999653 -0.153687 -0.0963813
internal_weight=0 1144.07 765.042 608.3 441.444 375.914 379.028 226.313 121.729 323.598 108.558 42.5407 29.0934 333.373 137.265 84.0011 53.2637 196.109 98.9977 211.541 71.3004 41.7059 49.7669 48.4175 65.5302 27.4618 172.12 97.111 333.792
internal_count=8012 5356 3420 2656 1944 1651 1936 1100 571 1476 516 186 125 1465 611 378 233 854 432 951 313 188 222 208 293 119 781 422 1430
is_linear=0
shrinkage=0.2


Tree=6
num_leaves=30
num_cat=0
split_feature=7 7 7 7 5 0 7 7 0 6 6 1 9 7 0 1 7 0 3 5 1 7 1 2 0 3 1 3 9
split_gain=84.2347 26.3503 33.6242 22.6566 25.8704 20.2627 18.2078 17.9186 17.5705 15.8848 12.5403 11.6399 11.9882 18.7028 9.58832 10.956 11.6616 7.3309 6.88889 6.75368 6.34317 6.34274 6.29347 6.21243 6.18231 6.13455 6.0174 5.33028 5.31767
threshold=3.5000000000000004 4.5000000000000009 8.5000000000000018 9.5000000000000018 1.0000000180025095e-35 61.500000000000007 10.500000000000002 1.0000000180025095e-35 29.500000000000004 1.0000000180025095e-35 1.0000000180025095e-35 30.500000000000004 1.5000000000000002 2.5000000000000004 24.500000000000004 974.50000000000011 5.5000000000000009 60.500000000000007 1.5000000000000002 1.0000000180025095e-35 3782.5000000000005 6.5000000000000009 192.50000000000003 1.0000000180025095e-35 76.500000000000014 4.5000000000000009 186.50000000000003 3.5000000000000004 6.5000000000000009
decision_type=2 2 2 2 2 2 2 2 2 2 2 2 2 2 2 2 2 2 2 2 2 2 2 2 2 2 2 2 2
left_child=5 -2 9 -4 6 7 -5 19 10 14 -9 -10 13 25 -3 17 -17 27 -11 23 21 -18 -21 -1 -6 -13 -27 -16 -14
right_child=1 2 3 4 24 -7 -8 8 11 18 -12 12 28 -15 15 16 20 -19 -20 22 -22 -23 -24 -25 -26 26 -28 -29 -30
leaf_value=0.10895693963788314 -0.1877174950122123 -0.23616717352380512 -0.23966211371063656 0.040780643319718916 -0.15264287191342527 -0.16066721274422077 -0.22723055667942213 -0.10779840001970786 0.089940014081359113 -0.004077409004611279 0.10884409635733719 -0.024758701430977376 0.028040303660525269 -0.14972955400975829 0.0024465456476299402 0.00056551878046103487 -0.27309121227332417 -0.15068263746222077 0.16418900105228112 0.11173082505517706 -0.22890249950563812 -0.054115582527186401 -0.024945576651006333 0.054801896033927579 0.092644511597806289 -0.12045189230416675 0.11637714984890977 0.081015562288145743 0.10767934748139543
leaf_weight=180.51509615778923 56.290609300136566 8.0423540472984296 40.133373871445656 76.395287275314331 98.685185968875885 20.626873806118965 11.689001888036726 63.818555250763893 106.81341017782688 14.582654744386671 12.835770174860953 57.848474577069283 265.51123198866844 39.288201898336411 93.904545813798904 65.84358885884285 6.085305079817771 9.4087461531162244 29.257530853152275 18.802934512495995 15.947460025548933 40.467984959483147 47.55384948849678 159.69835139811039 4.2875518947839728 5.0223723500967017 29.426777049899101 54.631490409374237 38.384594470262527
leaf_count=919 268 38 187 356 490 104 50 299 546 71 59 263 1257 174 436 308 29 47 139 88 75 187 217 768 22 24 135 256 200
internal_value=0 -0.0571832 -0.0442771 -0.103059 -0.0743619 0.0355861 0.0052106 0.0395338 0.0181072 -0.00409073 -0.0715197 0.0307764 0.0162646 -0.034164 -0.0208199 -0.0147689 -0.0581713 0.0204998 0.108221 0.0721526 -0.120048 -0.0827498 0.0137854 0.0835367 -0.142428 0.0150308 0.0818447 0.0313449 0.0381
internal_weight=0 625.653 569.362 231.19 191.057 1046.15 88.0843 1025.52 618.949 338.172 76.6543 542.295 435.482 131.586 294.331 286.289 128.344 157.945 43.8402 406.57 62.5008 46.5533 66.3568 340.213 102.973 92.2976 34.4491 148.536 303.896
internal_count=8012 2959 2691 1105 918 5053 406 4949 2957 1586 358 2599 2053 596 1376 1338 599 739 210 1992 291 216 305 1687 512 422 159 692 1457
is_linear=0
shrinkage=0.2


Tree=7
num_leaves=30
num_cat=0
split_feature=10 10 5 6 10 10 4 1 5 10 10 0 9 3 3 9 1 1 1 1 0 6 10 4 9 0 0 9 3
split_gain=345.768 122.848 61.0462 26.5058 26.1697 16.0061 14.8032 12.3971 11.2861 10.9562 10.1467 9.76984 9.41559 8.18286 11.6213 7.62185 7.65191 6.93739 6.71272 6.56023 6.37618 6.06114 6.03122 5.96483 5.83282 5.641 5.40279 5.25414 4.95934
threshold=410.50000000000006 138.50000000000003 1.0000000180025095e-35 1.0000000180025095e-35 788.50000000000011 76.500000000000014 1.5000000000000002 61.500000000000007 1.0000000180025095e-35 175.50000000000003 257.50000000000006 28.500000000000004 3.5000000000000004 10.500000000000002 4.5000000000000009 3.5000000000000004 192.50000000000003 -105.49999999999999 -1.0000000180025095e-35 -50.499999999999993 28.500000000000004 1.0000000180025095e-35 101.50000000000001 1.0000000180025095e-35 1.5000000000000002 59.500000000000007 31.500000000000004 1.5000000000000002 4.5000000000000009
decision_type=2 2 2 2 2 2 2 2 2 2 2 2 2 2 2 2 2 2 2 2 2 2 2 2 2 2 2 2 2
left_child=1 5 6 7 17 -1 10 18 -7 12 23 -10 -9 14 25 16 -13 -2 -4 -12 -16 22 -18 -3 26 -11 -21 -20 -25
right_child=4 2 3 -5 -6 8 -8 9 11 13 19 15 -14 -15 20 -17 21 -19 27 24 -22 -23 -24 28 -26 -27 -28 -29 -30
leaf_value=0.219205341368228 -0.23123493278808935 0.12791655107139108 0.27092030904675646 0.13494173542305229 -0.19058612839186825 0.17932871355219315 0.18575988827487047 -0.01005459603049063 -0.067041869153498621 -0.076523496382808545 0.20986737536469813 0.17779422582941809 0.24009628983291795 -0.20581082732485956 -0.17597484525632914 0.21071622176602284 0.10636292783997883 -0.092286889144729434 -0.053865312278508853 0.07395683945522985 0.028096713888398683 0.2154783846039291 -0.028742800051214414 0.021181721253146095 0.05691425386116733 -0.17138172157118592 -0.074448504623721198 0.079318224863415804 0.21940276207334644
leaf_weight=125.59386391937733 15.018041402101515 103.19890442490578 4.7939992398023596 35.867707148194313 189.41329963505268 103.09975075721741 50.063098728656769 57.363151043653488 14.067773267626761 168.17901968955994 6.8902689814567557 24.405670911073685 6.7222478538751593 18.023778274655342 6.8400096148252478 23.604671001434326 21.504900068044662 334.2633073925972 20.558523774147034 13.002393275499342 58.382941171526909 7.4414093047380439 34.284851297736168 44.325142160058022 50.60772642493248 29.471160292625427 39.978272303938866 27.960634350776672 5.695863038301467
leaf_count=806 63 517 26 163 905 585 254 258 60 765 33 136 33 94 34 129 105 1498 89 59 258 36 160 206 229 168 179 134 30
internal_value=0 0.0647887 0.0188464 -0.0297276 -0.130725 0.161853 0.0860597 -0.0445571 0.130316 -0.0584281 0.0671303 0.0899879 0.0161916 -0.0754522 -0.0665128 0.109847 0.0826741 -0.0982625 0.0451987 0.0209282 0.00669081 0.0459557 0.0233374 0.100444 0.00835701 -0.0906692 -0.0380258 0.0228858 0.0437608
internal_weight=0 1101.93 747.925 434.163 538.695 354.003 313.762 398.295 228.409 344.982 263.699 125.309 64.0854 280.897 262.873 111.242 87.6368 349.281 53.3132 110.479 65.223 63.2312 55.7898 153.22 103.588 197.65 52.9807 48.5192 50.021
internal_count=8012 5546 3529 2022 2466 2017 1507 1859 1211 1610 1253 626 291 1319 1225 566 437 1561 249 500 292 301 265 753 467 933 238 223 236
is_linear=0
shrinkage=0.2


Tree=8
num_leaves=30
num_cat=0
split_feature=10 7 10 10 10 8 7 7 8 8 7 7 0 3 1 7 8 7 8 7 8 4 7 4 8 8 10 8 0
split_gain=237.966 140.268 50.0587 36.3985 34.3374 30.9905 19.1978 36.3429 98.6207 35.3917 29.3615 19.9947 14.2467 12.7714 12.7068 10.7283 27.3205 8.22587 8.13018 7.23156 6.80198 6.77539 6.61876 6.27032 5.92679 8.47789 5.81413 5.62903 5.56974
threshold=351.50000000000006 3.5000000000000004 165.50000000000003 62.500000000000007 613.50000000000011 2.5000000000000004 4.5000000000000009 7.5000000000000009 16.500000000000004 7.5000000000000009 9.5000000000000018 8.5000000000000018 61.500000000000007 10.500000000000002 974.50000000000011 5.5000000000000009 27.500000000000004 10.500000000000002 20.500000000000004 3.5000000000000004 4.5000000000000009 1.0000000180025095e-35 1.0000000180025095e-35 1.5000000000000002 11.500000000000002 26.500000000000004 257.50000000000006 5.5000000000000009 67.500000000000014
decision_type=2 2 2 2 2 2 2 2 2 2 2 2 2 2 2 2 2 2 2 2 2 2 2 2 2 2 2 2 2
left_child=1 2 20 -3 22 -4 -5 8 28 11 -11 21 13 14 26 -10 -17 18 -12 -6 -1 -9 24 -23 -2 -26 27 -7 -8
right_child=4 3 5 6 19 12 7 9 15 10 17 -13 -14 -15 -16 16 -18 -19 -20 -21 -22 23 -24 -25 25 -27 -28 -29 -30
leaf_value=0.075970296537141213 0.072377599722130342 0.21352290772067423 -0.210594225553107 -0.18310534371705378 -0.16578629952673402 0.017144306836917443 -0.24162224242152774 0.2069047902410194 0.23562944955469908 -0.2603465913828017 0.022122293442983651 -0.10229337058389952 -0.1867225665713298 -0.1408514719663688 0.041203002766593923 -0.33911879113033888 0.17258626888988252 -0.17288240659643228 -0.12144385546147266 -0.097223228833046571 0.19879169850733122 -0.016314858241805223 -0.068859826659760384 0.23785668707008681 -0.069803795591621073 0.13837434845916238 0.089787031877712697 0.17802091182930507 0.0048454367733695063
leaf_weight=19.467964723706245 27.580389007925987 23.037068471312523 14.877169683575628 36.581195518374443 207.84706665575504 9.6002281159162504 32.557347401976585 20.294407621026039 52.045119918882847 50.302026525139809 40.600196607410908 24.933615386486053 7.4955768436193457 9.0686368495225889 94.704466328024864 5.0439708158373859 24.140660762786865 22.80823640525341 25.805036872625351 87.427516438066959 245.81676788628101 16.048455029726032 229.11757173389196 5.1192066818475714 52.931054785847664 9.1803699433803541 75.52592408657074 92.79695188254118 4.1330141574144355
leaf_count=105 118 157 66 181 1006 48 149 94 277 241 208 120 43 45 420 23 119 112 128 468 1581 72 1064 25 228 39 358 496 21
internal_value=0 0.0633135 0.126289 -0.0301937 -0.0963445 0.0708958 -0.0457728 -0.0302582 0.0582785 -0.080961 -0.138161 0.0392321 0.0853781 0.0926196 0.100387 0.181202 0.0841315 -0.0692635 -0.0336694 -0.145486 0.189779 0.124341 -0.0508298 0.0451707 -0.00477157 -0.0390306 0.131888 0.162939 -0.21386
internal_weight=0 952.803 569.354 383.45 614.084 304.069 360.412 323.831 117.92 205.911 139.515 66.3957 289.192 281.696 272.628 81.2298 29.1846 89.2135 66.4052 295.275 265.285 41.4621 318.809 21.1677 89.6918 62.1114 177.923 102.397 36.6904
internal_count=8012 5089 3162 1927 2923 1476 1770 1589 589 1000 689 311 1410 1367 1322 419 142 448 336 1474 1686 191 1449 97 385 267 902 544 170
is_linear=0
shrinkage=0.2


Tree=9
num_leaves=30
num_cat=0
split_feature=10 10 7 7 8 10 10 9 0 7 10 7 4 0 2 10 8 0 8 7 8 8 7 7 8 7 7 9 8
split_gain=167.673 67.7881 53.7214 41.7351 23.4284 18.5043 11.2601 11.007 16.343 13.1258 10.4947 10.3563 9.19252 8.14397 8.14003 7.99031 10.0361 7.08193 6.99643 8.85661 7.65939 10.7357 15.9388 15.0757 13.1368 6.34649 6.34267 8.96833 6.05587
threshold=175.50000000000003 520.50000000000011 3.5000000000000004 2.5000000000000004 4.5000000000000009 62.500000000000007 354.50000000000006 1.5000000000000002 59.500000000000007 3.5000000000000004 801.50000000000011 4.5000000000000009 1.0000000180025095e-35 60.500000000000007 1.0000000180025095e-35 113.50000000000001 4.5000000000000009 25.500000000000004 29.500000000000004 8.5000000000000018 2.5000000000000004 16.500000000000004 7.5000000000000009 4.5000000000000009 6.5000000000000009 10.500000000000002 2.5000000000000004 1.5000000000000002 19.500000000000004
decision_type=2 2 2 2 2 2 2 2 2 2 2 2 2 2 2 2 2 2 2 2 2 2 2 2 2 2 2 2 2
left_child=2 3 15 4 -2 -4 13 11 9 28 14 -5 -11 17 -3 -1 -17 -6 19 20 -7 24 23 -23 -22 -13 -18 -28 -9
right_child=1 10 5 7 6 18 -8 8 -10 12 -12 25 -14 -15 -16 16 26 -19 -20 -21 21 22 -24 -25 -26 -27 27 -29 -30
leaf_value=0.19719141032600346 -0.097327665762867499 -0.046636332317762479 0.19938617883767126 -0.1657453135623943 -0.071839268201269374 0.21933833550887877 0.014709003035898831 0.03815931145923121 -0.19637247079621967 0.023529590033038381 -0.14985492487246937 -0.041367296695123484 -0.094053803494895935 -0.1952426130752121 -0.12538622894300031 -0.060986066423845575 0.17206259908686619 0.11496911210815496 0.19857521380059195 -0.084256004886670094 0.070980496605820884 -0.13130071365225424 -0.22696051353406543 0.17573664298468816 -0.1572181152616664 -0.1733258937579123 -0.098223088964906613 0.13682727720951371 0.17777255026243366
leaf_weight=133.76424226909876 38.314834505319595 117.4157310128212 20.058051578700542 46.814385332167149 8.5356742143630964 7.1895987242460242 96.636047020554543 44.112068571150303 18.059751406311989 50.363259844481945 158.54542215913534 122.87390068918467 56.350107125937939 3.6689690798521033 94.973068028688431 10.414075300097464 85.345083244144917 165.18537095934153 6.4595865160226813 48.103808954358101 16.544811181724072 7.9388322383165351 6.245896339416503 32.900902412831783 25.861955478787422 16.539736717939377 9.2732634097337741 21.646441124379635 17.300764486193657
leaf_count=1058 173 553 157 235 43 35 422 195 109 242 879 621 277 24 458 51 530 860 33 234 83 39 28 209 120 94 41 128 81
internal_value=0 -0.04206 0.105884 -0.00475901 0.0491561 0.0188949 0.0696382 -0.0499772 -0.0155894 0.00383195 -0.110918 -0.0843567 -0.038561 0.0995613 -0.0818515 0.163099 0.127098 0.10579 -0.00504405 -0.0141311 0.0207604 0.00480263 0.0705406 0.116048 -0.0681883 -0.0570248 0.143946 0.0663305 0.0774946
internal_weight=0 1055.69 431.747 684.755 312.341 171.303 274.026 372.414 186.186 168.126 370.934 186.228 106.713 177.39 212.389 260.443 126.679 173.721 151.245 144.786 96.682 89.4924 47.0856 40.8397 42.4068 139.414 116.265 30.9197 61.4128
internal_count=8012 5266 2746 3376 1522 938 1349 1854 904 795 1890 950 519 927 1011 1808 750 903 781 748 514 479 276 248 203 715 699 169 276
is_linear=0
shrinkage=0.2


Tree=10
num_leaves=30
num_cat=0
split_feature=10 10 7 5 7 10 8 7 7 1 10 8 9 2 7 7 10 0 1 10 4 0 7 8 8 8 10 7 7
split_gain=136.732 39.9993 38.9924 32.8809 21.5486 13.2998 12.8149 10.6964 10.0396 10.5051 8.25962 7.72468 7.24447 7.17885 7.0612 6.80209 6.6334 6.99869 6.52724 6.71065 6.46597 6.75344 6.29585 15.479 13.6286 11.4579 11.1179 9.4829 6.93374
threshold=177.50000000000003 531.50000000000011 3.5000000000000004 1.0000000180025095e-35 1.0000000180025095e-35 78.500000000000014 5.5000000000000009 10.500000000000002 8.5000000000000018 111.50000000000001 279.50000000000006 26.500000000000004 4.5000000000000009 1.0000000180025095e-35 1.0000000180025095e-35 4.5000000000000009 335.50000000000006 30.500000000000004 41.500000000000007 351.50000000000006 1.5000000000000002 50.500000000000007 7.5000000000000009 7.5000000000000009 13.500000000000002 21.500000000000004 165.50000000000003 6.5000000000000009 9.5000000000000018
decision_type=2 2 2 2 2 2 2 2 2 2 2 2 2 2 2 2 2 2 2 2 2 2 2 2 2 2 2 2 2
left_child=2 3 6 4 10 -4 14 15 9 -5 -2 -12 22 -3 -1 18 17 -11 19 -6 21 -19 24 -24 -7 -26 28 -27 -25
right_child=1 13 5 8 7 12 -8 -9 -10 16 11 -13 -14 -15 -16 -17 -18 20 -20 -21 -22 -23 23 26 25 27 -28 -29 -30
leaf_value=0.22180292462925874 0.17025291653651908 -0.069662797064971943 0.15052008587771393 0.0365847449955354 0.17438860667419728 -0.14631141543128443 0.16957056586612701 -0.24103099053714164 -0.12156096430321153 -0.10783483423718827 0.039827664293166934 0.24959769527400966 0.19467076521132265 -0.12848968364047128 -0.0046158382617795006 0.042487016881371957 -0.093536650029092949 0.0040042489925826812 -0.070947519318103544 -0.09329952089701371 0.097443607667504956 -0.10805472064054961 0.081078996379040827 -0.2333255658267695 0.19380980823782168 -0.17785460546150772 0.12107154239644712 0.1215603191328001 -0.076578322591228917
leaf_weight=6.8258605748414984 47.010118037462234 188.47717628628016 27.334320366382599 65.867978386580944 9.936201870441435 11.845448940992354 202.98440434038639 7.4035983383655539 63.762202985584736 34.750336498022079 64.631147041916847 7.8759868144989005 7.0701544955372801 148.25594782829285 28.534626118838787 87.630407005548477 99.268879048526287 80.694781854748726 58.113408282399178 6.0105533003807059 20.117027498781681 29.330223172903061 24.870269134640694 20.407547637820244 22.008619740605354 8.2881688922643661 7.1801266074180594 8.6396837830543518 25.265099793672562
leaf_count=49 297 993 221 322 56 55 1598 36 402 184 304 39 33 821 161 401 490 361 271 26 102 152 124 95 143 41 37 49 122
internal_value=0 -0.0391587 0.0986709 -0.0113254 0.0399556 0.0232586 0.150215 -0.00598912 -0.0489095 -0.0348725 0.104958 0.0626198 -0.00240139 -0.0955635 0.0391012 0.00477595 -0.0526904 -0.0280992 -0.039845 0.0734942 -0.00680695 -0.0258696 -0.0132468 -0.0490294 0.041519 0.0986663 -0.110254 -0.025042 -0.146624
internal_weight=0 1019.14 401.254 682.403 288.611 162.909 238.345 169.094 393.791 330.029 119.517 72.5071 135.575 336.733 35.3605 161.691 264.161 164.892 74.0602 15.9468 130.142 110.025 128.505 77.723 50.7819 38.9365 52.8528 16.9279 45.6726
internal_count=7985 5257 2728 3443 1430 920 1808 790 2013 1611 640 343 699 1814 210 754 1289 799 353 82 615 513 666 378 288 233 254 90 217
is_linear=0
shrinkage=0.2


Tree=11
num_leaves=30
num_cat=0
split_feature=7 0 4 8 8 7 7 9 8 7 8 1 4 0 7 7 7 7 7 8 7 0 0 3 7 8 7 7 0
split_gain=17.8608 12.7886 11.1529 10.6075 8.5702 17.0677 16.0157 18.4279 10.604 10.1857 14.3822 10.9927 8.24475 7.66706 7.3774 14.0472 11.0164 7.1134 14.7509 11.6156 8.3389 7.05985 7.00552 6.72779 6.43861 6.39116 10.9245 8.90708 6.37691
threshold=2.5000000000000004 24.500000000000004 1.5000000000000002 4.5000000000000009 16.500000000000004 7.5000000000000009 4.5000000000000009 1.5000000000000002 8.5000000000000018 8.5000000000000018 20.500000000000004 70.500000000000014 1.0000000180025095e-35 73.500000000000014 7.5000000000000009 8.5000000000000018 9.5000000000000018 4.5000000000000009 9.5000000000000018 9.5000000000000018 10.500000000000002 55.500000000000007 53.500000000000007 3.5000000000000004 10.500000000000002 28.500000000000004 5.5000000000000009 6.5000000000000009 35.500000000000007
decision_type=2 2 2 2 2 2 2 2 2 2 2 2 2 2 2 2 2 2 2 2 2 2 2 2 2 2 2 2 2
left_child=2 -2 3 -1 8 6 7 -6 14 -7 11 -11 21 17 23 -16 -17 -10 19 -19 -20 -5 24 -3 -18 26 -8 -28 -14
right_child=1 4 -4 12 5 9 25 -9 13 10 -12 -13 28 -15 15 16 22 18 20 -21 -22 -23 -24 -25 -26 -27 27 -29 -30
leaf_value=-0.064377716690402265 -0.19397533407126868 -0.099633217086312023 0.077541215821065892 0.049906756108488493 -0.14327283017245562 -0.21219347683878209 0.093395553796009584 0.035147838153622629 -0.03226915029084234 -0.19620556796477892 -0.10239696102571699 0.10984559325907831 -0.058822880878552308 0.1246479773502583 0.086961466482538274 -0.21703205218973343 0.12641704599739875 -0.014006223553019635 0.037983718328804858 -0.2262599070655914 -0.15414788732350024 -0.064542900998262279 -0.20068740476398192 0.039171140677157761 -0.067531209574523729 0.17968993638155084 -0.30102985301090462 0.0059431262987076081 0.0214402826105911
leaf_weight=65.248870924115181 16.890633888542652 46.413637779653072 125.03771698474884 280.24797453731298 34.261355608701706 15.470175892114638 85.241361290216446 71.419292464852333 65.8666155859828 5.5623093843460074 52.946810446679592 30.028353229165077 72.572548657655716 7.3933118358254424 64.270100392401218 12.605834536254404 15.970941036939621 13.208779282867907 27.810375526547432 47.046293437480927 13.382371693849562 23.353895127773285 5.6592813283205023 19.97913159430027 11.981527470052242 22.341387942433357 5.013423055410386 15.36038526892662 87.129613041877747
leaf_count=339 106 245 809 1744 193 81 510 465 364 30 315 170 408 47 338 67 83 75 143 253 82 146 36 113 73 121 28 88 513
internal_value=0 -0.0220519 0.0238268 0.0111196 -0.0178381 0.00491968 0.0349215 -0.0226972 -0.0396932 -0.0624743 -0.0363097 0.062006 0.0217523 -0.0746417 -0.00517357 0.0264888 -0.0576045 -0.0834493 -0.116678 -0.179733 -0.0244389 0.0411026 0.00219689 -0.0578638 0.0432843 0.0825091 0.0619489 -0.0696162 -0.0150335
internal_weight=0 706.124 653.591 528.553 689.233 337.645 233.637 105.681 351.588 104.008 88.5375 35.5907 463.304 174.708 176.88 110.488 46.2176 167.314 101.448 60.2551 41.1927 303.602 33.6117 66.3928 27.9525 127.957 105.615 20.3738 159.702
internal_count=7985 4026 3959 3150 3920 2001 1405 658 1919 596 515 200 2811 964 955 597 259 917 553 328 225 1890 192 358 156 747 626 116 921
is_linear=0
shrinkage=0.2


Tree=12
num_leaves=30
num_cat=0
split_feature=7 8 7 7 8 5 8 8 4 9 8 8 8 8 8 5 3 5 0 1 0 8 8 7 0 9 7 7 8
split_gain=12.0598 11.8082 11.899 11.8819 13.3271 9.84067 9.13852 8.50816 8.44007 7.46702 7.42798 8.97564 7.1075 9.94212 12.8465 8.10368 7.05801 6.80173 6.7265 6.0326 5.87741 5.69702 5.36664 16.391 8.7381 7.98973 7.66535 21.1786 11.5659
threshold=1.0000000180025095e-35 15.500000000000002 7.5000000000000009 9.5000000000000018 20.500000000000004 1.0000000180025095e-35 4.5000000000000009 11.500000000000002 1.5000000000000002 5.5000000000000009 9.5000000000000018 10.500000000000002 27.500000000000004 23.500000000000004 25.500000000000004 1.0000000180025095e-35 1.0000000180025095e-35 1.0000000180025095e-35 25.500000000000004 618.50000000000011 25.500000000000004 22.500000000000004 20.500000000000004 1.5000000000000002 34.500000000000007 2.5000000000000004 6.5000000000000009 3.5000000000000004 21.500000000000004
decision_type=2 2 2 2 2 2 2 2 2 2 2 2 2 2 2 2 2 2 2 2 2 2 2 2 2 2 2 2 2
left_child=6 8 18 17 5 -5 -1 -8 10 12 -2 -12 13 21 -15 16 -16 -4 -3 -7 -13 -9 24 25 -20 -24 27 -25 -29
right_child=1 2 3 4 -6 19 7 9 -10 -11 11 20 -14 14 15 -17 -18 -19 22 -21 -22 -23 23 26 -26 -27 -28 28 -30
leaf_value=-0.13200205336351967 -0.024390462381465576 -0.13338646425072911 -0.31218739995409334 0.12640249042044474 -0.085791434894340407 -0.27826059744300613 0.093388314378809442 0.0092671356366156622 0.026871213534816585 0.17330157131530652 -0.2207095738463877 -0.25545915882998921 0.10685696386796471 -0.32455980815128144 -0.19735846816640693 -0.16878511480022662 0.14228088100233402 -0.096394178371651748 -0.014047971924462034 0.021028903209744477 -0.053389330379623005 0.19113236108761533 -0.33849843732158985 0.048856480833217905 0.087754378668129879 0.0079002350076483787 0.10908101878762529 -0.010106107685336039 -0.20592299185425089
leaf_weight=12.731467373669146 277.46353000402451 10.19833119958639 8.0570900514721888 32.220134004950523 44.580846942961216 4.2422740459442121 87.903910629451275 137.5745732486248 80.680559001863003 11.934648804366587 16.128630273044109 6.0322570055723181 26.637288264930248 7.9804266020655623 3.1525867208838472 10.075860440731049 10.917208433151243 21.25491214543581 47.287220403552055 7.3741750046610832 125.69118097424507 7.2511046826839438 7.6978076025843603 130.27740900218487 117.59109583497047 4.071802631020546 35.166924647986889 24.580578222870827 23.695253677666187
leaf_count=68 1501 62 38 179 277 24 567 848 480 95 91 39 184 42 21 51 82 137 270 44 711 49 38 836 731 25 199 155 141
internal_value=0 -0.0107013 0.0105162 -0.0453808 -0.00879631 0.0695064 0.0339835 0.0409489 -0.0324346 0.0195602 -0.0436847 -0.079892 0.0105461 -0.00395304 -0.104605 -0.0318862 0.0661617 -0.155727 0.0269448 -0.088299 -0.0626468 0.0183752 0.0311341 0.0110817 0.0585576 -0.218677 0.0237365 0.00692645 -0.106224
internal_weight=0 1024.29 518.296 117.729 88.4174 43.8366 316.159 303.428 505.996 215.524 425.316 147.852 203.589 176.952 32.1261 24.1457 14.0698 29.312 400.566 11.6164 131.723 144.826 390.368 225.49 164.878 11.7696 213.72 178.553 48.2758
internal_count=7985 5978 3156 699 524 247 2007 1939 2822 1372 2342 841 1277 1093 196 154 103 175 2457 68 750 897 2395 1394 1001 63 1331 1132 296
is_linear=0
shrinkage=0.2


Tree=13
num_leaves=30
num_cat=0
split_feature=10 10 7 10 7 8 5 9 8 10 1 8 8 8 7 0 7 1 7 1 1 10 5 9 7 10 9 0 7
split_gain=107.37 34.7994 20.6873 16.4427 16.1628 12.1314 11.5441 11.4348 12.1083 9.81953 9.37343 8.31531 7.60942 7.3986 7.36468 6.88014 6.62034 6.52086 6.44497 6.48918 9.54269 5.98492 5.76737 5.51262 5.4242 4.93905 4.88083 4.86949 4.90431
threshold=285.50000000000006 143.50000000000003 1.0000000180025095e-35 550.50000000000011 7.5000000000000009 9.5000000000000018 1.0000000180025095e-35 3.5000000000000004 16.500000000000004 123.50000000000001 -1.0000000180025095e-35 9.5000000000000018 4.5000000000000009 22.500000000000004 9.5000000000000018 24.500000000000004 7.5000000000000009 -1.0000000180025095e-35 2.5000000000000004 223.50000000000003 986.50000000000011 265.50000000000006 1.0000000180025095e-35 1.5000000000000002 9.5000000000000018 242.50000000000003 5.5000000000000009 31.500000000000004 6.5000000000000009
decision_type=2 2 2 2 2 2 2 2 2 2 2 2 2 2 2 2 2 2 2 2 2 2 2 2 2 2 2 2 2
left_child=1 4 6 18 12 9 -3 8 10 -6 -4 21 22 23 -7 -14 -9 -5 19 -2 -21 25 -1 -10 -13 -12 -20 28 -15
right_child=3 2 7 17 5 14 -8 16 13 -11 11 24 15 27 -16 -17 -18 -19 26 20 -22 -23 -24 -25 -26 -27 -28 -29 -30
leaf_value=0.14288464809988197 0.04866733419749554 0.15947203743959709 0.25294948974049908 -0.19655193321046918 0.20936001912009777 -0.16005265666669813 -0.013824497672851325 0.13716438961690516 0.027167583309173245 -0.050038836496825202 -0.0191615712311453 -0.14610422572411724 -0.090641751143588759 -0.062154823957608588 0.028651004243551631 0.16693292143168131 -0.06449230105176211 -0.081952372044449273 -0.047694438854703855 -0.094429351447605364 0.021275674920032149 0.10355771246364437 -0.084329285955422495 0.14920166361797646 0.0041584272120842617 -0.14428411406519195 -0.23095046955251528 -0.053927876491044302 0.16808032499962702
leaf_weight=8.4798607379198074 67.34208956360817 58.015447780489922 3.9798644110560408 21.333008199930191 18.587010063230995 14.401870690286158 20.919684171676636 33.158286102116108 32.139427408576012 8.5085387080907804 71.268501996994019 48.399970509111881 4.2558619901537886 6.0918793827295294 19.434470698237419 162.12925618886948 8.1020865365862829 287.70909240841866 178.41897122561932 50.732534140348434 65.091769136488438 13.134113401174544 9.442189633846283 27.454986356198788 11.989531375467775 15.332649342715738 6.0075045973062506 40.836782552301884 9.4234227985143644
leaf_count=56 323 447 28 111 121 75 104 198 186 43 353 261 26 33 113 1576 43 1625 974 242 307 64 48 164 68 79 30 229 58
internal_value=0 0.0581594 0.0218092 -0.0558617 0.117485 0.0281852 0.113545 -0.000727679 -0.0152099 0.127906 -0.0501656 -0.0577025 0.147006 0.0342647 -0.0516722 0.160344 0.0975649 -0.0898643 -0.0272747 -0.000701307 -0.0294054 -0.022237 0.0231814 0.0833914 -0.116272 -0.0413172 -0.0536662 -0.0176897 0.0776851
internal_weight=0 645.486 400.247 676.635 245.239 60.9319 78.9351 321.312 280.051 27.0955 164.105 160.125 184.307 115.946 33.8363 166.385 41.2604 309.042 367.593 183.166 115.824 99.7353 17.9221 59.5944 60.3895 86.6012 184.426 56.3521 15.5153
internal_count=7985 4373 2315 3612 2058 352 551 1764 1523 164 853 825 1706 670 188 1602 241 1736 1876 872 549 496 104 350 329 432 1004 320 91
is_linear=0
shrinkage=0.2


Tree=14
num_leaves=30
num_cat=0
split_feature=10 10 7 1 7 8 0 8 10 8 10 7 8 7 7 7 8 7 4 9 8 7 9 0 7 8 7 7 2
split_gain=73.3019 32.4928 14.8492 13.8506 11.0331 9.58091 8.99601 9.80336 8.39827 8.16389 8.58488 7.58707 7.52177 11.581 12.5433 8.68314 6.82776 6.72547 6.43583 6.37755 9.0884 7.47882 5.97958 5.54553 5.10904 5.29762 4.96839 4.9419 4.71557
threshold=145.50000000000003 410.50000000000006 7.5000000000000009 -1.0000000180025095e-35 2.5000000000000004 4.5000000000000009 37.500000000000007 20.500000000000004 923.50000000000011 9.5000000000000018 123.50000000000001 6.5000000000000009 16.500000000000004 7.5000000000000009 4.5000000000000009 3.5000000000000004 22.500000000000004 8.5000000000000018 1.0000000180025095e-35 3.5000000000000004 6.5000000000000009 9.5000000000000018 3.5000000000000004 36.500000000000007 1.0000000180025095e-35 24.500000000000004 9.5000000000000018 4.5000000000000009 1.0000000180025095e-35
decision_type=2 2 2 2 2 2 2 2 2 2 2 2 2 2 2 2 2 2 2 2 2 2 2 2 2 2 2 2 2
left_child=2 3 22 -2 5 -5 18 -8 11 10 -4 -3 19 14 15 -14 -9 -15 -7 20 -6 27 24 28 25 -1 -11 -22 -20
right_child=1 8 9 4 12 6 7 16 -10 26 -12 -13 13 17 -16 -17 -18 -19 23 -21 21 -23 -24 -25 -26 -27 -28 -29 -30
leaf_value=0.22342931423868331 0.15699688522138663 -0.063171473038732759 0.18264612078362352 -0.059898222370414561 -0.0032363480960649772 0.0560451189962363 0.1321122570048758 -0.22807953590763957 -0.11522330656128295 -0.13919348059656769 -0.059037880113706864 0.012437657133794281 0.032398035389033825 -0.25028381947482647 0.12211742752632607 -0.15613613382045916 0.036874549636605657 -0.037114822819483639 0.075512536062459654 0.063832089761795552 -0.086762654547858142 -0.015092297083062207 0.1995339957851229 -0.24225437005410649 0.087575302765907165 0.047098357062872381 0.016030486519516815 -0.1936273484280876 -0.065940317725654146
leaf_weight=25.705345779657364 23.911560043692589 281.21677336096764 17.202741913497452 36.921774588525295 63.879330389201641 54.423643343150616 73.078152284026146 4.5661527290940311 97.94222592189908 14.139910630881785 8.9293376654386503 65.439309321343899 34.365077830851078 6.791918732225894 49.707926072180271 13.651462234556673 26.222000487148762 46.043213173747063 13.806694492697714 17.861935168504715 37.897515516728163 29.242716632783413 39.784074693918228 5.058951996266841 97.467290945351124 9.2755724079906923 19.790571466088295 31.870067398995161 29.706768848001957
leaf_count=318 183 1435 121 174 319 331 445 24 634 78 45 398 186 42 268 93 156 286 81 91 184 172 485 26 835 102 115 207 151
internal_value=0 -0.0225474 0.101677 0.00785612 0.00165456 0.0339486 0.0506992 0.0922311 -0.0635099 0.016048 0.100064 -0.0488985 -0.022108 0.0109106 0.0516961 -0.0212079 -0.00243256 -0.0645259 0.00881553 -0.0496111 -0.0620515 -0.099997 0.131538 -0.0441036 0.111111 0.176679 -0.0486606 -0.135583 -0.0210564
internal_weight=0 1043.61 232.295 599.007 575.095 243.784 206.862 103.866 444.598 60.0626 26.1321 346.656 331.311 150.56 97.7245 48.0165 30.7882 52.8351 102.996 180.752 162.89 99.0103 172.232 48.5724 132.448 34.9809 33.9305 69.7676 43.5135
internal_count=7985 5886 2099 3419 3236 1388 1214 625 2467 359 166 1833 1848 875 547 279 180 328 589 973 882 563 1740 258 1255 420 193 391 232
is_linear=0
shrinkage=0.2


end of trees

feature_importances:
Column_7=100
Column_8=81
Column_10=62
Column_0=53
Column_1=43
Column_9=29
Column_5=24
Column_3=15
Column_4=14
Column_6=8
Column_2=6

parameters:
[boosting: gbdt]
[objective: binary]
[metric: auc,l2]
[tree_learner: serial]
[device_type: cpu]
[linear_tree: 0]
[data: ]
[valid: ]
[num_iterations: 200]
[learning_rate: 0.2]
[num_leaves: 30]
[num_threads: -1]
[deterministic: 0]
[force_col_wise: 0]
[force_row_wise: 0]
[histogram_pool_size: -1]
[max_depth: 9]
[min_data_in_leaf: 20]
[min_sum_hessian_in_leaf: 0.001]
[bagging_fraction: 0.843366]
[pos_bagging_fraction: 1]
[neg_bagging_fraction: 1]
[bagging_freq: 10]
[bagging_seed: 3]
[feature_fraction: 0.798641]
[feature_fraction_bynode: 1]
[feature_fraction_seed: 2]
[extra_trees: 0]
[extra_seed: 6]
[early_stopping_round: 2]
[first_metric_only: 0]
[max_delta_step: 0]
[lambda_l1: 0]
[lambda_l2: 0.00197349]
[linear_lambda: 0]
[min_gain_to_split: 0]
[drop_rate: 0.1]
[max_drop: 50]
[skip_drop: 0.5]
[xgboost_dart_mode: 0]
[uniform_drop: 0]
[drop_seed: 4]
[top_rate: 0.2]
[other_rate: 0.1]
[min_data_per_group: 100]
[max_cat_threshold: 32]
[cat_l2: 10]
[cat_smooth: 10]
[max_cat_to_onehot: 4]
[top_k: 20]
[monotone_constraints: ]
[monotone_constraints_method: basic]
[monotone_penalty: 0]
[feature_contri: ]
[forcedsplits_filename: ]
[refit_decay_rate: 0.9]
[cegb_tradeoff: 1]
[cegb_penalty_split: 0]
[cegb_penalty_feature_lazy: ]
[cegb_penalty_feature_coupled: ]
[path_smooth: 0]
[interaction_constraints: ]
[verbosity: -1]
[saved_feature_importance_type: 0]
[max_bin: 255]
[max_bin_by_feature: ]
[min_data_in_bin: 3]
[bin_construct_sample_cnt: 200000]
[data_random_seed: 1]
[is_enable_sparse: 1]
[enable_bundle: 1]
[use_missing: 1]
[zero_as_missing: 0]
[feature_pre_filter: 1]
[pre_partition: 0]
[two_round: 0]
[header: 0]
[label_column: ]
[weight_column: ]
[group_column: ]
[ignore_column: ]
[categorical_feature: ]
[forcedbins_filename: ]
[objective_seed: 5]
[num_class: 1]
[is_unbalance: 0]
[scale_pos_weight: 1]
[sigmoid: 1]
[boost_from_average: 1]
[reg_sqrt: 0]
[alpha: 0.9]
[fair_c: 1]
[poisson_max_delta_step: 0.7]
[tweedie_variance_power: 1.5]
[lambdarank_truncation_level: 30]
[lambdarank_norm: 1]
[label_gain: ]
[eval_at: ]
[multi_error_top_k: 1]
[auc_mu_weights: ]
[num_machines: 1]
[local_listen_port: 12400]
[time_out: 120]
[machine_list_filename: ]
[machines: ]
[gpu_platform_id: -1]
[gpu_device_id: -1]
[gpu_use_dp: 0]
[num_gpu: 1]

end of parameters

pandas_categorical:null
