tree
version=v3
num_class=1
num_tree_per_iteration=1
label_index=0
max_feature_idx=8
objective=binary sigmoid:1
feature_names=Column_0 Column_1 Column_2 Column_3 Column_4 Column_5 Column_6 Column_7 Column_8
feature_infos=[18:95] [-6847:81204] [0:2] [0:1] [0:1] [0:11] [1:31] [1:63] [3:3881]
tree_sizes=3241 3450 3378 3362 3267 3364 3155

Tree=0
num_leaves=30
num_cat=0
split_feature=8 8 3 8 3 1 8 7 1 0 8 3 0 1 6 3 8 8 1 4 1 6 0 8 8 1 0 6 1
split_gain=1649.55 444.505 351.595 212.503 159.537 84.6877 52.8577 52.5474 42.6985 42.362 38.5528 27.1814 32.76 26.4953 23.6178 23.1162 15.5947 15.3569 13.9304 12.2318 9.47802 8.63493 7.5211 5.10904 4.88891 1.60921 1.44142 1.10632 0.981521
threshold=205.50000000000003 437.50000000000006 1.0000000180025095e-35 130.50000000000003 1.0000000180025095e-35 111.50000000000001 651.50000000000011 3.5000000000000004 103.50000000000001 60.500000000000007 78.500000000000014 1.0000000180025095e-35 28.500000000000004 974.50000000000011 4.5000000000000009 1.0000000180025095e-35 477.50000000000006 406.50000000000006 -1.0000000180025095e-35 1.0000000180025095e-35 866.50000000000011 3.5000000000000004 56.500000000000007 801.50000000000011 194.50000000000003 1871.5000000000002 64.500000000000014 2.5000000000000004 664.50000000000011
decision_type=2 2 2 2 2 2 2 2 2 2 2 2 2 2 2 2 2 2 2 2 2 2 2 2 2 2 2 2 2
left_child=3 2 13 10 20 18 15 8 -6 -7 27 28 -13 17 -15 16 -3 -2 -4 -17 21 -5 -22 25 -9 -8 -25 -1 -12
right_child=1 6 5 4 7 9 23 24 -10 -11 11 12 -14 14 -16 19 -18 -19 -20 -21 22 -23 -24 26 -26 -27 -28 -29 -30
leaf_value=0.23330948197309376 0.21680453423242449 0.12168781776709493 0.24858979821601679 0.1253447825562041 0.18764060141383471 0.035754918052961604 -0.010341902145349011 0.24520603117046835 0.063737866759420433 -0.068378424656804812 0.28148088560592294 0.071346701083229283 0.22525649672603798 0.0061825046837296893 0.16233533854201909 -0.016668073948364906 0.034365371281331672 0.098147313280438311 0.12264286208900711 0.087527839092771578 0.21461737494297789 0.26074417344579759 0.088835803412646533 -0.048970165126610829 0.14407390321465219 -0.042813634370505685 0.013111968011452549 0.29729623469553146 0.25597639957821233
leaf_weight=6.2283553183078757 177.38355946540833 25.411689698696136 9.7162342965602857 4.9826842546463004 33.882252931594849 284.76040515303612 89.688316583633423 25.41168969869614 145.99264866113663 45.342426717281342 82.463424414396286 15.197186976671217 129.54979062080383 10.463636934757231 83.958229690790176 129.0515221953392 103.39069828391075 11.460173785686491 63.030955821275711 12.705844849348066 54.809526801109314 108.12424832582474 4.9826842546463004 235.93009945750237 6.2283553183078757 32.387447655200958 6.9757579565048209 221.72944933176041 54.560392588376999
leaf_count=25 712 102 39 20 136 1143 360 102 586 182 331 61 520 42 337 518 415 46 253 51 220 434 20 947 25 130 28 890 219
internal_value=0.117833 0.0468428 0.102681 0.222668 0.166441 0.0426915 -0.0133799 0.108172 0.0872045 0.0211937 0.264983 0.239782 0.208994 0.187978 0.144538 0.0204523 0.0515422 0.209571 0.140235 -0.00746696 0.237548 0.254838 0.203983 -0.0382937 0.22601 -0.0195713 -0.0474041 0.295802 0.27186
internal_weight=0 1321.66 686.116 894.143 384.414 402.85 635.541 211.515 179.875 330.103 509.729 281.771 144.747 283.266 94.4219 270.56 128.802 188.844 72.7472 141.757 172.899 113.107 59.7922 364.982 31.64 122.076 242.906 227.958 137.024
internal_count=8894 5305 2754 3589 1543 1617 2551 849 722 1325 2046 1131 581 1137 379 1086 517 758 292 569 694 454 240 1465 127 490 975 915 550
is_linear=0
shrinkage=1


Tree=1
num_leaves=32
num_cat=0
split_feature=8 8 5 5 8 6 0 0 8 5 5 5 8 6 5 5 4 6 5 8 0 8 6 2 5 6 8 6 7 6 6
split_gain=1398.06 358.844 294.509 211.091 136.362 65.9073 57.0703 54.1821 49.3452 47.0048 51.237 42.4207 39.7949 23.9305 17.8578 13.7262 14.8737 11.1994 11.0314 9.13029 6.65539 6.37233 6.43776 5.97339 5.4314 3.75678 3.32692 2.81186 1.59945 1.21323 1.0084
threshold=205.50000000000003 437.50000000000006 3.5000000000000004 2.5000000000000004 87.500000000000014 4.5000000000000009 57.500000000000007 60.500000000000007 153.50000000000003 8.5000000000000018 4.5000000000000009 10.500000000000002 651.50000000000011 4.5000000000000009 2.5000000000000004 1.0000000180025095e-35 1.0000000180025095e-35 4.5000000000000009 9.5000000000000018 531.50000000000011 25.500000000000004 76.500000000000014 15.500000000000002 1.0000000180025095e-35 1.5000000000000002 2.5000000000000004 866.50000000000011 6.5000000000000009 1.5000000000000002 3.5000000000000004 23.500000000000004
decision_type=2 2 2 2 2 2 2 2 2 2 2 2 2 2 2 2 2 2 2 2 2 2 2 2 2 2 2 2 2 2 2
left_child=2 3 8 5 21 25 11 -7 17 10 -6 -5 15 28 -15 19 -17 24 -11 -3 -19 30 -23 26 -1 -2 -14 -8 -10 -25 -4
right_child=1 12 4 6 9 7 27 -9 13 18 -12 -13 23 14 -16 16 -18 20 -20 -21 -22 22 -24 29 -26 -27 -28 -29 -30 -31 -32
leaf_value=0.11846958838966058 -0.11075847074738354 -0.014724424745210291 0.15861825542223718 -0.035895078822828323 -0.12050683940471618 0.073713489944796748 -0.089156444804344842 -0.17336572820014337 -0.056535962018491918 -0.14668970003869941 0.037887931387613177 -0.16300305592459341 -0.11241263971736229 0.12489176310795798 0.042667654300198726 -0.11353959146334069 -0.021877847833008193 0.075872053005534457 -0.060061500726742337 -0.084635437536288993 0.16476039247328589 -0.010352709512170414 0.12844638915942821 -0.10886182002856511 0.014811360293132609 -0.046039433385908136 -0.14108468288174639 -0.16070864479779462 0.0088998994546027142 -0.15908547131099046 0.10905447651420411
leaf_weight=22.640685215592388 16.209568053483963 33.943111434578896 48.931984007358551 292.6347479224205 23.842768251895905 253.81453409790993 8.4795223921537382 8.7377863228321058 8.4558755308389646 19.861932963132858 126.54809753596783 28.426917567849159 89.977929294109344 104.28045427799225 36.24547903239727 176.44141155481339 19.968738734722137 9.8617281168699247 58.715252950787544 41.737827464938164 374.16082103550434 5.6846678107976896 7.3802907168865204 9.7459764778614026 6.666020765900611 22.166233092546463 113.43462578952312 53.87678436934948 6.2067894935607901 152.9318176060915 10.026808619499205
leaf_count=92 65 136 200 1175 96 1022 34 35 34 80 511 114 360 422 146 706 80 40 237 167 1523 23 30 39 27 89 454 216 25 612 41
internal_value=0 -0.0656893 0.0975183 -0.0153653 0.0174907 0.0472817 -0.0645318 0.0651796 0.139835 -0.020317 0.012463 -0.0473831 -0.1196 0.0912545 0.103908 -0.0903147 -0.104299 0.157944 -0.0827404 -0.0535798 0.162578 0.137001 0.069882 -0.141214 0.0955299 -0.0744394 -0.128706 -0.151758 -0.029451 -0.156416 0.151168
internal_weight=0 1322.53 869.51 684.346 300.992 300.928 383.418 262.552 568.518 228.968 150.391 321.062 638.181 155.189 140.526 272.091 196.41 413.329 78.5772 75.6809 384.023 72.0238 13.065 366.09 29.3067 38.3758 203.413 62.3563 14.6627 162.678 58.9588
internal_count=8831 5304 3527 2750 1218 1211 1539 1057 2309 924 607 1289 2554 627 568 1089 786 1682 317 303 1563 294 53 1465 119 154 814 250 59 651 241
is_linear=0
shrinkage=0.1


Tree=2
num_leaves=31
num_cat=0
split_feature=8 8 3 8 3 7 4 4 8 0 8 0 0 0 6 0 8 4 8 3 7 8 2 8 8 7 0 3 8 8
split_gain=1145.45 246.366 227.984 188.728 147.075 47.1483 37.1609 35.9562 31.6935 25.2744 25.0508 22.7523 18.4812 17.3213 17.1934 17.1492 14.2862 9.87378 9.48543 7.36937 7.26111 5.22668 5.21796 3.66441 3.38512 2.64819 2.6347 3.44662 1.01843 0.75978
threshold=257.50000000000006 134.50000000000003 1.0000000180025095e-35 473.50000000000006 1.0000000180025095e-35 3.5000000000000004 1.0000000180025095e-35 1.0000000180025095e-35 87.500000000000014 59.500000000000007 651.50000000000011 59.500000000000007 59.500000000000007 24.500000000000004 4.5000000000000009 29.500000000000004 380.50000000000006 1.0000000180025095e-35 365.50000000000006 1.0000000180025095e-35 1.5000000000000002 323.50000000000006 1.0000000180025095e-35 608.50000000000011 812.50000000000011 1.5000000000000002 29.500000000000004 1.0000000180025095e-35 1172.0000000000002 62.500000000000007
decision_type=2 2 2 2 2 2 2 2 2 2 2 2 2 2 2 2 2 2 2 2 2 2 2 2 2 2 2 2 2 2
left_child=1 8 12 4 14 6 -4 9 26 -6 17 13 20 -10 21 -7 -16 19 -9 -5 -3 -2 24 -19 -12 -13 27 -1 -24 -28
right_child=3 2 5 10 7 15 -8 18 11 -11 22 25 -14 -15 16 -17 -18 23 -20 -21 -22 -23 28 -25 -26 -27 29 -29 -30 -31
leaf_value=0.13828098657316978 -0.10367540471414059 0.082325139110896103 -0.05505103090800393 -0.070391214708666772 -0.067275779611235487 -0.083266055375996934 0.066517265139959703 0.097894217173226189 -0.050478032100486306 -0.14996273416081324 -0.096362976796969188 -0.065868679155863905 -0.086282753325912537 0.1097807732312067 0.067827611380420885 0.091138193212292093 0.0071931065639382055 -0.0069741575986019023 -0.045930445289148941 -0.11111073453428898 0.11757374085963282 -0.0045506328067091376 -0.13468518995317696 -0.097092737628128659 -0.1257727991540106 0.018657093368309223 0.15913222060592483 0.050530147385399626 -0.16082164242879154 0.14110016441693296
leaf_weight=13.833518058061602 8.4722524285316485 111.7906474173069 251.03793139755726 90.398801282048225 248.22535459697247 6.1781446933746329 27.518200919032097 14.659263432025911 6.6780292689800254 43.562091708183289 72.920814588665962 7.136078938841818 4.9579214453697196 230.31075549125671 123.26010374724865 39.036115229129791 56.829042688012123 21.486022844910625 6.2258874326944342 96.612605452537537 140.95325843989849 13.193614810705183 126.57367733120918 5.2468403428792945 128.15685166418552 6.8738977313041687 134.63376781344414 7.7149333208799353 37.605570003390312 102.16809883713722
leaf_count=58 34 457 1009 362 995 25 111 59 27 176 293 29 20 951 500 159 229 86 25 388 577 53 511 21 517 28 567 32 152 428
internal_value=0 0.0728146 0.0282962 -0.0719856 -0.0278695 -0.0275596 -0.0429447 -0.0707768 0.12356 -0.0798537 -0.111124 0.0978583 0.0983902 0.105169 0.0386371 0.0666632 0.048766 -0.0835454 0.0549491 -0.0916655 0.102175 -0.0447637 -0.127128 -0.0261065 -0.11537 -0.0251759 0.148295 0.108705 -0.141138 0.151663
internal_weight=0 1090.82 581.472 1093.43 514.428 323.77 278.556 312.673 509.349 291.787 579.001 250.999 257.702 236.989 201.755 45.2143 180.089 213.744 20.8852 187.011 252.744 21.6659 365.257 26.7329 201.078 14.01 258.35 21.5485 164.179 236.802
internal_count=8879 4478 2358 4401 2071 1304 1120 1255 2120 1171 2330 1035 1054 978 816 184 729 857 84 750 1034 87 1473 107 810 57 1085 90 663 995
is_linear=0
shrinkage=0.1


Tree=3
num_leaves=31
num_cat=0
split_feature=8 8 3 5 5 1 5 6 8 8 5 6 8 5 3 5 6 3 8 5 6 3 5 5 8 8 8 5 8 5
split_gain=961.475 280.427 243.701 183.44 104.813 87.3586 84.9551 58.255 49.5646 37.7029 40.3915 36.3612 31.4929 30.3336 22.7722 21.764 20.2974 16.4509 10.5506 10.0671 8.19575 8.86304 5.10397 3.98071 3.40087 3.07768 2.17792 1.36982 1.36956 1.25447
threshold=175.50000000000003 437.50000000000006 1.0000000180025095e-35 7.5000000000000009 8.5000000000000018 111.50000000000001 2.5000000000000004 7.5000000000000009 62.500000000000007 123.50000000000001 3.5000000000000004 16.500000000000004 651.50000000000011 10.500000000000002 1.0000000180025095e-35 8.5000000000000018 4.5000000000000009 1.0000000180025095e-35 477.50000000000006 1.0000000180025095e-35 4.5000000000000009 1.0000000180025095e-35 9.5000000000000018 3.5000000000000004 115.50000000000001 801.50000000000011 123.50000000000001 9.5000000000000018 753.50000000000011 9.5000000000000018
decision_type=2 2 2 2 2 2 2 2 2 2 2 2 2 2 2 2 2 2 2 2 2 2 2 2 2 2 2 2 2 2
left_child=3 2 6 9 5 -4 16 15 -9 20 19 -12 17 -8 -10 26 -2 18 -3 -11 21 -1 -19 -22 -17 28 -5 -6 -14 -27
right_child=1 12 4 7 27 -7 13 8 14 10 11 -13 25 -15 -16 24 -18 22 -20 -21 23 -23 -24 -25 -26 29 -28 -29 -30 -31
leaf_value=0.1313961932030146 -0.0033051370991096737 0.013213141133963581 0.065459057435938647 0.14570258457241972 -0.17452854007188257 -0.053666682930577136 0.0089287324671271685 0.13855181774521927 -0.010938936261523969 0.13666858138595786 -0.11870750530702751 0.064008887318078148 -0.10921322372667822 -0.17065741212329516 -0.12746798373870624 0.018824695888954149 0.10831599488889038 -0.086081394072576201 -0.058885761849273702 0.086371713496794705 0.14743441292921464 0.0058048943910637522 -0.14177958273467542 0.11667455475545299 -0.085260999406776505 -0.12634441811485467 0.088268277979545437 -0.13733303835373897 -0.081400389842372481 -0.095338141043451397
leaf_weight=12.446970283985138 17.84529735147953 24.955377787351608 76.126032128930092 17.103525295853615 22.646342396736145 313.4935696721077 121.72010686993599 10.506170004606245 25.17096608877182 72.636502206325531 15.619585528969763 33.108202204108238 89.400295302271843 9.6946192234754545 50.355160892009735 5.628160282969473 183.13891299068928 120.83613711595535 104.59274280071259 98.574848547577858 280.86287571489811 10.014790967106819 20.470700025558472 64.19621305167675 6.2038604915142059 215.17601726949215 16.70665417611599 72.981374084949493 32.90566611289978 22.652308613061905
leaf_count=53 72 100 307 73 91 1261 494 46 104 307 63 135 364 39 204 23 758 489 420 408 1217 42 83 273 25 884 68 294 134 93
internal_value=0 -0.046955 -0.00829041 0.0944505 -0.053454 -0.0303377 0.0576223 -0.0121934 -0.0605389 0.118344 0.0852392 0.00483427 -0.0970115 -0.00491074 -0.0889561 0.0786061 0.0984214 -0.071011 -0.0449996 0.108043 0.138014 0.0767338 -0.0946174 0.141887 -0.0369836 -0.116442 0.119007 -0.146996 -0.102089 -0.123596
internal_weight=0 1448.64 817.646 719.134 485.247 389.62 332.399 131.674 86.0323 587.46 219.939 48.7278 630.989 131.415 75.5261 45.6422 200.984 270.855 129.548 171.211 367.521 22.4618 141.307 345.059 11.832 360.134 33.8102 95.6277 122.306 237.828
internal_count=8924 5883 3316 3041 1953 1568 1363 543 354 2498 913 198 2567 533 308 189 830 1092 520 715 1585 95 572 1490 48 1475 141 385 498 977
is_linear=0
shrinkage=0.1


Tree=4
num_leaves=30
num_cat=0
split_feature=8 5 8 3 8 5 5 1 3 8 8 5 3 7 5 3 5 5 5 8 8 1 0 7 5 8 8 1 0
split_gain=783.56 220.209 203.259 166.117 98.0712 79.9294 53.091 48.9704 33.6532 32.395 31.2409 22.3983 21.5294 20.7893 19.9379 17.6726 16.1257 15.16 10.0539 10.0286 8.80558 7.22152 5.55041 3.44557 5.2447 3.24328 3.24243 2.2494 1.46393
threshold=205.50000000000003 3.5000000000000004 410.50000000000006 1.0000000180025095e-35 87.500000000000014 3.5000000000000004 2.5000000000000004 202.50000000000003 1.0000000180025095e-35 651.50000000000011 153.50000000000003 8.5000000000000018 1.0000000180025095e-35 1.5000000000000002 8.5000000000000018 1.0000000180025095e-35 2.5000000000000004 4.5000000000000009 4.5000000000000009 477.50000000000006 257.50000000000006 877.50000000000011 29.500000000000004 3.5000000000000004 1.0000000180025095e-35 62.500000000000007 788.50000000000011 1871.5000000000002 60.500000000000007
decision_type=2 2 2 2 2 2 2 2 2 2 2 2 2 2 2 2 2 2 2 2 2 2 2 2 2 2 2 2 2
left_child=1 10 3 6 22 7 20 -5 18 15 23 -10 16 -14 -7 19 -12 -8 -6 -4 -2 -17 -3 24 -1 -24 27 -11 -28
right_child=2 4 9 5 8 14 17 -9 11 26 12 -13 13 -15 -16 21 -18 -19 -20 -21 -22 -23 25 -25 -26 -27 28 -29 -30
leaf_value=0.13872957799180752 0.12261595351279878 0.012263109590972956 0.0026729165211262437 0.072288551428233372 -0.094100458283526714 -0.06948185962668027 -0.075076161515682124 -0.038804333790145085 -0.025199298073488193 -0.083993022656470212 0.12641871523528778 -0.10677335526855794 -0.032695813818856855 0.076099086860487664 -0.13662255378365745 -0.06695088970539248 -0.047998175800786885 0.017878044964211196 0.03956891148183974 -0.05517567592591939 0.071806180767078717 -0.11001680223347772 0.14045776954689101 0.14504240495891049 0.10852757840698311 0.089994817661381232 -0.1175140553875776 -0.11873035113995652 -0.070675811680260867
leaf_weight=117.04389384388924 55.819444060325623 5.3550137728452674 41.931953772902489 56.67000749707222 5.6550997197628012 108.76420767605305 21.708015128970146 129.23096269369125 98.979466468095779 84.230762675404549 67.939847692847252 50.859176680445671 27.198113813996315 47.945586234331131 76.807948842644691 90.346888363361359 5.4945248365402213 83.138944029808044 68.915801808238029 104.14853174984455 96.898911118507385 74.015065088868141 35.292086452245712 116.53652656078339 147.85817036032677 26.830541297793388 227.77113996446133 29.614913374185562 9.6275405138730985
leaf_count=527 236 23 169 229 23 439 88 520 403 348 295 205 110 196 314 369 23 337 286 420 405 303 161 526 653 118 958 123 40
internal_value=0 0.075707 -0.0491773 -0.00846277 0.00593514 -0.0512261 0.0531925 -0.00483668 -0.0258876 -0.0878477 0.11409 -0.0531483 0.0747607 0.0367648 -0.097561 -0.0641278 0.113134 -0.00163021 0.0288779 -0.0386175 0.0907139 -0.0866166 0.111185 0.129293 0.122106 0.119547 -0.108692 -0.0935046 -0.115766
internal_weight=0 821.904 1290.73 629.038 291.887 371.473 257.565 185.901 224.41 661.687 530.017 149.839 148.578 75.1437 185.572 310.442 73.4344 104.847 74.5709 146.08 152.718 164.362 67.4776 381.439 264.902 62.1226 351.244 113.846 237.399
internal_count=8847 3549 5298 2568 1219 1502 1066 749 917 2730 2330 608 624 306 753 1261 318 425 309 589 641 672 302 1706 1180 279 1469 471 998
is_linear=0
shrinkage=0.1


Tree=5
num_leaves=31
num_cat=0
split_feature=8 8 3 5 5 8 5 1 8 6 6 5 5 3 5 6 0 6 3 8 1 2 2 1 8 8 8 8 6 6
split_gain=668.286 200.503 170.989 138.597 76.4727 59.0813 53.0468 51.9253 26.0342 21.385 54.6475 39.2416 21.278 20.4025 19.8965 16.447 15.1506 14.8142 10.6098 10.3466 7.71842 5.77386 4.8483 4.39732 4.20934 2.80684 2.44659 2.11384 1.53928 0.739361
threshold=177.50000000000003 410.50000000000006 1.0000000180025095e-35 3.5000000000000004 3.5000000000000004 78.500000000000014 2.5000000000000004 202.50000000000003 613.50000000000011 16.500000000000004 7.5000000000000009 7.5000000000000009 10.500000000000002 1.0000000180025095e-35 8.5000000000000018 4.5000000000000009 22.500000000000004 4.5000000000000009 1.0000000180025095e-35 136.50000000000003 877.50000000000011 1.0000000180025095e-35 1.0000000180025095e-35 1288.0000000000002 888.50000000000011 134.50000000000003 62.500000000000007 1172.0000000000002 14.500000000000002 26.500000000000004
decision_type=2 2 2 2 2 2 2 2 2 2 2 2 2 2 2 2 2 2 2 2 2 2 2 2 2 2 2 2 2 2
left_child=3 2 6 15 7 26 17 -4 13 10 -7 -11 -8 21 -6 18 -17 -2 25 -18 -15 -3 24 -20 -10 -1 29 -24 -28 -5
right_child=1 8 4 5 14 9 12 -9 22 11 -12 -13 -14 20 -16 16 19 -19 23 -21 -22 -23 27 -25 -26 -27 28 -29 -30 -31
leaf_value=0.12557434009733626 -0.00021358058088228896 -0.0053477787553474106 0.069590696577335381 0.13657994452449637 -0.060490072746022076 0.046885877965231859 0.014876456223351278 -0.0341986728459771 -0.071851065038314385 0.077587755029067382 -0.10793379285547869 -0.052307660604786768 -0.14958669887224349 -0.059372569204542272 -0.12274656030337405 -0.064715907494481251 0.13232776414503494 0.098632006691522542 0.023262813694848165 0.095555286237913678 -0.10764311456522971 -0.048932471753472304 -0.10234577199271506 -0.085080044596281129 -0.1009978718582033 0.03209631207765961 0.034807233466984798 -0.13305068414252946 0.10019250771411921 0.079333638517011265
leaf_weight=12.174227908253672 16.725427985191345 66.978285074234009 69.361315801739693 29.978187680244446 132.51869657635689 40.1509869992733 111.88036534190178 155.01202476024628 115.69490857422352 59.017144933342934 51.60211718082428 37.738210201263428 7.9636925607919684 76.446051776409149 85.581582874059677 4.0991557985544196 291.68678911030293 161.5094075948 11.483540639281275 113.45052547752857 62.137167453765869 55.363012000918388 138.01191048324108 4.9658344984054557 99.719449579715729 4.8703118264675131 6.1995839625597027 35.621998324990273 11.549139305949209 5.1368835121393195
leaf_count=56 68 271 283 144 537 166 455 625 485 247 210 154 32 315 357 17 1381 702 49 498 259 224 591 21 430 21 28 156 53 24
internal_value=0 -0.0392102 -0.0036258 0.0814796 -0.0430469 0.0204613 0.054866 -0.00203127 -0.0797199 -0.00581897 -0.040297 0.0269153 0.00337697 -0.0551003 -0.0851421 0.114686 0.120212 0.0893815 0.0464035 0.12216 -0.0813222 -0.0251889 -0.0961406 -0.0109756 -0.0855445 0.100525 0.113359 -0.109006 0.078919 0.129426
internal_weight=0 1390.53 740.553 684.103 442.474 241.372 298.079 224.373 649.973 188.508 91.7531 96.7554 119.844 260.925 218.1 442.73 409.236 178.235 33.4939 405.137 138.583 122.341 389.048 16.4494 215.414 17.0445 52.8638 173.634 17.7487 35.1151
internal_count=8859 5790 3059 3069 1802 1026 1257 908 2731 777 376 401 487 1069 894 2043 1896 770 147 1879 574 495 1662 70 915 77 249 747 81 168
is_linear=0
shrinkage=0.1


Tree=6
num_leaves=29
num_cat=0
split_feature=5 6 0 0 5 5 6 6 5 1 5 6 5 4 6 6 1 0 7 6 0 1 0 0 0 1 1 1
split_gain=162.533 61.1142 55.5959 59.7856 50.2632 75.2254 74.1829 122.588 91.8229 31.4042 29.5395 39.7838 15.0166 14.1974 13.2892 12.1653 9.9282 6.02126 4.89547 4.86588 3.37299 3.07435 2.5503 1.82974 0.998558 0.643488 0.666308 0.375127
threshold=3.5000000000000004 4.5000000000000009 28.500000000000004 60.500000000000007 4.5000000000000009 8.5000000000000018 16.500000000000004 6.5000000000000009 7.5000000000000009 655.50000000000011 9.5000000000000018 20.500000000000004 1.0000000180025095e-35 1.0000000180025095e-35 19.500000000000004 23.500000000000004 30.500000000000004 61.500000000000007 2.5000000000000004 2.5000000000000004 70.500000000000014 664.50000000000011 32.500000000000007 27.500000000000004 40.500000000000007 1015.5000000000001 2425.5000000000005 277.50000000000006
decision_type=2 2 2 2 2 2 2 2 2 2 2 2 2 2 2 2 2 2 2 2 2 2 2 2 2 2 2 2
left_child=1 16 12 9 14 6 7 -6 -8 -4 23 -12 15 -14 17 -3 22 27 19 -18 -5 -20 -1 -7 -24 -16 -27 -2
right_child=4 2 3 20 5 10 8 -9 -10 -11 11 -13 13 -15 25 -17 18 -19 21 -21 -22 -23 24 -25 -26 26 -28 -29
leaf_value=-0.0329845860634475 -0.054806328290184482 0.032351688377546615 0.055908051089814018 -0.12930875165428288 0.030124384849336883 -0.080110739381695689 0.061078351193806141 -0.13053506495878792 -0.14260663018308267 0.019809395045773923 -0.023729897655454673 -0.11220170122712575 -0.090550361038861035 0.027830631067046471 -0.17449995067960178 -0.064559210853721127 -0.10550414135838193 0.03423381864755437 -0.057399272620649623 -0.050951104042009344 -0.054548042631688387 0.0084575893451138782 0.073940100447844104 -0.14399774522339312 0.016897168449276835 -0.09752429711217242 -0.15253538515755996 -0.091523141201221625
leaf_weight=5.4733596742153194 6.4670596122741726 41.120645463466644 589.87788917124271 18.42278312146664 99.681430742144585 7.3941926509141913 199.81109112501144 89.961135238409042 24.408984929323196 408.57080575823784 161.26622088253498 73.979378059506416 51.298231691122055 12.347164735198019 19.292625278234482 18.312092006206512 26.859068691730499 4.7129478603601447 12.61071999371052 45.837746381759644 10.536500573158262 15.200138598680494 6.0808549076318723 43.665674895048141 6.4719702154397964 8.3771433830261248 10.777252614498137 22.815999895334244
leaf_count=23 27 184 2659 78 423 31 861 375 101 1817 683 312 218 54 79 80 112 20 54 193 45 65 26 183 28 35 45 94
internal_value=0 0.0223726 0.0294197 0.0370287 -0.0357876 -0.0275354 -0.00025854 -0.0462295 0.0386393 0.0411534 -0.0668963 -0.0517296 -0.0339908 -0.067547 -0.114817 0.00220517 -0.0458641 -0.0677507 -0.0580801 -0.0716844 -0.103483 -0.0218869 0.0219798 -0.135605 0.0462882 -0.155044 -0.131542 -0.0844611
internal_weight=0 1269.02 1150.49 1027.41 772.611 700.168 413.863 189.643 224.22 998.449 286.305 235.246 123.078 63.6454 72.443 59.4327 118.534 33.996 100.508 72.6968 28.9593 27.8109 18.0262 51.0599 12.5528 38.447 19.1544 29.2831
internal_count=8905 5636 5135 4599 3269 2969 1760 798 962 4476 1209 995 536 272 300 264 501 141 424 305 123 119 77 214 54 159 80 121
is_linear=0
shrinkage=0.1


end of trees

feature_importances:
Column_8=57
Column_5=41
Column_6=29
Column_0=23
Column_1=20
Column_3=19
Column_7=8
Column_4=6
Column_2=4

parameters:
[boosting: gbdt]
[objective: binary]
[metric: auc,l2]
[tree_learner: serial]
[device_type: cpu]
[linear_tree: 0]
[data: ]
[valid: ]
[num_iterations: 200]
[learning_rate: 0.1]
[num_leaves: 32]
[num_threads: -1]
[deterministic: 0]
[force_col_wise: 0]
[force_row_wise: 0]
[histogram_pool_size: -1]
[max_depth: 5]
[min_data_in_leaf: 20]
[min_sum_hessian_in_leaf: 0.001]
[bagging_fraction: 0.935183]
[pos_bagging_fraction: 1]
[neg_bagging_fraction: 1]
[bagging_freq: 1]
[bagging_seed: 3]
[feature_fraction: 0.774256]
[feature_fraction_bynode: 1]
[feature_fraction_seed: 2]
[extra_trees: 0]
[extra_seed: 6]
[early_stopping_round: 2]
[first_metric_only: 0]
[max_delta_step: 0]
[lambda_l1: 0]
[lambda_l2: 0.49542]
[linear_lambda: 0]
[min_gain_to_split: 0]
[drop_rate: 0.1]
[max_drop: 50]
[skip_drop: 0.5]
[xgboost_dart_mode: 0]
[uniform_drop: 0]
[drop_seed: 4]
[top_rate: 0.2]
[other_rate: 0.1]
[min_data_per_group: 100]
[max_cat_threshold: 32]
[cat_l2: 10]
[cat_smooth: 10]
[max_cat_to_onehot: 4]
[top_k: 20]
[monotone_constraints: ]
[monotone_constraints_method: basic]
[monotone_penalty: 0]
[feature_contri: ]
[forcedsplits_filename: ]
[refit_decay_rate: 0.9]
[cegb_tradeoff: 1]
[cegb_penalty_split: 0]
[cegb_penalty_feature_lazy: ]
[cegb_penalty_feature_coupled: ]
[path_smooth: 0]
[interaction_constraints: ]
[verbosity: 1]
[saved_feature_importance_type: 0]
[max_bin: 255]
[max_bin_by_feature: ]
[min_data_in_bin: 3]
[bin_construct_sample_cnt: 200000]
[data_random_seed: 1]
[is_enable_sparse: 1]
[enable_bundle: 1]
[use_missing: 1]
[zero_as_missing: 0]
[feature_pre_filter: 1]
[pre_partition: 0]
[two_round: 0]
[header: 0]
[label_column: ]
[weight_column: ]
[group_column: ]
[ignore_column: ]
[categorical_feature: ]
[forcedbins_filename: ]
[objective_seed: 5]
[num_class: 1]
[is_unbalance: 0]
[scale_pos_weight: 1]
[sigmoid: 1]
[boost_from_average: 1]
[reg_sqrt: 0]
[alpha: 0.9]
[fair_c: 1]
[poisson_max_delta_step: 0.7]
[tweedie_variance_power: 1.5]
[lambdarank_truncation_level: 30]
[lambdarank_norm: 1]
[label_gain: ]
[eval_at: ]
[multi_error_top_k: 1]
[auc_mu_weights: ]
[num_machines: 1]
[local_listen_port: 12400]
[time_out: 120]
[machine_list_filename: ]
[machines: ]
[gpu_platform_id: -1]
[gpu_device_id: -1]
[gpu_use_dp: 0]
[num_gpu: 1]

end of parameters

pandas_categorical:null
