tree
version=v3
num_class=1
num_tree_per_iteration=1
label_index=0
max_feature_idx=3
objective=binary sigmoid:1
feature_names=Column_0 Column_1 Column_2 Column_3
feature_infos=[-6847:81204] [0:11] [1:31] [3:3881]
tree_sizes=961 974 976 974 976 976 979 978 975 968 975 977 979 972 977 975 980 971 976 972 975 975 971 970 975

Tree=0
num_leaves=8
num_cat=0
split_feature=3 3 1 1 3 3 3
split_gain=1699.91 449.51 332.152 250.283 163.63 61.4482 54.3932
threshold=205.50000000000003 437.50000000000006 3.5000000000000004 2.5000000000000004 87.500000000000014 136.50000000000003 651.50000000000011
decision_type=2 2 2 2 2 2 2
left_child=2 3 5 -2 -4 -1 -3
right_child=1 6 4 -5 -6 -7 -8
leaf_value=0.20455158672958582 0.14336523573573051 0.069019907808221384 0.19293261970308112 0.083325123245912236 0.10894014400011666 0.17106010414934397 0.039617188033819098
leaf_weight=378.43486914038658 309.92296063899994 275.29330506920815 75.985934883356094 393.88119032979012 241.90932056307793 217.49416771531105 373.45218488574028
leaf_count=1519 1244 1105 305 1581 971 873 1499
internal_value=0.117833 0.0820834 0.170348 0.109764 0.129062 0.192357 0.0520693
internal_weight=0 1352.55 913.824 703.804 317.895 595.929 648.745
internal_count=9097 5429 3668 2825 1276 2392 2604
is_linear=0
shrinkage=1


Tree=1
num_leaves=8
num_cat=0
split_feature=3 3 1 1 3 3 3
split_gain=1537.38 403.783 303.068 225.726 148.648 56.7877 48.7742
threshold=205.50000000000003 437.50000000000006 3.5000000000000004 2.5000000000000004 87.500000000000014 153.50000000000003 651.50000000000011
decision_type=2 2 2 2 2 2 2
left_child=2 3 5 -2 -4 -1 -3
right_child=1 6 4 -5 -6 -7 -8
leaf_value=0.080687487227612986 0.024298356203689215 -0.04626607687040124 0.071783115587583449 -0.032725065271580679 -0.0084440962134378992 0.045738867675904155 -0.074072426753477513
leaf_weight=431.64572571218014 309.40740835666656 275.92126064002514 75.544815883040428 394.5647234916687 242.03117871284485 160.82066059112549 374.60300125181675
leaf_count=1744 1244 1105 305 1581 971 648 1499
internal_value=0 -0.0339112 0.0501076 -0.00766261 0.0106839 0.0712254 -0.0623018
internal_weight=0 1354.5 910.042 703.972 317.576 592.466 650.524
internal_count=9097 5429 3668 2825 1276 2392 2604
is_linear=0
shrinkage=0.05


Tree=2
num_leaves=8
num_cat=0
split_feature=3 3 1 1 3 3 3
split_gain=1392.78 364.156 277.728 205.442 135.379 53.5124 40.8582
threshold=205.50000000000003 447.50000000000006 3.5000000000000004 1.0000000180025095e-35 87.500000000000014 136.50000000000003 651.50000000000011
decision_type=2 2 2 2 2 2 2
left_child=2 3 5 -2 -4 -1 -3
right_child=1 6 4 -5 -6 -7 -8
leaf_value=0.079742382358362479 0.042212755535305964 -0.044502090885390533 0.068778353066071399 -0.022090182095918526 -0.0080187176194449379 0.048305087073790193 -0.07036365729500127
leaf_weight=372.12931667268276 159.40820351243019 261.46616145968437 74.929651692509651 559.16157494485378 242.13811929523945 215.47933079302311 374.63880720734596
leaf_count=1519 642 1046 305 2242 971 873 1499
internal_value=0 -0.0322115 0.047898 -0.00781493 0.010172 0.0682409 -0.0597562
internal_weight=0 1354.67 904.676 718.57 317.068 587.609 636.105
internal_count=9097 5429 3668 2884 1276 2392 2545
is_linear=0
shrinkage=0.05


Tree=3
num_leaves=8
num_cat=0
split_feature=3 1 3 3 1 3 3
split_gain=1267.14 362.628 217.301 166.311 121.97 100.251 27.8539
threshold=257.50000000000006 3.5000000000000004 477.50000000000006 130.50000000000003 3.5000000000000004 153.50000000000003 651.50000000000011
decision_type=2 2 2 2 2 2 2
left_child=1 5 4 -3 -2 -1 -4
right_child=2 3 6 -5 -6 -7 -8
leaf_value=0.074550162469183431 0.0059903950302753889 0.040254219360194472 -0.044232606197961502 -0.024347305209936432 -0.04224287609788252 0.036193594614857653 -0.067015310955852808
leaf_weight=422.38149097561836 305.51918943226337 161.48177795112133 213.22478199005127 259.14736175537109 229.20636488497257 286.86790257692337 373.72252766788006
leaf_count=1744 1229 655 853 1038 917 1162 1499
internal_value=0 0.037248 -0.0377629 0.00046322 -0.0146951 0.0590554 -0.0587624
internal_weight=0 1129.88 1121.67 420.629 534.726 709.249 586.947
internal_count=9097 4599 4498 1693 2146 2906 2352
is_linear=0
shrinkage=0.05


Tree=4
num_leaves=8
num_cat=0
split_feature=3 3 1 1 3 3 3
split_gain=1156.09 362.589 226.821 179.745 96.3212 43.8556 23.2959
threshold=177.50000000000003 410.50000000000006 2.5000000000000004 3.5000000000000004 78.500000000000014 651.50000000000011 134.50000000000003
decision_type=2 2 2 2 2 2 2
left_child=3 2 -2 6 -5 -3 -1
right_child=1 5 -4 4 -6 -7 -8
leaf_value=0.074422142485299436 0.027835061127270983 -0.038677890703762659 -0.026347528147585599 0.071163161117200974 4.6974371647136034e-05 -0.063969116338356946 0.050274012411967384
leaf_weight=355.31147003173828 343.15427918732166 321.29530648887157 441.18312011659145 61.816017150878906 204.32538414001465 371.99725243449211 142.62768448889256
leaf_count=1491 1389 1287 1767 256 821 1499 587
internal_value=0 -0.0259304 -0.0026408 0.0498122 0.0166189 -0.0522674 0.0675354
internal_weight=0 1477.63 784.337 764.081 266.141 693.293 497.939
internal_count=9097 5942 3156 3155 1077 2786 2078
is_linear=0
shrinkage=0.05


Tree=5
num_leaves=8
num_cat=0
split_feature=3 3 1 1 3 3 3
split_gain=1052.59 333.438 208.796 166.33 87.9979 40.6523 19.7542
threshold=175.50000000000003 410.50000000000006 3.5000000000000004 3.5000000000000004 78.500000000000014 651.50000000000011 134.50000000000003
decision_type=2 2 2 2 2 2 2
left_child=3 2 -2 6 -5 -3 -1
right_child=1 5 -4 4 -6 -7 -8
leaf_value=0.071976488545581224 0.020022922037657803 -0.036786227447009434 -0.031759027724791403 0.068619086494398643 0.00011347012436067303 -0.061178588468585517 0.049262795874141264
leaf_weight=349.17913717031479 450.51940101385117 320.94805529713631 342.38674795627594 60.934490203857422 200.32949161529541 369.58858156204224 135.77840884029865
leaf_count=1491 1825 1287 1370 256 805 1499 564
internal_value=0 -0.0244653 -0.00234028 0.0483271 0.0161439 -0.0498598 0.0656473
internal_weight=0 1483.44 792.906 746.222 261.264 690.537 484.958
internal_count=9097 5981 3195 3116 1061 2786 2055
is_linear=0
shrinkage=0.05


Tree=6
num_leaves=8
num_cat=0
split_feature=3 1 3 3 1 3 3
split_gain=963.227 284.22 161.969 130.758 103.246 81.7905 23.5284
threshold=257.50000000000006 3.5000000000000004 477.50000000000006 130.50000000000003 1.0000000180025095e-35 153.50000000000003 801.50000000000011
decision_type=2 2 2 2 2 2 2
left_child=1 5 4 -3 -2 -1 -4
right_child=2 3 6 -5 -6 -7 -8
leaf_value=0.067303163616579217 0.027950673496551327 0.036187711244140532 -0.042566814428055072 -0.021372342477677549 -0.024831909125060017 0.032183354801844685 -0.063093098616098894
leaf_weight=402.22131161391735 119.07200473546982 158.90577304363251 334.95989300310612 259.30337882041931 414.32553321123123 283.35348823666573 243.83392977714539
leaf_count=1744 483 655 1355 1038 1663 1162 997
internal_value=0 0.0329955 -0.032927 0.000507588 -0.0130411 0.0528058 -0.0512388
internal_weight=0 1103.78 1112.19 418.209 533.398 685.575 578.794
internal_count=9097 4599 4498 1693 2146 2906 2352
is_linear=0
shrinkage=0.05


Tree=7
num_leaves=8
num_cat=0
split_feature=3 3 1 1 2 3 3
split_gain=878.178 274.732 179.807 152.799 59.3072 49.8767 35.2187
threshold=177.50000000000003 410.50000000000006 1.0000000180025095e-35 7.5000000000000009 7.5000000000000009 127.50000000000001 651.50000000000011
decision_type=2 2 2 2 2 2 2
left_child=3 2 -2 5 -5 -1 -3
right_child=1 6 -4 4 -6 -7 -8
leaf_value=0.066205203280180036 0.043054254506991692 -0.033499841394031254 -0.014939586665212105 0.041770039871821825 -0.02554475044528548 0.035758403332872932 -0.056318635715771129
leaf_weight=386.23325480520725 170.8677224367857 319.56397075951099 610.05744917690754 50.109318345785141 93.116289749741554 208.11484649777412 363.29342760145664
leaf_count=1696 701 1287 2455 205 379 875 1499
internal_value=0 -0.0224987 -0.00224022 0.0443974 -0.00196042 0.0555646 -0.0456569
internal_weight=0 1463.78 780.925 737.574 143.226 594.348 682.857
internal_count=9097 5942 3156 3155 584 2571 2786
is_linear=0
shrinkage=0.05


Tree=8
num_leaves=8
num_cat=0
split_feature=3 3 1 1 3 2 3
split_gain=816.439 209.672 176.241 130 93.3782 40.6559 26.5956
threshold=205.50000000000003 437.50000000000006 3.5000000000000004 1.0000000180025095e-35 78.500000000000014 4.5000000000000009 613.50000000000011
decision_type=2 2 2 2 2 2 2
left_child=2 3 5 -2 -4 -1 -3
right_child=1 6 4 -5 -6 -7 -8
leaf_value=0.0080205206470995282 0.035139414554752772 -0.031726196756549634 0.065348304905981452 -0.017026834174336619 -0.0052802416849847883 0.059601878307007916 -0.053042307015394613
leaf_weight=41.493955194950104 152.6447859108448 231.86981950700283 57.400036185979843 545.24102009832859 248.19361081719398 494.4731670320034 404.42925426363945
leaf_count=182 628 937 250 2190 999 2185 1681
internal_value=0 -0.0245387 0.0383434 -0.00560786 0.00803078 0.0556144 -0.0452909
internal_weight=0 1334.18 841.561 697.886 305.594 535.967 636.299
internal_count=9052 5436 3616 2818 1249 2367 2618
is_linear=0
shrinkage=0.05


Tree=9
num_leaves=8
num_cat=0
split_feature=3 1 3 3 1 3 3
split_gain=744.68 222.516 131.85 125.629 87.3056 44.4912 17.1397
threshold=251.50000000000003 8.5000000000000018 477.50000000000006 125.50000000000001 2.5000000000000004 78.500000000000014 613.50000000000011
decision_type=2 2 2 2 2 2 2
left_child=1 3 4 -1 -2 -3 -4
right_child=2 5 6 -5 -6 -7 -8
leaf_value=0.060692961040610609 0.010636338565165319 0.066767041694525062 -0.031782294090782488 0.022958430969601318 -0.029085887582321286 -0.03709459391525443 -0.050954437149244282
leaf_weight=392.8819622695446 252.82676863670349 10.982627764344214 167.14085963368416 503.73539477586746 304.90608982741833 126.78341463208199 400.0727744102478
leaf_count=1781 1028 48 679 2101 1225 509 1681
internal_value=0 0.0304164 -0.0283534 0.039506 -0.0110828 -0.0287034 -0.0453223
internal_weight=0 1034.38 1124.95 896.617 557.733 137.766 567.214
internal_count=9052 4439 4613 3882 2253 557 2360
is_linear=0
shrinkage=0.05


Tree=10
num_leaves=8
num_cat=0
split_feature=3 3 1 1 3 3 2
split_gain=684.662 215.775 143.048 121.373 67.0457 28.193 22.8092
threshold=175.50000000000003 410.50000000000006 2.5000000000000004 3.5000000000000004 76.500000000000014 613.50000000000011 4.5000000000000009
decision_type=2 2 2 2 2 2 2
left_child=3 2 -2 6 -5 -3 -1
right_child=1 5 -4 4 -6 -7 -8
leaf_value=0.016168119899860018 0.022464443204901707 -0.028123634614410798 -0.020631262263542324 0.062182244364492503 -0.0005990482931976886 -0.048990611714922756 0.059899616153851393
leaf_weight=32.42612612247467 341.92006784677505 276.49523057043552 440.09065437316895 54.048316642642021 195.94577945768833 395.43378072977066 406.65368527173996
leaf_count=147 1409 1123 1770 245 792 1681 1885
internal_value=0 -0.0196444 -0.00178723 0.0408542 0.0130252 -0.0404183 0.0566816
internal_weight=0 1453.94 782.011 689.074 249.994 671.929 439.08
internal_count=9052 5983 3179 3069 1037 2804 2032
is_linear=0
shrinkage=0.05


Tree=11
num_leaves=8
num_cat=0
split_feature=3 3 1 1 2 3 3
split_gain=625.996 197.255 132.762 115.388 51.0165 39.5025 26.5709
threshold=175.50000000000003 410.50000000000006 1.0000000180025095e-35 7.5000000000000009 9.5000000000000018 123.50000000000001 613.50000000000011
decision_type=2 2 2 2 2 2 2
left_child=3 2 -2 5 -5 -1 -3
right_child=1 6 -4 4 -6 -7 -8
leaf_value=0.060306684522224652 0.037401564751993355 -0.026808816881171676 -0.012570365098276687 0.032536676110662015 -0.029183826446453599 0.03247545788932131 -0.047136355083005087
leaf_weight=336.19263470172882 169.5969720184803 275.58914229273796 610.75321751832962 59.757747158408165 75.454456716775894 207.21009157598019 390.57488799095154
leaf_count=1601 712 1123 2467 250 308 910 1681
internal_value=0 -0.0187628 -0.0017008 0.0394349 -0.00189592 0.0497149 -0.0387408
internal_weight=0 1446.51 780.35 678.615 135.212 543.403 666.164
internal_count=9052 5983 3179 3069 558 2511 2804
is_linear=0
shrinkage=0.05


Tree=12
num_leaves=8
num_cat=0
split_feature=3 3 1 1 3 2 3
split_gain=572.613 147.143 145.179 96.585 74.0382 37.5907 20.6046
threshold=205.50000000000003 437.50000000000006 3.5000000000000004 1.0000000180025095e-35 87.500000000000014 4.5000000000000009 651.50000000000011
decision_type=2 2 2 2 2 2 2
left_child=2 3 5 -2 -4 -1 -3
right_child=1 6 4 -5 -6 -7 -8
leaf_value=0.0031609039983873204 0.03077621615539744 -0.028066366009713569 0.052806394256119563 -0.014559366859749312 -0.0073961768048156273 0.05366852819327024 -0.046563185290915257
leaf_weight=40.08041824400425 149.61115914583206 272.33813738822937 64.931578606367111 543.37317076325417 235.51035331189632 460.07311287522316 341.73911556601524
leaf_count=182 628 1120 300 2190 949 2185 1498
internal_value=0 -0.0205596 0.0331294 -0.00476373 0.00564962 0.0496248 -0.0383755
internal_weight=0 1307.06 800.595 692.984 300.442 500.154 614.077
internal_count=9052 5436 3616 2818 1249 2367 2618
is_linear=0
shrinkage=0.05


Tree=13
num_leaves=8
num_cat=0
split_feature=3 3 0 1 3 3 2
split_gain=528.191 167.492 116.391 104.508 57.2117 32.215 20.8528
threshold=175.50000000000003 365.50000000000006 223.50000000000003 3.5000000000000004 76.500000000000014 613.50000000000011 4.5000000000000009
decision_type=2 2 2 2 2 2 2
left_child=3 2 -2 6 -5 -3 -1
right_child=1 5 -4 4 -6 -7 -8
leaf_value=0.0131454272613039 0.031959731243591381 -0.022965084872746132 -0.012924981036358375 0.058095589774302958 -0.0012347128352957835 -0.043751156871078355 0.055518655068998418
leaf_weight=31.636828348040581 207.11564536392689 367.59591741859913 475.57277809083462 51.040141016244888 195.30289299786091 380.45090319216251 380.67472948133945
leaf_count=147 852 1506 1944 245 792 1681 1885
internal_value=0 -0.0172097 0.000699313 0.03689 0.0111069 -0.0335484 0.0522778
internal_weight=0 1430.74 682.688 658.655 246.343 748.047 412.312
internal_count=9052 5983 2796 3069 1037 3187 2032
is_linear=0
shrinkage=0.05


Tree=14
num_leaves=8
num_cat=0
split_feature=3 3 1 1 3 3 3
split_gain=488.464 180.395 135.37 84.0965 36.9347 30.4234 16.705
threshold=153.50000000000003 365.50000000000006 1.0000000180025095e-35 7.5000000000000009 64.500000000000014 613.50000000000011 113.50000000000001
decision_type=2 2 2 2 2 2 2
left_child=3 2 -2 6 -5 -3 -1
right_child=1 5 -4 4 -6 -7 -8
leaf_value=0.05822494741088844 0.040844959629464439 -0.021876436662319098 -0.0088318889373763549 0.067180990732615242 -0.012284402344875642 -0.042157470623954085 0.037246519154898725
leaf_weight=279.85697424411774 175.51307478547096 366.63232928514481 623.59867662191391 17.292889609932899 87.249963343143463 375.23564666509628 146.83440171182156
leaf_count=1428 760 1506 2542 83 357 1681 695
internal_value=0 -0.0143954 0.00208874 0.0411916 0.000995889 -0.0321459 0.0510332
internal_weight=0 1540.98 799.112 531.234 104.543 741.868 426.691
internal_count=9052 6489 3302 2563 440 3187 2123
is_linear=0
shrinkage=0.05


Tree=15
num_leaves=8
num_cat=0
split_feature=3 3 1 1 2 3 3
split_gain=450.293 181.526 152.281 54.2344 30.1531 28.7378 10.0211
threshold=138.50000000000003 365.50000000000006 2.5000000000000004 7.5000000000000009 9.5000000000000018 613.50000000000011 93.500000000000014
decision_type=2 2 2 2 2 2 2
left_child=3 2 -2 6 -5 -3 -1
right_child=1 5 -4 4 -6 -7 -8
leaf_value=0.060117448833461179 0.026624585806671836 -0.020841723839471887 -0.015561740406870939 0.040697012890095988 -0.018020282851312897 -0.040634541700730373 0.043182740584843171
leaf_weight=199.87307070195675 380.85356019437313 365.63150778412819 487.33802984654903 39.843453213572502 47.835818126797676 369.97927296161652 162.91233107447624
leaf_count=1060 1639 1506 1982 175 199 1681 810
internal_value=0 -0.0125377 0.00294679 0.0440254 0.00870409 -0.0308076 0.0525495
internal_weight=0 1603.8 868.192 450.465 87.6793 735.611 362.785
internal_count=9052 6808 3621 2244 374 3187 1870
is_linear=0
shrinkage=0.05


Tree=16
num_leaves=8
num_cat=0
split_feature=3 1 1 3 1 2 3
split_gain=413.189 158.931 69.4134 67.5857 62.2532 58.9242 17.9677
threshold=257.50000000000006 3.5000000000000004 4.5000000000000009 477.50000000000006 5.5000000000000009 4.5000000000000009 801.50000000000011
decision_type=2 2 2 2 2 2 2
left_child=1 5 -3 4 -2 -1 -5
right_child=3 2 -4 6 -6 -7 -8
leaf_value=-0.011474082618381318 0.0025833592484309793 -0.064770710658129504 0.0057249993911509967 -0.026659403115028853 -0.034567203401452633 0.044596121106250441 -0.045485721479400748
leaf_weight=51.207229003310204 361.02445308864117 38.381228730082512 361.95297203958035 312.31054818630219 163.69902212917805 539.37544666230679 215.3939877897501
leaf_count=233 1480 158 1518 1361 667 2667 1003
internal_value=0 0.023251 -0.00107171 -0.0217316 -0.00901808 0.0397315 -0.0343626
internal_weight=0 990.917 400.334 1052.43 524.723 590.583 527.705
internal_count=9087 4576 1676 4511 2147 2900 2364
is_linear=0
shrinkage=0.05


Tree=17
num_leaves=8
num_cat=0
split_feature=3 3 1 1 3 3 2
split_gain=391.285 154.71 144.629 43.2835 31.5274 25.9666 7.99778
threshold=134.50000000000003 351.50000000000006 3.5000000000000004 7.5000000000000009 801.50000000000011 62.500000000000007 4.5000000000000009
decision_type=2 2 2 2 2 2 2
left_child=3 2 -2 6 -3 -5 -1
right_child=1 4 -4 5 -6 -7 -8
leaf_value=0.02150173473599996 0.021394847489394093 -0.021219861985527024 -0.020042507139657408 0.065333933691343701 -0.04399707980851672 -0.0039380968514789918 0.053190962159637603
leaf_weight=21.777563154697418 485.31701715290546 541.26032969355583 371.56614185869694 16.828566148877144 211.65279872715473 64.763329714536667 313.83514125645161
leaf_count=108 2112 2308 1500 84 1003 268 1704
internal_value=0 -0.0111041 0.00342593 0.0432169 -0.0276359 0.0105134 0.0511531
internal_weight=0 1609.8 856.883 417.205 752.913 81.5919 335.613
internal_count=9087 6923 3612 2164 3311 352 1812
is_linear=0
shrinkage=0.05


Tree=18
num_leaves=8
num_cat=0
split_feature=3 3 1 1 3 2 3
split_gain=360.18 141.606 135.363 41.1638 25.9417 25.8266 8.28591
threshold=134.50000000000003 380.50000000000006 1.0000000180025095e-35 7.5000000000000009 801.50000000000011 7.5000000000000009 93.500000000000014
decision_type=2 2 2 2 2 2 2
left_child=3 2 -2 6 -3 -5 -1
right_child=1 4 -4 5 -6 -7 -8
leaf_value=0.056858223717293502 0.038712339913511293 -0.021373349201964473 -0.0078796048525580278 0.048921865693519709 -0.04256844070770488 -0.010308891711205012 0.040546358282312303
leaf_weight=186.56467445194721 198.79920184612274 475.53892901539803 718.54436393082142 27.778648465871811 207.9230432510376 53.349613800644875 140.59766590595245
leaf_count=1067 902 2048 2970 125 1003 227 745
internal_value=0 -0.0106113 0.00222562 0.0419853 -0.0278352 0.0100645 0.0498864
internal_weight=0 1600.81 917.344 408.291 683.462 81.1283 327.162
internal_count=9087 6923 3872 2164 3051 352 1812
is_linear=0
shrinkage=0.05


Tree=19
num_leaves=8
num_cat=0
split_feature=3 3 1 1 3 3 3
split_gain=331.507 129.804 131.713 39.2984 24.2677 20.9147 8.36405
threshold=134.50000000000003 410.50000000000006 8.5000000000000018 7.5000000000000009 62.500000000000007 801.50000000000011 85.500000000000014
decision_type=2 2 2 2 2 2 2
left_child=3 2 -2 6 -5 -3 -1
right_child=1 5 -4 4 -6 -7 -8
leaf_value=0.057012267856757295 0.0098057980973279193 -0.02159345580155491 -0.037965465116054808 0.063791464251406846 -0.0041831838368272941 -0.041194109401383711 0.040585133896347048
leaf_weight=156.21377944946289 800.76684953272343 411.55817802250385 175.72756478190422 16.206677749752998 64.623715683817863 204.220877841115 162.56493362784386
leaf_count=927 3410 1796 714 84 268 1003 885
internal_value=0 -0.0101367 0.00120109 0.0407847 0.00960854 -0.0281087 0.0486754
internal_weight=0 1592.27 976.494 399.609 80.8304 615.779 318.779
internal_count=9087 6923 4124 2164 352 2799 1812
is_linear=0
shrinkage=0.05


Tree=20
num_leaves=8
num_cat=0
split_feature=3 3 1 1 2 3 3
split_gain=305.292 115.882 118.526 43.7892 26.2704 26.1426 9.74029
threshold=138.50000000000003 351.50000000000006 2.5000000000000004 7.5000000000000009 7.5000000000000009 801.50000000000011 93.500000000000014
decision_type=2 2 2 2 2 2 2
left_child=3 2 -2 6 -5 -3 -1
right_child=1 5 -4 4 -6 -7 -8
leaf_value=0.054777835722486436 0.024477399673611337 -0.018682437606126773 -0.013705114697035668 0.044592322526721892 -0.012977991189086581 -0.039869199793457891 0.037249437275163409
leaf_weight=175.22792394459248 357.74975180625916 533.88780777156353 469.90463039278984 29.933587104082108 57.409471273422241 200.56003774702549 150.59064649045467
leaf_count=1067 1588 2308 1923 136 244 1003 818
internal_value=0 -0.0100273 0.00280163 0.0382906 0.00682672 -0.0244802 0.0467129
internal_weight=0 1562.1 827.654 413.162 87.3431 734.448 325.819
internal_count=9087 6822 3511 2265 380 3311 1885
is_linear=0
shrinkage=0.05


Tree=21
num_leaves=8
num_cat=0
split_feature=3 3 1 1 3 3 2
split_gain=281.617 109.745 118.543 35.5502 23.5971 16.1943 8.98264
threshold=134.50000000000003 437.50000000000006 2.5000000000000004 3.5000000000000004 62.500000000000007 801.50000000000011 4.5000000000000009
decision_type=2 2 2 2 2 2 2
left_child=3 2 -2 6 -5 -3 -1
right_child=1 5 -4 4 -6 -7 -8
leaf_value=0.016577831583717485 0.020017000797426531 -0.020744661625363203 -0.014427532523248632 0.058056380789541263 0.0088529302717465074 -0.038589499117214127 0.053400626973322422
leaf_weight=18.244172886013985 441.24558059871197 362.36451832950115 574.98399643599987 30.608926430344582 116.29427273571491 196.9520910680294 217.48325960338116
leaf_count=99 1949 1613 2358 174 509 1003 1382
internal_value=0 -0.00926174 0.000529549 0.0385454 0.0191904 -0.0270435 0.0505724
internal_weight=0 1575.55 1016.23 382.631 146.903 559.317 235.727
internal_count=9087 6923 4307 2164 683 2616 1481
is_linear=0
shrinkage=0.05


Tree=22
num_leaves=8
num_cat=0
split_feature=3 3 0 1 3 3 3
split_gain=259.437 102.041 113.075 34.9097 23.7202 21.7533 8.61468
threshold=134.50000000000003 348.50000000000006 932.50000000000011 7.5000000000000009 679.50000000000011 62.500000000000007 85.500000000000014
decision_type=2 2 2 2 2 2 2
left_child=3 2 -2 6 -3 -5 -1
right_child=1 4 -4 5 -6 -7 -8
leaf_value=0.054327641045303993 0.0177877666562384 -0.015519171375644873 -0.01993277917213733 0.061409525582001315 -0.034146393282448943 -0.0046956417881223482 0.037020032823040866
leaf_weight=142.00139844417572 509.79466351866722 458.88067051768303 325.18903739750385 15.152683332562445 272.95648837089539 64.42268867790699 152.6741264462471
leaf_count=927 2199 1960 1374 84 1390 268 885
internal_value=0 -0.00885043 0.00309564 0.0374714 -0.0224764 0.00805285 0.0454014
internal_weight=0 1566.82 834.984 374.251 731.837 79.5754 294.676
internal_count=9087 6923 3573 2164 3350 352 1812
is_linear=0
shrinkage=0.05


Tree=23
num_leaves=8
num_cat=0
split_feature=3 3 1 1 3 3 2
split_gain=238.919 93.0202 109.128 34.2041 22.3725 21.5389 9.08759
threshold=134.50000000000003 348.50000000000006 8.5000000000000018 3.5000000000000004 801.50000000000011 62.500000000000007 4.5000000000000009
decision_type=2 2 2 2 2 2 2
left_child=3 2 -2 6 -3 -5 -1
right_child=1 4 -4 5 -6 -7 -8
leaf_value=0.014073079170358672 0.011353666380192603 -0.01628471760806811 -0.035921708154311401 0.05595760614922151 -0.036254707379263861 0.0076992937979993587 0.051695964029563612
leaf_weight=17.672960162162781 685.93343806266785 535.87132440507412 148.22154001891613 28.69338284432888 190.23166806995869 115.32987843453884 204.41506211459637
leaf_count=99 2967 2347 606 174 1003 509 1382
internal_value=0 -0.00844596 0.0029446 0.0364211 -0.0215279 0.0173981 0.0487223
internal_weight=0 1560.26 834.155 366.111 726.103 144.023 222.088
internal_count=9087 6923 3573 2164 3350 683 1481
is_linear=0
shrinkage=0.05


Tree=24
num_leaves=8
num_cat=0
split_feature=3 0 3 1 1 1 2
split_gain=228.924 68.9017 78.7955 68.0846 31.3684 20.2144 17.2602
threshold=175.50000000000003 974.50000000000011 361.50000000000006 3.5000000000000004 4.5000000000000009 10.500000000000002 4.5000000000000009
decision_type=2 2 2 2 2 2 2
left_child=3 2 -2 6 -5 -3 -1
right_child=1 5 -4 4 -6 -7 -8
leaf_value=0.0035143834312833092 0.013466486289729185 -0.022978200621184559 -0.017379522021229821 -0.053263487783057541 0.011730782144472471 -0.067426266657654679 0.044769647023753266
leaf_weight=27.710309088230133 409.33622244000435 498.17256444692612 418.3811509013176 20.063415393233299 214.21650931239128 26.794913172721863 303.79770249128342
leaf_count=145 1729 2208 1953 86 963 115 1921
internal_value=0 -0.0111146 -0.00212562 0.0267544 0.00611129 -0.0252795 0.0413267
internal_weight=0 1352.68 827.717 565.788 234.28 524.967 331.508
internal_count=9120 6005 3682 3115 1049 2323 2066
is_linear=0
shrinkage=0.05


end of trees

feature_importances:
Column_3=108
Column_1=50
Column_2=14
Column_0=3

parameters:
[boosting: gbdt]
[objective: binary]
[metric: auc,l2]
[tree_learner: serial]
[device_type: cpu]
[linear_tree: 0]
[data: ]
[valid: ]
[num_iterations: 200]
[learning_rate: 0.05]
[num_leaves: 8]
[num_threads: -1]
[deterministic: 0]
[force_col_wise: 0]
[force_row_wise: 0]
[histogram_pool_size: -1]
[max_depth: 3]
[min_data_in_leaf: 20]
[min_sum_hessian_in_leaf: 0.001]
[bagging_fraction: 0.956015]
[pos_bagging_fraction: 1]
[neg_bagging_fraction: 1]
[bagging_freq: 8]
[bagging_seed: 3]
[feature_fraction: 0.91112]
[feature_fraction_bynode: 1]
[feature_fraction_seed: 2]
[extra_trees: 0]
[extra_seed: 6]
[early_stopping_round: 2]
[first_metric_only: 0]
[max_delta_step: 0]
[lambda_l1: 0]
[lambda_l2: 0.262952]
[linear_lambda: 0]
[min_gain_to_split: 0]
[drop_rate: 0.1]
[max_drop: 50]
[skip_drop: 0.5]
[xgboost_dart_mode: 0]
[uniform_drop: 0]
[drop_seed: 4]
[top_rate: 0.2]
[other_rate: 0.1]
[min_data_per_group: 100]
[max_cat_threshold: 32]
[cat_l2: 10]
[cat_smooth: 10]
[max_cat_to_onehot: 4]
[top_k: 20]
[monotone_constraints: ]
[monotone_constraints_method: basic]
[monotone_penalty: 0]
[feature_contri: ]
[forcedsplits_filename: ]
[refit_decay_rate: 0.9]
[cegb_tradeoff: 1]
[cegb_penalty_split: 0]
[cegb_penalty_feature_lazy: ]
[cegb_penalty_feature_coupled: ]
[path_smooth: 0]
[interaction_constraints: ]
[verbosity: -1]
[saved_feature_importance_type: 0]
[max_bin: 255]
[max_bin_by_feature: ]
[min_data_in_bin: 3]
[bin_construct_sample_cnt: 200000]
[data_random_seed: 1]
[is_enable_sparse: 1]
[enable_bundle: 1]
[use_missing: 1]
[zero_as_missing: 0]
[feature_pre_filter: 1]
[pre_partition: 0]
[two_round: 0]
[header: 0]
[label_column: ]
[weight_column: ]
[group_column: ]
[ignore_column: ]
[categorical_feature: ]
[forcedbins_filename: ]
[objective_seed: 5]
[num_class: 1]
[is_unbalance: 0]
[scale_pos_weight: 1]
[sigmoid: 1]
[boost_from_average: 1]
[reg_sqrt: 0]
[alpha: 0.9]
[fair_c: 1]
[poisson_max_delta_step: 0.7]
[tweedie_variance_power: 1.5]
[lambdarank_truncation_level: 30]
[lambdarank_norm: 1]
[label_gain: ]
[eval_at: ]
[multi_error_top_k: 1]
[auc_mu_weights: ]
[num_machines: 1]
[local_listen_port: 12400]
[time_out: 120]
[machine_list_filename: ]
[machines: ]
[gpu_platform_id: -1]
[gpu_device_id: -1]
[gpu_use_dp: 0]
[num_gpu: 1]

end of parameters

pandas_categorical:null
