tree
version=v3
num_class=1
num_tree_per_iteration=1
label_index=0
max_feature_idx=93
objective=binary sigmoid:1
feature_names=Column_0 Column_1 Column_2 Column_3 Column_4 Column_5 Column_6 Column_7 Column_8 Column_9 Column_10 Column_11 Column_12 Column_13 Column_14 Column_15 Column_16 Column_17 Column_18 Column_19 Column_20 Column_21 Column_22 Column_23 Column_24 Column_25 Column_26 Column_27 Column_28 Column_29 Column_30 Column_31 Column_32 Column_33 Column_34 Column_35 Column_36 Column_37 Column_38 Column_39 Column_40 Column_41 Column_42 Column_43 Column_44 Column_45 Column_46 Column_47 Column_48 Column_49 Column_50 Column_51 Column_52 Column_53 Column_54 Column_55 Column_56 Column_57 Column_58 Column_59 Column_60 Column_61 Column_62 Column_63 Column_64 Column_65 Column_66 Column_67 Column_68 Column_69 Column_70 Column_71 Column_72 Column_73 Column_74 Column_75 Column_76 Column_77 Column_78 Column_79 Column_80 Column_81 Column_82 Column_83 Column_84 Column_85 Column_86 Column_87 Column_88 Column_89 Column_90 Column_91 Column_92 Column_93
feature_infos=[0:75] [-6847:81204] [0:2] [0:11] [0:3] [0:1] [0:1] [0:11] [0:30] [0:35] [2:3881] [0:1] [1384:81204] [740:3881] [378.5:5250.75] [370.59561128526644:723.33333333333337] [-6847:-627] [2:60] [757:18571287] [1:31] [-79551:80943] [-3449:3790] [-1:1] [0.0002576655501159495:0.5] [-44.857142857142854:2131] [-1171:1242] none [0:1] [0:1] none none none [0:1] none [0:1] none none none none [0:1] [0:1] [0:1] none none [0:1] none [0:1] none [0:1] [0:1] [0:1] [0:1] [0:1] [0:1] none none none [0:1] [0:1] [0:1] [0:1] [0:1] [0:1] none none none [0:1] [0:1] [0:1] [0:1] [0:1] [0:1] [0:1] [0:1] [0:1] [0:1] [0:1] [0:1] [0:1] [0:1] [0:1] [0:1] [0:1] [0:1] [-6846:1] [0:3176] [-6641:2770] [1:12] [-2697156:73437504] [0:1] [6.7192259451711163e-05:0.99993280774054827] [6.7192259451711163e-05:0.99997760258018276] [2871392192.2142963:3835616192.2142963] [0:6]
tree_sizes=978 986 981 980 984 990 983 984 986 985 990 980 990 981 987 988 984 977 979 979 986 987 979 989 995 985 982 987 978 983 983 994 984 979 987 984 976 983 989 985 981 977 990 996 984 986 873 977 981 981 978 980 988 982 995 982 984 867 985 984 983 996 982 984 987 980 975 985 994 975 975 1000 871 977 979 977 988 981 884 990 971 863 979 979 867 990 982 978 980 882 998 869 983 989 890 873 888 984 993 972 982 882 889 881 993 976 878 996 988 981 985 976 890 984 977 977 983 991 988 989 982 973 971 989 875 987 988 990 989 977 993 989 985 976 989 983 983 983 883 984 986 975 882 987 974 977 884 976 983 978 877 972 982 885 984 988 995 979 978 985 982 875 877 984 975 1009 676 983 998 977 871 673 984 678 985 978 982 974 990 989 989 872 982 682 669 992 994 980 988 976 982 967 981 978 984 990 982 984 996 980

Tree=0
num_leaves=8
num_cat=0
split_feature=10 10 5 7 10 86 10
split_gain=1891.16 457.522 380.635 352.542 171.835 68.1378 60.6294
threshold=205.50000000000003 441.50000000000006 1.0000000180025095e-35 3.5000000000000004 82.500000000000014 154.50000000000003 681.50000000000011
decision_type=2 2 2 2 2 2 2
left_child=3 2 -2 5 -5 -1 -3
right_child=1 6 -4 4 -6 -7 -8
leaf_value=0.15325436138739501 0.10253128564379829 0.020358387165260956 0.030868000181580937 0.1483502365641684 0.063677676488092777 0.11168465510869321 -0.0090458523296580579
leaf_weight=516.13201475143433 315.8717942237854 327.85744333267212 448.21333646774292 77.157616138458252 268.17889881134033 121.85409927368164 376.79884386062622
leaf_count=2067 1265 1313 1795 309 1074 488 1509
internal_value=0.0691908 0.0336943 0.0604935 0.123288 0.0825961 0.145315 0.00463502
internal_weight=0 1468.74 764.085 983.323 345.337 637.986 704.656
internal_count=9820 5882 3060 3938 1383 2555 2822
is_linear=0
shrinkage=1


Tree=1
num_leaves=8
num_cat=0
split_feature=10 10 5 7 23 10 10
split_gain=1687.66 465.328 377.66 299.101 153.806 63.3637 59.0056
threshold=202.50000000000003 441.50000000000006 1.0000000180025095e-35 3.5000000000000004 0.012579113924050636 681.50000000000011 153.50000000000003
decision_type=2 2 2 2 2 2 2
left_child=3 2 -2 6 -5 -3 -1
right_child=1 5 -4 4 -6 -7 -8
leaf_value=0.082098342103130106 0.035451776349433806 -0.046099391825371226 -0.03557122669449176 -0.0035510694383513158 0.078642167893255538 -0.076072995316901537 0.046954511484527513
leaf_weight=453.83001139760017 318.40890714526176 324.96633231639862 454.12169232964516 263.46046656370163 72.599825739860535 385.49211868643761 162.10395522415638
leaf_count=1826 1277 1300 1817 1055 292 1542 651
internal_value=0 -0.0331573 -0.00629813 0.0521476 0.0142056 -0.0623631 0.0728492
internal_weight=0 1482.99 772.531 951.994 336.06 710.458 615.934
internal_count=9760 5936 3094 3824 1347 2842 2477
is_linear=0
shrinkage=0.05


Tree=2
num_leaves=8
num_cat=0
split_feature=10 10 5 7 10 86 10
split_gain=1508.5 372.321 329.548 287.038 148.912 65.0888 53.3675
threshold=205.50000000000003 441.50000000000006 1.0000000180025095e-35 3.5000000000000004 87.500000000000014 154.50000000000003 674.50000000000011
decision_type=2 2 2 2 2 2 2
left_child=3 2 -2 5 -5 -1 -3
right_child=1 6 -4 4 -6 -7 -8
leaf_value=0.076992641815419899 0.032242253784311052 -0.042549003278908197 -0.034695291334461913 0.068987646358799143 -0.0063472621312740648 0.036157160415415099 -0.070272005187548045
leaf_weight=504.2163418084383 311.51488757133484 315.94765734672546 448.74751247465611 87.501597985625267 262.01178860664368 121.00405633449554 385.311951354146
leaf_count=2044 1252 1264 1795 354 1049 487 1544
internal_value=0 -0.0315052 -0.00726786 0.0488028 0.0125132 0.0690895 -0.0577817
internal_weight=0 1461.52 760.262 974.734 349.513 625.22 701.26
internal_count=9789 5855 3047 3934 1403 2531 2808
is_linear=0
shrinkage=0.05


Tree=3
num_leaves=8
num_cat=0
split_feature=10 10 5 7 10 86 10
split_gain=1382.51 343.235 303.944 290.527 137.04 80.5815 38.2375
threshold=207.50000000000003 473.50000000000006 1.0000000180025095e-35 3.5000000000000004 130.50000000000003 152.50000000000003 681.50000000000011
decision_type=2 2 2 2 2 2 2
left_child=3 2 -2 5 -5 -1 -3
right_child=1 6 -4 4 -6 -7 -8
leaf_value=0.074923184234103643 0.027316423985307193 -0.043961873089135683 -0.035294408640430049 0.040127726727914717 -0.022810373313675688 0.030847849946600649 -0.068611024856217451
leaf_weight=501.50169624388218 330.73227798938751 269.42779572308064 468.29181942343712 173.84532231092453 172.11616690456867 130.73808665573597 378.21228936314583
leaf_count=2054 1332 1079 1874 702 689 528 1522
internal_value=0 -0.031305 -0.00937851 0.0456523 0.008816 0.0658091 -0.0583567
internal_weight=0 1446.66 799.024 978.201 345.961 632.24 647.64
internal_count=9780 5807 3206 3973 1391 2582 2601
is_linear=0
shrinkage=0.05


Tree=4
num_leaves=8
num_cat=0
split_feature=10 23 7 5 86 10 10
split_gain=1285.71 308.028 252.007 223.352 114.662 86.9774 62.5375
threshold=202.50000000000003 0.0026560471809921556 7.5000000000000009 1.0000000180025095e-35 129.50000000000003 76.500000000000014 667.50000000000011
decision_type=2 2 2 2 2 2 2
left_child=2 6 4 -3 -1 -4 -2
right_child=1 3 5 -5 -6 -7 -8
leaf_value=0.071276214933899851 -0.03666807353578045 0.032478992606385475 0.067024358466234585 -0.02800721754766794 0.02944587237417386 -0.023769179662111312 -0.064276279404450062
leaf_weight=521.25238560140133 436.76042515039444 258.70168718695641 32.085282146930695 372.2044316381216 238.91501948237419 148.25238168239594 386.76224005222321
leaf_count=2154 1753 1045 132 1491 971 594 1566
internal_value=0 -0.029494 0.0455231 -0.00320496 0.0581293 -0.00761502 -0.0496342
internal_weight=0 1454.43 940.505 630.906 760.167 180.338 823.523
internal_count=9706 5855 3851 2536 3125 726 3319
is_linear=0
shrinkage=0.05


Tree=5
num_leaves=8
num_cat=0
split_feature=23 10 5 7 86 23 23
split_gain=1159.7 335.626 264.45 194.913 93.2329 70.4196 58.0077
threshold=0.0052219677137870868 395.50000000000006 1.0000000180025095e-35 7.5000000000000009 129.50000000000003 0.016001024065540197 0.0016299929327119791
decision_type=2 2 2 2 2 2 2
left_child=1 2 -1 4 -2 -5 -3
right_child=3 6 -4 5 -6 -7 -8
leaf_value=0.034213355061651407 0.068934567732862218 -0.060752282565491623 -0.026660606287222069 -0.014939312218115975 0.029299470328039562 0.079068364915928294 -0.033100656775102009
leaf_weight=301.50280830264091 509.94217923283577 443.11514256894588 436.99361561238766 146.65498134493828 209.25951160490513 23.050722599029541 331.60443283617496
leaf_count=1222 2136 1805 1754 589 854 96 1333
internal_value=0 -0.0259261 -0.00180783 0.0460291 0.0574024 -0.00216995 -0.0489166
internal_weight=0 1513.22 738.496 888.907 719.202 169.706 774.72
internal_count=9789 6114 2976 3675 2990 685 3138
is_linear=0
shrinkage=0.05


Tree=6
num_leaves=8
num_cat=0
split_feature=10 10 5 7 10 86 10
split_gain=1069.76 282.193 249.027 193.954 98.2785 52.0418 42.4171
threshold=198.50000000000003 441.50000000000006 1.0000000180025095e-35 3.5000000000000004 82.500000000000014 152.50000000000003 667.50000000000011
decision_type=2 2 2 2 2 2 2
left_child=3 2 -2 5 -5 -1 -3
right_child=1 6 -4 4 -6 -7 -8
leaf_value=0.067300896052780612 0.028212547637995591 -0.035573647650417546 -0.028978960359436048 0.06332708619323113 -0.0025685951628368446 0.028999844664352528 -0.060408461236894577
leaf_weight=471.56091038882732 321.44006957113743 310.12766870856285 466.66636319458485 72.664910942316055 255.64519761502743 109.2370246052742 385.86358022689819
leaf_count=2014 1306 1251 1875 306 1026 446 1590
internal_value=0 -0.0261416 -0.00565261 0.0427336 0.0120163 0.0600973 -0.0493424
internal_weight=0 1484.1 788.106 909.108 328.31 580.798 695.991
internal_count=9814 6022 3181 3792 1332 2460 2841
is_linear=0
shrinkage=0.05


Tree=7
num_leaves=8
num_cat=0
split_feature=10 10 7 7 10 8 10
split_gain=970.594 243.565 262.084 225.126 118.032 48.3049 27.8388
threshold=205.50000000000003 473.50000000000006 2.5000000000000004 3.5000000000000004 76.500000000000014 3.5000000000000004 794.50000000000011
decision_type=2 2 2 2 2 2 2
left_child=3 2 -2 5 -5 -1 -3
right_child=1 6 -4 4 -6 -7 -8
leaf_value=0.0098661129563549759 0.024508850634939919 -0.039988573515506824 -0.032810030278477481 0.067950913494032039 -0.0067221070860636559 0.062470416988209855 -0.061185329704467384
leaf_weight=47.442176297307014 355.56749249994755 362.92243909835815 454.13964946568012 65.286872118711472 279.32042361795902 544.66420355439186 270.26409532129765
leaf_count=203 1441 1482 1835 280 1122 2340 1127
internal_value=0 -0.0258057 -0.00763953 0.0395556 0.00742513 0.0582556 -0.0490361
internal_weight=0 1442.89 809.707 936.714 344.607 592.106 633.187
internal_count=9830 5885 3276 3945 1402 2543 2609
is_linear=0
shrinkage=0.05


Tree=8
num_leaves=8
num_cat=0
split_feature=10 10 5 7 8 86 23
split_gain=915.345 286.154 265.002 149.044 57.2024 52.9255 42.675
threshold=175.50000000000003 403.50000000000006 1.0000000180025095e-35 7.5000000000000009 5.5000000000000009 123.50000000000001 0.0015637226134585292
decision_type=2 2 2 2 2 2 2
left_child=3 2 -2 5 -5 -1 -3
right_child=1 6 -4 4 -6 -7 -8
leaf_value=0.064509351368257042 0.032334078549040329 -0.055084001391936435 -0.025134580220615866 0.043237654661465064 -0.021626406529178927 0.032159292314778959 -0.031185142662653122
leaf_weight=445.28255181014538 339.46177878975868 409.91367737948895 490.37409423291683 51.167641416192055 101.2370183467865 176.56995779275894 343.18458564579487
leaf_count=1959 1390 1724 1981 209 412 740 1392
internal_value=0 -0.0218778 -0.00162581 0.0444637 0.000150943 0.0553239 -0.0441934
internal_weight=0 1582.93 829.836 774.257 152.405 621.853 753.098
internal_count=9807 6487 3371 3320 621 2699 3116
is_linear=0
shrinkage=0.05


Tree=9
num_leaves=8
num_cat=0
split_feature=10 10 7 7 5 5 10
split_gain=819.913 216.38 244.654 169.118 89.8592 41.2083 30.537
threshold=198.50000000000003 441.50000000000006 3.5000000000000004 3.5000000000000004 1.0000000180025095e-35 1.0000000180025095e-35 681.50000000000011
decision_type=2 2 2 2 2 2 2
left_child=3 2 -2 5 -5 -1 -3
right_child=1 6 -4 4 -6 -7 -8
leaf_value=0.067851266991463904 0.019788215280491493 -0.032135270969153855 -0.036966787035784258 0.043057448229827468 -0.011312979952650591 0.040244204529066498 -0.053364133697258523
leaf_weight=303.73571018874645 440.58037394285202 321.20207141339779 333.69871555268764 124.24982786178589 195.66344124078751 243.57949551939964 358.45796437561512
leaf_count=1351 1794 1313 1353 514 798 1079 1533
internal_value=0 -0.0227439 -0.00467207 0.0386841 0.00980382 0.055565 -0.0433316
internal_weight=0 1453.94 774.279 867.228 319.913 547.315 679.66
internal_count=9735 5993 3147 3742 1312 2430 2846
is_linear=0
shrinkage=0.05


Tree=10
num_leaves=8
num_cat=0
split_feature=10 10 5 5 10 10 74
split_gain=756.774 254.236 263.344 76.6398 71.8375 43.9991 13.8698
threshold=163.50000000000003 381.50000000000006 1.0000000180025095e-35 1.0000000180025095e-35 78.500000000000014 681.50000000000011 1.0000000180025095e-35
decision_type=2 2 2 2 2 2 2
left_child=3 2 -2 6 -5 -3 -1
right_child=1 5 -4 4 -6 -7 -8
leaf_value=0.05144929302575213 0.033541562449534011 -0.028783245406487575 -0.023233693095154353 0.065104875642550089 0.013090082329792746 -0.052578972915844083 0.071653845223626444
leaf_weight=194.50152587890625 347.37168325483799 437.09401075541973 495.68486201763153 90.274410769343376 250.78088131546974 349.67581388354301 150.8265161216259
leaf_count=853 1439 1788 2013 410 1074 1517 694
internal_value=0 -0.0189173 0.000159909 0.0436702 0.0268582 -0.0393592 0.0602741
internal_weight=0 1629.83 843.057 686.383 341.055 786.77 345.328
internal_count=9788 6757 3452 3031 1484 3305 1547
is_linear=0
shrinkage=0.05


Tree=11
num_leaves=8
num_cat=0
split_feature=10 23 7 7 10 10 8
split_gain=666.027 227.171 240.132 118.045 69.8593 37.069 22.2837
threshold=163.50000000000003 0.0025413001640381813 3.5000000000000004 3.5000000000000004 87.500000000000014 667.50000000000011 3.5000000000000004
decision_type=2 2 2 2 2 2 2
left_child=3 5 -3 6 -5 -2 -1
right_child=1 2 -4 4 -6 -7 -8
leaf_value=0.0184729494842889 -0.02696396161060249 0.022552300542507377 -0.030566813213344257 0.053663018754610173 -0.0036953958430467277 -0.049239485718009929 0.061267029251426366
leaf_weight=32.987450957298279 394.84822382032871 502.15950119495392 369.17160329222679 77.534424662590027 168.33525665104389 354.40650910139084 391.07172076404095
leaf_count=150 1621 2077 1500 345 679 1559 1826
internal_value=0 -0.0173129 4.64138e-05 0.0419566 0.0143926 -0.0375006 0.0579382
internal_weight=0 1620.59 871.331 669.929 245.87 749.255 424.059
internal_count=9757 6757 3577 3000 1024 3180 1976
is_linear=0
shrinkage=0.05


Tree=12
num_leaves=8
num_cat=0
split_feature=23 7 10 8 10 5 2
split_gain=626.878 315.42 129.283 120.627 58.9179 64.1603 8.21435
threshold=0.0029112143196148893 3.5000000000000004 130.50000000000003 3.5000000000000004 641.50000000000011 1.0000000180025095e-35 1.0000000180025095e-35
decision_type=2 2 2 2 2 2 2
left_child=4 3 -3 -2 5 -1 -6
right_child=1 2 -4 -5 6 -7 -8
leaf_value=-0.0015053705663576221 -0.018307058852832084 0.029086929564499282 -0.023525298258238153 0.046294537212005611 -0.040944745756880618 -0.038158879127960503 -0.055657321786350779
leaf_weight=218.74229791760445 79.757740125060081 165.37197959423065 397.24272795021534 768.57410383224487 202.9739451110363 262.86745519936085 178.17863327264786
leaf_count=899 343 705 1611 3440 902 1080 792
internal_value=0 0.0209686 -0.00806071 0.0402209 -0.0331352 -0.0215113 -0.0478227
internal_weight=0 1410.95 562.615 848.332 862.762 481.61 381.153
internal_count=9772 6099 2316 3783 3673 1979 1694
is_linear=0
shrinkage=0.05


Tree=13
num_leaves=8
num_cat=0
split_feature=10 10 5 86 5 10 3
split_gain=582.327 177.65 230.445 70.1921 70.6947 32.719 21.9751
threshold=163.50000000000003 403.50000000000006 1.0000000180025095e-35 77.500000000000014 1.0000000180025095e-35 794.50000000000011 10.500000000000002
decision_type=2 2 2 2 2 2 2
left_child=3 2 -2 6 -5 -3 -1
right_child=1 5 -4 4 -6 -7 -8
leaf_value=0.059233473977215456 0.029061841962621099 -0.027352647137838467 -0.022762704374901285 0.049130884401951999 0.0043553654971259983 -0.049889385158996907 -0.035298618006862417
leaf_weight=293.12099350988865 362.55505762994289 468.35447229444981 525.28461764752865 159.68365314602852 196.79814261198044 245.45534309744835 6.2785584926605216
leaf_count=1410 1519 1976 2144 728 855 1118 29
internal_value=0 -0.016531 -0.0015998 0.0394027 0.0244124 -0.0351024 0.0572509
internal_weight=0 1601.65 887.84 655.881 356.482 713.81 299.4
internal_count=9779 6757 3663 3022 1583 3094 1439
is_linear=0
shrinkage=0.05


Tree=14
num_leaves=8
num_cat=0
split_feature=10 10 5 7 23 8 23
split_gain=560.675 153.264 177.554 124.265 51.6642 49.4541 26.375
threshold=177.50000000000003 403.50000000000006 1.0000000180025095e-35 7.5000000000000009 0.008097298714922636 6.5000000000000009 0.0016299929327119791
decision_type=2 2 2 2 2 2 2
left_child=3 2 -2 4 -1 -5 -3
right_child=1 6 -4 5 -6 -7 -8
leaf_value=0.027337088652802183 0.025511153481034957 -0.043427688831662897 -0.02243829448334321 0.032950228041863906 0.057951944869651932 -0.026950115083242715 -0.02407483000652956
leaf_weight=229.38303823769093 321.27386991679668 408.15993344783783 483.79153603315353 53.788611114025116 345.18644192814827 95.87190768122673 309.59930434823036
leaf_count=1036 1348 1858 1975 224 1701 395 1285
internal_value=0 -0.0182808 -0.00330331 0.0351595 0.0457298 -0.00542158 -0.0350801
internal_weight=0 1522.82 805.065 724.23 574.569 149.661 717.759
internal_count=9822 6466 3323 3356 2737 619 3143
is_linear=0
shrinkage=0.05


Tree=15
num_leaves=8
num_cat=0
split_feature=10 10 7 7 8 23 5
split_gain=491.667 156.202 187.245 107.481 45.4824 33.2517 29.9044
threshold=163.50000000000003 366.50000000000006 2.5000000000000004 7.5000000000000009 5.5000000000000009 0.0016299929327119791 1.0000000180025095e-35
decision_type=2 2 2 2 2 2 2
left_child=3 2 -2 6 -5 -3 -1
right_child=1 5 -4 4 -6 -7 -8
leaf_value=0.059078521650815619 0.027015599330999854 -0.041272092138066145 -0.021515467091629079 0.036591148954556792 -0.024227474093450638 -0.020666092930216484 0.034672628708686093
leaf_weight=261.97856099903584 360.61161680519581 397.02375964820385 442.80116826295853 47.374204471707344 87.545183941721916 386.25172920525074 240.96550893783569
leaf_count=1317 1524 1835 1819 200 362 1606 1149
internal_value=0 -0.0152225 0.000267698 0.0367552 -0.0028721 -0.0311108 0.0473855
internal_weight=0 1586.69 803.413 637.863 134.919 783.275 502.944
internal_count=9812 6784 3343 3028 562 3441 2466
is_linear=0
shrinkage=0.05


Tree=16
num_leaves=8
num_cat=0
split_feature=23 10 5 7 0 10 10
split_gain=474.321 171.763 247.329 54.0617 28.3031 27.3968 21.8365
threshold=0.0073801742919389988 473.50000000000006 1.0000000180025095e-35 8.5000000000000018 5.5000000000000009 74.500000000000014 698.50000000000011
decision_type=2 2 2 2 2 2 2
left_child=1 2 -1 4 -2 -5 -3
right_child=3 6 -4 5 -6 -7 -8
leaf_value=0.02606773962660246 -0.071533110878873971 -0.024744569277768188 -0.02089550055093152 0.060946236190714077 0.05077956751796972 -0.026402336315823779 -0.044331440668584098
leaf_weight=475.87482932209969 4.7821419537067404 269.02445665001869 682.31393079459667 11.762225180864332 422.23963306844234 37.894360020756721 302.08873261511326
leaf_count=2042 23 1152 2827 54 2121 153 1442
internal_value=0 -0.0126648 -0.00159931 0.0436676 0.0494096 -0.00571088 -0.0351051
internal_weight=0 1729.3 1158.19 476.678 427.022 49.6566 571.113
internal_count=9814 7463 4869 2351 2144 207 2594
is_linear=0
shrinkage=0.05


Tree=17
num_leaves=8
num_cat=0
split_feature=10 10 7 7 23 10 0
split_gain=434.616 164.457 223.548 49.0599 30.922 26.7945 16.7509
threshold=130.50000000000003 366.50000000000006 3.5000000000000004 7.5000000000000009 0.016001024065540197 681.50000000000011 5.5000000000000009
decision_type=2 2 2 2 2 2 2
left_child=3 2 -2 6 -5 -3 -1
right_child=1 5 -4 4 -6 -7 -8
leaf_value=-0.05508970751137169 0.023394137805922512 -0.020485303034437165 -0.025083482635740652 -0.0047041892451272502 0.067898964134484041 -0.039384391228069693 0.054241058689520089
leaf_weight=3.5382998436689368 555.97465553879738 458.69915156066418 415.55415740609169 67.627443000674248 18.725060343742371 317.2664991915226 345.48742124438286
leaf_count=17 2421 1936 1706 279 91 1541 1817
internal_value=0 -0.0110495 0.00265869 0.044784 0.0110402 -0.0282126 0.0531325
internal_weight=0 1747.49 971.529 435.378 86.3525 775.966 349.026
internal_count=9808 7604 4127 2204 370 3477 1834
is_linear=0
shrinkage=0.05


Tree=18
num_leaves=8
num_cat=0
split_feature=10 88 10 7 5 23 0
split_gain=403.144 168.049 114.609 43.7708 43.3663 29.328 14.4387
threshold=130.50000000000003 339896.50000000006 403.50000000000006 7.5000000000000009 1.0000000180025095e-35 0.016001024065540197 6.5000000000000009
decision_type=2 2 2 2 2 2 2
left_child=3 2 -2 6 -3 -5 -1
right_child=1 4 -4 5 -6 -7 -8
leaf_value=-0.022179589603654171 0.013693777884154879 -0.013836094753938089 -0.02357621617082041 -0.0035142858450229013 -0.038530068395460151 0.069349747397626393 0.053377824204266927
leaf_weight=6.4432708770036689 722.19614937901497 301.91211824119091 288.73872822523117 66.365411683917046 432.46633392572403 17.437617644667625 336.46359692513943
leaf_count=32 3092 1358 1298 274 1885 87 1817
internal_value=0 -0.0101747 0.00304887 0.0440415 -0.0283781 0.011648 0.051958
internal_weight=0 1745.31 1010.93 426.71 734.378 83.803 342.907
internal_count=9843 7633 4390 2210 3243 361 1849
is_linear=0
shrinkage=0.05


Tree=19
num_leaves=8
num_cat=0
split_feature=10 7 10 88 7 8 86
split_gain=371.961 142.685 136.703 77.5583 65.2836 34.1564 23.2208
threshold=143.50000000000003 1.0000000180025095e-35 529.50000000000011 283518.00000000006 7.5000000000000009 6.5000000000000009 83.500000000000014
decision_type=2 2 2 2 2 2 2
left_child=4 2 -2 -3 6 -6 -1
right_child=1 3 -4 -5 5 -7 -8
leaf_value=0.058457084754624279 0.034782384658908982 -0.0075672188407353951 -0.027103611675811285 -0.032475211722850547 0.040980447528797592 -0.018161679284613621 0.033882987874510516
leaf_weight=214.0117381811142 270.37846352159977 634.53588654100895 133.19159564375877 615.86108477413654 38.152986034750938 67.782707795500755 174.53864754736423
leaf_count=1213 1186 2718 633 2716 168 286 895
internal_value=0 -0.0114921 0.0143579 -0.0198352 0.0379323 0.00313874 0.0474184
internal_weight=0 1653.97 403.57 1250.4 494.486 105.936 388.55
internal_count=9815 7253 1819 5434 2562 454 2108
is_linear=0
shrinkage=0.05


Tree=20
num_leaves=8
num_cat=0
split_feature=10 10 72 7 86 8 10
split_gain=321.573 121.884 159.23 96.2299 45.3976 26.8775 24.8411
threshold=163.50000000000003 392.50000000000006 1.0000000180025095e-35 3.5000000000000004 77.500000000000014 3.5000000000000004 794.50000000000011
decision_type=2 2 2 2 2 2 2
left_child=3 2 -2 5 -5 -1 -3
right_child=1 6 -4 4 -6 -7 -8
leaf_value=0.0033567189978872037 -0.017137078297900198 -0.021182282502485494 0.027193207562275435 0.038501889307549692 -0.0092080272811519929 0.052004338448271653 -0.04148673724799537
leaf_weight=31.117098659276962 506.32080391049385 465.44646233320236 337.64637635648251 73.530151665210724 154.8842748105526 324.30422219634056 222.71789243817329
leaf_count=159 2104 2054 1449 366 643 1838 1132
internal_value=0 -0.0121362 0.000598176 0.0314722 0.00615067 0.0477453 -0.0277537
internal_weight=0 1532.13 843.967 583.836 228.414 355.421 688.164
internal_count=9745 6739 3553 3006 1009 1997 3186
is_linear=0
shrinkage=0.05


Tree=21
num_leaves=8
num_cat=0
split_feature=10 5 23 88 7 23 86
split_gain=317.451 136.874 179.459 107.819 43.8455 25.4364 14.8157
threshold=130.50000000000003 1.0000000180025095e-35 0.0020100522815608515 26721.000000000004 7.5000000000000009 0.016001024065540197 77.500000000000014
decision_type=2 2 2 2 2 2 2
left_child=4 2 -2 -3 6 -6 -1
right_child=1 3 -4 -5 5 -7 -8
leaf_value=0.057958249287772691 -0.026728257937138157 0.021677001122801264 0.023966169510237473 -0.029231998363348884 -0.0054092411820520509 0.061745638528278773 0.035975381510974118
leaf_weight=175.51339177787304 272.11851994693279 119.13698451220989 487.01940721273422 818.68776850402355 69.417697504162788 17.693671658635139 136.08518601953983
leaf_count=1065 1312 523 2136 3571 287 93 748
internal_value=0 -0.00998879 0.00579437 -0.0227647 0.039591 0.00823169 0.0483578
internal_weight=0 1696.96 759.138 937.825 398.71 87.1114 311.599
internal_count=9735 7542 3448 4094 2193 380 1813
is_linear=0
shrinkage=0.05


Tree=22
num_leaves=8
num_cat=0
split_feature=10 0 10 5 9 0 10
split_gain=292.562 99.4967 113.025 87.2314 63.5512 21.2393 11.133
threshold=177.50000000000003 42.500000000000007 441.50000000000006 1.0000000180025095e-35 2.5000000000000004 41.500000000000007 501.50000000000006
decision_type=2 2 2 2 2 2 2
left_child=3 2 -2 5 -5 -1 -3
right_child=1 6 -4 4 -6 -7 -8
leaf_value=0.047815447101335722 0.002267652219082351 -0.071592000591774257 -0.027192555881760085 -0.0018564691746287391 0.051288968205161017 -0.058954476753066434 -0.033684914698301503
leaf_weight=304.89330419898033 790.29341842234135 73.52882881462574 553.64528492093086 265.26640079915524 71.388409912586212 4.7289917320013037 26.301182463765144
leaf_count=1687 3336 310 2658 1270 391 23 127
internal_value=0 -0.0134461 -0.00986871 0.0270299 0.0094133 0.0461845 -0.0616056
internal_weight=0 1443.77 1343.94 646.277 336.655 309.622 99.83
internal_count=9802 6431 5994 3371 1661 1710 437
is_linear=0
shrinkage=0.05


Tree=23
num_leaves=8
num_cat=0
split_feature=23 7 23 88 7 86 0
split_gain=267.828 115.48 122.921 64.3373 42.7443 29.1365 16.9886
threshold=0.0073801742919389988 1.0000000180025095e-35 0.0018814692097475327 339896.50000000006 3.5000000000000004 77.500000000000014 5.5000000000000009
decision_type=2 2 2 2 2 2 2
left_child=1 2 -1 -3 6 -6 -2
right_child=4 3 -4 -5 5 -7 -8
leaf_value=-0.025662182237227611 -0.061252852258155091 -0.0061318816028568326 0.033572100330033557 -0.028956669632363215 0.042352437435204136 -0.0011216839502891777 0.050748374076825579
leaf_weight=129.16171164810658 3.4317721873521796 691.05041871964931 272.06627790629864 558.05942769348621 63.998904913663864 96.881647124886513 246.65017557144165
leaf_count=643 17 2999 1229 2536 342 411 1557
internal_value=0 -0.00883319 0.0145036 -0.0163292 0.0362776 0.0161727 0.0492111
internal_weight=0 1650.34 401.228 1249.11 410.962 160.881 250.082
internal_count=9734 7407 1872 5535 2327 753 1574
is_linear=0
shrinkage=0.05


Tree=24
num_leaves=8
num_cat=0
split_feature=23 7 8 5 10 74 2
split_gain=252.665 203.071 86.1789 71.3448 29.4627 53.7964 10.7216
threshold=0.0029112143196148893 3.5000000000000004 3.5000000000000004 1.0000000180025095e-35 641.50000000000011 1.0000000180025095e-35 1.0000000180025095e-35
decision_type=2 2 2 2 2 2 2
left_child=4 2 -2 -3 5 -1 -6
right_child=1 3 -4 -5 6 -7 -8
leaf_value=-0.024628484121482962 -0.021288021406745544 0.015208291648052319 0.036508823396717634 -0.023097188363588927 -0.025641358406830468 0.013556707704093797 -0.044041776597372809
leaf_weight=338.48974712193012 71.442415937781334 187.37384162843227 663.25437699258327 346.05678775906563 175.60049283504486 126.78342819213867 144.17311306297779
leaf_count=1468 332 823 3440 1487 920 544 760
internal_value=0 0.0138397 0.0308886 -0.00964193 -0.0222535 -0.0142233 -0.0339375
internal_weight=0 1268.13 734.697 533.431 785.047 465.273 319.774
internal_count=9774 6082 3772 2310 3692 2012 1680
is_linear=0
shrinkage=0.05


Tree=25
num_leaves=8
num_cat=0
split_feature=10 72 10 90 86 5 3
split_gain=239.407 98.9678 114.097 62.9778 46.6234 36.955 7.12848
threshold=147.50000000000003 1.0000000180025095e-35 488.50000000000006 0.19022128650779432 77.500000000000014 1.0000000180025095e-35 10.500000000000002
decision_type=2 2 2 2 2 2 2
left_child=4 3 -3 -2 6 -6 -1
right_child=1 2 -4 -5 5 -7 -8
leaf_value=0.051121212054869719 0.022457449704284219 0.020941802365773456 -0.021497007104999476 -0.024046925312379005 0.039509622087458784 0.0012752807277406747 -0.016189015366931937
leaf_weight=201.0156202018261 79.974034622311592 433.0341089963913 249.69604778289795 811.62860180437565 111.53203378617764 145.83145242929459 4.0113957226276389
leaf_count=1288 361 1904 1253 3624 621 705 22
internal_value=0 -0.00890558 0.00542057 -0.0198756 0.0320159 0.0178448 0.0498042
internal_weight=0 1574.33 682.73 891.603 462.391 257.363 205.027
internal_count=9778 7142 3157 3985 2636 1326 1310
is_linear=0
shrinkage=0.05


Tree=26
num_leaves=8
num_cat=0
split_feature=91 5 91 7 7 8 8
split_gain=218.081 110.962 131.413 98.1037 33.2766 24.1662 11.5875
threshold=0.21441049991041036 1.0000000180025095e-35 0.79618347966314296 8.5000000000000018 7.5000000000000009 8.5000000000000018 2.5000000000000004
decision_type=2 2 2 2 2 2 2
left_child=4 2 -2 -3 6 -6 -1
right_child=1 3 -4 -5 5 -7 -8
leaf_value=-0.0030002390630864493 0.020314932358279147 -0.011167282140063758 -0.026405399116906311 -0.054042326040622972 0.038016696260438951 -0.01875054200321942 0.047894666747252089
leaf_weight=11.711989939212797 539.40899097919464 774.64837941527367 208.75975295901299 161.1774090975523 35.268162712454796 40.020862281322479 247.80607677996159
leaf_count=67 2443 3483 1091 712 166 175 1632
internal_value=0 -0.00707575 0.00727865 -0.0185517 0.0371075 0.00784153 0.0455978
internal_weight=0 1683.99 748.169 935.826 334.807 75.289 259.518
internal_count=9769 7729 3534 4195 2040 341 1699
is_linear=0
shrinkage=0.05


Tree=27
num_leaves=8
num_cat=0
split_feature=23 7 23 9 86 7 7
split_gain=202.911 111.045 150.178 58.776 25.0777 16.0644 3.94587
threshold=0.0087337909992372242 2.5000000000000004 0.0018814692097475327 1.0000000180025095e-35 77.500000000000014 3.5000000000000004 7.5000000000000009
decision_type=2 2 2 2 2 2 2
left_child=1 2 -1 -3 6 -6 -2
right_child=4 3 -4 -5 5 -7 -8
leaf_value=-0.025334133543496853 0.05492412450988976 -0.031502056081120867 0.021635000059345686 -0.0060005331866283965 0.039584008204106153 0.0026660433401094483 0.035311915831211994
leaf_weight=245.63353867828846 138.61722548305988 438.64268754422665 554.05894935131073 465.97367617487907 59.453016102313995 58.421247020363808 31.481225818395615
leaf_count=1273 995 1945 2563 2121 398 254 166
internal_value=0 -0.00636629 0.00720794 -0.0183661 0.0390119 0.0212868 0.0512947
internal_weight=0 1704.31 799.692 904.616 287.973 117.874 170.098
internal_count=9715 7902 3836 4066 1813 652 1161
is_linear=0
shrinkage=0.05


Tree=28
num_leaves=8
num_cat=0
split_feature=10 88 7 5 7 8 0
split_gain=197.292 99.3837 86.029 43.5608 31.7523 23.2287 15.8128
threshold=130.50000000000003 178785.50000000003 8.5000000000000018 1.0000000180025095e-35 7.5000000000000009 6.5000000000000009 5.5000000000000009
decision_type=2 2 2 2 2 2 2
left_child=4 2 -2 -3 6 -6 -1
right_child=1 3 -4 -5 5 -7 -8
leaf_value=-0.057575820374972435 0.013046458498995684 -0.0058565660939856254 -0.038472527005554091 -0.02784332554933279 0.041821444688259678 -0.012642108702325081 0.04346308302904639
leaf_weight=3.9286160171031943 624.46374495327473 393.01545204222202 93.11194720864296 527.82127025723457 30.562072247266769 54.462880849838257 265.11956863105297
leaf_count=20 2860 1873 402 2438 146 239 1815
internal_value=0 -0.00758863 0.00636134 -0.0184593 0.0335702 0.00693507 0.0419874
internal_weight=0 1638.41 717.576 920.837 354.073 85.025 269.048
internal_count=9793 7573 3262 4311 2220 385 1835
is_linear=0
shrinkage=0.05


Tree=29
num_leaves=8
num_cat=0
split_feature=10 88 7 5 7 10 3
split_gain=191.495 91.6191 81.0545 45.2369 29.1733 17.2439 11.2038
threshold=126.50000000000001 193960.00000000003 8.5000000000000018 1.0000000180025095e-35 8.5000000000000018 74.500000000000014 10.500000000000002
decision_type=2 2 2 2 2 2 2
left_child=4 2 -2 -3 6 -6 -1
right_child=1 3 -4 -5 5 -7 -8
leaf_value=0.042091283356589765 0.011982942142397127 -0.0050259864660806945 -0.036728207110670347 -0.027842015542113858 0.052381100163938536 -0.021689390627369024 -0.022669143190718888
leaf_weight=276.87629100680351 654.52266032993793 379.52218875288963 98.214087158441544 508.0853509157896 10.367334634065626 32.442585378885269 6.8429047167301169
leaf_count=1884 3016 1812 427 2367 56 132 37
internal_value=0 -0.00720445 0.00562725 -0.0180864 0.0347239 -0.00375057 0.0405293
internal_weight=0 1640.34 752.737 887.608 326.529 42.8099 283.719
internal_count=9731 7622 3443 4179 2109 188 1921
is_linear=0
shrinkage=0.05


Tree=30
num_leaves=8
num_cat=0
split_feature=10 7 9 5 0 23 10
split_gain=165.894 122.658 83.4517 62.0053 42.0995 51.5395 9.231
threshold=259.50000000000006 2.5000000000000004 2.5000000000000004 1.0000000180025095e-35 42.500000000000007 0.0016299929327119791 615.50000000000011
decision_type=2 2 2 2 2 2 2
left_child=1 3 -3 -1 5 -2 -6
right_child=4 2 -4 -5 6 -7 -8
leaf_value=0.051937587363022113 -0.027400581603596055 -0.0089245445411579756 0.045791554472506851 0.012172177215043057 -0.061213873299630295 -0.0026713586782736 -0.017490954486004875
leaf_weight=245.07060532271862 317.17959930002689 448.21831692755222 82.513319030404091 163.38574625551701 53.631547763943672 627.60368023812771 15.579823866486548
leaf_count=1553 1748 2056 441 863 242 2739 87
internal_value=0 0.0154341 -0.00041769 0.0360312 -0.0137309 -0.0109734 -0.0513722
internal_weight=0 939.188 530.732 408.456 1013.99 944.783 69.2114
internal_count=9729 4913 2497 2416 4816 4487 329
is_linear=0
shrinkage=0.05


Tree=31
num_leaves=8
num_cat=0
split_feature=10 5 86 7 74 10 72
split_gain=161.804 134.975 107.861 71.9462 25.0572 43.5673 12.6887
threshold=342.50000000000006 1.0000000180025095e-35 77.500000000000014 2.5000000000000004 1.0000000180025095e-35 649.50000000000011 1.0000000180025095e-35
decision_type=2 2 2 2 2 2 2
left_child=1 3 -3 -1 6 -6 -2
right_child=4 2 -4 -5 5 -7 -8
leaf_value=0.046938509915613019 -0.029986926838728958 0.030440596135012356 -0.014554188674789326 0.008938980228764026 0.015506634421448996 -0.029199579250544984 -0.014098072199531334
leaf_weight=296.67316997051239 329.01992230117321 179.86421554535627 513.28730338811874 214.71692890673876 125.43597067892551 96.357673808932304 203.29434297978878
leaf_count=1827 1632 986 2296 1000 545 546 994
internal_value=0 0.0114978 -0.00287856 0.0309837 -0.0180358 -0.00391592 -0.0239189
internal_weight=0 1204.54 693.152 511.39 754.108 221.794 532.314
internal_count=9826 6109 3282 2827 3717 1091 2626
is_linear=0
shrinkage=0.05


Tree=32
num_leaves=8
num_cat=0
split_feature=88 5 23 7 21 7 20
split_gain=158.371 77.3686 77.1812 95.7778 51.6911 42.7955 7.87259
threshold=83172.500000000015 1.0000000180025095e-35 0.0018231555715102444 8.5000000000000018 214.50000000000003 8.5000000000000018 -2404.4999999999995
decision_type=2 2 2 2 2 2 2
left_child=2 4 6 -4 -2 -3 -1
right_child=1 5 3 -5 -6 -7 -8
leaf_value=-0.062056801966690847 0.015560347117156134 -0.015207509838620832 0.033069103307660726 -0.027349959668284879 -0.016710304257807108 -0.046922062545455792 -0.020602590329251221
leaf_weight=14.195317685604094 348.36027296632528 577.7440150603652 533.44638004153967 74.787999749183655 192.75051784515381 130.37352515757084 59.278269931674004
leaf_count=73 1717 2762 2983 326 985 612 308
internal_value=0 -0.0101693 0.0197927 0.02564 0.00406512 -0.0210466 -0.0286126
internal_weight=0 1249.23 681.708 608.234 541.111 708.118 73.4736
internal_count=9766 6076 3690 3309 2702 3374 381
is_linear=0
shrinkage=0.05


Tree=33
num_leaves=8
num_cat=0
split_feature=88 10 5 7 10 7 85
split_gain=137.203 71.224 70.4258 61.4719 59.8269 46.4239 9.83516
threshold=64024.500000000007 473.50000000000006 1.0000000180025095e-35 8.5000000000000018 649.50000000000011 8.5000000000000018 517.50000000000011
decision_type=2 2 2 2 2 2 2
left_child=1 3 4 -1 -2 -4 -3
right_child=2 6 5 -5 -6 -7 -8
leaf_value=0.032766322718288353 0.01274529649631902 -0.014985988023913399 -0.013357928202613166 -0.020712282974610811 -0.02599372365278407 -0.045312938635725677 -0.057402432936651294
leaf_weight=454.45519600063562 443.04892858862877 62.550872191786766 623.42011405527592 60.939612224698067 128.58952482044697 139.00012962520123 17.486268058419228
leaf_count=2629 2137 308 2989 267 742 658 97
internal_value=0 0.0196284 -0.00923641 0.026443 0.00403095 -0.0191839 -0.0242538
internal_weight=0 595.432 1334.06 515.395 571.638 762.42 80.0371
internal_count=9827 3301 6526 2896 2879 3647 405
is_linear=0
shrinkage=0.05


Tree=34
num_leaves=8
num_cat=0
split_feature=23 74 23 6 7 23 8
split_gain=150.581 69.673 81.0102 68.9565 23.8425 19.8659 8.40255
threshold=0.0087337909992372242 1.0000000180025095e-35 0.0019782413023911091 1.0000000180025095e-35 7.5000000000000009 0.016001024065540197 1.5000000000000002
decision_type=2 2 2 2 2 2 2
left_child=1 3 -3 -1 6 -6 -2
right_child=4 2 -4 -5 5 -7 -8
leaf_value=-0.015817276007794364 -0.017089938459408024 -0.020019813879523573 0.026999505288764776 0.021758820449021197 -0.0073674148289612669 0.059363065448177869 0.045486176696908236
leaf_weight=1084.9575294852257 5.5167649686336508 134.57826161384583 286.88637624680996 137.57385168224573 47.572588220238686 14.567431420087813 193.64535422623158
leaf_count=5099 34 728 1437 650 206 92 1534
internal_value=0 -0.00554505 0.0119857 -0.0115887 0.0353164 0.00827709 0.0437527
internal_weight=0 1644 421.465 1222.53 261.302 62.14 199.162
internal_count=9780 7914 2165 5749 1866 298 1568
is_linear=0
shrinkage=0.05


Tree=35
num_leaves=8
num_cat=0
split_feature=23 0 23 86 10 7 3
split_gain=135.005 91.8151 83.8732 23.6219 12.9795 12.9231 4.69848
threshold=0.0087337909992372242 42.500000000000007 0.0016299929327119791 77.500000000000014 784.50000000000011 3.5000000000000004 10.500000000000002
decision_type=2 2 2 2 2 2 2
left_child=1 2 -1 6 -3 -5 -2
right_child=3 4 -4 5 -6 -7 -8
leaf_value=-0.025701298322540447 0.048846648825596799 -0.053823538429000478 0.0038425456447641346 0.033673184034687373 0.017000526289883296 -0.00084510081381296797 -0.013670728050211368
leaf_weight=298.39338459074497 140.65583367645741 102.39907781779766 1232.4474461972713 54.827331960201263 6.9046303182840338 53.643572747707367 3.0704451203346244
leaf_count=1735 1162 475 5670 432 43 239 19
internal_value=0 -0.00507732 -0.00191619 0.0342173 -0.0493495 0.0166026 0.047511
internal_weight=0 1640.14 1530.84 252.197 109.304 108.471 143.726
internal_count=9775 7923 7405 1852 518 671 1181
is_linear=0
shrinkage=0.05


Tree=36
num_leaves=8
num_cat=0
split_feature=10 0 10 86 9 10 0
split_gain=120.715 68.0807 67.0223 33.4991 18.2519 8.86201 7.08266
threshold=134.50000000000003 42.500000000000007 441.50000000000006 77.500000000000014 1.0000000180025095e-35 984.50000000000011 42.500000000000007
decision_type=2 2 2 2 2 2 2
left_child=3 2 -2 6 -5 -3 -1
right_child=1 5 -4 4 -6 -7 -8
leaf_value=0.046666449470318672 0.0046325618966604918 -0.047912255399991416 -0.018038006489828711 -0.005753727211399837 0.02685832229993055 0.03040233148761072 -0.03288223294486687
leaf_weight=145.98780823498964 961.18121653795242 99.523127555847168 493.34312532842159 75.080573923885822 100.10645823180676 3.7475180476903907 2.8519398793578139
leaf_count=1234 4332 478 2644 423 619 23 17
internal_value=0 -0.00584202 -0.00305681 0.0277004 0.0128817 -0.04507 0.0451419
internal_weight=0 1557.79 1454.52 324.027 175.187 103.271 148.84
internal_count=9770 7477 6976 2293 1042 501 1251
is_linear=0
shrinkage=0.05


Tree=37
num_leaves=8
num_cat=0
split_feature=10 5 7 7 0 2 10
split_gain=112.43 89.4673 76.511 47.9584 35.5009 41.7716 12.3245
threshold=247.50000000000003 1.0000000180025095e-35 8.5000000000000018 2.5000000000000004 42.500000000000007 1.0000000180025095e-35 784.50000000000011
decision_type=2 2 2 2 2 2 2
left_child=1 3 -3 -1 5 -2 -6
right_child=4 2 -4 -5 6 -7 -8
leaf_value=0.048379720051282681 0.00097091502251538055 0.008756585395265375 -0.043276268842608774 0.011554269322045761 -0.054123675012918752 -0.019863520535880141 0.011830841556611058
leaf_weight=203.74420408159494 522.31071081757545 393.90935234725475 86.088652953505516 156.18681006133556 59.102878227829933 446.01519198715687 8.0469585955142957
leaf_count=1495 2547 2052 381 778 295 2197 50
internal_value=0 0.0135552 -0.000575711 0.0324 -0.0110636 -0.00862553 -0.0462199
internal_weight=0 839.929 479.998 359.931 1035.48 968.326 67.1498
internal_count=9795 4706 2433 2273 5089 4744 345
is_linear=0
shrinkage=0.05


Tree=38
num_leaves=8
num_cat=0
split_feature=23 7 23 6 86 7 20
split_gain=111.227 69.9493 67.9285 59.9119 21.2196 12.4461 4.93261
threshold=0.0087337909992372242 1.0000000180025095e-35 0.0018814692097475327 1.0000000180025095e-35 77.500000000000014 3.5000000000000004 9138.5000000000018
decision_type=2 2 2 2 2 2 2
left_child=1 2 -1 -3 6 -6 -2
right_child=4 3 -4 -5 5 -7 -8
leaf_value=-0.018829295640678079 0.046299475566621812 -0.014990510459843856 0.027386628726453161 0.019246799395567851 0.032770125108849205 -0.0017090481328604476 -0.026898986567346458
leaf_weight=113.55924366414547 127.92674116790295 1099.948718547821 265.14394780248404 144.57051113992929 50.126545660197735 54.770680576562881 2.3428639844059935
leaf_count=641 1139 5247 1367 694 413 247 20
internal_value=0 -0.00528769 0.0135281 -0.0110133 0.0315053 0.0147675 0.0449828
internal_weight=0 1623.22 378.703 1244.52 235.167 104.897 130.27
internal_count=9768 7949 2008 5941 1819 660 1159
is_linear=0
shrinkage=0.05


Tree=39
num_leaves=8
num_cat=0
split_feature=88 5 10 7 10 7 85
split_gain=96.3251 54.2822 52.1187 54.8292 39.7167 36.5995 9.66371
threshold=64024.500000000007 1.0000000180025095e-35 473.50000000000006 8.5000000000000018 247.50000000000003 8.5000000000000018 517.50000000000011
decision_type=2 2 2 2 2 2 2
left_child=2 4 3 -1 -2 -3 -4
right_child=1 5 6 -5 -6 -7 -8
leaf_value=0.030218250732226115 0.023575985951597114 -0.010792004094991097 -0.010574906275955342 -0.021290663165935558 -0.0047996144917975998 -0.039974956262104705 -0.052752837962463439
leaf_weight=423.00178606063128 186.00900564342737 602.63462134450674 61.727296188473701 58.850903645157814 365.88046453893185 130.74639914929867 17.409989237785339
leaf_count=2600 1053 2958 313 263 1819 650 103
internal_value=0 -0.00708099 0.017751 0.0239272 0.00476414 -0.0159948 -0.0198547
internal_weight=0 1285.27 560.99 481.853 551.889 733.381 79.1373
internal_count=9759 6480 3279 2863 2872 3608 416
is_linear=0
shrinkage=0.05


Tree=40
num_leaves=8
num_cat=0
split_feature=10 0 0 5 7 8 8
split_gain=89.9781 58.2748 66.4273 29.9334 22.8561 21.5918 17.1986
threshold=126.50000000000001 11.500000000000002 42.500000000000007 1.0000000180025095e-35 7.5000000000000009 6.5000000000000009 3.5000000000000004
decision_type=2 2 2 2 2 2 2
left_child=4 3 -3 -2 6 -6 -1
right_child=1 2 -4 -5 5 -7 -8
leaf_value=-0.013942717674315073 -0.0049283430114475868 0.0035196818019699282 -0.039098097167270543 -0.040917308530965771 0.040389699423548558 -0.016351875106484972 0.040224200309376602
leaf_weight=15.913324669003485 96.543755710124969 1213.7321184650064 98.881214544177055 143.88806250691414 25.725432544946671 48.133738964796066 185.12862782180309
leaf_count=114 492 5950 496 670 137 220 1653
internal_value=0 -0.00383603 0.000309181 -0.0264663 0.027198 0.0034118 0.0359366
internal_weight=0 1553.05 1312.61 240.432 274.901 73.8592 201.042
internal_count=9732 7608 6446 1162 2124 357 1767
is_linear=0
shrinkage=0.05


Tree=41
num_leaves=8
num_cat=0
split_feature=23 7 9 7 10 0 0
split_gain=91.276 80.9684 66.4221 37.3555 23.9046 28.2767 6.93133
threshold=0.0035149493451939713 8.5000000000000018 2.5000000000000004 9.5000000000000018 794.50000000000011 42.500000000000007 36.500000000000007
decision_type=2 2 2 2 2 2 2
left_child=4 2 -2 -3 5 -1 -6
right_child=1 3 -4 -5 6 -7 -8
leaf_value=-0.004687731438336379 0.010460997992458846 -0.064604846829726309 0.047735117453351017 -0.0080359184569978072 -0.032051427489061472 -0.044657460699444179 -0.0039876229926348273
leaf_weight=656.48366956412792 646.67914888262749 38.534629359841347 146.61617112159729 120.25088205933571 150.81292805075645 47.446074739098549 25.76067940890789
leaf_count=3083 3622 171 993 542 959 255 164
internal_value=0 0.0108266 0.01735 -0.0217647 -0.011508 -0.00738184 -0.0279572
internal_weight=0 952.081 793.295 158.786 880.503 703.93 176.574
internal_count=9789 5328 4615 713 4461 3338 1123
is_linear=0
shrinkage=0.05


Tree=42
num_leaves=8
num_cat=0
split_feature=88 0 10 5 10 72 0
split_gain=89.7602 63.4798 51.4863 27.4667 21.1154 20.6703 17.3472
threshold=193960.00000000003 10.500000000000002 398.50000000000006 1.0000000180025095e-35 765.50000000000011 1.0000000180025095e-35 13.500000000000002
decision_type=2 2 2 2 2 2 2
left_child=1 5 -3 4 -2 -1 -5
right_child=3 2 -4 6 -6 -7 -8
leaf_value=-0.038544917874618854 0.0045721836488451162 0.022381915907565657 -0.0094619470352224882 -0.036569082580886064 -0.024775479381983021 0.0034034288297233408 -0.014091316942958244
leaf_weight=76.174223802983761 310.08002102375031 641.39733852446079 158.25255434215069 109.16480963677168 76.388099208474159 47.790594451129436 401.63234526664019
leaf_count=361 1509 3729 805 540 488 274 2043
internal_value=0 0.0109188 0.0160799 -0.0112859 -0.00122865 -0.0223732 -0.0188952
internal_weight=0 923.615 799.65 897.265 386.468 123.965 510.797
internal_count=9749 5169 4534 4580 1997 635 2583
is_linear=0
shrinkage=0.05


Tree=43
num_leaves=8
num_cat=0
split_feature=51 23 7 49 7 22 23
split_gain=82.3962 84.5516 73.0084 39.1002 27.7599 24.4367 23.0034
threshold=1.0000000180025095e-35 0.002936863895118165 7.5000000000000009 1.0000000180025095e-35 2.5000000000000004 7.7065358741145454e-05 0.0010863664259075677
decision_type=2 2 2 2 2 2 2
left_child=1 6 -3 5 -5 -2 -1
right_child=3 2 -4 4 -6 -7 -8
leaf_value=-0.032292033038191434 0.036294591028464704 0.029425792837515948 -0.01130563141014938 0.013428545841269741 -0.016062281983213109 -0.024900476921736803 -0.0029095698719852174
leaf_weight=83.240595236420631 16.963471576571465 488.30164827406406 142.00995201617479 179.64336969703436 143.56697602570057 425.11888216435909 333.44328171014786
leaf_count=543 89 2958 647 1074 693 2119 1669
internal_value=0 0.00869625 0.020249 -0.0128887 0.000328987 -0.0225522 -0.00877936
internal_weight=0 1047 630.312 765.293 323.21 442.082 416.684
internal_count=9792 5817 3605 3975 1767 2208 2212
is_linear=0
shrinkage=0.05


Tree=44
num_leaves=8
num_cat=0
split_feature=10 72 10 7 86 71 8
split_gain=77.9333 61.5281 54.8141 46.859 7.72687 5.8054 5.11843
threshold=87.500000000000014 1.0000000180025095e-35 403.50000000000006 8.5000000000000018 77.500000000000014 1.0000000180025095e-35 1.5000000000000002
decision_type=2 2 2 2 2 2 2
left_child=4 3 -3 -2 6 -6 -1
right_child=1 2 -4 -5 5 -7 -8
leaf_value=-0.018894374630450829 -0.0063783569553453809 0.018717049686037473 -0.009554679086826029 -0.035841912902236824 0.021454009907829023 -0.054206247675718994 0.045974154537430527
leaf_weight=3.1378963813185683 793.77788638323545 448.78937159478664 277.4278512597084 162.58677251636982 20.920602738857273 2.8836546763777724 97.754131883382797
leaf_count=23 3940 2365 1483 820 148 21 1002
internal_value=0 -0.00305553 0.00791675 -0.0113874 0.0379108 0.012286 0.0439564
internal_weight=0 1682.58 726.217 956.365 124.696 23.8043 100.892
internal_count=9802 8608 3848 4760 1194 169 1025
is_linear=0
shrinkage=0.05


Tree=45
num_leaves=8
num_cat=0
split_feature=88 7 23 5 10 0 25
split_gain=75.2658 53.0521 52.9465 34.4136 30.3357 24.2873 17.7652
threshold=84691.500000000015 8.5000000000000018 0.0018231555715102444 1.0000000180025095e-35 649.50000000000011 11.500000000000002 0.20913711666550167
decision_type=2 2 2 2 2 2 2
left_child=1 2 -1 4 -2 -5 -3
right_child=3 6 -4 5 -6 -7 -8
leaf_value=-0.024179730737971351 0.0094689623225358253 0.019495089603294158 0.025670190116775866 -0.036874591246317756 -0.019833322638937181 -0.010426065276110867 -0.036609598887911626
leaf_weight=59.927130326628685 389.5583827868104 18.348454251885414 479.12257310003042 102.48208670318127 114.22413362562656 567.18538978695869 61.062609061598778
leaf_count=341 1947 92 3004 503 728 2895 276
internal_value=0 0.0145075 0.0201282 -0.00704699 0.00282513 -0.0144737 -0.0236461
internal_weight=0 618.461 539.05 1173.45 503.783 669.667 79.4111
internal_count=9786 3713 3345 6073 2675 3398 368
is_linear=0
shrinkage=0.05


Tree=46
num_leaves=7
num_cat=0
split_feature=10 6 0 10 20 7
split_gain=74.3384 61.249 57.1937 51.2352 4.76444 2.66796
threshold=78.500000000000014 1.0000000180025095e-35 9.5000000000000018 667.50000000000011 9138.5000000000018 1.5000000000000002
decision_type=2 2 2 2 2 2
left_child=4 2 -2 -3 5 -1
right_child=1 3 -4 -5 -6 -7
leaf_value=0.055207137428454393 -0.036640836293761532 0.034400337005366821 -0.0030896903603929034 -0.031536982063044242 -0.028088541314516081 0.037776953307591218
leaf_weight=35.797377653419971 140.20986515283585 169.13379346579313 1350.1658926233649 35.6738201379776 2.3153339251875868 56.824672684073448
leaf_count=439 707 860 7019 226 21 552
internal_value=0 -0.00272291 -0.00624611 0.0229151 0.0427432 0.0445142
internal_weight=0 1695.18 1490.38 204.808 94.9374 92.6221
internal_count=9824 8812 7726 1086 1012 991
is_linear=0
shrinkage=0.05


Tree=47
num_leaves=8
num_cat=0
split_feature=23 0 0 86 6 7 0
split_gain=67.0726 53.7715 64.03 19.7581 15.2199 10.2161 5.90531
threshold=0.0087337909992372242 10.500000000000002 42.500000000000007 77.500000000000014 1.0000000180025095e-35 3.5000000000000004 11.500000000000002
decision_type=2 2 2 2 2 2 2
left_child=1 4 -3 6 -1 -5 -2
right_child=3 2 -4 5 -6 -7 -8
leaf_value=-0.032645321860185234 0.010798732662387199 0.003424560595543376 -0.039317778703044107 0.028386614897860665 0.010724321988124834 -0.0035325223045679951 0.046080430931465244
leaf_weight=172.30000312626362 13.528577730059622 1277.5184416472912 94.071612603962421 46.243197523057461 22.919527187943459 54.742763534188271 96.211067706346512
leaf_count=868 127 6469 494 431 112 252 1042
internal_value=0 -0.00300152 0.000493007 0.0270443 -0.0275535 0.011084 0.0417311
internal_weight=0 1566.81 1371.59 210.726 195.22 100.986 109.74
internal_count=9795 7943 6963 1852 980 683 1169
is_linear=0
shrinkage=0.05


Tree=48
num_leaves=8
num_cat=0
split_feature=88 0 0 7 8 72 8
split_gain=66.158 58.5442 53.5251 28.6049 21.5286 16.9219 12.002
threshold=339896.50000000006 10.500000000000002 41.500000000000007 5.5000000000000009 3.5000000000000004 1.0000000180025095e-35 4.5000000000000009
decision_type=2 2 2 2 2 2 2
left_child=1 5 -3 4 -2 -1 -5
right_child=3 2 -4 6 -6 -7 -8
leaf_value=-0.036141811677823515 -0.040200381235298427 0.014403127281762469 -0.033891518044083073 -0.0052772790467605826 -0.0031258284336987195 -0.0010301223045068981 -0.036723695980710312
leaf_weight=89.384437434375286 43.152573101222515 915.48780056834221 61.206445649266243 38.590670898556709 422.71900404989719 55.697341710329056 141.968177549541
leaf_count=436 215 5301 311 206 2253 326 746
internal_value=0 0.00697424 0.0113766 -0.0131081 -0.00656006 -0.0226625 -0.0300028
internal_weight=0 1121.78 976.694 646.43 465.872 145.082 180.559
internal_count=9794 6374 5612 3420 2468 762 952
is_linear=0
shrinkage=0.05


Tree=49
num_leaves=8
num_cat=0
split_feature=10 74 8 0 86 9 7
split_gain=62.9943 46.9893 56.8138 40.5046 19.0024 18.138 6.05509
threshold=124.50000000000001 1.0000000180025095e-35 3.5000000000000004 7.5000000000000009 77.500000000000014 1.0000000180025095e-35 7.5000000000000009
decision_type=2 2 2 2 2 2 2
left_child=4 3 -3 -2 6 -6 -1
right_child=1 2 -4 -5 5 -7 -8
leaf_value=0.04526590846857232 -0.052553873902302775 -0.052942118506347981 0.016652518844417093 -0.0071279010936188148 -0.010395223161321307 0.027199279852225439 0.017628455041794611
leaf_weight=84.22792998701334 51.381394393742085 31.94523423910141 357.39936082065105 1091.327526293695 57.622254133224487 72.386021584272385 25.919129393994808
leaf_count=1035 254 147 1960 5380 350 522 169
internal_value=0 -0.00405922 0.0109422 -0.00917052 0.0234827 0.0105367 0.0387627
internal_weight=0 1532.05 389.345 1142.71 240.155 130.008 110.147
internal_count=9817 7741 2107 5634 2076 872 1204
is_linear=0
shrinkage=0.05


Tree=50
num_leaves=8
num_cat=0
split_feature=10 0 7 7 7 8 10
split_gain=58.3327 40.6605 46.1797 28.3826 25.4606 15.4927 11.5561
threshold=143.50000000000003 42.500000000000007 10.500000000000002 3.5000000000000004 4.5000000000000009 3.5000000000000004 501.50000000000006
decision_type=2 2 2 2 2 2 2
left_child=3 2 -2 5 -5 -1 -3
right_child=1 6 -4 4 -6 -7 -8
leaf_value=-0.014195264342936085 0.00028341036594723963 -0.045998502652922997 -0.055020546821383048 -0.061892974547466929 0.011138505976728909 0.039840481484179097 -0.0013591848039034272
leaf_weight=14.583874955773352 1312.3169040456414 68.635276168584824 38.863203391432762 13.007171437144278 144.48661360144615 146.60945726186037 18.381088003516197
leaf_count=112 6576 353 200 65 788 1578 125
internal_value=0 -0.00344083 -0.00130732 0.0202023 0.00510648 0.0349516 -0.0365692
internal_weight=0 1438.2 1351.18 318.687 157.494 161.193 87.0164
internal_count=9797 7254 6776 2543 853 1690 478
is_linear=0
shrinkage=0.05


Tree=51
num_leaves=8
num_cat=0
split_feature=88 0 10 3 0 9 79
split_gain=61.0744 40.5985 41.4846 29.5785 31.4916 23.8572 10.7786
threshold=64024.500000000007 7.5000000000000009 363.50000000000006 4.5000000000000009 12.500000000000002 2.5000000000000004 1.0000000180025095e-35
decision_type=2 2 2 2 2 2 2
left_child=1 6 -3 5 -5 -2 -1
right_child=3 2 -4 4 -6 -7 -8
leaf_value=-0.065701811782424818 -0.014706094053935271 0.025752676215551048 -0.0091857515372114253 -0.020255218553717858 0.013167263325048195 0.009071407654299226 0.0091489778331618546
leaf_weight=19.085093721747402 717.15651047229767 376.2646005526185 109.73994871973991 91.867439582943916 302.69676242023706 123.68716947734356 6.4294858872890464
leaf_count=94 3724 2554 557 472 1619 687 43
internal_value=0 0.014636 0.0178636 -0.00590871 0.00538538 -0.0112084 -0.0468405
internal_weight=0 511.519 486.005 1235.41 394.564 840.844 25.5146
internal_count=9750 3248 3111 6502 2091 4411 137
is_linear=0
shrinkage=0.05


Tree=52
num_leaves=8
num_cat=0
split_feature=88 9 10 7 74 8 8
split_gain=51.9599 48.9957 37.2331 32.821 20.8725 27.6387 17.0731
threshold=339896.50000000006 1.0000000180025095e-35 596.50000000000011 2.5000000000000004 1.0000000180025095e-35 3.5000000000000004 12.500000000000002
decision_type=2 2 2 2 2 2 2
left_child=1 3 -3 -1 6 -6 -2
right_child=4 2 -4 -5 5 -7 -8
leaf_value=0.0098554580918355748 -0.027091786820485405 0.021016889385538376 -0.017170432041100119 -0.016061002119017048 -0.059970841183885903 0.012289966373414635 -0.0080815666759346885
leaf_weight=218.17518328502774 200.98342017829418 539.09112124890089 72.402691572904587 277.59804863482714 14.6452619433403 137.09150929003954 286.42552533745766
leaf_count=1330 1056 3246 436 1368 70 757 1527
internal_value=0 0.00702498 0.0164954 -0.00465594 -0.0108791 0.00531506 -0.0159205
internal_weight=0 1107.27 611.494 495.773 639.146 151.737 487.409
internal_count=9790 6380 3682 2698 3410 827 2583
is_linear=0
shrinkage=0.05


Tree=53
num_leaves=8
num_cat=0
split_feature=6 74 8 8 21 7 21
split_gain=54.1244 50.0742 71.9207 45.2139 32.9603 10.5768 9.7047
threshold=1.0000000180025095e-35 1.0000000180025095e-35 3.5000000000000004 15.500000000000002 254.50000000000003 8.5000000000000018 637.50000000000011
decision_type=2 2 2 2 2 2 2
left_child=1 3 -3 -1 5 -2 -6
right_child=4 2 -4 -5 6 -7 -8
leaf_value=-0.018524390161983786 0.038766891085456098 -0.058169827192170044 0.018828157088229509 0.001371682700697004 0.0046430653369895873 -0.004373782855750798 -0.039862318313678341
leaf_weight=594.30992139875889 144.22227286919951 33.25798387825489 344.03155556321144 549.62154819071293 36.074727967381477 15.759848177433012 18.544557854533195
leaf_count=3105 888 160 2207 3013 184 70 123
internal_value=0 -0.00375522 0.0120406 -0.00896499 0.0230677 0.0345171 -0.0104682
internal_weight=0 1521.22 377.29 1143.93 214.601 159.982 54.6193
internal_count=9750 8485 2367 6118 1265 958 307
is_linear=0
shrinkage=0.05


Tree=54
num_leaves=8
num_cat=0
split_feature=23 7 8 7 2 23 52
split_gain=48.2785 63.8651 85.6485 64.2878 17.1077 15.579 8.90137
threshold=0.0029112143196148893 3.5000000000000004 3.5000000000000004 4.5000000000000009 1.0000000180025095e-35 0.0011242274490969532 1.0000000180025095e-35
decision_type=2 2 2 2 2 2 2
left_child=4 2 -2 -3 5 -1 -6
right_child=1 3 -4 -5 6 -7 -8
leaf_value=-0.024583471407214195 -0.035235085925939484 -0.06064742854110261 0.02480748015232314 -0.00046131230949845997 -0.023701771879851296 0.0018077296447418666 -0.0036104919311092847
leaf_weight=68.440827213227749 67.069388248026371 49.461654469370842 518.911291629076 430.79290217161179 233.74948217719793 305.6193798109889 72.144796513020992
leaf_count=462 343 227 3462 2090 1291 1550 394
internal_value=0 0.00685696 0.0179351 -0.00666006 -0.0101931 -0.00302107 -0.0189633
internal_weight=0 1066.24 585.981 480.255 679.954 374.06 305.894
internal_count=9819 6122 3805 2317 3697 2012 1685
is_linear=0
shrinkage=0.05


Tree=55
num_leaves=8
num_cat=0
split_feature=0 3 88 10 72 1 7
split_gain=51.5351 58.1117 47.5652 46.9265 24.0044 17.3074 12.0232
threshold=11.500000000000002 4.5000000000000009 18035.000000000004 411.50000000000006 1.0000000180025095e-35 99.500000000000014 2.5000000000000004
decision_type=2 2 2 2 2 2 2
left_child=4 2 -2 -3 5 -1 -6
right_child=1 3 -4 -5 6 -7 -8
leaf_value=0.0076048164783779461 0.023703713025703208 0.030037849772375554 -0.0072210070049629153 -0.0040303342088977671 0.0090626964961143738 -0.039400261610355626 -0.029563562086877011
leaf_weight=22.920672036707401 145.094217851758 303.81716879829764 869.32016313448548 151.47289983928204 74.299365356564522 134.47184866666794 27.639566153287888
leaf_count=116 1028 1775 4718 852 471 695 129
internal_value=0 0.00386301 -0.00279774 0.0187035 -0.0203127 -0.032555 -0.00141062
internal_weight=0 1469.7 1014.41 455.29 259.331 157.393 101.939
internal_count=9784 8373 5746 2627 1411 811 600
is_linear=0
shrinkage=0.05


Tree=56
num_leaves=8
num_cat=0
split_feature=51 23 7 7 7 8 7
split_gain=48.8889 52.4004 54.3675 27.6512 36.6326 24.1142 10.6496
threshold=1.0000000180025095e-35 0.0016515287892425608 7.5000000000000009 2.5000000000000004 4.5000000000000009 1.5000000000000002 3.5000000000000004
decision_type=2 2 2 2 2 2 2
left_child=1 6 -3 5 -5 -2 -1
right_child=3 2 -4 4 -6 -7 -8
leaf_value=-0.0237505906597636 -0.05246378590262777 0.019789194091309598 -0.011728791251387989 -0.043124082628544676 -0.0092983462956434532 0.005563863323840023 0.0039819004988286425
leaf_weight=136.03107479959726 19.093899197876453 632.84339628741145 174.56499031186104 106.69234616309404 320.42142024636269 286.92769742384553 46.433642715215683
leaf_count=871 98 3771 836 544 1644 1712 314
internal_value=0 0.00750609 0.0129749 -0.0095287 -0.0177481 0.00194308 -0.0166932
internal_weight=0 989.873 807.408 733.135 427.114 306.022 182.465
internal_count=9790 5792 4607 3998 2188 1810 1185
is_linear=0
shrinkage=0.05


Tree=57
num_leaves=7
num_cat=0
split_feature=10 0 0 8 20 18
split_gain=50.8598 47.13 45.333 13.3897 5.2884 2.97161
threshold=76.500000000000014 7.5000000000000009 42.500000000000007 6.5000000000000009 9138.5000000000018 11339373.500000002
decision_type=2 2 2 2 2 2
left_child=4 3 -3 -2 5 -1
right_child=1 2 -4 -5 -6 -7
leaf_value=0.051121492280071096 0.00060409114816595375 0.0019006879627249927 -0.033217257194093644 -0.051633041975983576 -0.038387839769450087 0.029998741564054122
leaf_weight=43.197071321308613 15.448002211749552 1461.6183072812855 98.059912621974945 59.578901670873165 2.0544147118926039 27.107075024396181
leaf_count=558 80 7853 544 316 19 349
internal_value=0 -0.00216933 -0.00030727 -0.0408776 0.0406671 0.0429779
internal_weight=0 1634.71 1559.68 75.0269 72.3586 70.3041
internal_count=9719 8793 8397 396 926 907
is_linear=0
shrinkage=0.05


Tree=58
num_leaves=8
num_cat=0
split_feature=88 72 10 0 7 0 21
split_gain=44.2401 40.5685 38.5624 31.2246 27.6323 15.0124 9.44818
threshold=11583.000000000002 1.0000000180025095e-35 473.50000000000006 11.500000000000002 10.500000000000002 7.5000000000000009 -45.499999999999993
decision_type=2 2 2 2 2 2 2
left_child=2 3 5 -2 -3 -1 -4
right_child=1 4 6 -5 -6 -7 -8
leaf_value=-0.037011030435573779 -0.031462792494914363 0.0086201085257801655 0.049660095963984331 -0.0053948693782526549 -0.067358817890930275 0.036848397870814724 -0.025891866553293837
leaf_weight=7.1981676928699008 136.25900385901332 621.08588614687324 4.5973274409770957 731.93201762065291 12.200355634093283 155.09719647839665 41.321082510054111
leaf_count=43 711 3556 24 3960 53 1179 236
internal_value=0 -0.00246681 0.0221268 -0.00948616 0.00715622 0.0335723 -0.0183264
internal_weight=0 1501.48 208.214 868.191 633.286 162.295 45.9184
internal_count=9762 8280 1482 4671 3609 1222 260
is_linear=0
shrinkage=0.05


Tree=59
num_leaves=8
num_cat=0
split_feature=88 9 0 10 8 8 74
split_gain=49.2296 42.8118 32.7923 27.2482 23.1348 42.952 11.0304
threshold=339896.50000000006 2.5000000000000004 42.500000000000007 351.50000000000006 12.500000000000002 20.500000000000004 1.0000000180025095e-35
decision_type=2 2 2 2 2 2 2
left_child=1 2 -1 -3 6 -6 -2
right_child=4 3 -4 -5 5 -7 -8
leaf_value=0.0044785468865305156 -0.028199923166356812 0.042282508126382193 -0.040809127145976017 -0.0012805402211790661 0.011254479383710238 -0.024043827893558883 -0.0045514723702550913
leaf_weight=854.68183545023203 195.82625632733107 122.44834538921714 41.931350126862526 50.782067395746708 217.77610974758863 142.62088426575065 65.903927605599165
leaf_count=4874 1062 959 220 264 1182 794 356
internal_value=0 0.00675701 0.00236055 0.0295122 -0.010931 -0.00271425 -0.0222453
internal_weight=0 1069.84 896.613 173.23 622.127 360.397 261.73
internal_count=9711 6317 5094 1223 3394 1976 1418
is_linear=0
shrinkage=0.05


Tree=60
num_leaves=8
num_cat=0
split_feature=0 2 3 0 10 85 25
split_gain=43.8217 56.0645 41.8533 34.2525 13.0888 11.8687 8.2413
threshold=41.500000000000007 1.0000000180025095e-35 3.5000000000000004 11.500000000000002 488.50000000000006 361.50000000000006 0.074064415892519844
decision_type=2 2 2 2 2 2 2
left_child=1 2 -1 -3 6 -6 -2
right_child=4 3 -4 -5 5 -7 -8
leaf_value=0.0022393957987584152 -0.013930632548533994 -0.024436917177276252 0.024929045935049174 -0.00064400485928585091 0.034754412303611336 -0.034116714091880836 -0.045529814789125399
leaf_weight=512.58935548737645 29.106018032878637 214.88806435093284 336.77271901443601 510.8893185146153 13.972877345979215 11.324162416160105 70.901062324643135
leaf_count=2947 152 1171 1999 2966 95 81 378
internal_value=0 0.00251603 0.0112359 -0.00768864 -0.0282061 0.00392424 -0.0363335
internal_weight=0 1575.14 849.362 725.777 125.304 25.297 100.007
internal_count=9789 9083 4946 4137 706 176 530
is_linear=0
shrinkage=0.05


Tree=61
num_leaves=8
num_cat=0
split_feature=51 23 0 23 22 23 14
split_gain=46.6642 43.9676 45.4101 25.9488 21.5653 14.1925 1.03238
threshold=1.0000000180025095e-35 0.0028777037993971319 41.500000000000007 0.015038444142921758 7.7065358741145454e-05 0.0010230181704772134 1510.0530026827887
decision_type=2 2 2 2 2 2 2
left_child=1 5 -3 4 -2 -1 -5
right_child=3 2 -4 6 -6 -7 -8
leaf_value=-0.027283508048795563 0.02454103469400315 0.019298231371973975 -0.03799823896343657 0.020595935543644847 -0.013396694651430494 -0.0017152980431523531 0.053220883250810647
leaf_weight=65.182494044303894 39.686124328523874 548.41070131585002 36.906985621899366 2.8627258986234692 667.03904986381531 324.29930992424488 15.934679225087164
leaf_count=465 239 3455 195 37 3530 1695 190
internal_value=0 0.00702319 0.0156853 -0.00972407 -0.0112663 -0.00599439 0.0482541
internal_weight=0 974.799 585.318 725.523 706.725 389.482 18.7974
internal_count=9806 5810 3650 3996 3769 2160 227
is_linear=0
shrinkage=0.05


Tree=62
num_leaves=8
num_cat=0
split_feature=9 88 7 7 0 8 3
split_gain=40.0037 46.0259 35.3017 64.5573 33.6779 25.1525 15.5549
threshold=1.0000000180025095e-35 626593.50000000012 2.5000000000000004 4.5000000000000009 7.5000000000000009 1.5000000000000002 3.5000000000000004
decision_type=2 2 2 2 2 2 2
left_child=2 4 5 -4 -2 -1 -3
right_child=1 6 3 -5 -6 -7 -8
leaf_value=-0.052842411022471517 -0.038228709035447492 -0.024392577822737887 -0.051647660681495636 -0.0070721618422493818 0.015306309436695526 0.00717623375201892 0.0025422583792280174
leaf_weight=18.497193917632103 30.708101183176041 128.69392744079232 107.07993844151497 336.39715791493654 677.18043429031968 309.78815721347928 91.862352587282658
leaf_count=96 169 715 556 1749 4154 1868 532
internal_value=0 0.00676992 -0.0086347 -0.0178353 0.0129839 0.00379429 -0.0131742
internal_weight=0 928.445 771.762 443.477 707.889 328.285 220.556
internal_count=9839 5570 4269 2305 4323 1964 1247
is_linear=0
shrinkage=0.05


Tree=63
num_leaves=8
num_cat=0
split_feature=7 10 88 7 5 78 1
split_gain=44.2013 51.435 48.0682 35.751 36.2069 10.3698 6.18127
threshold=8.5000000000000018 649.50000000000011 7288.0000000000009 9.5000000000000018 1.0000000180025095e-35 1.0000000180025095e-35 2647.0000000000005
decision_type=2 2 2 2 2 2 2
left_child=1 2 -1 6 -5 -3 -2
right_child=3 5 -4 4 -6 -7 -8
leaf_value=0.034908916289727303 -0.067467749594032192 -0.030089685205819484 0.0038159539129576782 0.011583878192971594 -0.030040876236692899 -0.0082453091079068216 -0.026616048233910714
leaf_weight=140.53529880195856 37.124015554785728 106.99377247691154 1075.9353516586125 100.6931850835681 108.57332510501146 110.37530697882175 12.340025179088114
leaf_count=1076 183 744 5902 484 612 733 67
internal_value=0 0.00340496 0.00740807 -0.0190486 -0.0100123 -0.0189977 -0.0572773
internal_weight=0 1433.84 1216.47 258.731 209.267 217.369 49.464
internal_count=9801 8455 6978 1346 1096 1477 250
is_linear=0
shrinkage=0.05


Tree=64
num_leaves=8
num_cat=0
split_feature=23 6 10 0 23 7 92
split_gain=40.6839 32.7313 35.0847 28.8989 10.6868 11.2674 1.65595
threshold=0.0087337909992372242 1.0000000180025095e-35 654.50000000000011 11.500000000000002 0.016001024065540197 7.5000000000000009 3198200192.2142968
decision_type=2 2 2 2 2 2 2
left_child=1 3 -3 -1 5 -2 -6
right_child=4 2 -4 -5 6 -7 -8
leaf_value=-0.023223513050273467 0.025126422768614494 0.028636909150105718 -0.026720216978997114 -0.0026776566733204572 0.029073678220467206 -0.0060238353807642378 0.050046507720640156
leaf_weight=202.00720454007387 90.572180066257715 138.65696138516068 36.066967070102692 1120.3274388834834 13.642740622162817 42.721676483750343 30.400712482631207
leaf_count=1089 964 697 244 5901 202 198 446
internal_value=0 -0.00312894 0.0172098 -0.00581638 0.0221984 0.0151426 0.0435511
internal_weight=0 1497.06 174.724 1322.33 177.337 133.294 44.0435
internal_count=9741 7931 941 6990 1810 1162 648
is_linear=0
shrinkage=0.05


Tree=65
num_leaves=8
num_cat=0
split_feature=6 7 8 10 10 4 19
split_gain=36.162 36.1228 61.403 34.5615 30.6045 10.0661 6.86345
threshold=1.0000000180025095e-35 1.0000000180025095e-35 15.500000000000002 570.50000000000011 388.50000000000006 1.5000000000000002 6.5000000000000009
decision_type=2 2 2 2 2 2 2
left_child=1 4 -3 5 -1 -2 -5
right_child=3 2 -4 6 -6 -7 -8
leaf_value=0.024746671860792272 0.025736860584735951 -0.018014897127405938 0.0052422143665848495 0.025756411653695965 -0.0061099244162477438 0.063091675403724706 -0.027271632421670834
leaf_weight=187.96015557646751 135.02530175447464 613.94577869772911 527.77035407721996 7.2597233951091757 140.36866170912981 20.814745366573334 38.23146815598011
leaf_count=1411 821 3316 3013 46 759 144 243
internal_value=0 -0.00306094 -0.00726406 0.019534 0.0115547 0.0307266 -0.0188086
internal_weight=0 1470.04 1141.72 201.331 328.329 155.84 45.4912
internal_count=9753 8499 6329 1254 2170 965 289
is_linear=0
shrinkage=0.05


Tree=66
num_leaves=8
num_cat=0
split_feature=10 7 21 7 85 14 2
split_gain=36.4426 33.6675 40.6623 34.0912 4.62174 6.2073 2.89613
threshold=76.500000000000014 8.5000000000000018 466.50000000000006 9.5000000000000018 50.500000000000007 1527.7296952682475 1.0000000180025095e-35
decision_type=2 2 2 2 2 2 2
left_child=4 2 -2 -3 6 -6 -1
right_child=1 3 -4 -5 5 -7 -8
leaf_value=0.0505096196759411 0.0052033653020974631 -0.05614367220541408 -0.021370214685237549 -0.0090268203361488619 -0.043671456031769529 0.045704743397877258 0.027801596499780271
leaf_weight=35.316279646009207 1186.613446444273 47.548400111496449 163.83078945428133 199.32078845798969 3.9347765222191802 3.8345313519239426 23.318081490695477
leaf_count=538 6396 244 1112 1046 43 45 333
internal_value=0 -0.00112414 0.00197954 -0.018102 0.0366782 0.000440319 0.0414798
internal_weight=0 1597.31 1350.44 246.869 66.4037 7.76931 58.6344
internal_count=9757 8798 7508 1290 959 88 871
is_linear=0
shrinkage=0.05


Tree=67
num_leaves=8
num_cat=0
split_feature=3 23 3 23 24 20 8
split_gain=41.7533 41.3103 54.5054 11.965 6.04026 6.84947 4.48246
threshold=10.500000000000002 0.0029112143196148893 4.5000000000000009 0.0014378152650293562 13.526786614083298 3239.5000000000005 6.5000000000000009
decision_type=2 2 2 2 2 2 2
left_child=1 3 -3 -1 6 -6 -2
right_child=4 2 -4 -5 5 -7 -8
leaf_value=-0.018256871122190731 -0.020194570408926558 0.00068983732396596831 0.026966782259274066 -0.0035488360670628168 0.050350018252835874 -0.043685535255215624 -0.055078988939185558
leaf_weight=201.36558954417706 11.964759856462477 690.64708634093404 276.29470562934875 441.32682240009308 3.6294468492269507 4.1484191939234734 40.004878219217062
leaf_count=1455 61 4088 1769 2160 21 22 218
internal_value=0 0.0016679 0.00819826 -0.00815712 -0.0408983 0.000196123 -0.0470484
internal_weight=0 1609.63 966.942 642.692 59.7475 7.77787 51.9696
internal_count=9794 9472 5857 3615 322 43 279
is_linear=0
shrinkage=0.05


Tree=68
num_leaves=8
num_cat=0
split_feature=51 21 5 6 23 10 88
split_gain=42.3001 31.0991 27.3262 21.4291 16.1059 12.4543 11.5486
threshold=1.0000000180025095e-35 113.50000000000001 1.0000000180025095e-35 1.0000000180025095e-35 0.015504807692307694 649.50000000000011 702602.00000000012
decision_type=2 2 2 2 2 2 2
left_child=1 2 -1 4 -2 -5 -3
right_child=3 6 -4 5 -6 -7 -8
leaf_value=0.02650698070354476 -0.012830278892559581 0.0013725464025293034 0.0046268293388522898 0.033074781679868395 0.041320019968634158 -0.032387949458063989 -0.017920506573473948
leaf_weight=249.87818952277303 647.63965859264135 247.52726326137781 332.68354455754161 42.481215640902519 14.027867842465637 8.763434208929537 112.96161498129368
leaf_count=1816 3517 1314 1920 240 189 61 711
internal_value=0 0.00686942 0.0140119 -0.00926971 -0.0116822 0.0218793 -0.00467311
internal_weight=0 943.051 582.562 712.912 661.668 51.2446 360.489
internal_count=9768 5761 3736 4007 3706 301 2025
is_linear=0
shrinkage=0.05


Tree=69
num_leaves=8
num_cat=0
split_feature=0 88 9 5 8 8 7
split_gain=32.553 33.5838 30.4839 15.515 12.5153 12.3192 8.95079
threshold=7.5000000000000009 353437.50000000006 2.5000000000000004 1.0000000180025095e-35 12.500000000000002 6.5000000000000009 1.5000000000000002
decision_type=2 2 2 2 2 2 2
left_child=3 2 -2 6 -3 -5 -1
right_child=1 4 -4 5 -6 -7 -8
leaf_value=0.02037123325027794 0.003479904602176476 -0.016592578440880006 0.027441501222182797 0.0021664841106742265 -0.0016946946407892277 -0.059594026317477393 -0.052087481848195588
leaf_weight=16.985178038477901 853.66902256757021 241.1606937199831 157.16985600441694 10.04296989738941 339.32815501093864 41.184635486453772 5.688318356871604
leaf_count=108 4988 1349 1184 53 1904 227 29
internal_value=0 0.00170118 0.00720559 -0.0322452 -0.00788396 -0.0474864 0.00219083
internal_weight=0 1591.33 1010.84 73.9011 580.489 51.2276 22.6735
internal_count=9842 9425 6172 417 3253 280 137
is_linear=0
shrinkage=0.05


Tree=70
num_leaves=8
num_cat=0
split_feature=23 7 0 7 8 8 0
split_gain=36.369 28.6073 27.428 11.0483 14.2268 8.28005 8.18316
threshold=0.0087337909992372242 10.500000000000002 42.500000000000007 7.5000000000000009 8.5000000000000018 12.500000000000002 54.500000000000007
decision_type=2 2 2 2 2 2 2
left_child=1 2 -1 5 -5 -2 -3
right_child=3 6 -4 4 -6 -7 -8
leaf_value=0.00081875085975262991 0.012324343904328084 -0.047846625292972324 -0.029640153019392036 0.034607144929927447 -0.018768192417244308 0.040160169665742679 0.036598026220345768
leaf_weight=1354.2894298285246 40.481869027018547 40.659945279359818 78.17555733025074 21.088286630809307 30.595298431813717 78.568881507962942 3.0857428982853881
leaf_count=7223 501 234 459 136 153 1054 23
internal_value=0 -0.00205992 -0.000843544 0.0223148 0.0030107 0.0306952 -0.0418891
internal_weight=0 1476.21 1432.46 170.734 51.6836 119.051 43.7457
internal_count=9783 7939 7682 1844 289 1555 257
is_linear=0
shrinkage=0.05


Tree=71
num_leaves=8
num_cat=0
split_feature=2 3 88 23 69 3 85
split_gain=34.1207 39.9536 30.1715 28.2168 22.3016 24.3463 13.2748
threshold=1.0000000180025095e-35 4.5000000000000009 8262.5000000000018 0.0024479840836089941 1.0000000180025095e-35 10.500000000000002 28.500000000000004
decision_type=2 2 2 2 2 2 2
left_child=1 2 -1 -3 5 -2 -6
right_child=4 3 -4 -5 6 -7 -8
leaf_value=0.033968144194412825 0.0023760092253743287 -4.5475095393087873e-05 -0.0044687197750191863 0.031820475462307922 0.0064861826514030427 -0.036279769728283146 -0.024362949575723266
leaf_weight=56.309758249670267 425.40699669718742 104.40755162388086 547.02063252776861 207.59742989763618 41.386747851967812 45.044681590050459 221.53013762831688
leaf_count=449 2547 596 3124 1331 273 249 1229
internal_value=0 0.00663083 -0.000881281 0.0211571 -0.00784351 -0.00132529 -0.0195069
internal_weight=0 915.335 603.33 312.005 733.369 470.452 262.917
internal_count=9798 5500 3573 1927 4298 2796 1502
is_linear=0
shrinkage=0.05


Tree=72
num_leaves=7
num_cat=0
split_feature=3 3 88 10 25 8
split_gain=32.449 37.6523 34.8551 31.5921 7.74842 6.48358
threshold=10.500000000000002 4.5000000000000009 19754.000000000004 363.50000000000006 0.051712831684539322 6.5000000000000009
decision_type=2 2 2 2 2 2
left_child=1 2 -1 -3 -2 -6
right_child=4 3 -4 -5 5 -7
leaf_value=0.018167951544560124 0.012963713398849575 0.024025741445479351 -0.0071016434741218914 -0.0020757466421470975 -0.012013887941044426 -0.052519622537866323
leaf_weight=159.37834806367755 7.161015670746564 282.32608090341091 948.98357899487019 196.69315809756517 13.14745497331023 39.75199618190527
leaf_count=1202 39 1830 5328 1108 68 226
internal_value=0 0.0015945 -0.00346795 0.0133081 -0.0358455 -0.042453
internal_weight=0 1587.38 1108.36 479.019 60.0605 52.8995
internal_count=9801 9468 6530 2938 333 294
is_linear=0
shrinkage=0.05


Tree=73
num_leaves=8
num_cat=0
split_feature=7 10 0 7 8 78 88
split_gain=33.6007 34.5598 48.7514 26.8402 30.1314 14.5666 5.0599
threshold=8.5000000000000018 559.50000000000011 42.500000000000007 9.5000000000000018 19.500000000000004 1.0000000180025095e-35 443661.00000000006
decision_type=2 2 2 2 2 2 2
left_child=1 2 -1 6 -5 -3 -2
right_child=3 5 -4 4 -6 -7 -8
leaf_value=0.0093551344487467422 -0.061422143487060314 -0.024461246199520184 -0.038053600428734832 0.0034084137503721233 -0.03897835729557287 -0.001649006284624565 -0.024961446504537438
leaf_weight=1059.043503921479 33.519282944500446 135.89070547372103 57.15149037539959 142.62705840915442 59.383033558726311 144.27180970460176 13.291188739240168
leaf_count=6323 170 919 314 760 333 921 81
internal_value=0 0.0029868 0.00692767 -0.016957 -0.00905181 -0.012714 -0.0510706
internal_weight=0 1396.36 1116.19 248.821 202.01 280.163 46.8105
internal_count=9821 8477 6637 1344 1093 1840 251
is_linear=0
shrinkage=0.05


Tree=74
num_leaves=8
num_cat=0
split_feature=8 7 8 7 10 21 4
split_gain=31.3422 57.1021 55.4224 53.896 47.4674 25.7317 24.6262
threshold=15.500000000000002 1.0000000180025095e-35 19.500000000000004 7.5000000000000009 388.50000000000006 385.50000000000006 1.5000000000000002
decision_type=2 2 2 2 2 2 2
left_child=1 4 5 -4 -1 -2 -3
right_child=2 6 3 -5 -6 -7 -8
leaf_value=0.037520668335372737 0.031465167537208238 -0.017717016884230868 0.0048675103269874573 -0.040283740497612693 -0.0086605245584323084 -0.0097606513948395382 0.008388628886425992
leaf_weight=117.62504727393389 240.04028020054102 562.43786508589983 368.86223385855556 80.519751623272896 105.590909473598 44.935326062142849 107.62330951914191
leaf_count=957 1400 3088 2364 447 584 295 630
internal_value=0 -0.0062276 0.0077157 -0.00322273 0.015675 0.0249646 -0.013524
internal_weight=0 893.277 734.358 449.382 223.216 284.976 670.061
internal_count=9765 5259 4506 2811 1541 1695 3718
is_linear=0
shrinkage=0.05


Tree=75
num_leaves=8
num_cat=0
split_feature=8 7 7 7 10 8 4
split_gain=34.2861 48.0254 72.9843 47.3876 48.6192 44.1519 26.8534
threshold=15.500000000000002 7.5000000000000009 4.5000000000000009 1.0000000180025095e-35 300.50000000000006 19.500000000000004 1.5000000000000002
decision_type=2 2 2 2 2 2 2
left_child=3 2 -2 4 -1 -3 -5
right_child=1 5 -4 6 -6 -7 -8
leaf_value=0.041455677631913511 0.0032018838323406799 0.014757093447143425 0.042368648663001621 -0.017629250786320473 -0.00624778940153511 -0.041385795709189988 0.0095919563686525221
leaf_weight=91.021109648048878 419.15501308813691 60.163500763475895 166.06400008127093 564.25747009366751 129.27034536004066 83.785364203155041 107.927734490484
leaf_count=835 2774 303 938 3107 717 468 628
internal_value=0 0.00795197 0.0143161 -0.00666288 0.0134627 -0.0179209 -0.0132585
internal_weight=0 729.168 585.219 892.477 220.291 143.949 672.185
internal_count=9770 4483 3712 5287 1552 771 3735
is_linear=0
shrinkage=0.05


Tree=76
num_leaves=8
num_cat=0
split_feature=51 0 23 6 4 10 10
split_gain=31.989 29.895 33.3399 16.6155 14.5083 9.44276 7.49271
threshold=1.0000000180025095e-35 41.500000000000007 0.0016792623089504262 1.0000000180025095e-35 1.5000000000000002 241.50000000000003 501.50000000000006
decision_type=2 2 2 2 2 2 2
left_child=1 2 -1 4 -2 -5 -3
right_child=3 6 -4 5 -6 -7 -8
leaf_value=-0.011530889103663863 -0.013578595412415018 -0.037324701568155386 0.013274173039544182 0.045243846516919692 0.0067931734482270982 0.0013859570881516298 0.0074006745061410972
leaf_weight=168.14060959219933 538.37860839441419 47.014587089419365 697.01901394315064 20.886308822780848 104.33393613621593 29.756945125758648 11.692647151648996
leaf_count=1163 3050 264 4275 142 623 156 86
internal_value=0 0.00611043 0.00845339 -0.00809885 -0.0102716 0.0194746 -0.0284168
internal_weight=0 923.867 865.16 693.356 642.713 50.6433 58.7072
internal_count=9759 5788 5438 3971 3673 298 350
is_linear=0
shrinkage=0.05


Tree=77
num_leaves=8
num_cat=0
split_feature=0 88 0 21 8 72 7
split_gain=30.834 33.0856 22.0454 21.8661 14.1281 12.3894 11.523
threshold=11.500000000000002 19754.000000000004 42.500000000000007 430.50000000000006 26.500000000000004 1.0000000180025095e-35 6.5000000000000009
decision_type=2 2 2 2 2 2 2
left_child=4 3 -3 -2 5 -1 -6
right_child=1 2 -4 -5 6 -7 -8
leaf_value=-0.031043248347591951 0.02762631049986557 0.0017261207943776919 -0.024780348319950539 -0.026951474859560065 -0.012283496600437408 -0.0063925391110251518 0.048864872709686445
leaf_weight=124.97963258996606 176.64289748668671 1092.6026631109416 84.509185187518597 20.478379733860493 17.217455007135872 86.078769657760859 13.941857740283011
leaf_count=697 1439 6269 528 132 116 520 86
internal_value=0 0.00299791 -0.000176902 0.0219562 -0.0163499 -0.0209897 0.0150775
internal_weight=0 1374.23 1177.11 197.121 242.218 211.058 31.1593
internal_count=9787 8368 6797 1571 1419 1217 202
is_linear=0
shrinkage=0.05


Tree=78
num_leaves=7
num_cat=0
split_feature=23 6 7 23 8 14
split_gain=31.1578 29.9011 24.0083 23.6044 3.86728 2.65653
threshold=0.013423423423423427 1.0000000180025095e-35 1.0000000180025095e-35 0.0017497826166827919 1.5000000000000002 1527.612308584836
decision_type=2 2 2 2 2 2
left_child=1 2 -1 -3 -2 -6
right_child=4 3 -4 -5 5 -7
leaf_value=0.0086903977434771035 -0.026358700307848145 -0.014579770317366569 -0.0073343474591915508 0.027674755722571626 0.028502505933051675 0.051203198412104273
leaf_weight=298.55350163578987 2.2807874493300906 43.308263301849365 1076.5162171907723 139.54050180315971 25.105874454602599 26.496613217517734
leaf_count=1923 19 289 5850 810 443 446
internal_value=0 -0.00132911 -0.00385507 0.0176666 0.0373436 0.0401598
internal_weight=0 1557.92 1375.07 182.849 53.8833 51.6025
internal_count=9780 8872 7773 1099 908 889
is_linear=0
shrinkage=0.05


Tree=79
num_leaves=8
num_cat=0
split_feature=0 3 10 9 72 7 78
split_gain=30.2105 35.6717 28.3902 22.7683 16.5176 15.7868 8.51486
threshold=11.500000000000002 4.5000000000000009 446.50000000000006 2.5000000000000004 1.0000000180025095e-35 6.5000000000000009 1.0000000180025095e-35
decision_type=2 2 2 2 2 2 2
left_child=4 3 -3 -2 5 -1 -6
right_child=1 2 -4 -5 6 -7 -8
leaf_value=-0.040337561172136265 -0.0062279307577229048 0.023569343428582384 -0.0044620926101421078 0.014854252375893613 -0.011737810725047648 -0.0049797221484360879 0.019552441854051639
leaf_weight=90.562578253448009 809.82843791693449 283.28143088892102 132.61083897948265 152.12366355955601 64.137093719094992 48.463014587759972 32.890535708516836
leaf_count=498 4733 1823 793 1061 402 301 203
internal_value=0 0.00239591 0.0146313 -0.00289397 -0.016963 -0.0280123 -0.00113088
internal_weight=0 1377.84 415.892 961.952 236.053 139.026 97.0276
internal_count=9814 8410 2616 5794 1404 799 605
is_linear=0
shrinkage=0.05


Tree=80
num_leaves=8
num_cat=0
split_feature=9 7 24 10 0 86 20
split_gain=27.5241 26.8578 24.9032 18.5694 9.72332 3.95689 0.247106
threshold=5.5000000000000009 10.500000000000002 -0.98201068871634556 873.50000000000011 54.500000000000007 262.50000000000006 205.50000000000003
decision_type=2 2 2 2 2 2 2
left_child=1 2 -1 5 -3 -2 -5
right_child=3 4 -4 6 -6 -7 -8
leaf_value=0.045948239251010076 0.04843922607575063 -0.04371724836086812 -0.0008697856690466721 -0.059621472930636923 0.045450554001737475 0.016590221335073676 -0.039033304512003604
leaf_weight=28.964681649580598 44.35050112567842 45.376242808997631 1462.0477476622909 3.4816002473235121 3.2771094068884841 12.503315813839434 2.5290109142661095
leaf_count=258 403 263 8710 26 24 66 20
internal_value=0 -0.00115318 3.97501e-05 0.0325996 -0.0377102 0.0414355 -0.0509694
internal_weight=0 1539.67 1491.01 62.8644 48.6534 56.8538 6.01061
internal_count=9770 9255 8968 515 287 469 46
is_linear=0
shrinkage=0.05


Tree=81
num_leaves=7
num_cat=0
split_feature=10 0 3 8 8 0
split_gain=24.7799 23.255 29.9066 11.656 1.63813 1.55209
threshold=60.500000000000007 7.5000000000000009 4.5000000000000009 6.5000000000000009 1.5000000000000002 39.500000000000007
decision_type=2 2 2 2 2 2
left_child=4 3 -3 -2 -1 -6
right_child=1 2 -4 -5 5 -7
leaf_value=-0.010982844991683499 0.010999341104153969 -0.0037666634102916062 0.011417181768639127 -0.038938190015750579 0.047272882533676328 -0.0019458452203908419
leaf_weight=1.3721649572253216 14.797698244452475 1037.7959037367254 471.69450790807605 55.543693091720343 31.38008182682097 1.687797900289296
leaf_count=12 82 5983 2823 329 610 22
internal_value=0 -0.000331452 0.00097808 -0.0284328 0.0425395 0.0447608
internal_weight=0 1579.83 1509.49 70.3414 34.44 33.0679
internal_count=9861 9217 8806 411 644 632
is_linear=0
shrinkage=0.05


Tree=82
num_leaves=8
num_cat=0
split_feature=10 9 5 0 10 10 0
split_gain=25.0104 23.836 22.5337 21.7193 18.5722 10.3464 7.78046
threshold=175.50000000000003 2.5000000000000004 1.0000000180025095e-35 42.500000000000007 794.50000000000011 784.50000000000011 7.5000000000000009
decision_type=2 2 2 2 2 2 2
left_child=1 2 -1 4 -2 -5 -3
right_child=3 6 -4 5 -6 -7 -8
leaf_value=0.020885841545880482 0.00052138853887921102 -0.050162534291340502 -0.0053152067889026735 -0.037815808183727512 -0.019115437281935283 0.03437340554584966 0.0414610778650834
leaf_weight=139.72746584378183 985.30803540349007 2.4023358300328246 198.83016267046332 58.965735457837582 137.17142621055245 5.4186552017927161 64.455038027837873
leaf_count=1300 4951 15 1212 388 1069 47 763
internal_value=0 0.010886 0.00549837 -0.00349827 -0.00187833 -0.0317397 0.0381679
internal_weight=0 405.415 338.558 1186.86 1122.48 64.3844 66.8574
internal_count=9745 3290 2512 6455 6020 435 778
is_linear=0
shrinkage=0.05


Tree=83
num_leaves=8
num_cat=0
split_feature=7 9 88 7 10 8 5
split_gain=27.3911 25.8794 24.6598 15.8111 7.54112 8.00298 4.5921
threshold=10.500000000000002 1.0000000180025095e-35 797171.00000000012 2.5000000000000004 181.50000000000003 7.5000000000000009 1.0000000180025095e-35
decision_type=2 2 2 2 2 2 2
left_child=1 3 -3 -1 5 -2 -6
right_child=4 2 -4 -5 6 -7 -8
leaf_value=0.0028383157605139419 0.046600684790722768 0.011551193727013806 -0.0096896368775064058 -0.012411232794344786 -0.077046263433284801 -0.033611559456348937 -0.037337047445315387
leaf_weight=301.32736440189183 4.7475327774882308 677.59323581680655 171.15680804476142 389.93192772939801 10.630656786262987 9.0074443966150266 23.11709276214242
leaf_count=1925 23 4412 1025 2115 47 43 170
internal_value=0 0.00141835 0.00726781 -0.0057638 -0.03713 -0.00592446 -0.0498481
internal_weight=0 1540.01 848.75 691.259 47.5027 13.755 33.7477
internal_count=9760 9477 5437 4040 283 66 217
is_linear=0
shrinkage=0.05


Tree=84
num_leaves=7
num_cat=0
split_feature=23 7 0 0 20 8
split_gain=23.7213 21.3119 22.0796 9.18789 2.81627 1.75167
threshold=0.016001024065540197 10.500000000000002 42.500000000000007 46.500000000000007 9138.5000000000018 21.500000000000004
decision_type=2 2 2 2 2 2
left_child=1 2 -1 -3 5 -2
right_child=4 3 -4 -5 -6 -7
leaf_value=0.0011044638927914044 0.050019665725561491 -0.041855761813826581 -0.026105456267640648 0.030367289651834734 -0.043574029907845938 0.023424535425829486
leaf_weight=1431.0690345354378 24.719297852367163 42.470110602676868 78.651342295110226 4.9119947254657736 0.9577430896461 8.2651549745351058
leaf_count=8335 478 249 487 38 10 176
internal_value=0 -0.00134941 -0.000313103 -0.0343679 0.0409022 0.0433567
internal_weight=0 1557.1 1509.72 47.3821 33.9422 32.9845
internal_count=9773 9109 8822 287 664 654
is_linear=0
shrinkage=0.05


Tree=85
num_leaves=8
num_cat=0
split_feature=9 10 7 8 23 23 7
split_gain=22.9434 35.1786 20.0435 30.4077 24.9022 12.0645 10.4068
threshold=2.5000000000000004 276.50000000000006 1.0000000180025095e-35 15.500000000000002 0.0026917949163840832 0.0010643962567693113 6.5000000000000009
decision_type=2 2 2 2 2 2 2
left_child=2 6 4 -4 -1 -3 -2
right_child=1 5 3 -5 -6 -7 -8
leaf_value=-0.0060021695036183284 0.042855256987872598 -0.037802410393184487 -0.013400135816310423 0.0037020599789050301 0.022501344863299532 0.0033953728116561986 0.0063220391978838818
leaf_weight=145.63787291944027 88.282469032332301 21.362130060791969 564.69743802398443 481.54337093606591 161.70752265676856 105.66630640625954 25.017476890236139
leaf_count=810 898 170 3138 2767 1342 547 142
internal_value=0 0.0145333 -0.00223097 -0.00552868 0.00899478 -0.0035331 0.0347886
internal_weight=0 240.328 1353.59 1046.24 307.345 127.028 113.3
internal_count=9814 1757 8057 5905 2152 717 1040
is_linear=0
shrinkage=0.05


Tree=86
num_leaves=8
num_cat=0
split_feature=6 23 23 5 7 7 20
split_gain=23.7125 23.5085 22.0673 21.4603 8.486 5.83369 2.65439
threshold=1.0000000180025095e-35 0.016001024065540197 0.0016299929327119791 1.0000000180025095e-35 2.5000000000000004 7.5000000000000009 9138.5000000000018
decision_type=2 2 2 2 2 2 2
left_child=1 3 5 -1 -4 -2 -3
right_child=2 6 4 -5 -6 -7 -8
leaf_value=0.0041676099506943558 -0.025207705494101958 0.046476345751510315 0.036615829605066812 -0.0084563338179217875 0.012609504317940754 0.039206155886259628 -0.034694343644052938
leaf_weight=588.081612624228 32.07469454407692 26.710807763040069 79.411516269668937 787.43069190904498 68.626282580196857 3.9463847130537024 1.0457195825874794
leaf_count=3615 231 540 604 4410 386 27 11
internal_value=0 -0.00213981 0.0169474 -0.00305914 0.0254874 -0.0181495 0.0434167
internal_weight=0 1403.27 184.059 1375.51 148.038 36.0211 27.7565
internal_count=9824 8576 1248 8025 990 258 551
is_linear=0
shrinkage=0.05


Tree=87
num_leaves=8
num_cat=0
split_feature=0 23 0 7 8 0 92
split_gain=22.3113 21.2718 16.8106 16.6414 8.84121 13.0693 9.59209
threshold=10.500000000000002 0.0049140345793489823 42.500000000000007 7.5000000000000009 6.5000000000000009 6.5000000000000009 3787707392.2142968
decision_type=2 2 2 2 2 2 2
left_child=4 2 -2 -3 6 -6 -1
right_child=1 3 -4 -5 5 -7 -8
leaf_value=0.010332168298207878 2.0762224790879144e-05 0.017730612792027818 -0.028241506698768355 -0.0038448358325436798 -0.048699324236733683 -0.013341307367847636 -0.076430520177836969
leaf_weight=40.979610677808523 898.06196688115597 316.69593599438667 55.888086378574371 124.51080039516091 34.5791778229177 107.0135455802083 3.4527358151972285
leaf_count=236 4799 2828 399 636 213 660 18
internal_value=0 0.00256369 -0.00163505 0.0116419 -0.0158705 -0.0219767 0.00358795
internal_weight=0 1395.16 953.95 441.207 186.025 141.593 44.4323
internal_count=9789 8662 5198 3464 1127 873 254
is_linear=0
shrinkage=0.05


Tree=88
num_leaves=8
num_cat=0
split_feature=8 8 8 7 8 4 10
split_gain=24.2553 43.8596 45.414 38.9718 32.5361 26.5559 25.1189
threshold=15.500000000000002 20.500000000000004 26.500000000000004 1.0000000180025095e-35 3.5000000000000004 1.5000000000000002 372.50000000000006
decision_type=2 2 2 2 2 2 2
left_child=3 6 -3 4 -1 -5 -2
right_child=1 2 -4 5 -6 -7 -8
leaf_value=-0.054955523236458963 0.030714561805181225 -0.021712275151951455 0.013116609217760861 -0.015960665806925275 0.018515246010391555 0.011762690353010785 0.0025820639213296227
leaf_weight=16.303279981017113 209.10493983328342 192.9777518324554 181.73505886271596 549.01828273572028 198.80367174558342 102.50626971758902 127.86465062201023
leaf_count=93 1338 1205 1228 3104 1481 621 738
internal_value=0 0.00695044 -0.00482034 -0.00550644 0.0129465 -0.0115989 0.0200396
internal_weight=0 711.682 374.713 866.632 215.107 651.525 336.97
internal_count=9808 4509 2433 5299 1574 3725 2076
is_linear=0
shrinkage=0.05


Tree=89
num_leaves=7
num_cat=0
split_feature=24 8 8 7 23 66
split_gain=22.5049 21.0087 41.0509 34.491 8.94151 2.1036
threshold=-0.98201068871634556 15.500000000000002 19.500000000000004 1.0000000180025095e-35 0.0017497826166827919 1.0000000180025095e-35
decision_type=2 2 2 2 2 2
left_child=4 3 -3 -2 -1 -6
right_child=1 2 -4 -5 5 -7
leaf_value=-0.068208593835727083 0.011881278219271499 0.02115331462925903 -0.0037905278972588316 -0.011510533004713486 0.06560968954504677 0.037280545485714821
leaf_weight=1.6467320397496248 208.55559234879911 270.12195412814617 423.60960355401039 644.79475169442594 13.508480003103614 12.740898262709379
leaf_count=9 1499 1640 2701 3660 125 137
internal_value=0 -0.000540197 0.00592201 -0.00579365 0.0447711 0.0518619
internal_weight=0 1547.08 693.732 853.35 27.8961 26.2494
internal_count=9771 9500 4341 5159 271 262
is_linear=0
shrinkage=0.05


Tree=90
num_leaves=8
num_cat=0
split_feature=2 69 3 88 23 91 85
split_gain=21.9586 22.7669 21.2855 19.934 18.8743 16.8224 11.1298
threshold=1.0000000180025095e-35 1.0000000180025095e-35 4.5000000000000009 10851.000000000002 0.0024479840836089941 0.67808188496685184 37.500000000000007
decision_type=2 2 2 2 2 2 2
left_child=2 5 3 -1 -4 -2 -3
right_child=1 6 4 -5 -6 -7 -8
leaf_value=0.02795954074373673 0.0069871751955837879 0.0024796570098019185 -0.0010149667974125186 -0.0034878843109115289 0.025411597795701513 -0.013544816895463375 -0.024234516489880658
leaf_weight=55.7991346064955 292.53669784776866 48.561105659231544 104.53360513597727 519.94828700274229 191.05582296475768 151.38745166361332 197.79204431734979
leaf_count=491 1842 325 603 3077 1335 946 1146
internal_value=0 -0.00677919 0.00515942 -0.000440068 0.016066 -1.46846e-05 -0.0189686
internal_weight=0 690.277 871.337 575.747 295.589 443.924 246.353
internal_count=9765 4259 5506 3568 1938 2788 1471
is_linear=0
shrinkage=0.05


Tree=91
num_leaves=7
num_cat=0
split_feature=23 3 3 24 8 87
split_gain=20.5643 18.5703 21.8637 8.93497 4.70845 1.45416
threshold=0.016001024065540197 10.500000000000002 4.5000000000000009 16.293080593849421 1.5000000000000002 7.5000000000000009
decision_type=2 2 2 2 2 2
left_child=1 2 -1 -3 -2 -6
right_child=4 3 -4 -5 5 -7
leaf_value=-0.0035419895291115971 -0.052677139503291559 -0.037082727641378009 0.0097027510707321969 0.024071102116117574 0.053536320020742316 0.030551687277656683
leaf_weight=1040.5928906314075 1.290318295359614 47.366924125701189 444.7592083197087 6.83380252867937 18.269735677167777 11.050697313621638
leaf_count=6090 11 278 2709 37 406 254
internal_value=0 -0.000625108 0.00042389 -0.0293719 0.0407611 0.0448753
internal_weight=0 1539.55 1485.35 54.2007 30.6108 29.3204
internal_count=9785 9114 8799 315 671 660
is_linear=0
shrinkage=0.05


Tree=92
num_leaves=8
num_cat=0
split_feature=51 0 0 6 8 10 8
split_gain=22.6364 17.9673 19.0356 11.1056 11.0096 9.64657 8.36226
threshold=1.0000000180025095e-35 7.5000000000000009 42.500000000000007 1.0000000180025095e-35 7.5000000000000009 241.50000000000003 6.5000000000000009
decision_type=2 2 2 2 2 2 2
left_child=1 6 -3 4 -2 -5 -1
right_child=3 2 -4 5 -6 -7 -8
leaf_value=0.016864496932215527 0.0021371711639195717 0.0088095117359100888 -0.026582395895916783 0.043740688361485328 -0.012410117697365513 -0.0015567887218028255 -0.043979860146163459
leaf_weight=7.2460544705390921 183.4637504927814 810.16383809782565 39.860578015446663 19.569627763703465 446.81876815110445 29.424209393560886 25.57956550642848
leaf_count=39 1083 5280 255 150 2647 160 158
internal_value=0 0.0057481 0.00714982 -0.0063932 -0.00817567 0.0165371 -0.0305487
internal_weight=0 882.85 850.024 679.276 630.283 48.9938 32.8256
internal_count=9772 5732 5535 4040 3730 310 197
is_linear=0
shrinkage=0.05


Tree=93
num_leaves=8
num_cat=0
split_feature=9 10 9 7 7 8 92
split_gain=21.9648 21.2676 22.5448 12.7691 45.5819 17.3053 7.43682
threshold=1.0000000180025095e-35 276.50000000000006 3.5000000000000004 2.5000000000000004 4.5000000000000009 1.5000000000000002 2936408192.2142968
decision_type=2 2 2 2 2 2 2
left_child=3 2 -2 5 -5 -1 -3
right_child=1 6 -4 4 -6 -7 -8
leaf_value=-0.046077993099951017 0.0081781677190437049 -0.025790969519824722 0.040564904224102576 -0.042234420599960493 -0.0032432523777382832 0.0039380581351570161 -0.00073083947848667449
leaf_weight=18.422304399311543 337.3796221408993 31.873275890946388 63.912950951606035 98.996298342943192 308.63275124505162 282.09599358588457 415.72020066156983
leaf_count=99 2308 179 686 538 1740 1836 2363
internal_value=0 0.0049782 0.0133364 -0.00694783 -0.0127127 0.000871795 -0.00251545
internal_weight=0 848.886 401.293 708.147 407.629 300.518 447.593
internal_count=9749 5536 2994 4213 2278 1935 2542
is_linear=0
shrinkage=0.05


Tree=94
num_leaves=7
num_cat=0
split_feature=24 72 0 66 23 66
split_gain=16.2316 14.8508 19.4077 12.9166 4.72806 1.29156
threshold=-1.2954545454545452 1.0000000180025095e-35 42.500000000000007 1.0000000180025095e-35 0.0027510368419459337 1.0000000180025095e-35
decision_type=2 2 2 2 2 2
left_child=4 3 -3 -2 -1 -6
right_child=1 2 -4 -5 5 -7
leaf_value=-0.021224113247242962 0.0012156827441506418 0.006987144613069516 -0.063345725750346735 -0.011032795852830657 0.064678967918221114 0.038918946928027554
leaf_weight=2.4977991878986385 506.43593277595937 650.71593904867768 9.9571719244122487 374.33740414865315 9.7652120571583509 9.7173781804740429
leaf_count=12 3036 4223 49 2241 107 127
internal_value=0 0.000260464 0.00592701 -0.00399005 0.0435312 0.0518341
internal_weight=0 1541.45 660.673 880.773 21.9804 19.4826
internal_count=9795 9549 4272 5277 246 234
is_linear=0
shrinkage=0.05


Tree=95
num_leaves=7
num_cat=0
split_feature=24 9 3 23 23 91
split_gain=20.2071 17.6966 16.7968 13.8868 5.66616 2.06086
threshold=-0.98201068871634556 5.5000000000000009 10.500000000000002 0.001143510951291272 0.0017746242898353554 0.7562712775488265
decision_type=2 2 2 2 2 2
left_child=4 2 -2 -3 -1 -6
right_child=1 3 -4 -5 5 -7
leaf_value=-0.041569090965465516 -0.0014252909716738287 -0.049217309066828432 -0.029818939902454468 0.03378106900937896 0.044279414466736555 0.098414091832635886
leaf_weight=1.8811285123229051 1422.2188961170614 5.577812358736991 54.065118514001369 52.132848566398025 23.352327117696408 1.9011099785566319
leaf_count=11 8732 47 326 440 270 8
internal_value=0 -0.00140334 -0.00246516 0.0257582 0.0421236 0.0483597
internal_weight=0 1533.99 1476.28 57.7107 27.1346 25.2534
internal_count=9834 9545 9058 487 289 278
is_linear=0
shrinkage=0.05


Tree=96
num_leaves=7
num_cat=0
split_feature=24 8 8 7 23 66
split_gain=17.0172 16.0007 37.4962 30.3124 7.27799 0.755353
threshold=-0.98201068871634556 15.500000000000002 19.500000000000004 1.0000000180025095e-35 0.0027510368419459337 1.0000000180025095e-35
decision_type=2 2 2 2 2 2
left_child=4 3 -3 -2 -1 -6
right_child=1 2 -4 -5 5 -7
leaf_value=-0.0080446203032896561 0.011529857547553309 0.019987614444200486 -0.0040777593724843726 -0.010450947062556573 0.062993948643727468 0.043870000853164941
leaf_weight=6.1681450307369259 207.67713480256498 263.60867748036981 419.34465251117945 640.79671633429825 10.781931567937136 9.9449420999735594
leaf_count=30 1507 1613 2690 3683 124 137
internal_value=0 -0.000485495 0.0052111 -0.00507079 0.0396333 0.0538215
internal_weight=0 1531.43 682.953 848.474 26.895 20.7269
internal_count=9784 9493 4303 5190 291 261
is_linear=0
shrinkage=0.05


Tree=97
num_leaves=8
num_cat=0
split_feature=6 23 23 51 3 86 0
split_gain=18.3318 15.9686 15.5918 14.9887 8.05451 6.65688 5.21755
threshold=1.0000000180025095e-35 0.016001024065540197 0.0010863664259075677 1.0000000180025095e-35 1.5000000000000002 1017.0000000000001 11.500000000000002
decision_type=2 2 2 2 2 2 2
left_child=1 3 5 -1 -4 -2 -3
right_child=2 6 4 -5 -6 -7 -8
leaf_value=0.0030682924049436401 -0.049968069296226075 -0.020177286074397182 0.0052862602903348439 -0.007522951550993748 0.028366799882903561 0.038559346426259633 0.048504396128850345
leaf_weight=735.22756263054907 11.784304752945898 3.1877046171575811 58.251214981079102 612.19561028294265 107.664830298163 2.5891750529408446 20.828693049028516
leaf_count=4461 97 53 388 3516 741 22 489
internal_value=0 -0.00102347 0.0159357 -0.00174379 0.0202636 -0.034019 0.0393876
internal_weight=0 1371.44 180.29 1347.42 165.916 14.3735 24.0164
internal_count=9767 8519 1248 7977 1129 119 542
is_linear=0
shrinkage=0.05


Tree=98
num_leaves=8
num_cat=0
split_feature=9 8 7 21 48 7 92
split_gain=17.028 17.0697 18.1342 14.6711 22.9583 13.2287 9.68149
threshold=1.0000000180025095e-35 7.5000000000000009 7.5000000000000009 109.50000000000001 1.0000000180025095e-35 7.5000000000000009 2936408192.2142968
decision_type=2 2 2 2 2 2 2
left_child=1 5 -3 4 -2 -1 -5
right_child=3 2 -4 6 -6 -7 -8
leaf_value=-0.0020090410524868959 0.016687271118570188 -0.004741171445483916 -0.026885619457653023 -0.032894675940634541 -0.0090375538386540562 0.025121612758484582 -0.00026493600195567506
leaf_weight=134.58263354189694 382.68841753993183 376.61114900000393 122.52757107838988 24.472082659602165 112.14685016870499 67.445757512003183 319.64839545637369
leaf_count=823 2806 2318 701 143 695 388 1881
internal_value=0 -0.00521395 -0.0101772 0.00534327 0.0108571 0.00704844 -0.00258551
internal_weight=0 701.167 499.139 838.956 494.835 202.028 344.12
internal_count=9755 4230 3019 5525 3501 1211 2024
is_linear=0
shrinkage=0.05


Tree=99
num_leaves=8
num_cat=0
split_feature=0 7 0 8 14 5 0
split_gain=19.1226 19.1673 17.2453 11.821 11.933 10.3559 8.8826
threshold=7.5000000000000009 10.500000000000002 42.500000000000007 6.5000000000000009 1511.6942348792338 1.0000000180025095e-35 46.500000000000007
decision_type=2 2 2 2 2 2 2
left_child=3 2 -2 4 -1 -5 -3
right_child=1 6 -4 5 -6 -7 -8
leaf_value=0.099846038499232681 0.0031258391658628005 -0.039818500888920548 -0.021421232628204639 -0.0044726216792957676 -0.010650948288961629 -0.052761169402893375 0.037379572669290421
leaf_weight=3.1376274004578582 1373.3018506523222 38.196216151118279 75.481887854635715 16.128739582374692 11.025086399167774 35.631863564252853 4.1279481127858153
leaf_count=22 8656 229 497 104 61 222 35
internal_value=0 0.000877979 0.00184691 -0.0266398 0.0138358 -0.0377148 -0.0322883
internal_weight=0 1491.11 1448.78 65.9233 14.1627 51.7606 42.3242
internal_count=9826 9417 9153 409 83 326 264
is_linear=0
shrinkage=0.05


Tree=100
num_leaves=8
num_cat=0
split_feature=23 6 10 7 14 18 8
