tree
version=v3
num_class=1
num_tree_per_iteration=1
label_index=0
max_feature_idx=5
objective=binary sigmoid:1
feature_names=Column_0 Column_1 Column_2 Column_3 Column_4 Column_5
feature_infos=[-6847:81204] [0:1] [0:1] [0:11] [1:63] [3:3881]
tree_sizes=5274 5291 5303 5317 5285 5298 5336 5330 5299 5309 5312 5327

Tree=0
num_leaves=50
num_cat=0
split_feature=5 5 3 3 5 0 5 5 3 3 3 3 4 3 3 3 4 2 3 2 5 5 3 0 0 4 0 3 3 5 5 3 3 5 0 3 0 3 4 3 0 0 3 5 0 5 5 4 0
split_gain=1425.44 371.091 249.464 205.964 136.469 61.8673 59.9013 52.196 43.5497 42.2246 61.0315 34.7074 29.3134 24.6249 27.4789 35.9232 20.2427 20.0889 20.0535 19.789 18.0126 16.1644 14.3059 13.4401 13.2897 11.8661 11.0333 10.0989 9.55681 8.43923 8.43448 8.2169 8.00913 7.96192 7.46551 6.78349 6.69034 6.18765 7.65477 9.04681 6.09186 6.04473 5.76936 6.17637 5.49385 5.20301 5.15971 6.6114 5.14004
threshold=206.50000000000003 447.50000000000006 3.5000000000000004 3.5000000000000004 87.500000000000014 223.50000000000003 136.50000000000003 651.50000000000011 1.0000000180025095e-35 4.5000000000000009 8.5000000000000018 1.0000000180025095e-35 3.5000000000000004 10.500000000000002 4.5000000000000009 5.5000000000000009 1.5000000000000002 1.0000000180025095e-35 2.5000000000000004 1.0000000180025095e-35 379.50000000000006 117.50000000000001 2.5000000000000004 1133.5000000000002 669.00000000000011 1.5000000000000002 300.50000000000006 1.0000000180025095e-35 9.5000000000000018 288.50000000000006 140.50000000000003 6.5000000000000009 9.5000000000000018 350.50000000000006 218.50000000000003 1.5000000000000002 2474.0000000000005 1.0000000180025095e-35 1.5000000000000002 2.5000000000000004 1076.5000000000002 3609.5000000000005 5.5000000000000009 159.50000000000003 3536.5000000000005 161.50000000000003 531.50000000000011 1.5000000000000002 1330.5000000000002
decision_type=2 2 2 2 2 2 2 2 2 2 2 2 2 2 2 2 2 2 2 2 2 2 2 2 2 2 2 2 2 2 2 2 2 2 2 2 2 2 2 2 2 2 2 2 2 2 2 2 2
left_child=2 3 6 5 -4 20 -1 19 29 -6 21 -8 18 14 -5 -16 22 23 26 27 37 -11 -10 31 -23 -20 -13 46 -12 40 -30 -17 -25 41 -27 -35 -31 -2 39 -39 -7 -18 43 -26 -44 -28 47 -3 -37
right_child=1 7 4 13 9 8 11 -9 16 10 28 12 -14 -15 15 17 33 -19 25 -21 -22 24 -24 32 42 34 45 -29 30 36 -32 -33 -34 35 -36 48 -38 38 -40 -41 -42 -43 44 -45 -46 -47 -48 -49 -50
leaf_value=0.46397217729180662 0.39815416477379961 -0.051036039587354476 0.42206339019691719 -0.21772816364846195 -0.18146518790402508 0.38406065440709269 0.42125066042630321 -0.20195186757261616 0.028442252693373762 0.33725927258521121 -0.16704352458013041 0.36389940913527374 0.43566148920417613 -0.22149368599384986 0.15561882386599721 -0.21998369461927461 0.18570669921863059 0.19950469498960882 -0.08233262937248248 0.093628031147996907 0.1244644010701968 0.25227603308247071 -0.19539991720621028 -0.21933386882905689 0.29219846057758481 0.35092954118383834 0.28783966734750177 -0.12241375368356938 0.11274540621618141 0.22078974373186314 -0.052328378424372934 0.0011677160232778511 -0.05547246195098679 0.17942009789688398 0.078930282728625428 -0.15099296134115511 0.03790904242581758 0.26617558813423192 0.34784994624460497 -0.023547267448807807 0.21505257897778199 0.015409801345251078 0.088538380381179213 0.065541288143634815 -0.11498235887008321 0.11424906600190901 -0.064449442488096004 0.1773217757511053 0.095500626677860703
leaf_weight=316.17816755175591 41.359791815280914 8.9695934057235736 63.534619957208633 26.659624844789505 20.430740535259247 19.683274418115616 76.49069932103157 308.45435100793839 39.366548836231232 28.902023196220398 15.447633087635039 22.67313888669014 23.918915748596191 30.14780005812645 44.349656283855438 6.9763504266738883 48.086986869573593 11.710302501916884 12.956079363822939 25.413847982883453 18.935808300971985 35.878373622894287 15.945943832397459 29.400333940982819 8.4712826609611529 5.2322628200054195 10.215370267629625 141.76940688490868 20.430740535259247 33.137664526700974 30.895266175270081 79.729719161987305 24.168071120977402 6.4780396819114712 12.457768619060515 8.7204380333423597 9.9662148952484113 16.195099204778675 35.130907505750656 5.232262820005416 16.693409949541092 9.4679041504859907 18.188342183828357 9.717059522867201 6.9763504266738883 18.935808300971985 31.642732292413712 10.215370267629622 5.4814181923866263
leaf_count=1269 166 36 255 107 82 79 307 1238 158 116 62 91 96 121 178 28 193 47 52 102 76 144 64 118 34 21 41 569 82 133 124 320 97 26 50 35 40 65 141 21 67 38 73 39 28 76 127 41 22
internal_value=0.116382 -0.0271898 0.328514 0.0827985 0.169021 0.186888 0.411073 -0.148805 0.122608 0.0859856 0.118202 0.31872 0.243615 -0.0526812 -0.0289533 -0.0023138 0.0529229 -0.0483702 0.185878 -0.0728948 0.303399 0.210863 -0.0389283 -0.0693478 0.163351 0.0583754 0.261063 -0.0947193 -0.031324 0.239265 0.0125231 -0.0189697 -0.148319 0.118599 0.164782 0.0140278 0.177974 0.337724 0.290864 0.193415 0.309561 0.156887 0.0888475 0.173505 0.0277607 0.177466 -0.0154567 0.0685914 -0.0608774
internal_weight=0 1109.49 757.931 583.024 258.872 329.882 499.058 526.465 213.028 195.338 174.907 182.88 106.389 253.142 222.994 196.334 133.547 151.985 82.4704 218.011 116.854 108.133 55.3125 140.274 79.2314 30.6461 51.8243 192.597 66.7736 79.4806 51.326 86.7061 53.5684 78.2348 17.69 20.6799 43.1039 97.9181 56.5583 21.4274 36.3767 57.5549 43.353 18.1883 25.1647 29.1512 50.8277 19.185 14.2019
internal_count=7495 4453 3042 2340 1039 1324 2003 2113 855 784 702 734 427 1016 895 788 536 610 331 875 469 434 222 563 318 123 208 773 268 319 206 348 215 314 71 83 173 393 227 86 146 231 174 73 101 117 204 77 57
is_linear=0
shrinkage=1


Tree=1
num_leaves=50
num_cat=0
split_feature=5 5 1 3 5 3 1 5 0 1 5 3 3 3 3 3 3 4 0 5 1 5 4 3 0 4 0 5 5 3 4 5 0 4 5 0 3 0 3 3 3 3 5 0 3 0 0 4 4
split_gain=940.363 237.772 259.977 173.527 92.7103 62.9148 62.4231 43.6713 42.4465 36.7719 35.1378 31.6021 28.4757 30.3452 26.0005 19.3043 19.2079 18.1275 16.6523 15.9335 12.902 10.8208 9.09864 9.08014 10.5479 8.1026 7.01634 6.91456 6.78819 6.72612 6.7336 6.38786 7.38408 6.01348 5.21979 5.20429 5.05059 4.99842 6.17871 11.7961 4.96358 4.78953 4.49692 5.57889 4.06742 4.04704 7.2963 3.8244 3.80704
threshold=206.50000000000003 447.50000000000006 1.0000000180025095e-35 3.5000000000000004 77.500000000000014 3.5000000000000004 1.0000000180025095e-35 134.50000000000003 300.50000000000006 1.0000000180025095e-35 679.50000000000011 1.0000000180025095e-35 8.5000000000000018 4.5000000000000009 2.5000000000000004 10.500000000000002 8.5000000000000018 3.5000000000000004 86.500000000000014 117.50000000000001 1.0000000180025095e-35 165.50000000000003 1.5000000000000002 4.5000000000000009 300.50000000000006 1.5000000000000002 472.50000000000006 477.50000000000006 297.50000000000006 1.0000000180025095e-35 1.5000000000000002 392.50000000000006 115.50000000000001 1.5000000000000002 140.50000000000003 1590.5000000000002 5.5000000000000009 1.0000000180025095e-35 4.5000000000000009 2.5000000000000004 1.5000000000000002 7.5000000000000009 409.50000000000006 950.50000000000011 1.5000000000000002 218.50000000000003 77.500000000000014 1.5000000000000002 1.5000000000000002
decision_type=2 2 2 2 2 2 2 2 2 2 2 2 2 2 2 2 2 2 2 2 2 2 2 2 2 2 2 2 2 2 2 2 2 2 2 2 2 2 2 2 2 2 2 2 2 2 2 2 2
left_child=3 2 11 7 -5 8 22 -1 31 14 20 28 13 -8 -9 25 23 18 -11 41 27 35 34 -7 45 37 -21 -3 -2 48 44 32 47 -28 -6 -20 -26 -13 39 -39 -34 -15 43 -27 -31 46 -25 -4 -10
right_child=1 10 5 4 6 16 12 9 29 17 -12 15 -14 19 -16 -17 -18 -19 21 26 -22 -23 -24 24 36 42 33 -29 -30 30 -32 -33 40 -35 -36 -37 -38 38 -40 -41 -42 -43 -44 -45 -46 -47 -48 -49 -50
leaf_value=0.2952420758859628 0.27169084516083825 0.014814367169370594 0.074847656478688698 0.28393203262129235 0.1352886452271917 -0.28079662933841648 -0.26969564702046428 0.28309406972080103 -0.13888414140396793 0.21079649294632397 -0.26110464607231482 0.18114002071580415 -0.21485765300503418 0.24214485140030498 -0.088716657555306222 -0.24652262696822991 -0.30613423547174512 0.25134415833840906 0.14905027395294876 0.059744451212933918 -0.20068575069485522 -0.097879644045671274 0.21653405251287047 0.032169812144169189 -0.093249241692584361 0.19131976249998869 -0.17339900936050928 -0.12645851099299121 0.16235309429026795 -0.082444492154120572 -0.054066277886813688 -0.083006828894011689 -0.13227684002208123 0.0045558424875646068 -0.014132102639473327 -0.059262478001664377 -0.22595177217846274 0.032141169422268794 0.066978306397513052 -0.27735938530477439 0.084144045061870121 0.032356177588427543 -0.03186960670123392 0.062693163706531496 -0.21791674070905187 0.11858904494662002 -0.19934191655983391 0.21876340231964109 -0.33657527639705026
leaf_weight=294.60841511189938 50.4195317029953 15.939817458391188 12.77612294256687 50.468837901949883 20.390749454498291 22.235436290502548 15.860237047076224 90.587286844849586 10.120840653777124 14.516699522733687 283.10360753536224 7.4520456641912451 49.738153427839279 13.80632919073105 7.9086543917655936 6.6678845733404151 68.385824829339981 17.415029719471931 14.444157868623735 20.423321262001991 125.97090804576874 32.561610281467438 31.315938413143158 12.211948812007909 18.388445675373077 42.48941795527935 15.649085730314257 99.394940033555031 49.400654852390289 16.246713623404503 54.397994711995125 7.2210866510868064 6.0827534049749401 14.170102804899214 16.638228237628937 6.6106189787387839 37.453605890274048 14.702844202518465 32.364751979708672 6.6809247136116019 10.824806228280066 6.5462988018989554 5.7202673107385626 20.869289115071297 22.629365965723991 5.2225176990032187 8.9719143956899625 20.618849232792854 7.9198860079050055
leaf_count=1243 208 64 52 211 83 90 64 377 41 60 1144 30 200 57 32 27 275 73 59 83 506 132 127 49 74 172 63 399 201 65 219 29 25 57 67 27 151 59 130 27 44 27 23 84 91 21 36 85 32
internal_value=0 -0.115678 -0.0271997 0.176402 0.042991 -0.138701 -0.017163 0.247325 -0.0515589 0.169861 -0.213125 0.133661 -0.0953184 -0.0254691 0.252858 0.0707514 -0.223305 0.0731289 0.0256537 0.0313378 -0.156292 -0.0263767 0.138017 -0.167552 -0.134997 0.0881202 -0.0294567 -0.10696 0.218965 -0.123408 -0.100511 0.0873042 0.112491 -0.0905225 0.0690536 0.0838277 -0.183812 0.0345877 0.0123687 -0.0698267 0.00429087 0.177723 0.134791 0.150007 -0.163563 -0.0298536 -0.0688635 0.166157 -0.234262
internal_weight=0 1102.88 578.476 733.66 255.007 341.708 204.538 478.652 168.838 184.044 524.409 236.768 136.194 86.4554 98.4959 136.947 172.87 85.5481 68.1331 70.5951 241.306 53.6164 68.3449 104.484 82.2484 130.28 50.2425 115.335 99.8202 111.315 93.2741 57.5236 50.3025 29.8192 37.029 21.0548 55.8421 61.2006 53.7485 21.3838 16.9076 20.3526 69.079 63.3587 38.8761 26.4064 21.1839 33.395 18.0407
internal_count=7495 4453 2340 3042 1039 1379 828 2003 683 760 2113 961 551 351 409 552 696 351 278 287 969 218 277 421 331 525 203 463 409 448 375 235 206 120 150 86 225 246 216 86 69 84 279 256 156 106 85 137 73
is_linear=0
shrinkage=0.2


Tree=2
num_leaves=50
num_cat=0
split_feature=5 5 3 3 5 0 5 2 2 3 3 3 5 5 2 3 3 2 3 4 3 4 3 0 4 0 3 3 5 0 5 0 3 4 5 5 3 0 3 5 0 5 5 0 3 3 3 5 5
split_gain=644.252 195.35 116.319 102.379 54.4186 43.8445 33.0967 21.2308 20.8048 19.8886 16.0877 27.1845 14.1183 14.0965 11.9479 10.3172 22.8838 10.1886 9.43357 9.37871 14.5393 8.83038 8.39765 8.38191 7.38783 7.10379 5.80372 12.3252 10.8231 5.72182 5.38642 5.2533 5.16037 5.95875 5.01323 4.90866 4.8244 4.59988 4.58144 4.53393 4.33438 4.22951 4.71917 3.76923 3.61094 3.47563 6.68139 3.40812 3.36024
threshold=175.50000000000003 409.50000000000006 3.5000000000000004 3.5000000000000004 77.500000000000014 463.50000000000006 651.50000000000011 1.0000000180025095e-35 1.0000000180025095e-35 1.0000000180025095e-35 4.5000000000000009 7.5000000000000009 134.50000000000003 145.50000000000003 1.0000000180025095e-35 4.5000000000000009 5.5000000000000009 1.0000000180025095e-35 1.0000000180025095e-35 1.5000000000000002 1.0000000180025095e-35 3.5000000000000004 1.5000000000000002 1011.5000000000001 1.5000000000000002 424.50000000000006 8.5000000000000018 9.5000000000000018 257.50000000000006 980.50000000000011 285.50000000000006 980.50000000000011 2.5000000000000004 1.5000000000000002 291.50000000000006 477.50000000000006 8.5000000000000018 62.500000000000007 2.5000000000000004 812.50000000000011 1302.0000000000002 165.50000000000003 138.50000000000003 8311.5000000000018 8.5000000000000018 8.5000000000000018 6.5000000000000009 151.50000000000003 360.50000000000006
decision_type=2 2 2 2 2 2 2 2 2 2 2 2 2 2 2 2 2 2 2 2 2 2 2 2 2 2 2 2 2 2 2 2 2 2 2 2 2 2 2 2 2 2 2 2 2 2 2 2 2
left_child=3 2 5 12 -5 14 17 15 9 31 -6 13 -1 -12 19 -4 37 22 -14 20 -2 29 35 26 -11 -19 28 -28 -18 32 38 -7 -20 -34 -10 -3 -9 -17 -22 -8 45 42 -13 -42 47 46 -24 -44 -21
right_child=1 6 7 4 10 8 39 36 34 24 11 41 18 -15 -16 16 23 25 21 48 30 -23 40 -25 -26 -27 27 -29 -30 -31 -32 -33 33 -35 -36 -37 -38 -39 -40 -41 43 -43 44 -45 -46 -47 -48 -49 -50
leaf_value=0.26038778723268513 0.14951029936399088 -0.0086949302851506791 -0.24181680957064078 0.24818481510885115 -0.1892845737493335 0.16399365937714544 -0.17921939565207978 0.14171844400549069 0.26466735938942659 -0.13146244241760821 0.20300078222881168 -0.021816914185639368 0.24123189482117977 -0.020145768561986493 0.2593168562136095 0.17078097497543732 0.089861846514097565 -0.086322871245069321 0.18294098530566408 0.17369455683449131 0.076038002944635544 0.25948124119219529 -0.13975024982450795 -0.19336993099004493 -0.02756366449125195 0.10662498567092756 -0.31728921414506694 -0.094962681128431772 -0.11910877242959708 -0.027490889579894991 -0.1637618920067043 0.030866143041164619 -0.12920878250193882 0.13450890757151332 0.031892835220999373 -0.11231917083209966 -0.049711119270610032 -0.0078215978555912068 -0.11427447687208266 -0.23498231404305622 -0.22580994902364307 0.074881497726732776 0.085573516903350841 -0.052525007089141013 -0.18059816788394803 -0.20070560052096864 0.01168200721905157 -0.12566943023304331 0.06151818463454093
leaf_weight=269.94564408063889 31.352795004844666 26.386319577693939 25.96673084795475 46.686796173453331 14.937277629971502 17.758815079927444 105.21025219559669 14.976357176899912 12.671831130981447 46.591083347797394 37.452574536204338 52.177754238247871 44.8653274923563 15.959098026156424 27.273836016654968 6.1190961897373191 14.835795193910597 18.17705458402634 20.093902245163918 74.415617376565933 14.697451919317251 13.168065860867499 56.820749506354332 72.383072137832642 66.182539686560631 12.200616598129271 12.258066341280935 48.886705473065376 27.162728622555733 14.622644409537314 9.3246451914310438 34.455319538712502 5.46883876621723 7.1781196445226669 5.393771529197692 59.767612025141716 7.5407699048519126 38.926652893424034 6.9145290702581397 188.7024964094162 47.554096907377243 10.342333570122717 4.934792175889017 6.1149189621210089 16.698355749249458 23.222169071435928 14.501129284501074 6.1826988458633423 13.543307632207869
leaf_count=1243 136 107 110 211 62 76 442 61 53 189 159 214 201 65 117 25 60 73 87 319 61 59 232 300 268 49 50 201 110 60 38 144 22 30 22 242 31 157 28 796 195 42 20 25 68 95 59 25 56
internal_value=0 -0.0831608 -0.00674599 0.173749 0.0599681 0.0674645 -0.169177 -0.106123 -0.00127349 -0.0238504 0.00381515 0.0246339 0.235796 0.136879 0.138093 -0.123099 -0.108462 -0.117402 0.171613 0.115077 0.0548882 0.118021 -0.131492 -0.140993 -0.0709899 -0.00822555 -0.103267 -0.14237 -0.045049 0.0757447 -0.0420978 0.0775881 0.121493 0.0197377 0.198651 -0.0808816 0.07801 0.0185009 0.013608 -0.215456 -0.160435 -0.0422298 -0.0578472 -0.206921 -0.123415 -0.132827 -0.109132 -0.0323513 0.156994
internal_weight=0 1188.29 629.632 580.714 205.372 360.576 558.657 269.056 183.053 164.988 158.685 143.748 375.343 53.4117 177.522 246.539 220.572 264.745 105.397 150.248 62.2894 60.5316 234.367 175.526 112.774 30.3777 103.143 61.1448 41.9985 47.3635 30.9366 52.2141 32.7409 12.647 18.0656 86.1539 22.5171 45.0457 21.612 293.913 148.213 90.3359 79.9936 53.669 27.8158 94.544 71.3219 11.1175 87.9589
internal_count=7495 4927 2612 2568 866 1507 2315 1105 752 677 655 593 1702 224 755 1013 903 1077 459 638 263 258 955 721 457 122 421 251 170 199 127 220 139 52 75 349 92 182 89 1238 606 369 327 220 113 386 291 45 375
is_linear=0
shrinkage=0.2


Tree=3
num_leaves=50
num_cat=0
split_feature=5 5 1 3 3 5 0 1 2 3 5 3 5 1 3 5 1 3 0 2 0 5 5 5 3 3 0 5 5 0 0 3 0 5 3 0 0 0 0 0 5 2 3 3 5 0 2 0 5
split_gain=448.223 133.544 182.896 80.0108 41.1784 40.259 37.2487 26.9015 25.9201 22.2132 21.2544 14.2773 13.451 14.5315 10.2835 10.1598 9.21708 9.03741 7.98136 7.00265 6.01451 5.98115 5.87227 5.7478 5.21745 19.9703 5.02943 4.70095 4.47978 4.50622 4.46249 4.37932 4.31609 7.04945 5.04473 4.06732 3.94233 3.86011 3.47331 3.33492 4.15403 3.19769 3.1173 3.06885 2.99122 4.17161 2.98712 2.96051 2.71939
threshold=175.50000000000003 442.50000000000006 1.0000000180025095e-35 3.5000000000000004 8.5000000000000018 77.500000000000014 105.50000000000001 1.0000000180025095e-35 1.0000000180025095e-35 10.500000000000002 679.50000000000011 1.0000000180025095e-35 113.50000000000001 1.0000000180025095e-35 8.5000000000000018 130.50000000000003 1.0000000180025095e-35 2.5000000000000004 -1.0000000180025095e-35 1.0000000180025095e-35 1695.0000000000002 279.50000000000006 165.50000000000003 260.50000000000006 9.5000000000000018 8.5000000000000018 3401.0000000000005 350.50000000000006 520.50000000000011 1403.5000000000002 3325.0000000000005 1.0000000180025095e-35 950.50000000000011 379.50000000000006 5.5000000000000009 503.50000000000006 1633.5000000000002 2895.5000000000005 512.50000000000011 615.50000000000011 477.50000000000006 1.0000000180025095e-35 3.5000000000000004 4.5000000000000009 924.50000000000011 1928.5000000000002 1.0000000180025095e-35 3284.0000000000005 276.50000000000006
decision_type=2 2 2 2 2 2 2 2 2 2 2 2 2 2 2 2 2 2 2 2 2 2 2 2 2 2 2 2 2 2 2 2 2 2 2 2 2 2 2 2 2 2 2 2 2 2 2 2 2
left_child=3 2 9 12 6 -5 18 -7 27 11 16 21 -1 17 15 20 28 -14 -4 -18 41 -2 30 42 25 32 36 37 29 31 46 -3 33 -13 -34 -24 38 -8 -17 40 -33 -9 -20 -30 45 -12 -15 -29 -25
right_child=1 10 4 5 -6 7 8 14 -10 -11 44 24 13 22 -16 26 19 -19 23 -21 -22 -23 35 48 -26 -27 -28 47 43 -31 -32 39 34 -35 -36 -37 -38 -39 -40 -41 -42 -43 -44 -45 -46 -47 -48 -49 -50
leaf_value=0.2454872062617168 0.22651180878478319 0.1072856184919353 0.25310153904166266 0.22172010139753226 -0.23057608868829857 0.11695656535711603 -0.084069080345865146 0.08430808465688798 0.12950753424416281 -0.21678429939992908 -0.13896866186818299 0.13927401812585269 0.23953419139313531 0.10875561584455727 -0.14081874220024621 -0.013272121976995213 -0.15884266512496828 0.0078287941638975865 0.17210000136614809 -0.0037145976625944433 -0.062344324013346275 0.12956467226833251 0.067785007952746223 -0.14541538846065713 0.15712885497133444 -0.28907939168203067 -0.23986169243110089 -0.18737675799444109 -0.1130347304011225 -0.12810172263813943 -0.053773549985093955 0.013647581267345719 0.063901745711521962 -0.057330220035837764 -0.11875031183507981 -0.16619437551371707 0.10976112425707814 -0.15636590489972949 -0.16595227517246924 0.086068890460104949 -0.22891964416524824 0.27056301917473935 0.01509522296752122 -0.018411058200050786 -0.21063327943372082 -0.22389273736336054 0.23558365135153803 -0.058086703221887442 0.014086482176327565
leaf_weight=193.46053799986839 58.21059812605381 14.387556537985803 8.1167166084051114 42.355283662676811 74.317713990807533 53.663509115576744 144.28734999895096 17.359533935785301 18.010250106453896 7.1689594835042945 90.671527832746506 60.231867149472237 75.295719593763351 39.460881948471069 36.699136689305305 14.151323199272161 109.53800135850906 7.4370226711034766 14.760716512799265 13.049462795257567 8.8096583783626539 51.704384744167328 5.8849302083253843 4.5108523070812252 32.319188445806503 5.4000547975301734 5.9972847849130622 46.946114286780357 58.48151969909668 8.7779163271188718 5.1458309739828101 5.6824512630701047 36.997264981269836 7.9333640784025183 6.5968887209892264 4.8781284391880035 4.8437762707471839 38.404901728034019 9.8110927194356901 4.885374426841735 4.8410550057888031 4.4793716222047797 7.7294583618640891 18.216124206781387 129.78751100599766 34.751107171177864 9.6033070683479291 9.1856058984994871 24.607963785529137
leaf_count=993 273 58 36 211 322 226 599 76 75 31 404 257 374 186 151 59 464 33 66 53 38 223 27 20 130 22 25 194 241 36 23 23 151 32 27 20 20 160 40 20 20 20 32 76 585 155 46 38 104
internal_value=0 -0.0691639 -0.010122 0.151693 -0.0971738 0.050395 -0.0654518 0.00310412 -0.0985023 0.117454 -0.147773 0.127205 0.210328 0.163413 -0.0570637 -0.00918951 -0.104276 0.218927 0.0762086 -0.142435 0.0739585 0.181926 0.091273 0.0456175 0.0863607 0.0660882 -0.0824245 -0.115998 -0.0631306 -0.00733032 0.117843 0.0302017 0.0848039 0.116071 0.0349384 -0.04165 -0.0451282 -0.0997619 -0.0784865 -0.0431866 -0.104691 0.129152 0.120059 -0.0909008 -0.187948 -0.16352 0.136304 -0.167116 -0.0132285
internal_weight=0 1150.51 657.44 539.336 390.878 198.17 316.56 155.815 256.834 266.563 493.07 259.394 341.166 147.706 102.151 65.452 237.859 82.7327 59.7257 122.587 30.6486 109.915 64.9731 51.609 149.479 117.159 34.8035 238.824 115.272 38.5744 54.21 29.7964 111.759 68.1652 43.5942 10.7631 28.8062 182.692 23.9624 15.4089 10.5235 21.8389 22.4902 76.6976 255.21 125.423 49.0642 56.1317 29.1188
internal_count=7495 4927 2792 2568 1646 866 1324 655 1066 1146 2135 1115 1702 709 429 278 991 407 258 517 134 496 302 222 619 489 144 991 474 157 255 121 467 289 178 47 119 759 99 63 43 96 98 317 1144 559 232 232 124
is_linear=0
shrinkage=0.2


Tree=4
num_leaves=50
num_cat=0
split_feature=5 5 1 3 3 5 5 3 0 1 5 1 4 5 3 3 0 3 4 4 3 3 0 4 3 3 3 4 3 4 5 5 5 5 5 0 5 5 0 4 3 5 0 5 0 0 3 0 0
split_gain=314.897 94.0093 115.831 63.5466 34.5379 30.5026 29.6934 19.3385 19.2711 15.4824 12.6273 12.1114 11.3417 11.24 8.98197 10.8816 8.06305 7.46957 6.99184 6.88339 5.83713 12.1288 5.24642 5.20025 4.99096 6.2463 6.10885 5.89578 6.14743 4.93951 4.76941 4.71893 5.07697 4.65358 4.43214 4.21128 3.8897 3.58348 4.41249 3.41436 4.84588 3.40229 6.81181 3.38228 3.187 3.14582 2.90965 2.81815 2.47013
threshold=175.50000000000003 609.50000000000011 1.0000000180025095e-35 3.5000000000000004 8.5000000000000018 87.500000000000014 379.50000000000006 2.5000000000000004 105.50000000000001 1.0000000180025095e-35 113.50000000000001 1.0000000180025095e-35 3.5000000000000004 417.50000000000006 4.5000000000000009 10.500000000000002 463.50000000000006 2.5000000000000004 1.5000000000000002 3.5000000000000004 5.5000000000000009 9.5000000000000018 62.500000000000007 1.5000000000000002 3.5000000000000004 4.5000000000000009 1.0000000180025095e-35 1.5000000000000002 2.5000000000000004 1.5000000000000002 210.50000000000003 257.50000000000006 264.50000000000006 801.50000000000011 165.50000000000003 2800.5000000000005 477.50000000000006 66.500000000000014 1590.5000000000002 1.5000000000000002 7.5000000000000009 132.50000000000003 255.50000000000003 323.50000000000006 67.500000000000014 1133.5000000000002 2.5000000000000004 810.50000000000011 294.50000000000006
decision_type=2 2 2 2 2 2 2 2 2 2 2 2 2 2 2 2 2 2 2 2 2 2 2 2 2 2 2 2 2 2 2 2 2 2 2 2 2 2 2 2 2 2 2 2 2 2 2 2 2
left_child=3 2 6 10 8 37 7 31 13 29 -1 17 16 23 18 20 41 -12 -9 22 -16 -22 -13 30 26 -26 -10 28 -28 -7 -4 35 -33 -3 -24 -2 -8 -5 48 -18 -41 44 -43 -29 -11 47 -32 -27 -39
right_child=1 33 4 5 -6 9 36 14 24 12 11 19 -14 -15 15 -17 39 -19 -20 -21 21 -23 34 -25 25 45 27 43 -30 -31 46 32 -34 -35 -36 -37 -38 38 -40 40 -42 42 -44 -45 -46 -47 -48 -49 -50
leaf_value=0.22625639116056076 0.21598874234463664 -0.12411339297738831 0.16336607661631208 0.22301963653997636 -0.20241783634459762 0.028447800640633139 0.025656496171576493 -0.20273138421763168 -0.14377295079332872 0.17682863595783366 0.21824505320496518 0.16016371886515915 0.1659890883797622 -0.093816934427244036 0.18500590722918561 -0.17760821987640402 -0.16343660482223332 0.0063963821766402258 0.037182338695274507 0.1996150652964295 -0.061598248702774673 0.13930976781221222 0.037917687194383154 0.12741214953697019 -0.20518391255581381 -0.073223701934386209 -0.049370997259280458 0.016458945435075884 -0.18039345352793024 0.15593151029084562 0.037551648889816047 -0.089185304445246263 0.13341719619692607 -0.17658290385174163 -0.13161044234778524 0.046497773539921496 -0.045765245129600812 0.066591820838598409 -0.066229648585452938 0.051360471928320939 -0.13586194096303081 -0.13197226794436562 0.13477341792055977 -0.058424520103129277 -0.0022923344581478751 -0.13040169385949762 -0.12038879652207171 0.067785341817663089 0.23944758951638626
leaf_weight=170.45387296378613 57.79127761721611 128.38714250922203 4.9964458644390133 29.551675140857697 84.590758740901947 27.253503635525703 55.409409284591675 9.057822063565256 31.230721354484558 5.9969258308410636 67.067315652966499 10.695739790797232 8.1336116492748243 20.969697430729866 19.3347537368536 5.882764220237731 31.037231892347336 7.4271029233932486 9.3992512971162778 13.58148220181465 20.253400668501854 27.91776567697525 31.186004862189293 32.036924183368683 24.73158098757267 42.278656780719757 43.272079482674599 55.0481868237257 21.344531416893005 21.838850319385529 8.3427267372608203 3.9669889211654654 59.024656385183334 168.27051754295826 7.009877309203147 6.9705651402473441 66.375734701752663 7.226159021258356 4.2702472060918799 9.0948760509490985 12.477613508701323 12.564439326524736 4.8049133270978919 42.018197759985924 9.8540609180927259 42.971639677882195 9.303619906306265 6.0179049521684638 6.761219322681427
leaf_count=993 288 581 23 164 392 115 229 38 128 27 374 54 34 89 81 27 132 33 40 72 85 113 147 146 116 176 180 226 93 95 36 19 269 817 29 32 277 36 21 40 52 53 20 176 43 187 38 25 34
internal_value=0 -0.0579903 -0.0226859 0.133362 -0.0871298 0.0425174 0.0658747 0.109697 -0.061475 -0.00391752 0.189557 0.143042 -0.0513929 0.0288025 0.039306 0.0706262 -0.0730733 0.197359 -0.0834151 0.0769231 0.0937292 0.0551398 0.0406933 0.0763706 -0.0835968 -0.116468 -0.0635102 -0.0474988 -0.0940012 0.0864412 0.00262951 0.159854 0.118639 -0.154193 0.00514235 0.198382 -0.0133059 0.17967 0.104308 -0.12131 -0.0577273 0.00417015 -0.0560063 -0.0161277 0.0697239 -0.0911616 -0.0470229 -0.0549942 0.156994
internal_weight=0 1107.2 810.538 498.287 469.154 190.865 341.384 219.599 384.563 143.056 307.421 136.968 93.9637 75.6494 91.8458 73.3887 85.8301 74.4944 18.4571 62.4731 67.5059 48.1712 48.8916 54.6797 308.913 116 192.914 161.683 64.6166 49.0924 22.6428 127.753 62.9916 296.658 38.1959 64.7618 121.785 47.8093 18.2576 52.6097 21.5725 33.2203 17.3694 97.0664 15.851 91.2682 17.6463 48.2966 13.9874
internal_count=7495 4927 3529 2568 2031 866 1498 992 1639 611 1702 709 401 332 384 306 367 407 78 302 279 198 230 243 1307 504 803 675 273 210 97 608 288 1398 176 320 506 255 91 224 92 143 73 402 70 388 74 201 70
is_linear=0
shrinkage=0.2


Tree=5
num_leaves=50
num_cat=0
split_feature=5 5 1 3 2 5 5 3 3 1 5 1 4 2 3 3 3 4 4 3 3 5 4 2 3 3 5 3 5 3 3 5 5 5 5 3 3 5 5 4 3 3 5 5 5 3 4 3 3
split_gain=222.765 66.6252 78.0416 50.705 29.3826 22.9797 20.6622 17.9757 14.3357 12.4354 11.8548 10.0696 7.10855 8.25708 6.2685 6.05821 7.58399 5.62159 5.15565 8.08632 5.24366 9.93759 4.87561 4.79745 4.56837 5.55373 5.50621 4.2484 5.63775 4.17344 8 4.12667 4.12203 3.83359 3.55176 3.48999 2.95459 3.57445 3.96878 2.7984 3.13183 2.46486 4.09987 3.58714 3.44911 2.44024 2.43277 3.88012 2.55285
threshold=175.50000000000003 609.50000000000011 1.0000000180025095e-35 3.5000000000000004 1.0000000180025095e-35 77.500000000000014 379.50000000000006 8.5000000000000018 2.5000000000000004 1.0000000180025095e-35 113.50000000000001 1.0000000180025095e-35 3.5000000000000004 1.0000000180025095e-35 2.5000000000000004 4.5000000000000009 10.500000000000002 2.5000000000000004 1.5000000000000002 3.5000000000000004 2.5000000000000004 360.50000000000006 1.5000000000000002 1.0000000180025095e-35 8.5000000000000018 4.5000000000000009 103.50000000000001 4.5000000000000009 225.50000000000003 5.5000000000000009 9.5000000000000018 924.50000000000011 257.50000000000006 357.50000000000006 264.50000000000006 3.5000000000000004 1.0000000180025095e-35 526.50000000000011 555.50000000000011 1.5000000000000002 7.5000000000000009 6.5000000000000009 426.50000000000006 409.50000000000006 249.50000000000003 9.5000000000000018 2.5000000000000004 4.5000000000000009 6.5000000000000009
decision_type=2 2 2 2 2 2 2 2 2 2 2 2 2 2 2 2 2 2 2 2 2 2 2 2 2 2 2 2 2 2 2 2 2 2 2 2 2 2 2 2 2 2 2 2 2 2 2 2 2
left_child=3 2 6 10 7 -5 8 18 32 39 -1 14 13 24 -12 22 29 23 41 20 -20 -22 -10 -13 25 -11 -27 -21 -29 -17 -31 -3 -2 35 -34 -6 37 -8 -39 -7 -41 43 44 -4 -43 -42 48 -48 -38
right_child=1 31 4 5 33 9 36 -9 15 12 11 17 -14 -15 -16 16 -18 -19 19 27 21 -23 -24 -25 -26 26 -28 28 -30 30 -32 -33 34 -35 -36 -37 46 38 -40 40 45 42 -44 -45 -46 -47 47 -49 -50
leaf_value=0.21052971603524148 0.17602535869512786 -0.11203181282770652 -0.08697526339633585 0.1830090985028717 0.19757705175089121 0.038938598927892316 0.0612405158838224 -0.17534715212502389 -0.17227860997832126 -0.17609856790668746 0.20057389807159623 -0.011121669668094076 0.12064296309412706 0.11948013506636926 0.0052249504610923266 0.15646435870283407 -0.15582030567577851 0.14805756783830062 -0.051529796038772252 -0.22245259996784297 0.09155494830055369 -0.086963414514307003 0.030468139826382343 0.1730780372345147 -0.13914618703383053 0.13735242204221512 -0.043313529264544341 0.064739558644156828 -0.11245551170848803 -0.049780662782149848 0.11403417508481183 -0.1633691015520172 -0.071691761700884746 0.011897766164099242 0.11257832154492922 0.033419548669139189 -0.10160371676240013 -0.15549744584317293 0.017662200327915743 0.21498984254203235 -0.022490610259399087 0.023352475775449681 0.1148974160211155 -0.16719847240949559 -0.13087231747369704 0.14700354337715146 -0.038780875236642448 0.15910732689899487 -0.0040514539596493617
leaf_weight=148.91709771752357 59.183992072939873 167.71852932870388 97.798485934734344 34.051099479198456 15.482350409030916 28.855687215924263 35.196234568953514 76.399091750383377 8.6820403486490267 9.0847022086381894 59.283511132001877 33.118359953165054 9.4348886013030988 8.959429979324339 7.4188746660947791 18.500098556280136 5.497151866555213 20.67837181687355 73.210983261466026 10.077455297112463 35.521169394254684 18.44015109539032 9.3267795294523221 6.1621876507997504 29.493460327386856 7.7473940104246131 33.864424258470535 8.3809663951396924 37.885177195072174 20.20677325129509 27.475820481777191 110.41881032288074 4.0893689692020407 14.0994636118412 56.385968521237373 8.0783903896808607 27.954648479819298 7.1931021064519909 15.985370278358458 9.8830709755420703 6.5352338850498182 8.8615243285894447 4.9661160409450522 30.095333710312843 15.260162800550459 6.1173042804002762 12.437601804733278 5.0596566796302787 17.262754410505295
leaf_count=993 320 813 423 211 72 123 147 385 38 42 374 157 40 41 33 81 27 113 311 51 152 81 40 32 128 36 142 35 166 85 113 585 19 58 269 34 117 30 67 48 29 38 22 136 67 26 52 21 72
internal_value=0 -0.0487485 -0.0189039 0.117796 -0.072627 0.0363223 0.0549963 -0.087926 0.0929388 0.00237915 0.171991 0.125846 -0.0391576 -0.056812 0.179104 0.032152 0.0581703 0.0653286 -0.0680175 -0.0450013 -0.016854 0.0302445 -0.0698439 0.0200956 -0.077302 -0.0400318 -0.00809939 -0.107626 -0.07991 0.0772719 0.0448744 -0.132742 0.138085 0.0953656 0.0994951 0.143673 -0.0107455 0.0215198 -0.0388205 0.081559 0.13354 -0.094631 -0.0408625 -0.106594 -0.0750794 0.0626015 -0.0406918 0.0220514 -0.0649396
internal_weight=0 1063.13 784.994 459.605 454.557 184.027 330.437 416.897 209.348 149.976 275.578 126.661 98.5843 89.1494 66.7024 89.6887 71.6798 59.9589 340.498 183.516 127.172 53.9613 18.0088 39.2805 80.19 50.6965 41.6118 56.3436 46.2661 66.1827 47.6826 278.137 119.659 37.6602 60.4753 23.5607 121.089 58.3747 23.1785 51.3913 22.5356 156.982 29.0878 127.894 24.1217 12.6525 62.7147 17.4973 45.2174
internal_count=7495 4927 3529 2568 2031 866 1498 1867 992 655 1702 709 429 389 407 384 306 302 1482 796 544 233 78 189 348 220 178 252 201 279 198 1398 608 164 288 106 506 244 97 226 103 686 127 559 105 55 262 73 189
is_linear=0
shrinkage=0.2


Tree=6
num_leaves=50
num_cat=0
split_feature=5 5 1 3 3 3 0 5 5 1 3 3 0 2 2 3 5 1 5 0 2 3 5 3 0 5 0 5 3 0 5 1 3 5 0 0 3 0 3 2 5 0 0 3 3 0 0 2 0
split_gain=162.939 57.5875 64.852 28.6142 22.8289 19.1553 16.8375 13.2156 11.4591 9.01184 8.44895 7.0596 6.8037 6.72082 6.45678 6.24334 6.14804 6.14031 5.87151 5.42608 4.70658 4.21669 4.16925 4.74814 4.15893 5.10936 4.15652 3.97758 4.28421 4.31892 4.21921 3.65068 3.67118 3.54529 3.25816 8.54601 5.02607 4.6061 4.22537 3.1383 2.99723 3.34201 2.95538 2.93295 6.48301 2.92815 4.01362 2.94377 7.06712
threshold=138.50000000000003 409.50000000000006 1.0000000180025095e-35 7.5000000000000009 3.5000000000000004 1.0000000180025095e-35 146.50000000000003 788.50000000000011 62.500000000000007 1.0000000180025095e-35 10.500000000000002 8.5000000000000018 101.50000000000001 1.0000000180025095e-35 1.0000000180025095e-35 1.5000000000000002 77.500000000000014 1.0000000180025095e-35 279.50000000000006 -55.499999999999993 1.0000000180025095e-35 2.5000000000000004 247.50000000000003 4.5000000000000009 255.50000000000003 107.50000000000001 3132.0000000000005 163.50000000000003 2.5000000000000004 463.50000000000006 387.50000000000006 1.0000000180025095e-35 9.5000000000000018 101.50000000000001 131.50000000000003 193.50000000000003 9.5000000000000018 38.500000000000007 5.5000000000000009 1.0000000180025095e-35 266.50000000000006 3609.5000000000005 4635.0000000000009 6.5000000000000009 8.5000000000000018 -114.49999999999999 1.0000000180025095e-35 1.0000000180025095e-35 479.50000000000006
decision_type=2 2 2 2 2 2 2 2 2 2 2 2 2 2 2 2 2 2 2 2 2 2 2 2 2 2 2 2 2 2 2 2 2 2 2 2 2 2 2 2 2 2 2 2 2 2 2 2 2
left_child=3 2 5 9 6 18 39 17 -5 -1 19 13 -11 22 27 -16 -14 45 -2 -7 24 -19 23 -6 25 -18 -13 -8 30 -30 -29 32 -10 -26 37 -36 -37 38 -21 -4 -24 -42 -28 -23 -45 -3 -47 -48 -49
right_child=1 7 4 8 11 10 14 -9 31 12 -12 26 16 -15 15 -17 20 21 -20 34 -22 43 40 -25 33 -27 42 28 29 -31 -32 -33 -34 -35 35 36 -38 -39 -40 -41 41 -43 -44 44 -46 46 47 48 -50
leaf_value=0.20728612137657004 0.1835756242613136 -0.13858074261154157 0.072293259966621157 0.20745188064754841 -0.1548254702998349 0.19345668568994034 0.051723184713368078 -0.13538869689796598 -0.041032238824545597 0.20492939747837757 -0.17083074053122457 -0.16984404484853288 0.17170777373138349 0.094281814277181922 -0.080260369713572616 0.20699254328264929 -0.27756140641197841 -0.048006886667334041 0.082783444356533953 0.10190456762117002 0.19640288533091246 -0.14563348814942975 -0.23696651136072566 -0.015634384315751277 0.13384840217814345 0.040402352864931511 0.045786683679053204 -0.092221857528780538 0.08204663459567435 -0.046234348830999805 0.081355596865425414 -0.060114933569495599 0.12565093830652602 0.0076495410929996515 0.2765627448414239 0.017949446236514635 0.11680276155404926 -0.11634183818690635 -0.076320808237604634 0.20257617766264688 -0.075754831521015531 -0.23511064328546058 -0.12782442765468013 0.011156456105710734 -0.14445041313574117 0.075993495056844176 -0.048753430258984182 -0.094213486362219212 0.16013157041638273
leaf_weight=117.74974422156811 65.879970476031303 9.6057502627372724 45.624539211392403 9.9011184275150281 11.570647224783896 9.0239924192428571 15.076507180929182 148.80673702061176 9.7067364603281021 30.890395253896713 6.769558608531951 56.051563709974289 25.858381345868111 9.1926538497209531 4.3164703696966154 7.6839040517807007 3.0549402832984915 59.938886821269989 38.100892350077629 13.857199341058733 7.1187756806612006 57.160312920808792 7.1747654080390921 50.619631469249725 13.434604421257971 4.1519057154655457 6.8858223110437375 82.819104596972466 14.578934058547018 33.205082982778549 5.5212803930044165 33.762364596128464 10.361998677253723 24.461596384644508 5.885586902499198 89.783024355769157 26.172820419073105 11.396345898509024 7.830911546945571 8.6446628570556623 40.733740448951721 5.7076596021652213 7.7501239627599716 19.396511569619179 23.0363999158144 13.004242628812788 119.95588532090187 7.721784949302676 8.5767503529787046
leaf_count=850 428 43 214 70 62 47 70 843 45 215 34 297 194 38 19 36 22 276 187 75 47 278 34 212 93 24 37 341 64 143 23 147 48 132 28 402 109 54 33 49 187 28 42 89 121 58 537 33 37
internal_value=0 -0.0320728 0.00474202 0.135347 -0.0453097 0.0799512 -0.00067326 -0.0862067 0.0167324 0.168548 0.0384844 -0.0947504 0.125719 -0.0656232 -0.0327936 0.104841 0.0929647 -0.0629945 0.147378 0.0477603 0.0523607 -0.0906713 -0.0787666 -0.0428498 0.0271864 -0.106069 -0.145202 -0.0441147 -0.0549224 -0.00652637 -0.0808641 -0.0203799 0.0462588 0.0538742 0.0385098 0.0535634 0.0407827 -0.0168927 0.0372084 0.0951741 -0.119426 -0.0982812 -0.0476546 -0.115876 -0.0742156 -0.0349481 -0.0277132 -0.0379213 0.0406272
internal_weight=0 1155.06 687.857 290.453 413.157 274.7 217.47 467.203 63.7322 226.72 170.719 195.687 108.971 124.999 163.201 12.0004 78.0802 318.397 103.981 163.95 52.2218 159.532 115.806 62.1903 45.103 7.20685 70.6875 151.201 136.124 47.784 88.3404 53.8311 20.0687 37.8962 154.926 121.841 115.956 33.0845 21.6881 54.2692 53.6162 46.4414 14.6359 99.5932 42.4329 158.864 149.259 136.254 16.2985
internal_count=7495 5608 3293 1887 1896 1397 959 2315 310 1577 782 937 727 561 696 55 512 1472 615 748 318 764 523 274 271 46 376 641 571 207 364 240 93 225 701 539 511 162 108 263 249 215 79 488 210 708 665 607 70
is_linear=0
shrinkage=0.2


Tree=7
num_leaves=50
num_cat=0
split_feature=5 5 3 3 4 5 0 3 0 5 5 0 3 4 0 4 0 3 3 2 5 5 3 0 5 0 2 4 0 4 0 3 3 5 2 3 4 3 4 3 4 4 5 5 5 0 5 3 5
split_gain=119.409 43.7753 30.7151 21.328 15.6924 13.9792 17.9434 12.4986 10.5793 9.07808 8.39932 6.35198 6.28878 9.51321 5.21428 5.14356 5.1333 4.97009 6.11785 4.87148 4.76928 4.27707 4.23372 4.14435 4.08285 3.97698 3.706 3.70427 3.50902 3.28169 3.73231 3.25513 3.19294 3.11474 2.99656 3.8866 3.33591 4.96836 2.96344 3.49928 4.07683 2.94816 5.43917 2.80147 4.37894 2.78289 2.67813 2.67128 4.28181
threshold=130.50000000000003 609.50000000000011 2.5000000000000004 7.5000000000000009 1.5000000000000002 260.50000000000006 980.50000000000011 4.5000000000000009 2150.5000000000005 347.50000000000006 62.500000000000007 21.500000000000004 3.5000000000000004 3.5000000000000004 463.50000000000006 2.5000000000000004 136.50000000000003 8.5000000000000018 9.5000000000000018 1.0000000180025095e-35 163.50000000000003 80.500000000000014 1.0000000180025095e-35 406.50000000000006 177.50000000000003 669.00000000000011 1.0000000180025095e-35 1.5000000000000002 -435.49999999999994 6.5000000000000009 3931.0000000000005 7.5000000000000009 9.5000000000000018 812.50000000000011 1.0000000180025095e-35 1.0000000180025095e-35 1.5000000000000002 1.5000000000000002 4.5000000000000009 8.5000000000000018 2.5000000000000004 1.5000000000000002 95.500000000000014 153.50000000000003 183.50000000000003 -55.499999999999993 316.50000000000006 1.0000000180025095e-35 282.50000000000006
decision_type=2 2 2 2 2 2 2 2 2 2 2 2 2 2 2 2 2 2 2 2 2 2 2 2 2 2 2 2 2 2 2 2 2 2 2 2 2 2 2 2 2 2 2 2 2 2 2 2 2
left_child=3 2 5 15 7 6 11 -4 9 12 -5 -2 13 14 -6 16 -1 26 -19 22 -8 -18 -13 -14 -22 -25 43 -24 -7 30 47 -10 33 45 35 -23 -37 -38 39 40 -11 -12 -43 -9 -45 -3 -33 48 -30
right_child=1 32 4 10 8 28 20 17 31 38 41 19 23 -15 -16 -17 21 18 -20 -21 24 34 27 25 -26 -27 -28 -29 29 -31 -32 46 -34 -35 -36 36 37 -39 -40 -41 -42 42 -44 44 -46 -47 -48 -49 -50
leaf_value=0.20013745784231451 0.20880802438720064 -0.21446126767625862 -0.15125616633609512 0.19548807561957504 0.11256294674205387 0.16413615792520955 0.088052924367341745 0.070455198577845726 -0.041396302012417688 -0.040685099048356009 -0.060959918618970627 0.12170230294076403 -0.027395416068721357 0.22675733802271145 -0.051923977973888091 0.2056845365483127 0.16517353538872473 -0.2097945514606829 -0.059711345863912503 0.20977494526222135 -0.1842585175170276 0.14585388696114307 -0.063191433632934335 0.15513198332355427 -0.016388929120625739 0.019851160325666802 0.082638065936550251 0.076260273776557821 0.14009653495952809 0.1138610380940057 0.079820170148540606 -0.19308875905258335 -0.034106473717480427 -0.13064235897176166 0.17888105771793908 -0.057583691933231596 -0.13962707456853912 0.12873601080523997 -0.17232751030669372 -0.11169838602609486 0.093461361712019853 -0.092196906580138377 0.10856711982441324 -0.1570838612283062 -0.025013225366065928 -0.073075939752378694 -0.032086582854854724 -0.033290990477414011 -0.00094446665055660352
leaf_weight=33.481014035642147 29.200145363807678 5.4936407208442679 61.479552328586578 8.5859973728656751 16.587423428893093 4.8205177634954444 14.035421423614023 9.0129029303789121 35.303062185645103 27.531410798430443 24.138675734400749 34.539926461875439 41.623556718230247 16.651698902249336 13.426801607012747 72.262734338641167 28.648956440389156 12.505796402692793 69.171745747327805 12.561128877103327 6.3266802579164496 10.307931020855902 12.343716442584993 12.024259731173514 35.374546363949776 28.450008645653725 12.186821922659872 17.863024659454823 8.8420567512512189 9.4000329524278623 19.234351933002472 13.123716324567797 27.340615779161453 114.84458574652672 7.3707184717059127 15.374114334583282 2.9572740122675905 12.045557297766207 5.7685031443834296 13.979220718145369 12.716627344489096 7.7539376020431545 14.653055116534231 11.092822045087813 72.428100675344467 99.528426572680473 6.3263914436101905 104.51147149503231 93.260118126869202
leaf_count=271 200 28 299 70 80 24 85 38 161 126 109 232 194 86 56 606 244 70 357 83 32 88 57 57 169 135 52 89 51 41 83 66 156 706 57 92 24 73 27 71 57 38 63 46 321 508 34 459 424
internal_value=0 -0.0251979 -0.00456953 0.130475 -0.0380961 0.0363757 0.0816003 -0.0734517 -0.00200812 0.0204826 0.0211547 0.129478 0.0503468 0.108448 0.0394341 0.163319 0.134503 -0.047358 -0.0841492 0.0980396 -0.0103228 0.104429 0.074514 0.016735 -0.0442669 0.0618373 -0.0183242 0.0191453 0.00567542 0.00199009 -0.00297594 -0.0788824 -0.0995684 -0.107585 0.0665135 0.0436915 0.00672097 0.0722756 -0.0434664 -0.027901 0.00250202 -0.0132277 0.0384593 -0.0320993 -0.0436196 -0.081731 -0.143422 -0.0109073 0.0120695
internal_weight=0 1140.91 893.704 237.58 491.39 402.313 162.245 247.878 243.513 188.76 55.1317 106.508 128.764 46.6659 30.0142 182.448 110.186 186.398 81.6775 77.3078 55.7366 76.7046 64.7467 82.0978 41.7012 40.4743 104.721 30.2067 240.069 235.248 225.848 54.7532 247.207 219.867 48.0556 40.6849 30.3769 15.0028 59.9958 54.2273 40.248 46.5457 22.407 92.5338 83.5209 105.022 19.4501 206.614 102.102
internal_count=7495 5760 4362 1735 2333 2029 947 1183 1150 889 280 661 608 222 136 1455 849 884 427 461 286 578 378 386 201 192 457 146 1082 1058 1017 261 1398 1242 334 277 189 97 281 254 183 210 101 405 367 536 100 934 475
is_linear=0
shrinkage=0.2


Tree=8
num_leaves=50
num_cat=0
split_feature=5 5 1 3 3 2 5 3 0 3 1 5 0 0 0 0 5 5 0 0 5 5 0 0 3 3 0 5 0 5 3 1 0 0 3 0 3 5 0 5 3 0 3 5 5 5 0 0 0
split_gain=86.2653 30.6817 40.5663 17.5114 14.5763 14.2344 11.7087 10.7486 9.00592 7.13667 7.02838 6.57249 4.78337 4.19961 4.17764 6.30745 4.05157 4.98655 3.66129 3.63347 5.12386 3.45861 3.35239 3.31028 3.25353 4.78556 3.61272 3.22619 4.0339 2.80353 3.42832 4.24916 2.68574 4.08327 2.58791 2.51256 2.35052 2.26373 2.2526 2.24366 2.16005 2.48386 2.12612 1.95072 3.13797 3.84179 2.95707 2.62456 2.00053
threshold=130.50000000000003 609.50000000000011 1.0000000180025095e-35 7.5000000000000009 8.5000000000000018 1.0000000180025095e-35 257.50000000000006 2.5000000000000004 -1.0000000180025095e-35 4.5000000000000009 1.0000000180025095e-35 69.500000000000014 101.50000000000001 479.50000000000006 623.50000000000011 750.50000000000011 477.50000000000006 262.50000000000006 3739.0000000000005 255.50000000000003 77.500000000000014 119.50000000000001 3284.0000000000005 4635.0000000000009 3.5000000000000004 4.5000000000000009 1515.5000000000002 260.50000000000006 373.50000000000006 1175.5000000000002 6.5000000000000009 1.0000000180025095e-35 312.50000000000006 872.00000000000011 3.5000000000000004 623.50000000000011 5.5000000000000009 195.50000000000003 1752.5000000000002 268.50000000000006 9.5000000000000018 328.50000000000006 9.5000000000000018 812.50000000000011 710.50000000000011 688.50000000000011 1955.5000000000002 3678.0000000000005 1031.5000000000002
decision_type=2 2 2 2 2 2 2 2 2 2 2 2 2 2 2 2 2 2 2 2 2 2 2 2 2 2 2 2 2 2 2 2 2 2 2 2 2 2 2 2 2 2 2 2 2 2 2 2 2
left_child=3 2 6 10 5 8 7 35 -4 34 -1 -5 21 27 37 -16 17 -8 -6 20 -14 -12 32 -20 -21 -26 -27 28 -10 30 43 42 36 -34 -9 -2 -11 -15 39 -7 41 -33 -32 44 45 47 48 -3 -46
right_child=1 29 4 11 18 38 16 9 13 22 12 -13 19 14 15 -17 -18 -19 23 24 -22 -23 -24 -25 25 26 -28 -29 -30 -31 31 40 33 -35 -36 -37 -38 -39 -40 -41 -42 -43 -44 -45 46 -47 -48 -49 -50
leaf_value=0.19048684991444265 0.17098718937775084 -0.091266631821888267 0.19780364184873392 0.17129890477472454 -0.13688124672249602 0.15645710708489363 -0.1448912570741448 -0.021364747615327712 -0.0045153848193192469 0.12368995929490674 0.21938838972427199 -0.013097702609861412 0.1786561734411003 -0.2577549494625353 0.081833466855415815 -0.059016901276526194 -0.024603263712008813 0.042177762572788782 0.1231769910258054 0.13170824604984052 -0.13100460075780021 -0.0083687016006274619 -0.05143700141668385 -0.08576790131063794 -0.16478147614226502 0.16170058522572817 -0.044825983566862411 -0.041994963780962319 0.12953778875399866 -0.13230429965709026 -0.056362491444493616 0.093053266627276407 0.2195157863320247 0.060978851092670962 -0.18236147732073157 0.093391083672771685 -0.018964206459024233 -0.10070401455371468 -0.014664911055791183 0.050773406838989357 -0.14650094010205511 -0.087618049071467946 0.09247455208003913 -0.11503359245685092 -0.015893542267538686 -0.22025907821132729 -0.11743750391621455 0.054077608571950347 0.11605057618778097
leaf_weight=83.362110137939453 47.01701956987381 39.520490527153015 5.7875247225165358 8.6585095822811109 66.937260672450066 17.427316635847092 5.310636654496192 13.046019941568376 63.016929142177105 6.4860707670450237 17.85444021970034 45.401001140475273 2.4288220480084401 4.7080596238374737 13.1052138954401 184.23632036149502 64.298931896686554 146.83433803915977 3.8802122026681891 32.789350166916847 6.4980859756469727 3.0623252838850012 7.3466516584157935 8.6062817722558957 3.5758815333247211 7.6959938481450063 5.3242337182164192 89.28838424384594 9.8210599273443204 41.777809411287308 4.8829472959041604 4.2914579957723635 11.251099169254305 15.916550040245054 5.2485003471374503 30.435445576906204 12.736662790179251 18.113849967718124 7.141998663544654 16.095884174108505 9.7038012444972974 7.351522222161293 12.743841797113419 63.209761142730713 22.815026059746746 8.2636679857969266 9.1301268190145475 5.2420210391283026 5.0798747986555091
leaf_count=794 382 198 30 78 400 99 26 58 302 32 174 202 24 22 59 856 277 681 21 293 44 24 33 52 18 53 31 408 45 281 27 24 51 71 23 198 55 80 30 71 56 43 72 417 127 46 53 26 28
internal_value=0 -0.0208213 -0.00358048 0.116991 -0.0401219 -0.02545 0.0471462 0.0900741 -0.037278 0.034 0.149669 0.0181018 0.105536 -0.0411629 -0.0591196 -0.0494279 0.0173198 0.0350662 -0.118484 0.074672 -0.0404132 0.186788 0.0705721 -0.0179868 0.0957267 0.0223775 0.0791115 -0.0166411 0.0145343 -0.0850337 -0.0743539 -0.0209658 0.090333 0.13019 -0.0721738 0.141515 0.0316138 -0.139275 0.0862519 0.107623 -0.0799048 -0.0196408 0.0507117 -0.0877861 -0.0679806 -0.0989218 -0.022736 -0.0737213 0.0102066
internal_weight=0 1108.11 874.094 216.651 508.166 428.743 365.928 149.484 388.077 72.0316 162.591 54.0595 79.2291 382.29 220.163 197.342 216.444 152.145 79.4238 58.3124 8.92691 20.9168 53.737 12.4865 49.3855 16.5961 13.0202 162.126 72.838 234.012 192.235 38.9736 46.3904 27.1676 18.2945 77.4525 19.2227 22.8219 40.6652 33.5232 21.3468 11.643 17.6268 153.261 90.0512 53.0262 37.025 44.7625 27.8949
internal_count=7495 5760 4362 1735 2475 2002 1887 903 1802 323 1455 280 661 1772 1017 915 984 707 473 463 68 198 242 73 395 102 84 755 347 1398 1117 222 209 122 81 580 87 102 200 170 123 67 99 895 478 270 208 224 155
is_linear=0
shrinkage=0.2


Tree=9
num_leaves=50
num_cat=0
split_feature=1 3 2 3 4 0 4 4 3 3 3 3 3 3 4 0 3 4 3 4 4 0 0 0 0 0 3 0 0 0 0 0 0 0 0 0 0 0 3 0 3 3 3 0 0 3 4 3 0
split_gain=29.192 15.0961 11.4023 9.32325 8.62276 7.60655 7.24881 5.66074 4.37008 3.81004 3.41858 3.8265 6.31662 9.5336 3.65622 5.32542 3.58031 6.1761 6.67349 3.29004 3.2319 3.14402 3.13839 3.03469 2.84409 2.82675 2.82505 2.82156 2.75643 2.667 3.23729 3.02808 3.54384 4.6062 2.547 2.33005 3.42551 2.69971 2.22238 2.18914 2.16981 2.09774 6.1627 2.08212 2.07012 2.03723 1.99855 1.95655 1.90424
threshold=1.0000000180025095e-35 8.5000000000000018 1.0000000180025095e-35 10.500000000000002 1.5000000000000002 1590.5000000000002 4.5000000000000009 1.5000000000000002 1.0000000180025095e-35 9.5000000000000018 4.5000000000000009 7.5000000000000009 9.5000000000000018 8.5000000000000018 2.5000000000000004 146.50000000000003 1.0000000180025095e-35 3.5000000000000004 2.5000000000000004 6.5000000000000009 7.5000000000000009 34.500000000000007 1056.0000000000002 3739.0000000000005 3059.5000000000005 392.50000000000006 2.5000000000000004 -320.49999999999994 300.50000000000006 213.50000000000003 237.50000000000003 193.50000000000003 174.50000000000003 152.50000000000003 1356.0000000000002 392.50000000000006 463.50000000000006 623.50000000000011 1.5000000000000002 872.00000000000011 2.5000000000000004 2.5000000000000004 4.5000000000000009 680.50000000000011 1633.5000000000002 5.5000000000000009 2.5000000000000004 5.5000000000000009 594.50000000000011
decision_type=2 2 2 2 2 2 2 2 2 2 2 2 2 2 2 2 2 2 2 2 2 2 2 2 2 2 2 2 2 2 2 2 2 2 2 2 2 2 2 2 2 2 2 2 2 2 2 2 2
left_child=3 2 4 7 28 20 44 8 -1 27 16 24 13 22 25 -16 43 18 23 45 21 -6 -13 38 -12 -14 -19 -10 29 31 -31 32 33 -2 40 -30 -37 -38 -18 -5 -23 -29 -43 -9 -3 -7 -46 -44 -11
right_child=1 6 -4 39 5 19 -8 10 9 48 11 12 14 -15 15 -17 17 26 -20 -21 -22 34 -24 -25 -26 -27 -28 41 35 30 -32 -33 -34 -35 -36 36 37 -39 -40 -41 -42 42 47 -45 46 -47 -48 -49 -50
leaf_value=0.048530521063613448 -0.019237296949709683 -0.1307136870389432 0.064919008833344879 -0.036349274496103492 0.062910279231753546 -0.043950871752500224 0.13829770152082321 0.087842590204126672 0.14844765238573215 -0.0036696275339134915 0.18251046283524922 0.1037169723001032 0.25286810365756479 -0.2695155208993476 -0.20088472429616946 0.093023942686203398 -0.049929044605700058 0.046449519520075845 -0.12867512598155043 0.074605891346031572 0.11429198665685242 -0.035984996291792234 -0.081059131525134734 0.1924584748519112 0.039537078781456542 0.0931578344232665 0.17349500771442136 0.010203420822134289 -0.1450049805394745 0.17729815789654627 -0.021202603303473962 -0.18723156489056936 0.14650718382264336 -0.2260302012757216 0.10016680153517746 0.06822315983502962 -0.14219735305448997 -0.055394410247177187 0.041564738501441593 -0.23809712993842488 0.013228225248592813 -0.1513333808238132 0.017632098471666129 0.033371175659374828 -0.050494105198735373 -0.12355108986478913 -0.19052367302095066 -0.055318719999739377 0.089889895288283062
leaf_weight=102.17661391198635 48.2308154925704 60.516281366348267 65.786400064826012 3.8543414324522001 40.379898428916931 72.077940843999386 4.506778120994567 74.240786843001842 3.1174727752804747 14.550855591893194 22.825317054986957 10.797546081244947 8.0292157828807849 4.3976227045059195 2.5881484374403945 9.8545534834265691 18.119950577616692 29.789547257125378 16.729056797921658 7.5216630399227133 12.977929413318632 57.241094164550304 4.8572820946574202 2.9903508573770514 7.8490674421191207 11.685052290558813 8.8557809740304929 38.124911062419415 13.615224674344061 4.9696234911680204 7.6424994990229607 4.3203581422567359 3.8881934732198706 4.1083189100027075 9.0607108548283559 7.514862746000289 16.09822741150856 120.26101873070002 23.826251529157162 5.1385805010795593 93.495655208826065 16.840930424630642 31.776815369725227 46.788616247475147 33.631539836525917 15.498858593404291 4.1829595044255248 26.370751425623894 20.82583475112915
leaf_count=704 255 367 409 20 252 384 26 551 19 70 136 55 40 19 13 52 112 221 85 46 94 310 25 20 44 58 59 233 69 23 38 22 20 19 52 36 84 639 162 27 508 85 173 323 206 80 26 128 96
internal_value=0 -0.0253868 -0.0132919 0.0354896 -0.0229054 -0.00100222 -0.0959815 0.0388174 0.0167006 -0.00486559 0.0571932 0.0918261 0.0577277 -0.0298476 0.111853 0.0250264 0.0439962 0.0159045 -0.0233655 -0.0478512 0.0199803 0.0135197 0.0454502 0.0171007 0.147488 0.164133 0.0779242 -0.0223732 -0.052094 -0.0197839 0.0618173 -0.0372522 -0.0237428 -0.0380139 0.000836993 -0.0669619 -0.0589645 -0.066261 0.00188419 -0.159819 -0.00553353 -0.0278931 -0.0471838 0.067072 -0.107547 -0.0588354 -0.0689086 -0.0156952 0.0520288
internal_weight=0 707.527 604.689 567.001 538.903 308.254 102.838 558.008 253.784 151.608 304.224 82.8838 52.2094 20.0525 32.157 12.4427 221.34 100.311 61.6656 95.0985 213.155 200.177 15.6548 44.9366 30.6744 19.7143 38.6453 116.231 230.649 73.1598 12.6121 60.5477 56.2273 52.3391 159.797 157.489 143.874 136.359 41.9462 8.99292 150.737 113.113 74.9885 121.029 98.3308 87.5768 37.8145 58.1476 35.3767
internal_count=7495 3965 3340 3530 2931 1726 625 3483 1508 804 1975 442 262 99 163 65 1533 659 379 510 1216 1122 80 294 180 98 280 638 1205 377 61 316 294 274 870 828 759 723 274 47 818 619 386 874 599 464 232 301 166
is_linear=0
shrinkage=0.2


Tree=10
num_leaves=50
num_cat=0
split_feature=1 0 4 3 3 4 3 3 4 4 3 0 0 3 3 0 4 0 4 3 4 0 0 3 3 0 0 0 0 0 4 0 0 0 0 3 3 3 0 3 0 0 0 0 0 0 0 3 4
split_gain=19.8819 13.2198 8.06429 7.26681 6.88314 5.44936 4.1109 7.6199 3.86515 3.7839 3.06127 2.897 2.82257 2.75707 2.62163 2.61818 4.40438 2.5278 2.51765 2.37169 4.8582 2.36848 2.33627 2.81841 3.61136 2.77943 2.83564 3.87718 2.30741 2.18391 4.47491 2.18194 6.10201 2.16601 5.0387 3.27416 2.85627 4.10327 3.73088 2.71871 2.7682 2.19307 2.13807 3.76736 2.1238 2.03885 2.32948 2.01449 1.99638
threshold=1.0000000180025095e-35 62.500000000000007 2.5000000000000004 10.500000000000002 3.5000000000000004 1.5000000000000002 4.5000000000000009 1.0000000180025095e-35 3.5000000000000004 3.5000000000000004 7.5000000000000009 3739.0000000000005 635.50000000000011 2.5000000000000004 7.5000000000000009 1495.5000000000002 6.5000000000000009 12123.500000000002 3.5000000000000004 9.5000000000000018 2.5000000000000004 10536.500000000002 2190.5000000000005 2.5000000000000004 4.5000000000000009 897.50000000000011 350.50000000000006 255.50000000000003 587.50000000000011 1873.5000000000002 3.5000000000000004 711.00000000000011 635.50000000000011 3678.0000000000005 3132.0000000000005 6.5000000000000009 8.5000000000000018 6.5000000000000009 479.50000000000006 1.5000000000000002 3931.0000000000005 8311.5000000000018 538.50000000000011 447.50000000000006 980.50000000000011 1278.0000000000002 1133.5000000000002 8.5000000000000018 2.5000000000000004
decision_type=2 2 2 2 2 2 2 2 2 2 2 2 2 2 2 2 2 2 2 2 2 2 2 2 2 2 2 2 2 2 2 2 2 2 2 2 2 2 2 2 2 2 2 2 2 2 2 2 2
left_child=3 10 17 5 11 22 7 12 -9 -6 -2 15 -7 -10 44 45 29 21 -13 20 -16 33 23 31 -25 26 27 -26 -22 -17 -31 32 42 34 36 -36 37 -3 -38 -35 -41 -42 43 -1 -8 46 -4 -11 -21
right_child=1 2 4 -5 9 6 14 8 13 47 -12 18 -14 -15 19 16 -18 -19 -20 48 28 -23 -24 24 25 -27 -28 -29 -30 30 -32 -33 -34 39 35 -37 38 -39 -40 40 41 -43 -44 -45 -46 -47 -48 -49 -50
leaf_value=0.019247427271721473 0.055389424472543858 -0.053849213957232391 0.037794207973413672 -0.14862526832445166 -0.11367860613895331 0.091800643385262226 0.18708833584534124 -0.037481077693511514 0.010724217930078273 0.039715157381288224 -0.038871686808382107 0.20634060032982326 0.029991745892532447 0.13235664398868496 -0.065912287535338385 -0.18901214975972161 0.1126625891064562 0.066674812105671943 0.03972439082752377 0.13266556953216738 0.22195946330840927 -0.18530299134122327 0.047024095409289132 -0.1158078958845479 0.0079895434402217184 -0.074314603505666266 0.072791929355582166 -0.18311152566619449 0.014909148692948494 0.076755511293620224 -0.14183956972368922 0.064377441044522352 -0.22847078514882702 0.074044969369891495 -0.21744042083573306 -0.031203131980974415 -0.16342525492410204 0.0036545379524283508 -0.053523111419116323 0.11310294217494479 -0.074654949729878614 0.054150539916242614 0.14803611522347565 -0.13521693333787577 0.076789434286057529 0.15951051643877212 -0.10973219723800198 -0.083115644570624161 0.028150298013374382
leaf_weight=74.213406220078468 89.709210440516472 233.91517535597086 60.490836419165134 8.6860281154513341 24.267518803477287 71.995532840490341 14.349727660417559 63.664745599031448 29.075450673699379 15.501678369939329 15.789004698395727 5.8904353380203238 51.31302797794342 9.4438269436359388 13.674268230795862 4.9979732111096444 5.381834238767623 6.8359020054340354 9.0498805791139585 18.558089680969719 3.9082202762365323 4.6733182072639456 47.427410885691643 15.28173480927944 25.372964017093185 18.658500537276268 19.653769634664059 4.446433573961257 4.2747712358832359 6.5918967947363836 7.2089624926447868 29.436933025717735 3.7294014468789092 11.075362868607042 11.591329947113993 5.8130071386694899 18.455317981541157 62.859956294298172 38.07658626884222 3.8957955911755553 30.214977078139782 5.8948319703340522 3.8545421734452239 6.2566542476415625 15.974561803042887 4.474619820713996 3.987054005265235 7.3386875987052909 12.490810029208658
leaf_count=528 567 1243 375 49 138 554 87 391 217 84 89 34 348 63 66 26 35 37 54 93 22 25 264 81 130 91 98 21 22 34 41 187 23 56 61 34 122 307 254 21 174 31 30 40 92 28 24 42 65
internal_value=0 -0.0238849 -0.0355727 0.0266031 0.00354277 0.0295035 0.0472176 0.0330328 -0.00735802 -0.0597679 0.0411323 0.0313292 0.0663686 0.0422275 0.0851006 0.0178397 -0.0381007 -0.0495659 0.111215 0.0570832 0.00621133 -0.0515267 0.00741656 -0.0020537 -0.0300409 -0.00990123 0.0150333 -0.0237676 0.122758 -0.0835593 -0.0386594 0.0178713 0.00197025 -0.0497649 -0.0550788 -0.158564 -0.0497024 -0.0416878 -0.0908351 -0.010995 -0.0353364 -0.0530486 0.0138127 0.00626153 0.131783 0.0376279 0.027679 -0.000945252 0.092043
internal_weight=0 693.981 588.483 565.741 155.181 557.055 308.723 225.493 102.184 47.1079 105.498 108.073 123.309 38.5193 83.2304 93.1332 24.1807 433.302 14.9403 52.9062 21.8573 426.466 248.332 200.904 83.4134 68.1317 49.4732 29.8194 8.18299 18.7988 13.8009 117.491 88.054 421.792 370.711 17.4043 353.307 296.775 56.5319 51.081 40.0056 36.1098 84.3246 80.4701 30.3243 68.9525 64.4779 22.8404 31.0489
internal_count=7498 3936 3280 3562 915 3513 2020 1573 671 264 656 651 902 280 447 563 136 2365 88 268 110 2328 1493 1229 421 340 249 151 44 101 75 808 621 2303 2021 95 1926 1550 376 282 226 205 598 568 179 427 399 126 158
is_linear=0
shrinkage=0.2


Tree=11
num_leaves=50
num_cat=0
split_feature=5 5 4 3 0 5 2 3 0 0 0 3 3 0 0 3 2 3 3 3 5 5 3 5 0 4 3 0 0 0 3 0 5 3 5 0 5 3 0 5 5 5 5 5 5 5 0 5 3
split_gain=78.0056 17.9144 16.3752 13.2646 12.9021 5.87188 5.23507 5.81641 4.73027 4.31828 5.60838 3.90752 3.90192 3.52119 5.23852 3.44362 3.34061 2.66613 4.72219 7.32992 3.5299 5.68126 3.5292 2.52822 2.49786 2.77421 3.42659 3.5633 3.50866 3.16702 2.98213 2.82497 6.88518 3.14967 2.96926 5.32294 3.17582 2.74508 3.29449 6.39538 2.2477 2.12644 2.11184 2.55884 2.0817 2.83552 2.06311 2.01125 1.95139
threshold=177.50000000000003 364.50000000000006 3.5000000000000004 1.0000000180025095e-35 -1.0000000180025095e-35 64.500000000000014 1.0000000180025095e-35 5.5000000000000009 -1.0000000180025095e-35 9434.0000000000018 3678.0000000000005 7.5000000000000009 5.5000000000000009 520.50000000000011 312.50000000000006 1.0000000180025095e-35 1.0000000180025095e-35 10.500000000000002 9.5000000000000018 8.5000000000000018 288.50000000000006 319.50000000000006 6.5000000000000009 1175.5000000000002 12123.500000000002 1.5000000000000002 6.5000000000000009 43.500000000000007 181.50000000000003 -114.49999999999999 7.5000000000000009 750.50000000000011 580.50000000000011 2.5000000000000004 743.50000000000011 503.50000000000006 640.50000000000011 2.5000000000000004 43.500000000000007 562.50000000000011 260.50000000000006 615.50000000000011 115.50000000000001 125.50000000000001 236.50000000000003 222.50000000000003 950.50000000000011 115.50000000000001 7.5000000000000009
decision_type=2 2 2 2 2 2 2 2 2 2 2 2 2 2 2 2 2 2 2 2 2 2 2 2 2 2 2 2 2 2 2 2 2 2 2 2 2 2 2 2 2 2 2 2 2 2 2 2 2
left_child=2 4 3 42 -2 -5 15 13 -7 10 16 -4 -12 14 40 44 -10 18 19 22 -20 -22 -17 24 25 29 31 -28 -29 -3 -30 34 33 -33 36 -36 -27 38 39 -31 -8 -34 -1 -44 45 -6 -9 -13 -18
right_child=1 23 11 5 6 8 7 46 9 -11 12 47 -14 -15 -16 17 48 -19 20 -21 21 -23 -24 -25 -26 26 27 28 30 37 -32 32 41 -35 35 -37 -38 -39 -40 -41 -42 -43 43 -45 -46 -47 -48 -49 -50
leaf_value=0.20390568772951881 0.16626970576605155 -0.18778657938276716 0.20040188362917466 0.14066648882397612 0.018367903371699128 0.1982732264479021 0.19832660732727334 0.014253062709745235 0.0065173244230410697 -0.16312204828839896 0.21011633809688501 0.14441513063021119 0.02343750351378511 0.17521878361373924 -0.15361016432137711 -0.033675745023383545 0.1256056814770001 -0.1110932708941208 0.094233318918856862 -0.18412082153746268 -0.18833315638384882 0.084281377692021917 0.028883941509417223 -0.10461650556573915 0.058719430494507785 -0.030162413856170397 0.12745280231456901 -0.16021064984804917 0.14998271260602011 0.19733106040798776 -0.016435794982677814 0.019600042120621719 -0.26162654415094433 -0.092421665368099024 -0.012545745956622407 0.22323412224632411 -0.12251827854480946 -0.092318974664598707 -0.058949633899785969 -0.059940476156994008 0.018800604541479905 -0.11667952902855459 -0.035924008585255268 0.13791858137850962 0.052155873496527887 -0.13865983403636958 -0.15846229513700658 -0.015579620482419574 0.0063146944747490734
leaf_weight=21.391642794013023 17.01733360439539 8.7103766202926618 48.656940639019012 20.474735394120216 17.559362225234512 5.8186857327818862 4.760942295193674 5.8406940251588804 153.00257356464863 4.1787853986024848 10.273114740848543 5.7972022369503957 7.8989715576171866 14.158834651112555 3.7178545892238608 199.80059599876404 15.82204255461693 13.070882230997084 22.350738570094109 11.140066102147101 4.9682198464870435 6.1451611816883087 43.465485602617264 41.35589411854744 7.4035634547471991 75.150499194860458 7.6370022743940345 5.1825925186276427 4.3970952779054633 5.71053223311901 29.052739843726158 26.771328583359718 4.5895698815584174 15.258555322885512 23.53196252882481 3.918749824166297 18.170164421200752 87.526026956737041 78.656556069850922 9.3327663391828519 6.0775977522134781 37.850522562861443 3.7030669450759914 22.194681949913502 41.768932543694973 5.5347257629036894 4.4539293944835663 5.9181343019008636 8.3316470831632596
leaf_count=270 121 43 541 227 125 49 40 28 869 22 64 41 38 76 21 951 120 99 129 82 27 36 202 294 37 338 36 27 22 25 166 117 22 77 149 25 98 497 406 50 34 236 41 214 240 39 23 26 38
internal_value=0 -0.0313025 0.0816479 0.0605388 -0.00107523 0.0401203 -0.00836234 0.0606895 0.0296864 0.0241488 0.0286769 0.17549 0.132543 0.106332 0.0347523 -0.0158196 0.0175821 -0.0248251 -0.0206694 -0.0299766 0.0493192 -0.0412234 -0.0224513 -0.0572782 -0.0527733 -0.0547258 -0.040764 0.0083092 -0.0169435 -0.0730139 0.00785514 -0.0518184 -0.0798064 -0.0218477 -0.0319242 0.0254495 -0.0488596 -0.0668535 -0.0425992 0.0418046 0.104346 -0.136023 0.15619 0.112793 0.0257962 -0.0220003 -0.0653915 0.0669846 0.0856871
internal_weight=0 912.038 333.462 273.09 421.831 225.801 404.814 39.0099 205.326 199.507 195.328 60.3723 18.1721 28.7152 14.5564 365.804 177.156 300.941 287.87 254.406 33.4641 11.1134 243.266 490.206 448.851 441.447 251.511 46.2694 38.6324 189.936 33.4498 205.241 84.47 42.0299 120.771 27.4507 93.3207 181.226 93.6999 15.0433 10.8385 42.4401 47.2894 25.8977 64.863 23.0941 10.2946 11.7153 24.1537
internal_count=7498 4938 2560 1952 2273 1427 2152 222 1200 1151 1129 608 102 171 95 1930 1027 1526 1427 1235 192 63 1153 2665 2371 2334 1313 251 215 1021 188 1062 452 194 610 174 436 978 481 75 74 258 525 255 404 164 51 67 158
is_linear=0
shrinkage=0.2


end of trees

feature_importances:
Column_3=183
Column_0=155
Column_5=145
Column_4=57
Column_2=25
Column_1=23

parameters:
[boosting: gbdt]
[objective: binary]
[metric: auc]
[tree_learner: serial]
[device_type: cpu]
[linear_tree: 0]
[data: ]
[valid: ]
[num_iterations: 200]
[learning_rate: 0.2]
[num_leaves: 50]
[num_threads: -1]
[deterministic: 0]
[force_col_wise: 0]
[force_row_wise: 0]
[histogram_pool_size: -1]
[max_depth: 9]
[min_data_in_leaf: 20]
[min_sum_hessian_in_leaf: 0.001]
[bagging_fraction: 0.840443]
[pos_bagging_fraction: 1]
[neg_bagging_fraction: 1]
[bagging_freq: 10]
[bagging_seed: 3]
[feature_fraction: 0.879647]
[feature_fraction_bynode: 1]
[feature_fraction_seed: 2]
[extra_trees: 0]
[extra_seed: 6]
[early_stopping_round: 2]
[first_metric_only: 0]
[max_delta_step: 0]
[lambda_l1: 0]
[lambda_l2: 0.6426]
[linear_lambda: 0]
[min_gain_to_split: 0]
[drop_rate: 0.1]
[max_drop: 50]
[skip_drop: 0.5]
[xgboost_dart_mode: 0]
[uniform_drop: 0]
[drop_seed: 4]
[top_rate: 0.2]
[other_rate: 0.1]
[min_data_per_group: 100]
[max_cat_threshold: 32]
[cat_l2: 10]
[cat_smooth: 10]
[max_cat_to_onehot: 4]
[top_k: 20]
[monotone_constraints: ]
[monotone_constraints_method: basic]
[monotone_penalty: 0]
[feature_contri: ]
[forcedsplits_filename: ]
[refit_decay_rate: 0.9]
[cegb_tradeoff: 1]
[cegb_penalty_split: 0]
[cegb_penalty_feature_lazy: ]
[cegb_penalty_feature_coupled: ]
[path_smooth: 0]
[interaction_constraints: ]
[verbosity: 1]
[saved_feature_importance_type: 0]
[max_bin: 255]
[max_bin_by_feature: ]
[min_data_in_bin: 3]
[bin_construct_sample_cnt: 200000]
[data_random_seed: 1]
[is_enable_sparse: 1]
[enable_bundle: 1]
[use_missing: 1]
[zero_as_missing: 0]
[feature_pre_filter: 1]
[pre_partition: 0]
[two_round: 0]
[header: 0]
[label_column: ]
[weight_column: ]
[group_column: ]
[ignore_column: ]
[categorical_feature: ]
[forcedbins_filename: ]
[objective_seed: 5]
[num_class: 1]
[is_unbalance: 0]
[scale_pos_weight: 1]
[sigmoid: 1]
[boost_from_average: 1]
[reg_sqrt: 0]
[alpha: 0.9]
[fair_c: 1]
[poisson_max_delta_step: 0.7]
[tweedie_variance_power: 1.5]
[lambdarank_truncation_level: 30]
[lambdarank_norm: 1]
[label_gain: ]
[eval_at: ]
[multi_error_top_k: 1]
[auc_mu_weights: ]
[num_machines: 1]
[local_listen_port: 12400]
[time_out: 120]
[machine_list_filename: ]
[machines: ]
[gpu_platform_id: -1]
[gpu_device_id: -1]
[gpu_use_dp: 0]
[num_gpu: 1]

end of parameters

pandas_categorical:null
