tree
version=v3
num_class=1
num_tree_per_iteration=1
label_index=0
max_feature_idx=31
objective=binary sigmoid:1
feature_names=Column_0 Column_1 Column_2 Column_3 Column_4 Column_5 Column_6 Column_7 Column_8 Column_9 Column_10 Column_11 Column_12 Column_13 Column_14 Column_15 Column_16 Column_17 Column_18 Column_19 Column_20 Column_21 Column_22 Column_23 Column_24 Column_25 Column_26 Column_27 Column_28 Column_29 Column_30 Column_31
feature_infos=[0:75] [-6847:81204] [0:2] [0:11] [0:3] [0:1] [0:1] [0:11] [0:30] [0:35] [3:3881] [-627:5250.75] [370.59561128526644:740] [-627:14524832] [0.0002576655501159495:0.33333333333333331] [-44.857142857142854:2131] [0:1] [0:1] [0:1] [0:1] [0:1] [0:1] [0:1] [0:1] [0:1] [0:1] [0:1] [0:3176] [-1410482:73437504] [0:1] [8.9589679268948217e-05:0.99995520516036551] [0.00017917935853789643:1]
tree_sizes=5615 5521 5325 6437 5084 4902 5717 5412 5934 5526 6358 6050 5826 5604 6166 5621 5832 5736 5393 5106 5521 5829 5097 5503 5416 5751 5422 4882 4590 4756

Tree=0
num_leaves=53
num_cat=0
split_feature=10 7 10 5 10 10 5 5 7 28 7 7 14 7 28 7 7 7 9 6 5 9 12 10 2 7 27 10 1 28 14 10 5 28 10 13 11 10 15 5 7 2 12 28 28 27 9 12 15 28 14 7
split_gain=1526.27 424.888 286.368 203.463 190.295 113.855 107.713 96.969 76.8513 66.6473 56.8752 57.6625 50.9903 40.9518 39.1451 30.7763 26.9034 20.9513 20.2835 19.9348 14.6332 10.5938 10.4601 10.2128 10.1957 9.91487 6.55575 6.52557 6.48558 6.36132 5.95747 5.74222 5.87191 5.62543 5.40186 5.151 5.07304 4.94994 4.67545 4.09986 5.51537 3.50829 10.6313 3.43372 3.14795 2.44788 2.39435 1.50029 1.37085 0.877899 0.621402 0.0508457
threshold=257.50000000000006 3.5000000000000004 447.50000000000006 1.0000000180025095e-35 87.500000000000014 153.50000000000003 1.0000000180025095e-35 1.0000000180025095e-35 3.5000000000000004 190984.50000000003 8.5000000000000018 4.5000000000000009 0.0015278847725097465 1.0000000180025095e-35 79817.500000000015 2.5000000000000004 10.500000000000002 4.5000000000000009 1.0000000180025095e-35 1.0000000180025095e-35 1.0000000180025095e-35 2.5000000000000004 380.20135552317146 351.50000000000006 1.0000000180025095e-35 8.5000000000000018 15.500000000000002 392.50000000000006 1132.0000000000002 241378.50000000003 0.0012507822277847312 113.50000000000001 1.0000000180025095e-35 846072.50000000012 388.50000000000006 1525827.5000000002 1584.3372798390519 62.500000000000007 8.4841229838709697 1.0000000180025095e-35 7.5000000000000009 1.0000000180025095e-35 372.18378809949138 475324.00000000006 349089.50000000006 59.500000000000007 1.5000000000000002 374.78612005893621 14.159754601226995 173328.00000000003 0.0013395853297012898 1.5000000000000002
decision_type=2 2 2 2 2 2 2 2 2 2 2 2 2 2 2 2 2 2 2 2 2 2 2 2 2 2 2 2 2 2 2 2 2 2 2 2 2 2 2 2 2 2 2 2 2 2 2 2 2 2 2 2
left_child=1 5 3 13 37 31 15 16 14 18 11 -9 30 34 27 44 17 -6 -8 20 22 -11 -14 -16 28 33 -12 -5 -15 36 -4 -1 51 -10 45 -22 -21 -3 -26 -39 -41 42 -32 -31 -7 -2 -34 -36 -27 -17 -43 -33
right_child=2 4 12 8 7 6 9 10 25 21 26 -13 19 24 23 49 -18 -19 -20 29 35 -23 -24 -25 38 48 -28 -29 -30 43 41 32 46 -35 47 -37 -38 39 -40 40 -42 50 -44 -45 -46 -47 -48 -49 -50 -51 -52 -53
leaf_value=0.20633114690629267 0.15760727884928899 0.20525852637218578 0.033227593078456547 0.15150839868331789 0.070718299864599543 0.20134657211643264 0.12125711985037156 0.035861168227526663 0.070764036978891331 0.070629763044065888 0.087640058061871126 0.11841975254912593 0.067003906266015559 0.14880099263813021 0.09962866371174818 0.10213292133990289 0.056112020397963272 0.15395636054737938 0.17399666905344319 0.071873272773009644 0.089385424116489504 0.13285282647523122 0.10186967472038284 0.06483422819051729 0.095858148917714853 0.028495662943675643 0.040765907374110413 0.099071456205740482 0.11617057113654297 0.16389476627561675 0.11248978569627135 0.20521978311024258 0.1646714877535872 0.036175052502408628 0.15967330500941423 0.048099415817295835 0.12984736910504427 0.19344441896758957 0.14180279516276986 0.17750366254780769 0.11895209880165175 0.056478072489750307 0.051699566065636512 0.1125966281094079 0.17404212560569299 0.18734026240884544 0.19117006072322035 0.1294442084285021 0.069030017323615578 0.127248239594939 0.031099366785949281 0.18308373661006128
leaf_weight=274.04763400554657 13.453247487545012 39.612339824438095 225.21732831001282 35.875326633453369 7.474026381969451 102.89242985844612 29.148702889680862 25.660823911428452 61.536150544881821 41.356279313564301 10.214502722024916 103.88896670937538 65.771432161331177 40.608876675367355 53.563855737447739 6.2283553183078748 7.9722948074340811 91.432256072759628 48.332037270069122 11.460173785686498 9.9653685092926008 7.7231605947017661 33.383984506130219 35.626192420721054 29.896105527877808 46.089829355478287 64.027492672204971 6.4774895310401908 23.916884422302246 4.9826842546462995 8.4705632328987104 53.563855737447739 32.387447655200958 17.190260678529739 10.214502722024919 104.38723513484001 4.9826842546463004 14.200650125741959 5.9792211055755606 8.7196974456310254 6.9757579565048227 15.695455402135847 53.812989950180054 6.9757579565048218 20.927273869514465 44.595024079084396 19.68160280585289 7.9722948074340811 5.9792211055755606 5.9792211055755615 32.138313442468643 15.695455402135847
leaf_count=1100 54 159 904 144 30 413 117 103 247 166 41 417 264 163 215 25 32 367 194 46 40 31 134 143 120 185 257 26 96 20 34 215 130 69 41 419 20 57 24 35 28 63 216 28 84 179 79 32 24 24 129 63
internal_value=0.117833 0.160463 0.0743015 0.104778 0.118371 0.184751 0.15901 0.101593 0.076902 0.125699 0.0814182 0.101618 0.0511809 0.146177 0.104039 0.189749 0.140045 0.147302 0.15442 0.0690127 0.0637943 0.0805145 0.0784958 0.0853434 0.12506 0.0498884 0.0467803 0.143267 0.136848 0.108693 0.0384807 0.201716 0.190722 0.0623816 0.173583 0.0514494 0.0891556 0.192613 0.103911 0.173812 0.15294 0.0498177 0.059775 0.135684 0.197167 0.181155 0.175754 0.147584 0.0322505 0.114238 0.0381518 0.201096
internal_weight=0 1038.14 1016.22 438.974 380.179 657.963 262.587 310.67 262.338 126.56 203.792 129.55 577.244 176.636 131.543 136.027 106.879 98.9063 77.4807 241.909 213.508 49.0794 99.1554 89.19 100.401 130.795 74.242 42.3528 64.5258 28.4013 335.335 395.376 121.328 78.7264 76.2351 114.353 16.4429 69.5084 35.8753 29.8961 15.6955 110.117 62.2836 11.9584 123.82 58.0483 52.0691 18.1868 52.0691 12.2076 47.8338 69.2593
internal_count=8246 4167 4079 1762 1526 2641 1054 1247 1053 508 818 520 2317 709 528 546 429 397 311 971 857 197 398 358 403 525 298 170 259 114 1346 1587 487 316 306 459 66 279 144 120 63 442 250 48 497 233 209 73 209 49 192 278
is_linear=0
shrinkage=1


Tree=1
num_leaves=51
num_cat=0
split_feature=14 10 5 7 10 7 28 7 5 10 14 5 7 7 7 0 7 28 0 7 6 1 5 6 0 17 12 14 10 27 3 28 0 14 0 11 13 10 18 7 5 0 10 12 14 15 11 13 0 0
split_gain=1386.28 378.219 307.511 270.97 136.328 99.3209 68.6636 58.4416 53.9963 53.942 45.739 41.9655 36.7264 40.8538 31.5817 25.9266 25.1084 21.9121 22.2821 20.7307 17.9369 14.0073 13.1324 12.9329 12.494 10.943 12.7596 9.64545 7.96286 6.28853 5.95031 5.79644 5.46681 5.2629 4.81755 4.60901 4.58852 4.51908 4.42074 3.90048 4.79279 3.4014 2.07769 2.05209 2.01998 1.22648 1.20517 0.348093 0.281984 0.0862401
threshold=0.0048426434032174852 447.50000000000006 1.0000000180025095e-35 3.5000000000000004 87.500000000000014 3.5000000000000004 86719.000000000015 1.0000000180025095e-35 1.0000000180025095e-35 136.50000000000003 0.0015278847725097465 1.0000000180025095e-35 8.5000000000000018 4.5000000000000009 2.5000000000000004 13.500000000000002 10.500000000000002 198089.50000000003 10.500000000000002 8.5000000000000018 1.0000000180025095e-35 974.50000000000011 1.0000000180025095e-35 1.0000000180025095e-35 11.500000000000002 1.0000000180025095e-35 379.3272819065308 0.0020898664407194207 388.50000000000006 17.500000000000004 4.5000000000000009 241378.50000000003 21.500000000000004 0.0012507822277847312 6.5000000000000009 1584.3372798390519 1525827.5000000002 62.500000000000007 1.0000000180025095e-35 7.5000000000000009 1.0000000180025095e-35 12.500000000000002 297.50000000000006 372.32153873838337 0.0013840837078501016 14.159754601226995 1501.4894556117563 10571609.500000002 11.500000000000002 16.500000000000004
decision_type=2 2 2 2 2 2 2 2 2 2 2 2 2 2 2 2 2 2 2 2 2 2 2 2 2 2 2 2 2 2 2 2 2 2 2 2 2 2 2 2 2 2 2 2 2 2 2 2 2 2
left_child=1 2 7 9 37 6 24 28 25 34 33 14 13 -10 49 -8 21 18 -13 23 22 -9 27 -7 -4 30 -27 -12 42 -14 -6 35 -33 -3 -2 -22 -24 -5 -19 47 -41 -30 -1 44 -35 -21 -45 -39 -36 -11
right_child=3 10 5 4 8 19 15 16 12 11 20 17 29 -15 -16 -17 -18 38 -20 45 31 -23 36 -25 -26 26 -28 -29 41 -31 -32 32 -34 43 48 -37 -38 39 -40 40 -42 -43 -44 46 -46 -47 -48 -49 -50 -51
leaf_value=0.073808072449028664 0.034052608703309666 -0.080128329802202941 -0.019300105340229138 0.083739325439856682 0.031787631552506905 -0.052380405129673728 -0.074201287050283296 0.029991028335512315 -0.074764661872589039 0.068235072489066101 -0.043955785980231053 -0.04504319997125901 -0.018882591095363027 0.0085800215684414781 -0.022503263508319216 -0.019843615065210166 -0.073812303456719047 -0.00011498239139901845 0.049832737112146225 -0.086019196336719492 -0.043736372233671134 -0.0018827708667184502 -0.02710408770501456 0.01411511709209892 0.03881547536672858 -0.015787219966730701 0.042414285739234475 -0.00096744994369769291 -0.006086039230807601 -0.067155664600992357 0.079368534033402272 0.046714425744481314 -0.016994899471921291 -0.024098293400151193 0.069137179950276115 0.011512497931637354 -0.066080809064753068 0.079951920906484286 -0.043716028443242905 0.057401825386148124 0.001069786440275511 0.041036574614512988 0.053913165259705999 -0.035976283167794249 -0.059948303132788788 -0.053488423914742192 -0.06996006426334421 0.043388608781855485 0.084717848389664882 0.084014295257956034
leaf_weight=57.969720870256424 6.6829975545406333 225.93763089179993 10.452495113015173 39.334245041012764 28.097913205623627 106.83481335639954 28.439092352986336 90.273847982287407 17.244455024600029 35.645419344305992 83.86834904551506 6.2162646353244773 8.9846185147762281 76.979805752635002 7.9677111804485312 91.552551165223122 6.9838685989379874 20.439481556415561 58.361959293484688 65.479989185929298 11.485161304473882 55.262829884886742 9.9800521135330182 7.4851340651512137 56.689956396818161 23.631799966096878 14.426511913537977 15.470869541168211 4.9742320179939297 43.23203718662262 8.9468793869018537 6.219664588570593 5.7247686237096786 8.9819598048925418 30.438565835356712 4.9789837002754203 104.68943721055984 10.411514148116114 7.2354632318019858 7.4302715063095075 6.9752964973449707 13.177294269204138 36.947280421853065 5.7465630173683158 10.486316904425619 8.9904850423336011 85.201909005641937 4.9571679532527915 307.56293621659279 60.652004301548004
leaf_count=234 27 904 42 159 113 428 114 363 69 144 336 25 36 309 32 367 28 82 235 262 46 222 40 30 228 95 58 62 20 173 36 25 23 36 123 20 419 42 29 30 28 53 149 23 42 36 341 20 1243 245
internal_value=0 -0.0339084 -0.00744668 0.0497561 0.0107686 -0.0365085 -0.0106086 0.033673 -0.00841823 0.0706422 -0.0631822 0.0493347 -0.026046 -0.00723108 0.0709824 -0.0331791 0.0133439 0.024423 0.040211 -0.0620107 -0.0463075 0.0179502 -0.0512473 -0.0479511 0.0296339 0.0258559 0.00674066 -0.037329 0.0607764 -0.059306 0.0448742 -0.00866808 0.01712 -0.0751895 0.0826319 -0.0272952 -0.0629238 0.0716005 -0.0125228 0.053596 0.0317773 0.0284427 0.0666375 -0.0645228 -0.0451878 -0.0827711 -0.0681829 0.0711838 0.0835003 0.0788529
internal_weight=0 1220.29 641.514 831.855 290.653 375.925 187.134 265.589 221.544 541.203 578.772 196.518 146.441 94.2243 104.265 119.992 152.521 92.2532 64.5782 188.79 242.417 145.537 214.009 114.32 67.1425 75.1031 38.0583 99.3392 113.069 52.2167 37.0448 28.4086 11.9444 336.354 344.684 16.4641 114.669 69.1085 27.6749 29.7743 14.4056 18.1515 94.917 110.417 19.4683 74.4705 90.9485 15.3687 338.002 96.2974
internal_count=8246 4893 2576 3353 1168 1507 751 1069 889 2185 2317 792 587 378 421 481 613 371 260 756 971 585 857 458 270 302 153 398 456 209 149 114 48 1346 1393 66 459 279 111 120 58 73 383 442 78 298 364 62 1366 389
is_linear=0
shrinkage=0.05


Tree=2
num_leaves=49
num_cat=0
split_feature=14 10 5 7 10 7 28 7 10 5 10 5 7 7 7 9 7 7 28 10 5 7 6 9 13 7 6 14 17 7 7 27 27 2 7 13 14 14 3 11 7 14 12 11 13 15 27 7
split_gain=1258.03 341.162 278.299 248.046 124.67 89.6096 62.0716 53.8002 49.991 49.0294 41.4813 38.6962 33.1731 37.0481 29.024 24.7499 18.9443 18.8822 18.2868 15.0238 14.8418 12.1781 11.6461 10.4457 13.7355 10.0739 9.29756 8.52469 8.41934 6.5636 5.85466 5.67043 5.43965 4.97207 4.78479 4.63791 4.23358 3.1806 3.11678 3.02043 2.60769 2.16504 3.51707 3.18619 1.64871 1.08174 0.761412 0.265295
threshold=0.0048426434032174852 447.50000000000006 1.0000000180025095e-35 3.5000000000000004 87.500000000000014 3.5000000000000004 86719.000000000015 2.5000000000000004 136.50000000000003 1.0000000180025095e-35 679.50000000000011 1.0000000180025095e-35 8.5000000000000018 4.5000000000000009 2.5000000000000004 2.5000000000000004 10.500000000000002 8.5000000000000018 14511.000000000002 380.50000000000006 1.0000000180025095e-35 4.5000000000000009 1.0000000180025095e-35 1.0000000180025095e-35 5273646.0000000009 4.5000000000000009 1.0000000180025095e-35 0.0020898664407194207 1.0000000180025095e-35 1.0000000180025095e-35 7.5000000000000009 17.500000000000004 224.50000000000003 1.0000000180025095e-35 1.0000000180025095e-35 1525827.5000000002 0.012903762903762906 0.0012507822277847312 10.500000000000002 1543.0398541435657 7.5000000000000009 0.0013395853297012898 372.2217884427252 1508.5408022025558 12650516.500000002 14.159754601226995 63.500000000000007 1.0000000180025095e-35
decision_type=2 2 2 2 2 2 2 2 2 2 2 2 2 2 2 2 2 2 2 2 2 2 2 2 2 2 2 2 2 2 2 2 2 2 2 2 2 2 2 2 2 2 2 2 2 2 2 2
left_child=1 2 7 8 36 6 28 19 38 23 20 14 13 -11 47 18 25 21 -13 34 27 -7 -8 24 -6 -9 35 33 -4 -21 -25 -14 -29 -3 -1 -22 40 -12 46 -28 -5 42 -39 -43 -38 -19 -2 -10
right_child=3 10 5 4 9 17 22 16 11 12 37 15 31 -15 -16 -17 -18 45 -20 29 26 -23 -24 30 -26 -27 39 32 -30 -31 -32 -33 -34 -35 -36 -37 44 41 -40 -41 -42 43 -44 -45 -46 -47 -48 -49
leaf_value=0.064093062878957135 0.082226158747221945 -0.026900674971869511 0.040580147281115253 0.060266263708819545 0.04269396911744186 -0.075915974201151648 -0.035413491298681925 -0.020975627673509953 0.080070985523629262 -0.071213298527155175 -0.076157907679176379 0.055807762579290848 -0.018012291589467766 0.0081602821061724229 -0.021466289620509671 0.071903757419736661 -0.070414364880397678 -0.081809090442124088 -0.0039497088661292548 0.031023320514247395 -0.026252087269897396 -0.036135622094439213 0.028380732587974761 0.067687857910009946 -0.014925290350844342 0.018225776146886138 -0.035176206746333726 0.021074088238002685 0.0029803483943452308 -0.020890672400765323 0.024209702865332125 -0.063849612524346316 -0.033042317043632898 -0.049327608853864259 0.041157524188473203 -0.063751802604769231 0.078601205974061603 -0.010650192771568315 0.036716469754225996 0.0099064016511895142 0.012707393698472123 -0.03935544329647192 -0.056088332054589345 -0.07616071056292982 0.04295135369003171 -0.051008138245992478 0.07039391999982425 0.063396367416031316
leaf_weight=91.270308420062065 267.70634193718433 58.203089892864227 44.625562354922295 5.4099752455949766 16.108808100223541 25.496653437614441 113.13019491732121 19.902779906988144 66.70530067384243 17.243475168943405 225.87576019763947 15.590897575020788 8.9906980544328672 76.939346373081207 7.9777697324752799 19.526563033461571 6.9974216222763053 65.452804565429688 56.893667578697205 21.067603752017025 10.74019220471382 88.950677290558815 6.9880172610282889 15.114565417170523 25.624057188630104 77.784856975078583 7.7304819226264936 10.97432415187359 22.348101004958153 7.7095882743597022 18.091462954878807 43.242469951510429 6.7377413511276236 49.467771306633949 39.935060605406761 114.73898760974407 49.315207168459892 5.4930704087018958 6.3940188586711875 5.9758791029453278 6.4437170773744583 10.496263012289999 29.997735738754272 42.490390822291374 7.3747837245464316 8.9993280172348005 67.149677693843842 28.705663204193115
leaf_count=371 1093 233 180 22 65 102 453 80 272 69 904 63 36 309 32 79 28 262 229 85 43 356 28 61 103 313 31 44 90 31 73 173 27 198 161 459 201 22 26 24 26 42 120 170 30 36 274 117
internal_value=0 -0.0322495 -0.00709017 0.0476123 0.0102999 -0.0347052 -0.0100963 0.032125 0.0677179 -0.00800562 -0.0600381 0.0471658 -0.0247935 -0.00690332 0.0680714 0.0232474 0.00418912 -0.0589167 0.00942556 0.0502804 -0.0451596 -0.0455162 -0.0315204 0.0247004 0.00774341 0.0101215 -0.0564851 -0.0322774 0.0282376 0.0169054 0.0452522 -0.0563945 -0.000108912 -0.0375248 0.057437 -0.0607499 0.0687595 -0.0723971 0.0793325 -0.0161159 0.0371102 -0.0621322 -0.049489 -0.0696417 0.0747003 -0.0787336 0.0800466 0.0756875
internal_weight=0 1219.58 640.659 826.548 289.899 375.991 187.092 264.668 536.65 221.355 578.922 195.4 146.416 94.1828 103.389 92.0111 104.685 188.899 72.4846 159.983 264.568 114.447 120.118 74.9389 41.7329 97.6876 139.186 125.383 66.9737 28.7772 33.206 52.2332 17.7121 107.671 131.205 125.479 68.5437 314.353 341.25 13.7064 11.8537 88.4775 35.4908 52.9867 56.69 74.4521 334.856 95.411
internal_count=8246 4893 2576 3353 1168 1507 751 1069 2185 889 2317 792 587 378 421 371 421 756 292 648 1059 458 481 302 168 393 557 502 270 116 134 209 71 431 532 502 279 1258 1393 55 48 354 142 212 231 298 1367 389
is_linear=0
shrinkage=0.05


Tree=3
num_leaves=60
num_cat=0
split_feature=10 7 10 5 10 10 5 5 7 15 10 10 8 7 1 7 8 8 7 7 7 0 8 8 8 8 8 7 10 10 7 9 7 8 10 5 15 0 12 29 17 8 5 0 8 0 27 15 2 7 10 12 8 27 27 11 13 1 12
split_gain=1144.16 324.562 207.742 163.54 150.525 89.0209 83.7481 59.3174 55.6063 44.8871 36.3933 29.8715 29.6955 29.0914 27.9313 27.6378 26.7592 24.915 24.2728 27.1042 20.0623 19.2183 15.1571 34.3283 23.4593 14.8724 21.8507 13.3003 9.78122 9.23054 9.15065 10.1096 7.09236 13.4497 6.57924 5.98028 5.10663 5.04169 7.56954 6.96614 5.02076 4.82105 7.98483 6.7555 4.13824 3.30077 3.12087 4.03794 3.04937 4.181 3.93193 5.8907 3.037 2.66987 2.45465 1.58296 1.39192 0.93978 0.141556
threshold=257.50000000000006 3.5000000000000004 477.50000000000006 1.0000000180025095e-35 130.50000000000003 165.50000000000003 1.0000000180025095e-35 1.0000000180025095e-35 3.5000000000000004 0.54790877295249207 78.500000000000014 679.50000000000011 4.5000000000000009 1.0000000180025095e-35 61.500000000000007 7.5000000000000009 6.5000000000000009 15.500000000000002 8.5000000000000018 4.5000000000000009 2.5000000000000004 42.500000000000007 13.500000000000002 20.500000000000004 8.5000000000000018 21.500000000000004 14.500000000000002 7.5000000000000009 134.50000000000003 388.50000000000006 2.5000000000000004 1.0000000180025095e-35 8.5000000000000018 26.500000000000004 365.50000000000006 1.0000000180025095e-35 5.1577942970097164 17.500000000000004 382.72081797792504 1.0000000180025095e-35 1.0000000180025095e-35 3.5000000000000004 1.0000000180025095e-35 6.5000000000000009 17.500000000000004 17.500000000000004 510.50000000000006 2.5501380834023757 1.0000000180025095e-35 9.5000000000000018 866.50000000000011 372.18378809949138 10.500000000000002 16.500000000000004 59.500000000000007 1524.5833281142129 12650516.500000002 3116.0000000000005 397.64264671811594
decision_type=2 2 2 2 2 2 2 2 2 2 2 2 2 2 2 2 2 2 2 2 2 2 2 2 2 2 2 2 2 2 2 2 2 2 2 2 2 2 2 2 2 2 2 2 2 2 2 2 2 2 2 2 2 2 2 2 2 2 2
left_child=1 5 3 13 10 28 20 22 14 40 56 35 -11 29 34 17 -17 -12 19 -9 36 -16 24 -24 -6 26 -15 -27 41 54 45 -32 33 -10 -5 37 -7 39 -39 -4 -8 42 -1 -43 -31 -30 47 -37 50 -50 51 -13 -22 -20 -2 -51 -3 -34 -52
right_child=2 4 11 8 7 6 9 18 32 12 15 48 -14 25 21 16 -18 -19 53 -21 52 -23 23 -25 -26 27 -28 -29 30 44 31 -33 57 -35 -36 46 -38 38 -40 -41 -42 43 -44 -45 -46 -47 -48 -49 49 55 58 -53 -54 -55 -56 -57 -58 -59 -60
leaf_value=0.074724640649383584 0.032680391109676105 0.074746161757679702 -0.055863322094977443 0.047962360552669281 0.015856759084089869 0.076072493906485184 0.075119434950652805 -0.07545504114995949 -0.056060089991407797 -0.074848231179051039 -0.025012100363979325 -0.014053944718516412 -0.0010472711977342869 -0.0085777061859677976 -0.018349261242524836 0.046643072491633526 -0.028631667047156369 0.070268894778874227 -0.037389662584540691 -0.012204305093281929 -0.029273524232242571 -0.083329211979329132 0.057859750948445157 -0.031439254490705913 -0.075730672415274577 8.5660930199016233e-05 0.041174837992444091 -0.079473110220124793 0.047783653833598928 0.0072234251769822191 -0.025409377715922804 0.047903343817057749 -0.078605701225709479 0.006370250975239424 -0.0069857362128325998 -0.04647801251512737 0.045607753505233509 -0.035291174591072075 0.005289116989316619 -0.0030317166250589671 0.026029113804147897 0.019051790254087719 0.011768169657780584 0.079350631874532451 0.051942669243866903 0.074275374566595734 -0.013468560436813874 -0.06928852752830128 -0.078780362424742012 -0.024781853356913137 -0.071303819084055559 -0.058023035528066508 0.021589459912367652 -0.073142392996550357 0.061354757126908667 -0.06152970505485067 0.041256798570386014 -0.052326596269142406 -0.043757622580892198
leaf_weight=11.842193156480789 13.236846685409544 48.970063358545303 40.239921152591705 17.542300105094913 19.086912110447887 79.69539475440979 16.216632574796677 21.193788111209869 77.960012912750244 16.204600468277931 8.1821129173040372 9.4829497933387739 67.365840002894402 48.45632703602314 108.01612666249275 16.636115655303001 35.303132683038712 31.923462733626366 9.2414218932390195 74.769647166132927 4.9895922541618329 11.983781874179838 31.656467139720917 15.388464108109472 9.9336076080799085 12.918003186583521 39.25556991994381 7.959871605038642 26.584420666098595 20.589594990015033 6.1912208050489452 14.046340614557264 44.296149387955666 9.4944047629833204 7.440896824002265 70.375257343053818 22.926776632666588 45.486418813467026 14.994978070259092 7.4799425005912772 9.4252207577228564 5.3809616565704337 8.9747224003076553 304.42135205864906 6.1932779699563971 44.144825085997581 5.4891232848167411 36.439858794212341 126.58274918794632 7.47469913959503 96.633697748184204 59.865267768502235 4.9887373596429825 48.36981825530529 43.684053346514702 7.7234922647476196 7.3315203189849845 12.470965996384619 5.7282862067222586
leaf_count=49 54 202 161 71 77 328 66 85 312 65 33 38 271 195 433 67 142 129 37 300 20 48 128 62 40 52 158 32 109 83 25 57 178 38 30 282 94 182 60 30 38 22 37 1259 25 181 22 146 508 30 388 240 20 194 179 31 30 50 23
internal_value=0 0.037372 -0.0375436 -0.0136892 0.000588473 0.0589511 0.0331117 -0.0247402 -0.0374042 0.00184 0.0397108 -0.0589942 -0.0159965 0.0219857 -0.0153923 0.0200153 -0.00414098 0.050709 -0.0425452 -0.0267393 0.0631898 -0.0254051 0.0112841 0.0286085 -0.0168159 0.00481814 0.0138794 -0.0322592 0.0724476 0.0439718 0.0565392 0.0253492 -0.0593019 -0.0492865 0.03192 -0.0445387 0.0697178 -0.0355278 -0.0252995 -0.0477896 0.058556 0.0766609 0.0491803 0.078361 0.0189044 0.0650369 -0.0528722 -0.0547689 -0.0690068 -0.0755568 -0.0632362 -0.0522652 -0.00415913 -0.0680644 0.0552934 -0.045831 0.0710963 -0.0737308 -0.0701534
internal_weight=0 1021.39 1015.49 481.498 377.987 643.399 221.813 229.64 289.205 109.212 148.346 533.997 83.5704 192.294 144.983 92.0448 51.9392 40.1056 153.575 95.9634 112.601 120 76.0655 47.0449 29.0205 108.59 87.7119 20.8779 421.586 83.7038 90.9668 20.2376 144.222 87.4544 24.9832 220.505 102.622 108.201 60.4814 47.7199 25.6419 330.619 20.8169 309.802 26.7829 70.7292 112.304 106.815 313.491 141.781 171.71 69.3482 9.97833 57.6112 56.9209 15.1982 56.3016 56.7671 102.362
internal_count=8246 4167 4079 1938 1526 2641 902 923 1160 440 603 2141 336 778 582 371 209 162 616 385 462 481 307 190 117 437 353 84 1739 341 372 82 578 350 101 883 422 433 242 191 104 1367 86 1281 108 290 450 428 1258 569 689 278 40 231 233 61 232 228 411
is_linear=0
shrinkage=0.05


Tree=4
num_leaves=47
num_cat=0
split_feature=14 10 5 7 7 14 1 7 10 0 7 23 7 8 7 8 7 8 7 8 5 23 6 14 10 7 13 27 9 7 17 1 10 0 8 13 17 28 0 15 8 14 15 13 0 8
split_gain=1084.08 333.272 273.689 143.32 84.2148 75.8426 59.7676 55.0692 40.4299 32.3137 30.6734 26.2967 24.4246 23.5412 21.8154 29.4771 20.6806 18.5872 18.3059 26.3092 17.9188 15.2894 15.1865 11.7115 11.0831 10.0568 9.74394 9.0809 9.00729 8.8519 8.38423 6.62331 5.94405 5.12042 4.98809 4.89392 4.74817 4.61155 4.50668 4.37152 4.30268 2.70692 4.33661 2.086 1.85337 0.171332
threshold=0.0056657678479712387 410.50000000000006 1.0000000180025095e-35 3.5000000000000004 3.5000000000000004 0.012579113924050636 111.50000000000001 2.5000000000000004 613.50000000000011 12.500000000000002 10.500000000000002 1.0000000180025095e-35 8.5000000000000018 3.5000000000000004 4.5000000000000009 15.500000000000002 4.5000000000000009 3.5000000000000004 8.5000000000000018 26.500000000000004 1.0000000180025095e-35 1.0000000180025095e-35 1.0000000180025095e-35 0.0068260180784642634 531.50000000000011 2.5000000000000004 9057178.5000000019 17.500000000000004 1.0000000180025095e-35 1.5000000000000002 1.0000000180025095e-35 36.500000000000007 376.50000000000006 24.500000000000004 19.500000000000004 6048852.0000000009 1.0000000180025095e-35 179379.50000000003 7.5000000000000009 13.832320601851853 15.500000000000002 0.001050972439448966 0.97859518381421662 12650516.500000002 27.500000000000004 2.5000000000000004
decision_type=2 2 2 2 2 2 2 2 2 2 2 2 2 2 2 2 2 2 2 2 2 2 2 2 2 2 2 2 2 2 2 2 2 2 2 2 2 2 2 2 2 2 2 2 2 2
left_child=1 2 7 17 6 12 36 13 11 -8 16 22 14 35 34 -16 -9 21 19 -6 26 29 31 25 30 37 -14 -22 -27 -2 -13 -3 -15 -26 -5 -1 -4 -19 -25 41 -24 45 -43 -7 -20 -10
right_child=3 8 4 5 18 43 9 10 39 -11 -12 24 20 32 15 -17 -18 23 44 -21 27 -23 40 38 33 28 -28 -29 -30 -31 -32 -33 -34 -35 -36 -37 -38 -39 -40 -41 -42 42 -44 -45 -46 -47
leaf_value=-0.041090833127215086 0.070052463015766578 -0.025463585575435516 0.052146811182495915 -0.0010731607177149312 -0.047604187935921527 0.073382102997681165 -0.064880665015511929 -0.025796223989713346 -0.046721037627337099 -0.0095455684932062076 -0.078255571206499494 0.025418891991602507 0.036269201130888676 0.060352669035850272 -0.0026234317388011521 0.05216333028992997 0.026734650008761768 0.072487280866407502 -0.060262543979300469 0.01815737461634569 0.014314666379602098 -0.024290677765752843 0.017955826805864487 0.033401810949962522 -0.049767636481284239 -0.026397891470737046 -0.032558315113902198 -0.053033847181307929 0.041458959406250939 0.0039066015025971523 -0.01818797786389878 -0.056272105059010917 0.024151129270621078 -0.0048355227038966511 -0.054431312719862783 0.01504763586484815 0.017113071697176574 0.037991050437012487 0.076247802025270386 -0.014826775616077313 -0.027935779005107922 -0.051997222846620894 -0.067901317127561131 0.035188871605196757 -0.080940635320088383 -0.071027487899501307
leaf_weight=5.8814395517110816 16.508741304278377 22.431072622537613 33.549102738499641 7.1994207799434689 107.24478842318058 49.022923395037651 32.446099311113358 23.419204652309418 7.6777505278587332 128.56648029386997 8.7357508689165098 22.641072645783424 14.32919202744961 146.92372404038906 47.660029008984566 49.56576943397522 82.194192513823509 43.817828252911568 51.274345457553864 17.217818364500999 5.4957880526781073 8.7715687155723554 9.7228846698999423 8.2432660907506925 18.473562762141231 5.9765945225954082 6.9485781341791144 32.584516122937202 17.441145569086075 7.2855543196201316 19.885911181569099 138.77953873574734 14.042339295148848 9.7364737540483457 10.43938536942005 8.3305046856403333 15.091896474361418 16.801807880401611 317.88056924939156 5.2225135117769232 8.9817895591258985 122.05110001564026 99.419059574604034 6.5570611804723731 33.462986186146736 144.86302536725998
leaf_count=24 69 90 137 29 430 205 130 94 31 516 35 91 58 608 192 201 332 182 207 69 22 36 39 34 74 24 28 131 71 30 80 557 57 39 42 34 61 69 1334 21 36 491 400 27 135 585
internal_value=0 -0.0264872 -0.00294602 0.051284 -0.0287614 0.0191465 -0.00631325 0.0343743 -0.0529205 -0.0209921 0.00729567 -0.0371051 0.00280996 0.0519237 0.0162342 0.0255271 0.0149678 0.0678933 -0.051136 -0.0384425 -0.0230234 0.0303715 -0.0472255 0.0708001 -0.0110971 0.0528889 0.0133871 -0.0432089 0.0238078 0.0506718 0.00507325 -0.052149 0.0573449 -0.0348829 -0.0337521 -0.00923869 0.0417805 0.0636152 0.0752588 -0.063262 -0.00434921 -0.0639015 -0.0593803 0.0695029 -0.069186 -0.0700827
internal_weight=0 1338.27 708.381 672.53 418.854 229.803 209.654 289.527 629.886 161.013 114.349 250.652 174.223 175.178 114.865 97.2258 105.613 442.727 209.2 124.463 59.3581 32.5659 179.915 410.161 70.737 84.0374 21.2778 38.0803 23.4177 23.7943 42.527 161.211 160.966 28.21 17.6388 14.2119 48.641 60.6196 326.124 379.233 18.7047 374.011 221.47 55.58 84.7373 152.541
internal_count=8187 5403 2869 2784 1685 935 844 1184 2534 646 461 1006 703 723 464 393 426 1849 841 499 239 135 722 1714 284 346 86 153 95 99 171 647 665 113 71 58 198 251 1368 1528 75 1507 891 232 342 616
is_linear=0
shrinkage=0.05


Tree=5
num_leaves=45
num_cat=0
split_feature=10 14 5 7 14 28 7 10 5 0 10 7 7 5 7 9 14 28 7 7 7 5 6 7 17 10 27 12 13 0 11 27 2 14 0 17 11 14 7 13 0 0 14 1
split_gain=989.667 250.178 213.733 181.961 89.4746 55.1979 42.3833 39.6251 37.9816 35.0051 27.8168 26.8653 25.4741 24.7268 23.5784 19.7638 18.2735 17.6856 17.211 15.5946 15.1133 14.9218 12.4994 11.3694 9.98151 8.01268 7.10409 7.07983 8.25362 6.07528 5.18132 4.43252 4.41928 4.09382 7.51758 4.0366 4.02543 3.0915 2.02498 1.96539 0.97323 0.862132 0.847889 0.402749
threshold=205.50000000000003 0.0022701504844361993 1.0000000180025095e-35 3.5000000000000004 0.012579113924050636 26406.000000000004 1.0000000180025095e-35 153.50000000000003 1.0000000180025095e-35 42.500000000000007 613.50000000000011 8.5000000000000018 8.5000000000000018 1.0000000180025095e-35 10.500000000000002 2.5000000000000004 0.0080322580645161307 6430.5000000000009 8.5000000000000018 2.5000000000000004 10.500000000000002 1.0000000180025095e-35 1.0000000180025095e-35 4.5000000000000009 1.0000000180025095e-35 300.50000000000006 73.500000000000014 380.20135552317146 3322271.0000000005 13.500000000000002 1483.0360896329107 17.500000000000004 1.0000000180025095e-35 0.01081112669471716 7.5000000000000009 1.0000000180025095e-35 1508.0526306246381 0.0011204485309256351 1.0000000180025095e-35 12650516.500000002 12.500000000000002 14.500000000000002 0.00079522875395401026 628.50000000000011
decision_type=2 2 2 2 2 2 2 2 2 2 2 2 2 2 2 2 2 2 2 2 2 2 2 2 2 2 2 2 2 2 2 2 2 2 2 2 2 2 2 2 2 2 2 2
left_child=3 10 6 7 8 18 25 33 20 11 21 -7 16 19 24 17 -10 -15 26 41 23 27 36 -5 -8 43 -4 35 -29 -27 -12 -14 37 34 -1 -2 -23 -32 -36 40 -6 -9 -34 -3
right_child=1 2 5 4 39 9 14 13 12 -11 30 -13 31 15 -16 -17 -18 -19 -20 -21 -22 22 -24 -25 -26 29 -28 28 -30 -31 32 -33 42 -35 38 -37 -38 -39 -40 -41 -42 -43 -44 -45
leaf_value=0.0062115389327432637 -0.02065662619383736 0.070275308842983386 0.011287322171707486 -0.034937432847781356 0.040101806257229422 -0.024488289235360314 0.026572091041098797 0.05032550465786019 -0.018108884345349786 -0.081690660628582934 -0.01733606448365679 -0.063176196912610158 -0.011670625840902121 0.063167088699690885 -0.071382259229623629 0.066005288588301528 0.029625266655475879 -0.0088453473751782755 -0.05580297280766329 -0.01861992693152582 -0.053756721040797872 -0.028173995164988055 0.0049477010977413 0.035927586918027402 -0.00022034070181631881 0.010273124204039344 0.054905266124778168 -0.023057993914693462 0.026664830081027047 0.04745981206087177 -0.063138685592330129 -0.053755015204417424 -0.081617708352061835 0.075831007548051207 0.073851524292710996 -0.046816892431473148 -0.059844121503659115 -0.048805625418608362 0.059310857646973483 0.033828126083269155 0.074305594116332987 0.07174917405972378 -0.065065722550352631 0.052022970966076533
leaf_weight=5.7960482537746421 36.405860438942909 36.303770214319229 46.084749698638916 5.4762130677700034 5.869446098804473 211.61593548953533 80.653378844261169 17.529363796114922 63.853681236505508 42.4340530782938 7.6662840247154227 57.028048858046532 7.9908117800950995 9.4349815845489484 7.4564051777124396 15.531902447342871 28.160848438739777 48.086591601371765 7.6150366067886344 5.4892953634262076 4.9793058037757865 14.165630623698233 9.229528144001959 66.751845046877861 60.56829708814621 16.52784238755703 11.060668647289274 20.708177700638771 12.724256932735441 35.76883901655674 92.902187392115593 42.321481689810753 26.269611239433289 184.883560359478 65.908254235982895 27.41681107878685 82.105914711952209 110.75949317216873 110.23812809586525 6.5166736692190161 42.352422222495079 45.523362174630165 139.32900220155716 21.434978872537613
leaf_count=24 146 153 187 22 25 849 327 74 257 171 31 232 32 39 30 64 114 194 31 22 20 57 37 272 245 68 45 83 51 148 378 171 107 791 281 110 331 447 466 27 180 193 565 90
internal_value=0 -0.0286972 -0.00698562 0.0433697 0.0104986 -0.0310317 0.0279333 0.0610529 -0.00383875 -0.0397551 -0.0524166 -0.0328828 -0.0191201 0.0381898 0.0104124 0.0176225 -0.00335586 0.00375027 0.0108418 0.0596031 0.0242282 -0.0371808 -0.0502013 0.0301943 0.0151518 0.0513333 0.0204434 -0.0227285 -0.00393264 0.0360765 -0.0605051 -0.0473906 -0.0613575 0.0697642 0.0632596 -0.0323846 -0.0554854 -0.0555905 0.065096 0.0671399 0.0709459 0.0665778 -0.0681144 0.0643933
internal_weight=0 1214.23 634.552 782.694 274.273 375.838 258.714 508.421 219.534 311.078 579.683 268.644 142.327 141.595 148.678 73.0535 92.0145 57.5216 64.7605 68.542 77.2074 202.756 105.501 72.2281 141.222 110.035 57.1454 97.2551 33.4324 52.2967 376.927 50.3123 369.26 366.826 181.942 63.8227 96.2715 203.662 176.146 54.7385 48.2219 63.0527 165.599 57.7387
internal_count=8187 4919 2576 3268 1120 1515 1061 2148 888 1252 2343 1081 574 586 602 297 371 233 263 289 314 815 425 294 572 459 232 390 134 216 1528 203 1497 1562 771 256 388 825 747 232 205 267 672 243
is_linear=0
shrinkage=0.05


Tree=6
num_leaves=53
num_cat=0
split_feature=14 10 5 7 7 14 1 7 10 0 7 8 5 7 7 8 7 8 7 8 5 5 14 6 8 7 9 27 7 10 0 28 1 0 12 10 8 1 2 0 14 15 28 13 0 14 8 27 0 10 21 0
split_gain=906.641 275.894 226.366 123.827 72.2243 64.4564 50.7174 47.3311 34.0551 28.3146 25.7426 21.3578 20.7637 20.3392 19.0573 26.5936 18.5974 17.6074 15.4502 23.464 14.3502 10.9419 10.6327 10.0871 9.29316 8.94396 8.05636 7.83502 7.77848 13.5211 7.7051 6.71438 6.23072 5.54655 5.54436 5.39135 4.50382 4.361 4.32809 4.06766 3.21777 5.19759 2.22057 1.87042 1.84985 1.71812 1.06349 1.17115 0.917172 0.79924 0.443348 0.15919
threshold=0.0056657678479712387 410.50000000000006 1.0000000180025095e-35 3.5000000000000004 3.5000000000000004 0.012579113924050636 141.50000000000003 2.5000000000000004 613.50000000000011 12.500000000000002 10.500000000000002 3.5000000000000004 1.0000000180025095e-35 8.5000000000000018 4.5000000000000009 15.500000000000002 4.5000000000000009 3.5000000000000004 8.5000000000000018 26.500000000000004 1.0000000180025095e-35 1.0000000180025095e-35 0.0068260180784642634 1.0000000180025095e-35 10.500000000000002 2.5000000000000004 1.5000000000000002 17.500000000000004 1.0000000180025095e-35 531.50000000000011 12.500000000000002 33392.000000000007 866.50000000000011 40.500000000000007 372.90025105439878 376.50000000000006 19.500000000000004 1035.5000000000002 1.0000000180025095e-35 7.5000000000000009 0.0011204485309256351 2.4127096621781248 58609.500000000007 12650516.500000002 27.500000000000004 0.0079052618422697177 2.5000000000000004 364.50000000000006 12.500000000000002 651.50000000000011 1.0000000180025095e-35 10.500000000000002
decision_type=2 2 2 2 2 2 2 2 2 2 2 2 2 2 2 2 2 2 2 2 2 2 2 2 2 2 2 2 2 2 2 2 2 2 2 2 2 2 2 2 2 2 2 2 2 2 2 2 2 2 2 2
left_child=1 2 7 17 6 13 33 11 12 -8 16 34 28 14 36 -16 -9 21 19 -6 24 45 25 32 -15 37 -27 -22 29 -3 -30 -23 -14 -4 -1 -13 -5 -19 40 -24 50 -42 -25 48 -20 -2 47 -40 -7 -48 -10 -41
right_child=3 8 4 5 18 43 9 10 38 -11 -12 35 23 20 15 -17 -18 22 44 -21 27 31 39 42 -26 26 -28 -29 30 -31 -32 -33 -34 -35 -36 -37 -38 -39 46 51 41 -43 -44 -45 -46 -47 49 -49 -50 -51 -52 -53
leaf_value=0.029756594436079239 0.022646606965413096 0.015190203151680112 0.041198924569050326 -0.00074507694755142546 -0.044063082657871844 0.038712404046897061 -0.061995913218443881 -0.025118072658695718 -0.06571875623741022 -0.0090361249155708513 -0.072242830123340318 0.056230437805731032 -0.040024358156925677 -0.040500421860510477 -0.0029694622698811083 0.049194709139541569 0.024703536349524019 0.068165048084939089 -0.055154787936986464 0.018033449014159875 0.014201440325187692 0.028440325915152893 0.030809005702850424 -0.02808671176495078 0.030919768599137021 -0.0050973573909803673 0.052511159284907516 -0.048294781860789303 -0.066433863961524522 -0.033319681306496346 -0.021228841476139182 -0.033582820965741632 -0.064328203484551497 -0.012682854418598222 -0.031847226037985073 0.021742813484065836 -0.05144143761772383 0.034608863923393691 -0.02005584232359512 0.0555058653106748 -0.03817227089180808 -0.063580294581046706 0.011831091356923017 0.032530487225899407 -0.075232965074578245 0.064655262461909113 -0.048795234433495857 -0.057655247436876014 0.072043916028102076 -0.067735352169258356 -0.052421428178963059 0.072424898752206229
leaf_weight=4.8573570996522895 4.6887429952621487 33.761050924658775 48.72691747546196 7.1988631784915951 106.87271283566952 5.8096259683370581 30.894750282168388 23.432125464081764 49.205614939332008 124.6140369027853 8.6569098830223066 143.54718677699566 64.010836288332939 5.4242467582225826 47.607206419110298 49.093883320689201 81.810750484466553 42.561074510216713 50.512483894824982 17.212646752595901 5.495552569627761 7.6844805926084545 8.1360256969928724 4.9854879975318891 15.744526386260985 12.816918551921846 10.397259607911108 32.281985238194466 11.446141883730887 23.670959576964378 47.604895353317261 8.0020744949579221 56.252952635288239 4.8815095126628867 9.299388721585272 13.94065088033676 10.406778857111929 16.534043416380882 5.3945655524730665 17.52859154343605 81.178474336862564 31.030263140797615 7.7328656613826752 6.4744368791580191 32.857785046100616 11.537815585732458 17.563037917017937 5.1339749693870544 41.546270683407784 138.73571039736271 45.792884975671768 288.82874554395676
leaf_count=20 20 136 200 29 430 25 124 94 202 500 35 608 259 22 192 201 332 182 207 69 22 32 34 20 64 52 43 131 46 95 191 33 228 20 38 57 42 69 22 76 329 126 31 27 135 50 71 21 180 569 188 1258
internal_value=0 -0.0242051 -0.00269803 0.0476298 -0.0261816 0.0176834 -0.00539832 0.0315363 -0.0483856 -0.019851 0.00646628 0.0480529 -0.0338633 0.00272742 0.0149983 0.0237211 0.013493 0.0634223 -0.0470185 -0.0353821 -0.0209367 0.02668 0.0663109 -0.0473335 0.0117221 0.0491333 0.0216923 -0.0390856 -0.0182424 -0.00500714 -0.0308489 -0.00330362 -0.0517821 0.0361653 -0.0101995 0.0533172 -0.0317469 0.0594303 -0.0579678 0.070655 -0.0523885 -0.0456444 -0.00463116 0.0649908 -0.0637802 0.0543282 -0.0645823 -0.0414597 0.0687457 -0.0658959 -0.0598559 0.0716207
internal_weight=0 1325.62 702.117 655.799 416.573 227.083 209.117 285.544 623.5 155.509 113.9 171.645 249.465 173.253 114.307 96.7011 105.243 428.716 207.456 124.085 58.9463 31.9131 396.803 132.982 21.1688 82.3093 23.2142 37.7775 116.483 57.432 59.051 15.6866 120.264 53.6084 14.1567 157.488 17.6056 59.0951 374.035 314.493 207.207 112.209 12.7184 53.8303 83.3703 16.2266 166.827 10.5285 47.3559 156.299 94.9985 306.357
internal_count=8187 5403 2869 2784 1685 935 844 1184 2534 624 461 723 1006 703 464 393 426 1849 841 499 239 135 1714 538 86 346 95 153 468 231 237 65 487 220 58 665 71 251 1528 1368 845 455 51 232 342 70 683 43 205 640 390 1334
is_linear=0
shrinkage=0.05


Tree=7
num_leaves=50
num_cat=0
split_feature=31 31 5 7 31 0 28 31 7 31 5 21 7 23 17 7 7 7 7 31 7 6 1 31 7 7 13 17 1 31 27 11 0 7 31 0 2 31 0 2 31 7 0 0 0 31 13 0 0
split_gain=828.158 206.118 169.003 157.666 76.2847 45.5315 41.0428 35.1657 33.1988 31.6712 29.0513 22.3175 22.011 21.076 17.774 17.0014 16.2199 14.4402 14.1213 13.0492 13.0267 12.0764 10.2315 8.90258 7.94935 12.2407 8.05682 7.43471 5.86526 5.72998 4.84978 4.82695 4.81952 4.5719 3.95343 6.90213 3.89911 3.76783 3.76535 4.21638 2.61911 2.50337 2.30121 2.27192 1.88699 0.923818 0.537354 0.202486 0.414474
threshold=0.40315355671026704 0.6912291703995701 1.0000000180025095e-35 3.5000000000000004 0.12376814191005198 41.500000000000007 26406.000000000004 0.28697814011825845 2.5000000000000004 0.81428059487547044 1.0000000180025095e-35 1.0000000180025095e-35 8.5000000000000018 1.0000000180025095e-35 1.0000000180025095e-35 8.5000000000000018 10.500000000000002 2.5000000000000004 4.5000000000000009 0.26178104282386677 3.5000000000000004 1.0000000180025095e-35 111.50000000000001 0.77123275398674085 7.5000000000000009 4.5000000000000009 10126035.500000002 1.0000000180025095e-35 36.500000000000007 0.50474825300125437 17.500000000000004 1483.0360896329107 24.500000000000004 1.0000000180025095e-35 0.13852804156961121 7.5000000000000009 1.0000000180025095e-35 0.7426312488801291 11.500000000000002 1.5000000000000002 0.91287403691094793 1.0000000180025095e-35 13.500000000000002 12.500000000000002 15.500000000000002 0.96295466762229009 12679629.500000002 42.500000000000007 51.500000000000007
decision_type=2 2 2 2 2 2 2 2 2 2 2 2 2 2 2 2 2 2 2 2 2 2 2 2 2 2 2 2 2 2 2 2 2 2 2 2 2 2 2 2 2 2 2 2 2 2 2 2 2
left_child=3 2 8 7 38 6 20 34 29 13 24 14 -8 21 22 19 18 44 -10 -12 -4 28 -9 27 25 -6 -26 -15 -3 43 -17 -11 -25 -31 -1 -36 40 -23 -5 46 -33 -37 -16 -2 -13 -38 -40 -7 -49
right_child=1 9 5 4 10 47 12 11 16 31 15 17 -14 23 42 30 -18 -19 -20 -21 -22 37 -24 32 26 -27 -28 -29 -30 33 -32 36 -34 -35 35 41 45 -39 39 -41 -42 -43 -44 -45 -46 -47 -48 48 -50
leaf_value=0.071480074016421133 0.025806977757135675 -0.02092458040477093 0.037299364876806559 0.01503517983730681 -0.02876015639307232 -0.048575917993323448 -0.020533747657272502 0.067856627899586797 -0.024265271935847706 -0.014200626184602215 0.014087590985565578 0.044755091781207637 -0.057570563171001267 0.024639446068056875 -0.047276211436667936 -0.0048159298656813504 -0.064406079475529746 -0.0096273696382827463 0.021828681299635024 -0.023875551372230852 -0.013035839526762108 -0.029590644722334643 0.01648206620423889 -0.044892346313820469 0.018474080065757976 0.050435688231083887 -0.031313869751631057 -0.016482094564822559 -0.049781720518141975 0.042420566384259582 -0.049231948586085338 -0.044721050938173704 -0.0015306464582426475 0.016959026939092049 0.004454926229032841 0.070311717668896309 -0.059402051232926238 0.014263190924932688 0.06945303935118663 0.021672425850567764 -0.057994935493838787 0.054771095673613296 -0.010779671102130737 0.061611856109288834 0.069301408884751892 -0.073905459298948373 0.038729752842328158 -0.084672039233443144 -0.061108717059401997
leaf_weight=180.21129141747952 6.9657398760318747 22.292657688260078 34.90717776119709 5.4116712510585776 5.2363573759794226 7.874396100640296 191.503547295928 13.53108601272106 20.956737726926804 7.5996762216091147 43.212662920355797 18.513584718108177 50.632050484418869 22.564653858542442 5.2033452540636089 7.4823800772428504 6.8489453047513953 7.4669197350740424 69.377965912222862 45.688978731632233 19.480429261922836 7.2327032536268261 32.208129465579987 18.369815424084667 28.436708763241768 28.719126835465431 10.363464057445524 19.847687989473343 137.1347978413105 62.121649920940399 39.78354549407959 108.6385220438242 9.6998908221721631 26.920330122113228 5.7490191459655753 62.179284796118736 128.08477391302586 11.472536489367483 44.199028596282005 6.9793173074722281 92.071256667375565 105.00714159011841 17.713607609272003 42.943441331386566 44.406512826681137 34.271112337708473 5.4592969268560401 21.097384914755821 19.812997117638588
leaf_count=804 30 90 144 23 21 32 770 58 84 31 175 80 210 91 21 30 28 30 282 184 79 29 132 74 116 119 42 80 557 264 163 443 39 110 24 276 529 46 194 30 382 458 72 185 193 143 23 86 81
internal_value=0 -0.0262831 -0.00488819 0.0402959 0.0096221 -0.027152 -0.0196598 0.0571353 0.0276486 -0.0463348 -0.00489519 0.0354647 -0.0284611 -0.0323244 0.0148894 -0.0184858 0.00515121 0.0550969 0.0110027 -0.00546604 0.0193509 -0.0414489 0.032687 -0.00903381 0.0204566 0.0377994 0.00477117 0.00545266 -0.0458854 0.0432503 -0.04242 -0.0556319 -0.0304164 0.0349671 0.0655568 0.0590494 -0.0564622 -0.00326838 0.0578796 0.0616769 -0.0510397 0.0608932 -0.0205262 0.0571552 0.0628051 -0.0628504 0.066818 -0.0715206 -0.0748069
internal_weight=0 1200.72 581.443 763.162 270.973 345.308 296.523 492.19 236.135 619.28 208.923 139.043 242.136 248.615 68.6562 136.168 97.1836 70.387 90.3347 88.9016 54.3876 178.133 45.7392 70.482 72.7557 33.9555 38.8002 42.4123 159.427 138.951 47.2659 370.665 28.0697 89.042 353.147 172.935 363.066 18.7052 62.0493 56.6376 200.71 167.186 22.917 49.9092 62.9201 162.356 49.6583 48.7848 40.9104
internal_count=8187 4919 2385 3268 1120 1402 1203 2148 983 2534 850 586 980 1006 283 552 394 303 366 359 223 722 190 284 298 140 158 171 647 589 193 1528 113 374 1562 758 1497 75 270 247 825 734 93 215 273 672 217 199 167
is_linear=0
shrinkage=0.05


Tree=8
num_leaves=55
num_cat=0
split_feature=31 31 7 5 14 7 28 21 31 14 0 5 9 5 31 1 7 8 28 8 8 7 8 5 8 7 8 8 8 14 12 2 1 14 8 15 11 14 7 5 11 8 21 14 2 1 15 7 8 14 3 0 13 0
split_gain=760.275 185.177 160.98 141.772 83.06 45.7842 43.6113 29.6878 28.4912 23.9264 23.8205 23.7448 20.89 20.8258 20.7485 18.1862 18.0873 19.2969 17.1753 14.2881 14 13.5772 13.558 12.4323 11.4358 11.3141 11.0375 10.854 12.2985 9.78705 8.89964 10.6637 7.83915 7.4771 5.91573 5.67199 5.496 6.40165 5.32716 5.14062 4.73656 4.41404 4.1806 3.49789 3.28382 5.12739 2.02866 1.82391 1.59836 1.53409 1.03101 1.01836 1.00867 0.218935
threshold=0.40315355671026704 0.71143164307471796 3.5000000000000004 1.0000000180025095e-35 0.0076629477392836176 1.0000000180025095e-35 26406.000000000004 1.0000000180025095e-35 0.24554291345636983 0.012579113924050636 39.500000000000007 1.0000000180025095e-35 2.5000000000000004 1.0000000180025095e-35 0.83334079913993919 974.50000000000011 7.5000000000000009 15.500000000000002 14511.000000000002 6.5000000000000009 14.500000000000002 2.5000000000000004 15.500000000000002 1.0000000180025095e-35 5.5000000000000009 8.5000000000000018 20.500000000000004 26.500000000000004 6.5000000000000009 0.002460028322097288 380.89476384684406 1.0000000180025095e-35 -1.0000000180025095e-35 0.0033277962347729793 3.5000000000000004 6.30722011961499 1507.8082316801003 0.001771480574907425 2.5000000000000004 1.0000000180025095e-35 1483.0360896329107 25.500000000000004 1.0000000180025095e-35 0.0021436251849537278 1.0000000180025095e-35 561.50000000000011 2.5963378238920041 9.5000000000000018 4.5000000000000009 0.016001024065540197 5.5000000000000009 11.500000000000002 7912331.0000000009 41.500000000000007
decision_type=2 2 2 2 2 2 2 2 2 2 2 2 2 2 2 2 2 2 2 2 2 2 2 2 2 2 2 2 2 2 2 2 2 2 2 2 2 2 2 2 2 2 2 2 2 2 2 2 2 2 2 2 2 2
left_child=2 3 8 5 13 33 25 10 34 16 -8 21 18 22 23 29 17 -6 -13 -18 -17 48 24 30 -4 32 -24 28 -15 -7 43 -32 -5 41 39 -29 37 -25 -9 -1 -16 -2 -38 -3 45 -42 -35 -46 -10 52 -14 -36 -11 -53
right_child=1 14 4 6 9 15 7 38 11 49 -12 12 50 27 40 20 19 -19 -20 -21 -22 -23 26 36 -26 -27 -28 35 -30 -31 31 -33 -34 46 51 -37 42 -39 -40 -41 44 -43 -44 -45 47 -47 -48 -49 -50 -51 -52 53 -54 -55
leaf_value=0.059288727307274997 0.026287526332660096 -0.035305234922960858 0.019204413107018842 0.062584910021332096 -0.026554095214706887 -0.041100959831046002 -0.02993696326783582 0.053555197076298848 0.040099265414134791 0.056441124938578148 -0.066673960698123244 0.052773863736313542 0.072956029957530616 -0.0064181557587908878 -0.012682912509214725 -0.042687097245064476 0.038024758175209478 0.061767511807702381 -0.0046225400255959287 -0.020745886782618093 0.0058444145848179025 -0.0063947410710011605 0.056734131156473772 -0.052333788242812131 -0.055689825708112178 -0.043385698549583303 -0.011636887748737832 0.031585497018226244 -0.050400609799743673 0.023541461990387272 0.022210193997941819 -0.030451069207289069 0.011612134943594804 0.069094432755618163 0.053201197703585903 -0.0286986891068166 -0.052016349638593522 0.0067546003542075482 0.00018361621837928064 0.0070519390318037932 -0.038057521207450269 0.070764141753285062 -0.017623196849947464 -0.0042364616414827449 -0.062924288787571878 -0.056678426669406534 0.044322960361879257 -0.038975946366276562 0.066372193698937612 0.069142092218301587 0.034834638190896862 0.069572455829946381 0.027334377673829641 0.042751121060471624
leaf_weight=9.7640304267406464 43.706240326166153 69.045028150081635 8.8438499718904513 8.2225740402936918 7.1930580437183371 5.4936620146036139 235.31685537099838 8.9769211858510989 11.806862130761145 10.317483708262445 54.743220463395119 16.149465665221214 15.428315415978433 22.026142477989197 7.5652199834585181 26.64127479493618 14.257176116108893 29.934875905513763 54.924168944358826 31.711308985948563 31.880244314670563 7.4107346534728995 16.310272753238682 6.8544123023748424 10.119807884097098 7.1979306638240805 8.5857497006654722 8.8711228072643262 58.995246946811676 82.871013447642326 20.42112722992897 16.62317918241024 47.810179769992828 35.089543730020523 28.261799916625023 5.6475750654935828 100.72758808732033 10.800988927483557 8.896355062723158 8.9279250204563141 73.784228190779686 6.1184108257293692 10.963814690709112 10.709038078784941 128.44652591645718 101.18088927865028 20.81127567589283 14.37596236169338 76.746414497494698 35.312006935477257 4.9519720673561087 250.04279592633247 8.2785937935113889 5.9473831057548514
leaf_count=44 185 279 36 34 29 22 956 36 52 46 225 69 66 89 31 108 58 125 224 129 130 30 68 28 41 30 35 36 240 340 82 67 196 155 126 23 414 44 36 38 306 26 44 43 540 421 91 60 343 159 21 1141 36 27
internal_value=0 -0.0246545 0.0391024 -0.00580045 0.00854753 0.0230456 -0.025441 -0.0331918 0.0562786 0.0360818 -0.0370534 0.0405959 0.0220421 -0.0185709 -0.0451922 0.00491072 0.0189199 0.0444349 0.00891135 -0.00214148 -0.016558 0.0579121 0.00981842 -0.0340007 -0.0214683 0.0122418 0.0335682 -0.0315739 -0.0386437 0.0191522 -0.0219072 -0.00158117 0.0199552 0.0479889 0.0658332 0.00783212 -0.0446963 -0.0175983 0.0282605 0.0357954 -0.053543 0.0328971 -0.0488065 -0.0312264 -0.0544775 -0.0490586 0.0607128 -0.0607705 0.0633038 0.0617977 0.0655414 0.0676904 0.0453266 0.0690998
internal_weight=0 1195.27 766.766 623.776 276.404 252.612 371.164 307.933 490.362 137.005 290.06 187.418 91.4539 139.4 571.498 146.886 83.0964 37.1279 71.0736 45.9685 58.5215 95.964 43.8597 246.145 18.9637 63.2307 24.896 95.5401 81.0214 88.3647 116.798 37.0443 56.0328 105.725 302.944 14.5187 129.347 17.6554 17.8733 18.692 325.353 49.8247 111.691 79.7541 317.788 174.965 55.9008 142.822 88.5533 53.9081 20.3803 284.252 18.5961 255.99
internal_count=8260 4929 3331 2570 1150 1057 1513 1253 2181 582 1181 805 380 568 2359 600 341 154 293 187 238 425 180 1001 77 260 103 388 329 362 471 149 230 457 1376 59 530 72 72 82 1358 211 458 322 1327 727 246 600 395 241 87 1294 82 1168
is_linear=0
shrinkage=0.05


Tree=9
num_leaves=51
num_cat=0
split_feature=14 7 14 14 5 14 5 5 28 7 0 7 7 0 14 0 7 7 7 31 7 7 0 31 7 3 3 11 1 9 3 22 12 28 11 13 27 31 5 0 3 2 1 7 15 13 0 0 0 27
split_gain=696.074 205.431 105.426 97.7864 80.4968 57.0818 45.3671 39.961 35.3046 26.6001 27.6545 26.1821 24.0564 23.2356 22.609 20.6813 16.5526 14.4626 18.0767 14.1319 13.1491 12.976 11.547 11.245 10.8669 8.72716 7.57571 6.53838 6.19742 5.47779 5.09123 4.72402 6.38985 3.88579 3.45383 3.37881 2.6911 2.50286 2.4839 9.12347 2.44675 2.04892 3.39271 3.20697 1.89185 1.53625 1.53411 1.4604 0.58895 0.215548
threshold=0.0038535788535788542 3.5000000000000004 0.0020898664407194207 0.0076629477392836176 1.0000000180025095e-35 0.0068260180784642634 1.0000000180025095e-35 1.0000000180025095e-35 52636.000000000007 8.5000000000000018 42.500000000000007 1.0000000180025095e-35 2.5000000000000004 11.500000000000002 0.012579113924050636 12.500000000000002 7.5000000000000009 8.5000000000000018 4.5000000000000009 0.84677925103028151 4.5000000000000009 10.500000000000002 33.500000000000007 0.67125067192259469 4.5000000000000009 5.5000000000000009 3.5000000000000004 1492.2068815331011 664.50000000000011 1.5000000000000002 1.5000000000000002 1.0000000180025095e-35 381.20317112446247 5264085.0000000009 1483.0360896329107 7262808.5000000009 147.50000000000003 0.11901988890879771 1.0000000180025095e-35 10.500000000000002 3.5000000000000004 1.0000000180025095e-35 561.50000000000011 9.5000000000000018 14.159754601226995 12650516.500000002 12.500000000000002 54.500000000000007 36.500000000000007 60.500000000000007
decision_type=2 2 2 2 2 2 2 2 2 2 2 2 2 2 2 2 2 2 2 2 2 2 2 2 2 2 2 2 2 2 2 2 2 2 2 2 2 2 2 2 2 2 2 2 2 2 2 2 2 2
left_child=2 5 19 7 11 6 12 21 25 10 13 23 40 -6 16 -10 20 18 -9 27 -5 24 26 36 -3 -8 -13 -1 -24 -14 -18 33 -33 -29 -21 -25 -4 -7 48 -40 -2 42 -36 -43 -11 46 -16 -19 -39 -12
right_child=1 3 4 14 9 37 8 17 15 44 49 22 29 -15 45 -17 30 47 -20 34 -22 -23 28 35 -26 -27 -28 31 -30 -31 -32 32 -34 -35 41 -37 -38 38 39 -41 -42 43 -44 -45 -46 -47 -48 -49 -50 -51
leaf_value=0.014804896876736296 0.050849170272044233 -0.043109259455419449 0.058589378327742449 -0.019866439959271051 -0.048855588755337701 0.068653352051391781 0.053253987443060424 -0.061009735466092035 -0.057337689251490312 -0.063209604326960322 -0.041074315825360828 -0.0068726373713378225 -0.039768444921728319 -0.0061844337204879328 0.028979157435220539 0.0036244870562014524 -0.027427182231119441 -0.056453077965379128 -0.010109424153026696 -0.015869712297560672 0.056194681937066872 -0.053109319699406445 0.00016278432847003147 -0.0093101132229001151 0.023297979513226194 -0.00059270114732748078 0.023564594810052228 -0.045370653563430265 -0.069150850063691663 0.020992134622138111 0.0085064738224985004 -0.034877635887362209 -0.0041400956932265949 -0.0014572429650296134 -0.038494980750607713 0.024548612077492954 0.033385827745306081 0.065849072803727135 -0.0074941847343198021 0.0544480058438701 0.0681114842871689 -0.061364285499072795 -0.054921582365635949 -0.030860224943382294 -0.028827382617912845 0.031012278296657442 0.067070609061421732 -0.02285411677577345 0.039083106393093751 -0.071774178840937827
leaf_weight=5.9481658786535254 71.168979927897453 5.9813166111707678 28.86802451312542 6.4698692411184302 38.897870734333992 149.63510160148144 41.405701994895935 21.687050834298134 16.556670740246773 49.188756585121155 5.0905108302831676 60.584672540426254 6.9850635826587659 162.73583492636681 4.8942358046770087 68.205414488911629 13.032412454485891 49.531195029616356 78.944668993353844 7.3030487298965445 30.308645024895668 6.3606308698654166 4.9287070780992499 13.516672506928446 64.545525059103966 9.1294701844453794 29.760369643568993 110.90959845483303 8.4143881946802122 6.2299370914697647 32.892486274242401 71.168085858225822 22.433279499411583 5.3383533805608741 66.149864092469215 14.41221149265766 24.620693653821945 83.707552224397659 6.2313198596239081 75.000347495079041 52.709771499037743 116.31304804980755 92.997499525547028 12.342885583639143 6.758142113685607 6.7541105747222892 41.167943611741066 5.2460784763097754 6.9021592289209357 22.284734517335892
leaf_count=24 320 24 126 26 158 701 175 89 67 209 21 246 28 660 22 277 53 207 317 30 128 26 20 55 266 38 121 456 34 25 134 291 91 22 277 59 108 388 27 342 238 497 392 52 28 29 190 22 32 92
internal_value=0 0.0304871 -0.0293475 0.00111192 -0.0122241 0.048652 0.0316445 -0.0185613 0.0109889 -0.0288654 -0.0211615 0.0134094 0.0518268 -0.0145951 0.0347351 -0.00875615 0.0180935 -0.0330862 -0.0215183 -0.0450533 0.0426609 0.0108399 -0.00327756 0.0344662 0.0171982 0.0436846 0.00328591 -0.0350278 -0.0451409 -0.0116077 -0.00201875 -0.036497 -0.0276194 -0.0433805 -0.0522569 0.00838098 0.0477258 0.0629352 0.0576274 0.0496666 0.0586284 -0.0531283 -0.0483463 -0.0586703 -0.0595737 0.0600606 0.0636503 -0.0536528 0.0642108 -0.0675409
internal_weight=0 961.684 980.965 367.816 470.062 593.867 272.391 232.296 135.297 284.956 229.009 185.106 137.094 201.634 135.52 84.7621 82.7034 155.409 100.632 510.904 36.7785 76.8875 103.688 81.4176 70.5268 50.5352 90.345 215.797 13.3431 13.215 45.9249 209.849 93.6014 116.248 295.106 27.9289 53.4887 321.476 171.841 81.2317 123.879 287.803 159.147 128.656 55.9469 52.8163 46.0622 54.7773 90.6097 27.3752
internal_count=8260 4191 4069 1533 1937 2658 1168 951 557 1168 931 769 611 818 582 344 341 635 406 2132 154 316 421 348 290 213 367 884 54 53 187 860 382 478 1248 114 234 1490 789 369 558 1218 669 549 237 241 212 229 420 113
is_linear=0
shrinkage=0.05


Tree=10
num_leaves=59
num_cat=0
split_feature=10 10 7 5 10 7 7 0 0 10 14 5 9 10 8 7 7 8 1 7 8 28 8 8 7 5 1 7 12 2 10 7 8 5 6 5 8 2 28 9 10 8 0 28 14 1 0 7 10 12 0 10 0 14 28 10 0 10
split_gain=639.37 155.41 140.627 117.199 69.3841 39.4618 39.3888 34.2383 36.9665 26.3589 21.4208 21.0292 19.3693 18.2413 17.8187 34.0776 35.4442 28.3587 15.9663 15.2044 17.681 15.0242 12.9571 12.4583 12.0444 11.1478 9.56777 8.08873 7.76223 9.20839 6.94925 6.86753 5.95361 5.7637 5.15753 4.94569 4.29052 3.60058 5.0845 3.49691 3.08847 2.80888 2.20756 4.2435 1.9218 1.90067 1.84842 1.82335 1.6535 1.29764 1.12373 0.821678 0.769343 0.607873 0.531078 0.465412 0.290242 0.272636
threshold=205.50000000000003 437.50000000000006 3.5000000000000004 1.0000000180025095e-35 130.50000000000003 1.0000000180025095e-35 8.5000000000000018 42.500000000000007 11.500000000000002 136.50000000000003 0.012579113924050636 1.0000000180025095e-35 2.5000000000000004 651.50000000000011 15.500000000000002 7.5000000000000009 4.5000000000000009 5.5000000000000009 974.50000000000011 7.5000000000000009 15.500000000000002 14511.000000000002 6.5000000000000009 14.500000000000002 2.5000000000000004 1.0000000180025095e-35 718.50000000000011 8.5000000000000018 380.89476384684406 1.0000000180025095e-35 300.50000000000006 9.5000000000000018 3.5000000000000004 1.0000000180025095e-35 1.0000000180025095e-35 1.0000000180025095e-35 25.500000000000004 1.0000000180025095e-35 709155.00000000012 3.5000000000000004 679.50000000000011 24.500000000000004 27.500000000000004 1075269.0000000002 0.001771480574907425 628.50000000000011 16.500000000000004 9.5000000000000018 62.500000000000007 373.25556249923608 11.500000000000002 1073.5000000000002 18.500000000000004 0.0012746977772000521 109293.00000000001 66.500000000000014 41.500000000000007 115.50000000000001
decision_type=2 2 2 2 2 2 2 2 2 2 2 2 2 2 2 2 2 2 2 2 2 2 2 2 2 2 2 2 2 2 2 2 2 2 2 2 2 2 2 2 2 2 2 2 2 2 2 2 2 2 2 2 2 2 2 2 2 2
left_child=2 3 9 5 10 30 7 8 -5 32 19 24 21 25 17 16 -16 27 26 20 -4 -13 -21 -20 46 28 -7 -6 41 -30 45 -19 35 -17 39 -1 -32 38 40 -27 -15 -3 43 -8 -36 -2 -11 53 -12 -40 57 -49 -14 -39 -9 -50 -52 -34
right_child=1 13 4 6 14 18 42 54 -10 11 48 12 52 37 15 33 -18 31 23 22 -22 -23 -24 -25 -26 34 -28 -29 29 -31 36 -33 50 -35 44 -37 -38 47 49 -41 -42 -43 -44 -45 -46 -47 -48 51 55 -51 56 -53 -54 -55 -56 -57 -58 -59
leaf_value=0.055933859711102533 0.065643439288258817 -0.031797394869663723 -0.026753588974425552 -0.046627807490046608 0.017966259542564662 0.010394587472218934 -0.054522735173253838 -0.038840834494331698 0.00020070321255790722 0.04698646166586145 0.065978272950963632 0.04944973967601507 0.039978001905122421 -0.0060006492467745785 -0.047611932543535976 -0.0032254329757440366 0.058255510182644979 -0.075530766831767349 -0.040349195813930316 0.036398636445101613 0.057957990732346566 -0.0047626436865030502 -0.019628882194929084 0.0054516458691417097 -0.0059685610462709461 -0.04115515260904605 0.055046667818310337 -0.038283002809007954 0.021327634525785906 -0.027670058776726809 0.023700202033217599 -0.028075936982482508 0.054802567263558533 -0.052790394610068951 -0.031477847799647553 0.0042967365247998761 0.067829704015677922 -0.061815826381402199 -0.041728484521106279 -0.072770327989255715 -0.037961691564294797 -0.0020647242745273457 -0.069779923695378665 -0.012995935005436844 0.0061644317117638594 0.041599698594395974 0.066565664366724453 -0.043204583913182416 0.022659743691903884 -0.05824131202323346 0.066348533548185706 -0.014285076361617631 0.072322771341591222 -0.048945583257144196 -0.067946976391890151 0.04770400050733134 0.039688451941962494 0.033338237819656551
leaf_weight=9.3288303315639496 33.213055536150932 70.136124595999718 7.1781976073980323 51.657261043787003 22.04588316380978 74.246036320924759 38.019337400794029 6.3474365174770382 212.78703130781651 31.558521628379822 33.713613465428352 15.725286930799482 7.1855565160512951 8.7634764164686185 9.9222697168588621 8.2138400822877902 29.587386325001717 27.412827730178833 26.657713517546654 14.206379070878027 29.211900502443314 54.802087754011154 31.721606537699699 31.802537307143211 7.3965667188167563 104.36379447579384 13.583501622080801 7.9714639484882346 20.424809813499451 16.538706034421921 43.032921016216278 12.507566913962362 19.305204793810848 20.740361973643303 4.9727185070514661 8.7818614840507507 5.9473215490579596 87.705797418951988 31.72962099313736 10.785969942808149 78.449554771184921 9.088521867990492 25.522105544805527 8.0975856930017454 7.4843748360872269 20.628415912389755 53.31717012822628 10.177524402737616 5.2403303980827358 57.570253238081932 237.63867907226086 4.7094952017068854 12.698603212833403 38.590099632740021 25.466063365340233 12.729202121496199 5.730201542377471 7.9172205924987784
leaf_count=44 153 285 29 210 89 306 163 26 863 145 159 69 31 36 41 34 122 111 108 58 125 224 129 130 30 435 56 33 82 67 185 52 90 86 20 38 26 382 135 45 331 37 111 34 30 93 250 43 24 246 1141 20 56 165 106 58 27 36
internal_value=0 -0.0226407 0.0365349 -0.0053044 0.00789716 0.021133 -0.0232136 -0.0150747 -0.00907283 0.0530378 0.0334348 0.0378368 0.0203961 -0.0416526 -0.0168843 0.00128867 0.0312045 -0.0344665 0.00437876 0.0172843 0.0410079 0.00779131 -0.00193545 -0.0157258 0.0545671 -0.0311472 0.0177841 0.00235527 -0.0197025 -0.0007309 0.0447277 -0.0616006 0.0625106 -0.0392459 -0.0413587 0.0322713 0.0301752 -0.0496045 -0.0441701 -0.0446528 -0.0348433 -0.0284474 -0.0562726 -0.0476159 -0.00996061 0.0572591 0.0598498 -0.0560791 0.0584291 -0.0528445 0.0644219 -0.0353799 0.0628513 -0.0582539 -0.0633567 0.0418168 0.065868 0.0498151
internal_weight=0 1178.5 743.789 617.008 272.403 249.112 367.897 296.258 264.444 471.386 134.001 182.684 90.4115 561.491 138.402 68.4639 39.5097 69.9377 146.29 82.3181 36.3901 70.5274 45.928 58.4603 92.2723 243.795 87.8295 30.0173 116.188 36.9635 102.822 39.9204 288.702 28.9542 127.607 18.1107 48.9802 317.696 176.513 115.15 87.213 79.2246 71.639 46.1169 12.4571 53.8415 84.8757 141.183 51.6831 89.2999 270.591 14.887 19.8842 126.296 31.8135 17.9695 243.369 27.2224
internal_count=8260 4929 3331 2570 1150 1057 1513 1205 1073 2181 582 805 380 2359 568 283 163 285 600 341 154 293 187 238 425 1001 362 122 471 149 457 163 1376 120 530 82 211 1358 748 480 367 322 308 197 50 246 395 610 241 381 1294 63 87 547 132 82 1168 126
is_linear=0
shrinkage=0.05


Tree=11
num_leaves=56
num_cat=0
split_feature=31 31 7 5 14 28 7 6 31 14 5 0 9 31 8 7 7 8 30 28 7 8 8 7 8 5 20 7 30 19 7 14 8 11 14 14 0 0 7 5 5 11 8 21 2 30 15 0 14 7 0 28 2 3 0
split_gain=586.364 142.477 131.676 106.812 63.7201 37.2682 36.6082 26.3325 25.5177 20.8045 19.8683 19.8352 18.0839 17.2355 16.7264 31.2917 31.6523 26.1514 14.4875 13.8448 13.5657 16.6972 11.8177 11.3537 11.3216 10.3275 8.90033 8.81946 8.81446 7.75388 6.98747 6.65529 5.75337 5.05867 5.97699 4.81232 5.20849 4.9536 4.7006 4.66708 4.51313 4.21659 4.09053 3.65606 2.96741 4.35032 2.06628 1.83375 1.6264 1.48738 1.14426 1.18067 1.14321 1.0141 0.29391
threshold=0.40315355671026704 0.71143164307471796 3.5000000000000004 1.0000000180025095e-35 0.0076046726810085593 26406.000000000004 1.0000000180025095e-35 1.0000000180025095e-35 0.24554291345636983 0.012579113924050636 1.0000000180025095e-35 39.500000000000007 2.5000000000000004 0.83334079913993919 15.500000000000002 7.5000000000000009 4.5000000000000009 5.5000000000000009 0.63010661171833016 14511.000000000002 7.5000000000000009 12.500000000000002 6.5000000000000009 2.5000000000000004 11.500000000000002 1.0000000180025095e-35 1.0000000180025095e-35 8.5000000000000018 0.5619288657946605 1.0000000180025095e-35 9.5000000000000018 0.0033277962347729793 3.5000000000000004 1507.8082316801003 0.001771480574907425 0.0020898664407194207 17.500000000000004 26.500000000000004 2.5000000000000004 1.0000000180025095e-35 1.0000000180025095e-35 1483.0360896329107 25.500000000000004 1.0000000180025095e-35 1.0000000180025095e-35 0.50582332915248174 2.5963378238920041 16.500000000000004 0.016001024065540197 9.5000000000000018 11.500000000000002 6953.0000000000009 1.0000000180025095e-35 5.5000000000000009 41.500000000000007
decision_type=2 2 2 2 2 2 2 2 2 2 2 2 2 2 2 2 2 2 2 2 2 2 2 2 2 2 2 2 2 2 2 2 2 2 2 2 2 2 2 2 2 2 2 2 2 2 2 2 2 2 2 2 2 2 2
left_child=2 3 8 6 14 27 31 11 32 20 23 -7 19 25 17 16 -16 26 28 -12 21 -6 -22 47 -20 35 -4 29 -8 -5 -19 42 39 34 -27 36 -3 -37 -9 -1 -17 -15 -2 -35 45 -43 -33 -10 52 -46 51 -34 -11 -14 -52
right_child=1 13 4 5 9 7 18 38 10 48 12 -13 53 41 15 40 -18 30 24 -21 22 -23 -24 -25 -26 33 -28 -29 -30 -31 -32 46 50 43 -36 37 -38 -39 -40 -41 -42 44 -44 -45 49 -47 -48 -49 -50 -51 54 -53 -54 -55 -56
leaf_value=0.054512599733564496 0.022678999857784848 -0.036745464921985216 -0.023330280964101443 0.032818230920793161 -0.035083560635949494 -0.02665229628926476 0.0098956382133399187 0.052249055870234165 0.045479922023343625 0.048916891433919668 0.047795542841991841 -0.060641316856420491 0.06839623229381496 -0.0093991341474036448 -0.047601242068718248 -0.0052685607899769218 0.055629217043530632 -0.07488007798883399 -0.044306853658742769 -0.0045261982468063483 0.034822505370582214 0.052033267647663486 -0.018631478487067518 -0.0057002832228441394 0.0012570009105666261 -0.047760689422213454 0.029941533229647235 -0.037416690322530637 0.052902162414871126 -0.0058859059805076268 -0.02686457882862181 0.064159111871301716 0.062264209462106895 -0.046730921108589535 0.0095942142362089936 0.014357261763748999 -0.01267088037228385 -0.03596638748271884 0.0018304417293393358 0.0041061680671364833 -0.050013416755594023 -0.033406316239058723 0.066066924815027545 -0.014743559088297206 -0.056773855919461651 -0.05072189954778094 0.03940470035715337 0.064998750372439268 0.064443335245677788 -0.034895832560317273 0.06487304546578164 0.035535909766194439 0.017468088647358736 0.031422819973982496 0.038504973293787492
leaf_weight=9.1219678521156311 42.769092693924904 42.063675567507744 15.909533798694611 36.357854098081589 5.9427209943532935 232.67327517271042 74.137898698449135 8.9576938301324862 31.017139777541161 12.212091788649561 15.492866709828375 52.969570130109787 14.701405987143518 7.4653108417987815 9.1140488684177381 7.9835964292287853 29.083039030432701 26.323343455791473 20.26438096165657 54.827561855316162 14.148735001683233 32.254151806235313 32.205500066280365 7.3993256390094748 38.210247322916985 6.7094891667366054 13.812644243240356 6.9175181388854972 13.466532737016676 19.46211564540863 12.459409117698668 32.851693525910378 11.149474978446962 98.181548684835434 10.703599005937575 17.919719025492672 50.202525168657303 5.7174395471811286 8.8383626937866193 8.7715985476970673 20.324565038084984 72.064722701907158 5.8275251984596244 10.954545035958288 122.51290559768677 97.481359794735909 19.886047661304474 51.929120659828186 32.83436644077301 14.038680687546728 231.07840004563332 15.579295232892035 5.5028589665889731 4.8234370350837699 5.6407040953636161
leaf_count=44 185 172 65 150 24 956 306 36 145 57 69 225 66 31 38 33 121 107 82 224 58 139 131 30 156 28 56 30 56 80 52 155 53 414 44 72 204 23 36 38 85 306 26 44 540 421 91 250 159 60 1141 73 25 21 27
internal_value=0 -0.0216993 0.0353404 -0.0050722 0.00757634 -0.0221985 0.0202637 -0.0294378 0.0515433 0.0317525 0.0365259 -0.0331243 0.0195839 -0.0400106 -0.0166656 0.00123652 0.030474 -0.0338378 0.00417658 0.00745526 0.0162916 0.0379885 -0.00196648 0.0530181 -0.0149614 -0.0297917 0.00157745 0.0127375 0.0169729 0.0194433 -0.0604048 0.0432156 0.0610158 -0.039675 -0.0137551 -0.0187802 -0.023893 0.00132002 0.0284906 0.0311704 -0.0379404 -0.0478052 0.0289783 -0.0436657 -0.0487118 -0.0435752 0.055635 0.058261 0.0568827 -0.0547655 0.062931 0.048335 0.0404528 0.0610332 0.0643916
internal_weight=0 1169.61 731.643 613.59 270.111 366.176 247.413 303.439 461.532 135.1 180.191 285.643 89.8453 556.016 135.01 66.5052 38.1971 68.5049 146.079 70.3204 84.5511 38.1969 46.3542 90.3456 58.4746 242.453 29.7222 62.7375 87.6044 55.82 38.7828 101.334 281.341 126.549 17.4131 115.903 92.2662 23.6372 17.7961 17.8936 28.3082 313.563 48.5966 109.136 306.098 169.546 52.7377 82.9463 50.5493 136.552 263.448 26.7288 17.715 19.5248 236.719
internal_count=8260 4929 3331 2570 1150 1513 1057 1253 2181 593 805 1181 380 2359 557 277 159 280 600 293 352 163 189 425 238 1001 121 260 362 230 159 457 1376 530 72 471 376 95 72 82 118 1358 211 458 1327 727 246 395 241 600 1294 126 82 87 1168
is_linear=0
shrinkage=0.05


Tree=12
num_leaves=54
num_cat=0
split_feature=10 10 5 7 1 7 8 10 10 7 10 6 7 8 7 8 7 5 5 8 8 8 1 7 8 9 7 8 12 2 27 5 7 8 14 27 5 28 14 10 10 11 7 27 8 13 2 20 14 7 7 12 14
split_gain=540.105 154.922 98.4533 95.4175 46.3312 41.1959 38.8989 36.228 29.2231 27.535 25.2477 23.388 19.0219 23.6711 18.649 17.0887 16.5808 16.3439 15.9815 15.2635 14.7062 33.5363 12.2181 12.1578 10.1187 9.71559 8.52053 7.50904 7.15328 6.77708 6.5379 6.274 6.24189 7.29669 5.70257 5.59057 5.4544 4.89725 4.13773 3.97118 3.7563 3.54779 3.70808 3.38699 2.87095 2.29291 2.14734 1.93904 3.90447 0.921426 11.191 0.583245 0.385903
threshold=177.50000000000003 395.50000000000006 1.0000000180025095e-35 7.5000000000000009 61.500000000000007 2.5000000000000004 6.5000000000000009 123.50000000000001 651.50000000000011 8.5000000000000018 62.500000000000007 1.0000000180025095e-35 3.5000000000000004 15.500000000000002 8.5000000000000018 20.500000000000004 9.5000000000000018 1.0000000180025095e-35 1.0000000180025095e-35 3.5000000000000004 14.500000000000002 19.500000000000004 1059.5000000000002 3.5000000000000004 4.5000000000000009 1.5000000000000002 1.0000000180025095e-35 3.5000000000000004 372.90025105439878 1.0000000180025095e-35 227.50000000000003 1.0000000180025095e-35 8.5000000000000018 28.500000000000004 0.0022701504844361993 1.5000000000000002 1.0000000180025095e-35 320307.00000000006 0.0085838491010904825 143.50000000000003 93.500000000000014 1483.0360896329107 9.5000000000000018 49.500000000000007 19.500000000000004 8897355.0000000019 1.0000000180025095e-35 1.0000000180025095e-35 0.0080322580645161307 3.5000000000000004 4.5000000000000009 373.17250014747282 0.001746726223166014
decision_type=2 2 2 2 2 2 2 2 2 2 2 2 2 2 2 2 2 2 2 2 2 2 2 2 2 2 2 2 2 2 2 2 2 2 2 2 2 2 2 2 2 2 2 2 2 2 2 2 2 2 2 2 2
left_child=3 2 5 7 23 19 14 27 17 11 -8 -6 24 39 47 -15 25 29 -18 28 22 -22 -7 43 26 -12 -9 36 -2 34 -31 -26 33 -19 -3 -25 -1 -21 -16 -14 -38 -10 46 -4 -44 -11 -43 48 -5 51 -51 -29 -34
right_child=1 8 4 6 9 20 10 12 41 45 16 -13 13 15 38 -17 18 32 -20 37 21 -23 -24 35 31 -27 -28 49 -30 30 -32 -33 52 -35 -36 -37 40 -39 -40 -41 -42 42 44 -45 -46 -47 -48 -49 -50 50 -52 -53 -54
leaf_value=0.051489221708247018 0.036892957350531705 -0.0090544877582906733 0.030998284058954863 0.011778426284715898 -0.021462239802814705 -0.003409243389296897 0.057031339930421934 0.054321577499482035 -0.0078894645097490335 -0.061805426505428786 -0.075523803551189858 0.032619302504504386 -0.010029578107912874 0.061958031020660644 -0.04252110004265125 -0.010605494007340696 0.027234189386612175 -0.033728230443404214 -0.036927665799245807 0.0495897442995136 0.047515094978672616 -0.028551262176495812 -0.055818017157965132 -0.033153847811658178 0.056556863695238005 -0.0097269509257763322 -0.013254744789661472 0.057741806653041121 -0.030761061025269345 -0.0090715021639844028 -0.040732790418330035 0.033193705107761221 -0.031748803467069125 0.017990080835603276 0.025831156797379864 0.021814012942495388 0.029094243071712697 0.025174651679361022 0.014464466567064904 -0.062778379023157027 -0.029185758429787108 -0.045045077969167235 -0.019768079596806015 0.067658972786289059 -0.054383209628872144 -0.038715324759418072 -0.055614190505044819 0.070847120011600012 0.06281127257624193 -0.01242842688804572 0.060239318163489423 0.067499711064233289 -0.060402825893553419
leaf_weight=10.211574360728264 5.1318091601133338 64.103929221630096 26.905629679560661 7.4431757926940918 247.94214750826359 32.824858382344246 8.0554121136665326 5.7955408990383175 6.0103134363889685 39.353364139795303 22.667033284902576 20.951623141765594 5.9253681600093833 16.749569550156597 6.053176671266554 14.60679270327091 15.918266862630842 129.98768924176693 22.193086847662926 106.61787757277489 33.546198636293411 24.235353425145149 16.026532098650932 9.4560310542583483 65.809641614556313 7.7451903223991385 14.644138261675833 87.568454772233963 10.314013391733168 34.206067994236946 31.463904112577438 61.032735392451286 4.6919776499271419 6.6608643978834143 13.406775414943693 7.5466717928647986 4.5756020098924637 29.160996899008751 5.2486259043216705 9.8645094782114011 4.7021964341402054 150.71868953108788 23.135425880551342 9.2505336403846723 8.3006055206060392 24.31206850707531 122.07520037889481 15.080045372247696 7.8513304144144058 5.6438370645046225 47.259711116552353 133.66468547284603 25.11429962515831
leaf_count=50 22 260 114 30 1012 134 40 28 25 173 93 85 24 72 25 61 66 544 93 494 139 99 65 39 320 32 64 444 43 140 129 271 20 28 55 31 20 130 22 40 20 654 100 40 36 107 548 64 36 24 220 676 109
internal_value=0 -0.0185523 -0.0013611 0.038821 -0.017336 0.0225124 -0.00147105 0.0485687 -0.0363732 -0.0242649 -0.0225588 -0.0171545 0.0315905 0.00385164 0.036938 0.0287969 -0.0325275 -0.0253827 -0.0101187 0.0392164 -0.00130547 0.0156615 -0.0212951 0.0256959 0.0403934 -0.0595213 0.00737554 0.0596813 -0.0074967 -0.0128788 -0.0245835 0.0456253 -0.0360124 -0.031107 -0.00279533 -0.008885 0.0278444 0.0445446 -0.016934 -0.0445775 -0.000412524 -0.0472382 -0.0479902 0.0417803 -0.0301558 -0.0536443 -0.0499405 0.0568941 0.0399924 0.0618472 0.0524095 0.0638846 -0.0569452
internal_weight=0 1263.45 643.576 606.31 385.718 257.858 118.255 488.054 619.876 332.559 76.579 268.894 194.428 47.1462 41.6764 31.3564 68.5236 309.636 38.1114 151.225 106.633 57.7816 48.8514 53.1589 147.282 30.4122 20.4397 293.626 15.4458 143.181 65.67 126.842 166.455 136.649 77.5107 17.0027 19.4894 135.779 11.3018 15.7899 9.2778 310.24 304.23 36.1562 31.436 63.6654 272.794 30.3746 15.2945 274.137 52.9035 221.233 29.8063
internal_count=8210 5375 2727 2835 1601 1126 501 2334 2648 1377 324 1097 880 197 177 133 284 1285 159 689 437 238 199 224 683 125 92 1454 65 584 269 591 701 572 315 70 90 624 47 64 40 1363 1338 154 136 280 1202 130 66 1364 244 1120 129
is_linear=0
shrinkage=0.05


Tree=13
num_leaves=52
num_cat=0
split_feature=10 10 7 7 21 8 10 0 10 8 7 10 8 28 7 8 9 7 8 7 8 7 8 29 9 0 8 12 7 8 0 14 28 14 3 0 7 10 10 15 14 8 0 3 21 20 14 21 8 8 13
split_gain=496.209 141.77 88.9527 86.4819 43.403 35.5969 35.0452 33.1504 27.5432 25.5816 68.4899 23.2571 22.6588 17.9303 17.6415 21.6486 17.4401 17.2505 15.784 15.0128 14.0495 11.1844 9.40754 8.91756 8.84643 8.83965 8.60349 8.27956 7.93036 7.25227 7.1627 6.68878 6.19864 5.14984 4.61861 4.01707 4.0861 3.79474 3.5896 3.17425 4.52295 3.16455 2.77174 2.02164 1.87514 1.7816 3.70623 1.5849 0.878452 0.933829 0.727189
threshold=177.50000000000003 395.50000000000006 7.5000000000000009 2.5000000000000004 1.0000000180025095e-35 6.5000000000000009 123.50000000000001 41.500000000000007 651.50000000000011 15.500000000000002 7.5000000000000009 62.500000000000007 1.5000000000000002 26406.000000000004 3.5000000000000004 15.500000000000002 2.5000000000000004 8.5000000000000018 20.500000000000004 9.5000000000000018 3.5000000000000004 2.5000000000000004 4.5000000000000009 1.0000000180025095e-35 1.5000000000000002 40.500000000000007 3.5000000000000004 372.90025105439878 1.0000000180025095e-35 3.5000000000000004 6.5000000000000009 0.0022701504844361993 320307.00000000006 0.0098524558338186786 3.5000000000000004 9.5000000000000018 9.5000000000000018 115.50000000000001 703.50000000000011 0.086253995931415306 0.0021436251849537278 12.500000000000002 41.500000000000007 7.5000000000000009 1.0000000180025095e-35 1.0000000180025095e-35 0.0080322580645161307 1.0000000180025095e-35 5.5000000000000009 25.500000000000004 12879643.500000002
decision_type=2 2 2 2 2 2 2 2 2 2 2 2 2 2 2 2 2 2 2 2 2 2 2 2 2 2 2 2 2 2 2 2 2 2 2 2 2 2 2 2 2 2 2 2 2 2 2 2 2 2 2
left_child=2 3 6 4 12 17 29 9 21 16 -11 -7 -2 -14 22 34 -5 45 -17 24 27 26 28 -21 -13 -24 44 -6 -8 33 -31 -28 -22 -1 -16 50 43 -19 -38 40 -23 -41 -32 -37 -3 46 -4 -35 -9 -50 -10
right_child=1 8 5 7 20 11 14 48 35 10 -12 19 13 -15 15 18 -18 37 -20 23 32 39 25 -25 -26 -27 31 -29 -30 30 42 -33 -34 47 -36 36 38 -39 -40 41 -42 -43 -44 -45 -46 -47 -48 -49 49 -51 -52
leaf_value=-0.0091990012607955172 -0.069802792296122337 -0.068346182618493248 0.011261183509534018 -0.030542806607762603 0.039597281765126426 0.055768534950397131 0.053023834990747969 -0.032104297073445386 -0.070269502646123236 0.027570430363482473 -0.041785934444289602 -0.072084536370370711 0.040819050088606847 -0.0047351734185584341 -0.0643399075185518 0.059854547337888524 0.024905548192473204 0.013864096232576815 -0.010103222973076571 0.020483458178824555 0.049945984589783471 -0.02784437515709063 0.046997136285124495 -0.028294974480987806 -0.0092876640826143279 -0.015224560448011888 -0.016293612076638441 -0.031732016061291092 -0.012590932692132293 -0.0020612261457165128 0.062396959977305759 0.010462035736261947 0.021796925410297568 0.022081826365822722 -0.009146592862777532 -0.047017832021716111 0.013517745977600901 -0.040752987886918619 -0.032084292138835256 -0.046382123623072917 0.024423583652121054 -0.029587181497497173 0.0244085712808992 -0.027701649542466927 -0.027415112264367547 0.068459315806023213 0.061167483252836302 0.06110172156828364 -0.064644513905977682 -0.031042719513680941 -0.034486942688299597
leaf_weight=6.3525512218475368 10.033338546752928 7.1583320051431638 7.4369091242551804 148.87822353839874 5.5764112323522559 7.8513083755969992 5.6656446009874371 6.3163660913705817 21.609879866242412 99.446899086236954 54.278058588504791 22.604985922575001 26.778315246105194 97.837348625063896 9.0654510557651502 16.508747726678852 14.999494373798369 5.2409204393625242 14.61052383482456 14.426486805081366 100.52713297307491 14.589295566082003 119.15542489290237 23.466937229037285 7.7480349093675605 5.5940871983766547 114.1231045871973 10.112304285168646 14.691148206591604 4.443490505218505 255.70370444655418 28.652478501200676 26.783086344599724 6.5174712389707548 6.6667235344648352 231.08868592977524 4.6686489135026958 6.0390355139970779 24.725656881928444 54.23320035636425 4.8769005686044684 77.096019804477692 6.4464463591575614 19.217208072543144 7.3609111458063126 14.862317085266113 7.6873346865177155 6.3878513872623444 32.768089115619659 4.9083247035741797 4.44302874803543
leaf_count=29 41 30 30 617 24 40 28 27 97 409 232 93 117 406 37 72 62 22 61 60 468 61 566 99 32 25 470 42 64 20 1313 118 119 29 27 1032 20 25 108 230 20 326 31 86 30 64 36 32 142 21 20
internal_value=0 -0.0177848 0.0376269 -0.00129647 0.0196561 -0.00137202 0.0471909 -0.0173935 -0.0349286 -0.0116723 0.00298197 -0.0215856 -0.000742407 0.00527425 0.0304368 0.00366762 -0.0253604 0.0355711 0.0276427 -0.031089 0.038749 -0.0242594 0.0390047 -0.00968046 -0.0567771 0.0441187 -0.0148011 -0.0056128 0.00712924 0.0583122 0.0604851 -0.0108926 0.0442168 0.0268865 -0.0426958 -0.0455776 -0.0435187 -0.0162199 -0.0246567 -0.0339805 -0.0142535 -0.0367887 0.0615487 -0.0456384 -0.0503814 0.054959 0.0386203 0.0440959 -0.057645 -0.0610857 -0.0655101
internal_weight=0 1253.09 595.174 639.243 277.648 117.364 477.809 361.595 613.843 317.603 153.725 76.0978 134.649 124.616 191.958 46.8514 163.878 41.2665 31.1193 68.2464 142.999 308.09 145.106 37.8934 30.353 124.75 157.295 15.6887 20.3568 285.852 266.594 142.776 127.31 19.2579 15.7322 305.753 279.7 11.28 29.3943 150.795 19.4662 131.329 262.15 250.306 14.5192 29.9866 15.1242 12.9053 43.9928 37.6764 26.0529
internal_count=8210 5375 2835 2727 1217 501 2334 1510 2648 1320 641 324 564 523 880 197 679 177 133 284 653 1285 683 159 125 591 648 66 92 1454 1364 588 587 90 64 1363 1246 47 128 637 81 556 1344 1118 60 130 66 61 190 163 117
is_linear=0
shrinkage=0.05


Tree=14
num_leaves=57
num_cat=0
split_feature=10 10 5 7 1 7 10 8 10 7 0 7 5 7 23 7 17 8 8 8 1 0 7 5 6 6 8 0 10 12 8 13 17 10 5 10 10 13 0 0 7 5 0 11 10 8 20 28 0 0 13 0 1 11 13 8
split_gain=455.905 129.762 84.4517 82.9013 39.9555 34.2741 33.9304 32.7365 25.9756 24.3348 25.9737 22.0021 20.6397 18.5063 17.0571 16.6879 20.4393 13.2585 12.5019 30.6503 11.1709 10.4287 10.4219 10.2596 9.27472 7.90032 7.01679 6.85271 6.79781 5.97475 5.85903 5.75425 5.50291 5.11489 5.0309 4.97533 4.78886 4.55108 3.89733 3.87129 3.84201 4.00915 3.69729 3.58073 3.34906 3.26839 3.06914 4.05039 2.70479 2.40154 2.29642 2.25503 1.47561 1.27787 0.697634 0.047347
threshold=177.50000000000003 395.50000000000006 1.0000000180025095e-35 7.5000000000000009 61.500000000000007 2.5000000000000004 123.50000000000001 8.5000000000000018 651.50000000000011 8.5000000000000018 11.500000000000002 9.5000000000000018 1.0000000180025095e-35 8.5000000000000018 1.0000000180025095e-35 1.0000000180025095e-35 1.0000000180025095e-35 3.5000000000000004 14.500000000000002 19.500000000000004 1059.5000000000002 10.500000000000002 3.5000000000000004 1.0000000180025095e-35 1.0000000180025095e-35 1.0000000180025095e-35 3.5000000000000004 6.5000000000000009 520.50000000000011 372.90025105439878 12.500000000000002 11202491.000000002 1.0000000180025095e-35 380.50000000000006 1.0000000180025095e-35 109.50000000000001 153.50000000000003 10172726.500000002 9.5000000000000018 31.500000000000004 9.5000000000000018 1.0000000180025095e-35 11.500000000000002 1483.0360896329107 93.500000000000014 21.500000000000004 1.0000000180025095e-35 86719.000000000015 41.500000000000007 26.500000000000004 8897355.0000000019 26.500000000000004 1240.5000000000002 1587.9126041987288 12879643.500000002 22.500000000000004
decision_type=2 2 2 2 2 2 2 2 2 2 2 2 2 2 2 2 2 2 2 2 2 2 2 2 2 2 2 2 2 2 2 2 2 2 2 2 2 2 2 2 2 2 2 2 2 2 2 2 2 2 2 2 2 2 2 2
left_child=3 2 5 6 22 17 26 13 14 10 -6 42 37 46 24 23 21 29 20 -20 -7 -17 51 55 30 -18 34 -28 32 -2 -3 -30 -16 -19 -1 -15 -25 -13 54 -26 43 -42 -9 -40 -36 -14 47 -5 -29 -24 -11 -4 -37 -44 -10 -8
right_child=1 8 4 7 9 18 15 11 38 50 -12 12 45 35 28 16 25 33 19 -21 -22 -23 49 36 39 -27 27 48 31 -31 -32 -33 -34 -35 44 52 -38 -39 40 -41 41 -43 53 -45 -46 -47 -48 -49 -50 -51 -52 -53 -54 -55 -56 -57
leaf_value=0.049285146955943326 0.034198937027923225 -0.044254492053513936 0.048106820320390951 0.04494554604984493 -0.04806461776812454 -0.0019550725201127588 0.064807855463771116 -0.016778350054196593 -0.068495610015908301 -0.058813733451152095 -0.0083422500746046964 0.051326186292219661 -0.045745297373685725 0.022708547444774876 0.025875791062484582 -0.020743716622193323 -0.012354693785948744 0.043899199284020862 0.045794059716539472 -0.027015718252181398 -0.052066815149644743 0.040489445782655314 0.0070155088668206831 0.039316206342880723 -0.012036626833203164 0.048790066763913911 -0.0019742839236633332 0.061104629622070077 -0.007778655913872317 -0.027874605921770424 -0.026287925030984954 -0.05003905659246044 -0.0091526777498158983 -0.0028070085595157134 0.027243568010917485 -0.051770417432672945 -0.021095070551380938 -0.004305806762180924 -0.0018018562563331853 0.033416300087830343 -0.0093673552198473148 -0.047936732017490574 -0.076606660535209523 -0.044901208773648893 -0.027898624862360479 0.00056258597262612861 0.063000755183619417 -0.0054531966573706245 0.023528597607211849 -0.029824172044270594 -0.035793295359526543 0.019234368009366662 -0.013122471791269512 -0.038700007349716133 -0.033382084486806157 0.045039874321201892
leaf_weight=9.8241455107927322 5.0371478199958792 83.207647606730461 23.750751912593842 13.305233612656595 50.023502856492996 32.893356561660767 37.003502994775772 5.0938306450843838 21.097147002816204 38.111963048577309 217.68334971368313 13.495426863431932 14.945913851261141 4.8499109894037238 22.962496101856232 7.1398215740919104 45.941704839468002 125.65880259871483 33.268961921334267 24.279000222682953 15.967311650514601 72.446972504258156 10.407921120524408 5.3595618456602079 16.845934465527538 5.0721644759178153 4.4463947117328635 248.26423747837543 33.699817568063736 10.394679903984068 114.02740776538849 9.8847894519567472 20.495188117027283 6.0376558899879447 4.5049006193876266 5.3096351921558362 6.0767552703619003 4.7626865506172171 4.9945391416549674 5.4743950664997092 19.168328106403351 10.008739188313486 15.367767781019213 241.59664280712605 4.7321061193943024 4.9892223775386801 17.338691920042038 5.2956918478012076 6.3880200237035742 6.4850789308547965 23.703669995069504 11.783585011959074 5.4562682509422302 6.2320114076137534 4.3914088159799567 10.463459596037863
leaf_count=50 22 354 103 60 206 134 192 21 97 173 891 60 64 21 94 31 198 598 139 99 65 331 43 25 68 23 20 1313 139 43 483 41 84 26 20 22 26 20 21 22 84 44 64 1097 20 21 77 22 31 27 107 51 23 26 20 54
internal_value=0 -0.0170495 -0.00124406 0.0364702 -0.0160807 0.0210852 0.0458534 -0.00127728 -0.0335474 -0.022532 -0.0158996 -0.0247615 -0.00018162 0.028198 -0.0231889 0.0293142 0.0191281 0.0366448 -0.000554414 0.0151327 -0.0189707 0.0348272 0.0241665 0.0512769 -0.0305902 -0.00554168 0.0569915 0.0591765 -0.00439891 -0.00685183 -0.0340325 -0.018174 0.00950402 0.0417535 0.0259739 -0.0165959 0.00801212 0.0372895 -0.0439901 -3.33732e-05 -0.0419615 -0.023627 -0.0587879 -0.0440379 -0.00097484 -0.0346277 0.0475917 0.0310038 0.0602474 -0.00791301 -0.0506207 0.0392375 -0.0346847 -0.0676372 -0.0637785 0.0613609
internal_weight=0 1243.34 635.487 584.106 381.95 253.537 467.664 116.442 607.854 329.522 267.707 64.8869 38.1932 51.5554 306.598 189.504 130.601 147.128 106.409 57.548 48.8607 79.5868 52.4273 58.9033 219.555 51.0139 278.16 259.099 87.0423 15.4318 197.235 43.5846 43.4577 131.696 19.0612 15.6158 11.4363 18.2581 301.257 22.3203 275.768 29.1771 26.6936 246.591 9.23701 19.9351 35.9396 18.6009 254.652 16.893 61.8156 35.5343 10.7659 21.5998 25.4886 47.467
internal_count=8210 5375 2727 2835 1601 1126 2334 501 2648 1377 1097 276 165 225 1285 880 583 689 437 238 199 362 224 297 927 221 1454 1364 358 65 837 180 178 624 90 66 51 80 1363 90 1246 128 111 1118 40 85 159 82 1344 70 280 154 45 90 117 246
is_linear=0
shrinkage=0.05


Tree=15
num_leaves=52
num_cat=0
split_feature=31 31 7 5 1 14 7 31 0 0 23 31 7 7 7 31 7 31 7 9 7 5 6 28 31 0 4 0 9 27 0 0 5 0 0 7 5 0 27 11 17 14 27 27 1 1 5 0 13 7 0
split_gain=418.978 118.751 79.3333 76.9277 36.3647 31.8677 31.6734 24.5242 23.2145 27.0156 15.5678 15.529 12.0164 11.4053 18.8483 10.9513 10.4404 10.1764 9.59585 8.52251 9.03812 9.52775 8.521 6.40162 6.18792 5.70298 5.31892 5.16942 5.05945 4.94519 4.28985 4.22361 3.97528 3.7942 3.61653 3.60008 3.74172 3.53615 3.43968 3.33891 3.13102 2.50553 2.45722 2.39869 1.9996 1.3569 1.0703 6.99913 0.675573 0.287787 0.120403
threshold=0.34720480200680887 0.67810428238666909 3.5000000000000004 1.0000000180025095e-35 61.500000000000007 0.012579113924050636 2.5000000000000004 0.83334079913993919 41.500000000000007 11.500000000000002 1.0000000180025095e-35 0.2396523920444365 10.500000000000002 7.5000000000000009 4.5000000000000009 0.25591291883175066 4.5000000000000009 0.50474825300125437 3.5000000000000004 2.5000000000000004 1.0000000180025095e-35 1.0000000180025095e-35 1.0000000180025095e-35 364837.50000000006 0.76395359254613882 21.500000000000004 1.5000000000000002 12.500000000000002 2.5000000000000004 1.5000000000000002 33.500000000000007 6.5000000000000009 1.0000000180025095e-35 9.5000000000000018 10.500000000000002 9.5000000000000018 1.0000000180025095e-35 31.500000000000004 49.500000000000007 1483.0360896329107 1.0000000180025095e-35 0.016001024065540197 67.500000000000014 37.500000000000007 1266.0000000000002 248.50000000000003 1.0000000180025095e-35 10.500000000000002 12879643.500000002 2.5000000000000004 37.500000000000007
decision_type=2 2 2 2 2 2 2 2 2 2 2 2 2 2 2 2 2 2 2 2 2 2 2 2 2 2 2 2 2 2 2 2 2 2 2 2 2 2 2 2 2 2 2 2 2 2 2 2 2 2 2
left_child=2 3 11 6 18 13 17 10 9 -6 22 31 16 14 40 -16 -8 34 38 20 21 -13 30 32 28 -26 -19 -22 -12 -20 -3 -1 -15 48 -2 39 -37 -24 -5 -35 -4 44 -10 -25 45 -7 49 -48 -9 -33 -43
right_child=1 7 5 4 8 41 12 33 42 -11 24 19 -14 23 15 -17 -18 26 29 -21 27 -23 37 43 25 -27 -28 -29 -30 -31 -32 46 -34 35 -36 36 -38 -39 -40 -41 -42 50 -44 -45 -46 -47 47 -49 -50 -51 -52
leaf_value=0.01164135434129618 0.010502299680177636 -0.027917121015827974 0.0036085444176419596 0.027043559479003044 -0.045446267298356421 0.015617482190088705 -0.025235301769080423 -0.066863833661105668 -0.030991238706934376 -0.008010286290148853 0.001658326241557131 0.057141752212729324 -0.056903908608573396 0.011364119528994326 0.047249468448434112 0.0021446565436137577 0.013181041676360803 0.015637737681624932 -0.030597141394364216 0.061288893977037129 -0.020091264545875995 -0.0027755814738509425 -0.011472199437590773 -0.005571783922359682 -0.031357470638813105 0.0053819235625746581 0.048344285981879009 0.019913198290742902 0.047867258765020217 0.021245989024110103 -0.045483047575586015 0.06307217509012944 -0.01196108077773732 -0.00172599908350996 0.053092376056950046 -0.0089437911225650046 -0.046375184667025476 0.03196542845126233 0.064020159178672875 -0.043356657702133955 -0.042098196486472256 0.060410576207411963 -0.062085405680354255 -0.048031316806990833 -0.00036755299654157706 0.053974584805228987 -0.0075334546592319808 0.054797833620585018 -0.032318101958532804 0.043412028156968756 0.031812070641507033
leaf_weight=5.5853470265865317 5.959267020225524 145.70039105415344 5.0953082293272027 26.264323815703392 60.814392268657684 4.829602584242819 22.076843276619911 20.566632434725765 11.497794747352598 222.65737822651863 37.252260982990265 30.724933460354805 7.8013829588890067 27.101794689893723 34.118038952350616 22.003404900431633 76.226079270243645 62.11372022330761 9.3512685000896472 22.400104388594627 9.125583812594412 8.2954609990119916 16.835148349404339 4.787020772695544 26.708960875868797 16.738991215825081 15.25093364715576 43.243364751338959 6.1683284044265738 7.5179372876882544 50.065007522702217 124.7435133010149 51.886148899793625 4.9925792813301078 61.638918444514275 19.115895986557007 9.8622350990772265 5.4771070629358283 8.8992619514465314 237.82202188670635 11.998582035303116 24.756351262331012 32.969921380281448 12.325096651911734 4.1432189494371405 6.3688905239105225 4.5014507025480262 100.72562122344971 4.3398583233356467 10.704875886440275 3.7053015381097785
leaf_count=25 29 619 21 114 257 24 89 97 50 924 153 163 33 112 155 93 315 282 39 111 40 36 68 20 111 69 71 192 25 31 218 691 217 21 307 84 44 22 40 1097 50 133 146 52 20 32 23 546 20 59 20
internal_value=0 -0.0163555 0.0353526 -0.00119488 -0.0153724 0.0111099 0.0202403 -0.0322316 -0.0215346 -0.0161589 -0.0221662 0.0496393 -0.000540028 0.0011905 0.0159532 0.0298754 0.00440425 0.0353605 0.0231739 0.0338874 0.026644 0.0446263 -0.0292729 -0.0100999 -0.00420927 -0.0173794 0.0225625 0.0127226 0.00905371 -0.00758599 -0.0325952 0.0567693 -0.00392039 -0.0424794 0.0495233 -0.0404777 -0.0226868 9.10167e-06 0.0377532 -0.0425101 -0.0289705 0.0486635 -0.0548127 -0.0370175 0.0295305 0.0398036 0.0577698 0.0520905 -0.0621692 0.0618124 0.0577667
internal_weight=0 1232.68 573.169 631.039 379.972 213.119 251.067 601.645 327.939 283.472 304.946 360.05 106.104 169.315 73.2153 56.1214 98.3029 144.963 52.0328 113.789 91.3893 39.0204 218.078 96.1001 86.8685 43.448 77.3647 52.3689 43.4206 16.8692 195.765 246.261 78.9879 296.699 67.5982 271.793 28.9781 22.3123 35.1636 242.815 17.0939 43.8034 44.4677 17.1121 15.3417 11.1985 240.675 105.227 24.9065 135.448 28.4617
internal_count=8210 5375 2835 2727 1601 949 1126 2648 1377 1181 1285 1886 437 720 319 248 404 689 224 542 431 199 927 401 358 180 353 232 178 70 837 1344 329 1363 336 1246 128 90 154 1118 71 229 196 72 76 56 1319 569 117 750 153
is_linear=0
shrinkage=0.05


Tree=16
num_leaves=54
num_cat=0
split_feature=14 14 7 7 8 14 21 28 23 10 6 8 8 8 8 7 7 7 8 3 7 6 14 7 21 7 9 12 8 26 28 27 28 13 10 14 7 12 16 14 3 15 13 2 8 8 3 28 3 8 8 28 9
split_gain=382.543 122.524 84.8163 78.9033 50.8091 41.3993 27.5748 25.3397 20.2448 16.4338 15.439 15.1277 29.9078 25.1611 23.7778 16.9047 13.9499 15.6501 11.7053 11.3162 10.7692 9.8229 9.40548 7.57276 7.42246 6.05217 11.4291 5.70106 5.4949 6.21485 5.10685 4.80574 4.68262 5.99042 4.63186 4.57145 4.35431 3.85911 5.6495 3.73154 3.00171 2.74964 2.66797 3.98404 2.57961 6.12109 2.18576 1.85575 1.77167 1.67977 1.10975 1.58938 0.212399
threshold=0.0057307060755336621 0.0022701504844361993 3.5000000000000004 3.5000000000000004 3.5000000000000004 0.012579113924050636 1.0000000180025095e-35 94730.500000000015 1.0000000180025095e-35 613.50000000000011 1.0000000180025095e-35 15.500000000000002 6.5000000000000009 20.500000000000004 26.500000000000004 7.5000000000000009 4.5000000000000009 7.5000000000000009 3.5000000000000004 10.500000000000002 8.5000000000000018 1.0000000180025095e-35 0.0069204980842911884 8.5000000000000018 1.0000000180025095e-35 2.5000000000000004 1.0000000180025095e-35 371.81973731816407 1.5000000000000002 1.0000000180025095e-35 179379.50000000003 67.500000000000014 245934.00000000003 4081308.0000000005 253.50000000000003 0.0098524558338186786 9.5000000000000018 379.95784939992262 1.0000000180025095e-35 0.0012507822277847312 10.500000000000002 2.811661361792424 12977357.500000002 1.0000000180025095e-35 12.500000000000002 19.500000000000004 2.5000000000000004 47259.000000000007 2.5000000000000004 1.5000000000000002 22.500000000000004 125457.00000000001 2.5000000000000004
decision_type=2 2 2 2 2 2 2 2 2 2 2 2 2 2 2 2 2 2 2 2 2 2 2 2 2 2 2 2 2 2 2 2 2 2 2 2 2 2 2 2 2 2 2 2 2 2 2 2 2 2 2 2 2
left_child=1 9 4 18 28 11 10 19 -9 21 23 12 20 15 -15 -13 -8 -18 35 -6 -5 24 25 -4 27 30 -27 -1 47 -30 -20 -26 33 -23 -12 37 -14 38 -2 42 52 -34 49 -44 46 -46 -41 -3 -37 -11 51 -7 -24
right_child=3 2 6 5 7 50 16 8 -10 39 34 13 36 14 -16 -17 17 -19 22 -21 -22 32 40 -25 31 26 -28 -29 29 -31 -32 -33 41 -35 -36 48 -38 -39 -40 44 -42 -43 43 -45 45 -47 -48 -49 -50 -51 -52 -53 -54
leaf_value=0.015135973864789357 -0.045669452100779911 -0.023441747929250974 -0.027881120156242396 0.033859367396279795 0.037155658606462326 0.060363906796156191 -0.074414519923110573 -0.0054124153203719333 0.026779736359332413 -0.017242337842345776 0.038425564731392609 0.0622006034745968 -0.055241852635132899 -0.056999404905483969 0.020638532328985056 -0.0035046222058919213 0.032731292110533196 -0.010477084297601531 0.053706830396189342 -0.039104170179874942 -0.026336768786125543 0.024378741149540126 0.054648972864682434 -0.048689530140766102 0.0062272354841375463 -0.046217024102445887 0.034679854041939781 -0.039397939653234411 -0.0046128476687242476 -0.055644705783836006 0.018906670709804591 -0.022065725402538618 0.054501309998898143 -0.041729043389048336 -0.013251295715148154 0.015327052055173086 -0.020340465666671484 0.030166354786947042 0.022065266112110307 -0.056501482720464673 0.012472138656747074 0.0037279086092231756 -0.0036220189642269633 -0.047344835314363752 -0.013683403668587786 -0.041518847280917683 -0.033531614751510841 -0.06580403194974152 0.059581347299768696 -0.048778315252590021 0.027314127840553488 0.027289875303621466 0.062824207624586376
leaf_weight=4.6286552250385276 6.1782789230346733 4.7804210186004665 119.34317480027676 25.113112777471542 146.7740370631218 31.379914566874504 4.9634759277105323 119.85843308269978 81.254389643669128 5.614930808544158 8.3468714505434018 27.105884879827499 29.896312698721886 17.834808751940727 20.115009352564812 14.912091851234434 32.003634393215179 56.950479686260223 37.976675227284431 4.3358822613954535 9.6456040143966657 5.4740740805864352 159.45951001346111 74.643206387758255 19.263021349906921 5.4296950846910503 13.369609862565992 85.110883265733719 19.31224445998669 7.8630783259868613 16.315828114748001 62.100066363811493 5.2230088859796506 6.6681336313486099 7.5210344791412345 4.7811970561742765 14.698243260383604 6.0284277945756903 4.7246075421571732 20.51631560921669 4.3308459073305121 4.9775064736604691 10.133331447839739 10.192354932427405 40.649987310171127 40.092144191265106 34.946231529116631 13.972956150770186 5.4698693156242371 167.56526400148869 6.8963880538940421 6.593374326825141 75.838944584131241
leaf_count=20 28 20 498 105 672 169 20 497 371 26 35 126 123 75 87 63 133 235 195 18 40 22 898 346 79 22 60 374 80 33 78 256 21 27 31 24 62 28 21 92 21 20 47 49 181 180 157 58 28 793 37 34 431
internal_value=0 -0.015958 -0.00229715 0.0343899 0.0128734 0.00976359 -0.0221606 0.0193379 0.00765477 -0.0342518 -0.0322024 -0.00226366 -0.0176322 0.013013 -0.0163188 0.0392936 0.000369066 0.00523882 0.0491195 0.034751 0.016914 -0.0225091 0.0518599 -0.036074 -0.0265661 0.0353491 0.0102803 -0.0364639 -0.0361263 -0.0206772 0.0437232 -0.0153724 0.00838658 -0.0122967 0.0145299 0.0169467 -0.0443626 0.00054968 -0.0168684 -0.0410621 0.0567464 0.0320165 -0.0457512 -0.026615 -0.034146 -0.0278074 -0.0427879 -0.0565593 0.0418184 -0.0478494 0.0516815 0.0553789 0.0575111
internal_weight=0 1225.08 701.923 544.094 398.151 204.191 303.772 352.223 201.113 523.156 209.854 159.321 79.3533 79.9678 37.9498 42.018 93.9176 88.9541 339.903 151.11 34.7587 193.445 312.721 193.986 171.103 73.0918 18.7993 89.7395 45.9287 27.1753 54.2925 81.3631 22.3427 12.1422 15.8679 27.1824 44.5946 16.9313 10.9029 329.711 239.629 10.2005 193.506 20.3257 136.205 80.7421 55.4625 18.7534 10.2511 173.18 44.8697 37.9733 235.298
internal_count=8146 5391 3047 2755 1749 921 1298 1558 868 2344 910 681 330 351 162 189 388 368 1834 690 145 819 1705 844 729 355 82 394 191 113 273 335 90 49 66 129 185 77 49 1525 1350 41 915 96 610 361 249 78 52 819 240 203 1329
is_linear=0
shrinkage=0.05


Tree=17
num_leaves=53
num_cat=0
split_feature=14 14 5 7 7 14 0 0 7 10 1 5 14 7 7 0 1 6 10 17 30 15 0 14 10 15 0 5 10 12 11 28 13 28 4 1 0 13 14 13 0 15 28 13 5 0 27 7 13 28 7 13
split_gain=352.078 112.409 82.8753 74.4494 41.6474 38.6339 30.8635 30.8193 26.1798 15.561 11.2661 10.9153 10.8797 10.8424 12.9126 10.0545 9.20009 8.9977 8.06304 7.69899 7.75108 6.91693 6.36534 4.95048 7.19562 4.92488 6.15052 5.84888 6.30872 4.87737 4.69805 4.28571 5.49485 4.15913 4.13408 3.48464 3.01813 2.9759 3.10967 2.76488 2.61892 2.51942 2.27755 1.94574 1.72673 7.56219 1.0434 0.686816 0.542709 0.666465 0.508361 0.495487
threshold=0.0057307060755336621 0.0022701504844361993 1.0000000180025095e-35 3.5000000000000004 3.5000000000000004 0.012579113924050636 11.500000000000002 41.500000000000007 2.5000000000000004 613.50000000000011 -1.0000000180025095e-35 1.0000000180025095e-35 0.0069204980842911884 8.5000000000000018 4.5000000000000009 41.500000000000007 162.50000000000003 1.0000000180025095e-35 257.50000000000006 1.0000000180025095e-35 0.85849310159469638 2.5501380834023757 14.500000000000002 0.0070672260513435234 165.50000000000003 3.1155719673161539 13.500000000000002 1.0000000180025095e-35 163.50000000000003 393.01032510300064 1483.0360896329107 245934.00000000003 4081308.0000000005 349089.50000000006 1.5000000000000002 1317.5000000000002 20.500000000000004 1666015.0000000002 0.0012507822277847312 6481880.5000000009 4.5000000000000009 2.811661361792424 19838.000000000004 9469696.0000000019 1.0000000180025095e-35 10.500000000000002 51.500000000000007 6.5000000000000009 10571609.500000002 14511.000000000002 2.5000000000000004 9172807.0000000019
decision_type=2 2 2 2 2 2 2 2 2 2 2 2 2 2 2 2 2 2 2 2 2 2 2 2 2 2 2 2 2 2 2 2 2 2 2 2 2 2 2 2 2 2 2 2 2 2 2 2 2 2 2 2
left_child=1 9 8 12 6 11 16 -8 18 17 -10 23 25 14 -6 -12 -4 21 33 20 -13 22 -1 24 -5 26 42 39 -29 -21 -11 32 -19 -3 -20 -25 -23 47 -39 -27 -14 -33 -2 -15 50 -46 48 -32 -7 -50 -42 -28
