tree
version=v3
num_class=1
num_tree_per_iteration=1
label_index=0
max_feature_idx=93
objective=binary sigmoid:1
feature_names=Column_0 Column_1 Column_2 Column_3 Column_4 Column_5 Column_6 Column_7 Column_8 Column_9 Column_10 Column_11 Column_12 Column_13 Column_14 Column_15 Column_16 Column_17 Column_18 Column_19 Column_20 Column_21 Column_22 Column_23 Column_24 Column_25 Column_26 Column_27 Column_28 Column_29 Column_30 Column_31 Column_32 Column_33 Column_34 Column_35 Column_36 Column_37 Column_38 Column_39 Column_40 Column_41 Column_42 Column_43 Column_44 Column_45 Column_46 Column_47 Column_48 Column_49 Column_50 Column_51 Column_52 Column_53 Column_54 Column_55 Column_56 Column_57 Column_58 Column_59 Column_60 Column_61 Column_62 Column_63 Column_64 Column_65 Column_66 Column_67 Column_68 Column_69 Column_70 Column_71 Column_72 Column_73 Column_74 Column_75 Column_76 Column_77 Column_78 Column_79 Column_80 Column_81 Column_82 Column_83 Column_84 Column_85 Column_86 Column_87 Column_88 Column_89 Column_90 Column_91 Column_92 Column_93
feature_infos=[0:75] [-6847:81204] [0:2] [0:11] [0:3] [0:1] [0:1] [0:11] [0:30] [0:35] [2:3881] [0:1] [1384:81204] [740:3881] [378.5:5250.75] [370.59561128526644:723.33333333333337] [-6847:-627] [2:60] [757:18571287] [1:31] [-79551:80943] [-3449:3790] [-1:1] [0.0002576655501159495:0.5] [-44.857142857142854:2131] [-1171:1242] none [0:1] [0:1] none none none [0:1] none [0:1] none none none none [0:1] [0:1] [0:1] none none [0:1] none [0:1] none [0:1] [0:1] [0:1] [0:1] [0:1] [0:1] none none none [0:1] [0:1] [0:1] [0:1] [0:1] [0:1] none none none [0:1] [0:1] [0:1] [0:1] [0:1] [0:1] [0:1] [0:1] [0:1] [0:1] [0:1] [0:1] [0:1] [0:1] [0:1] [0:1] [0:1] [0:1] [-6846:1] [0:3176] [-6641:2770] [1:12] [-2697156:73437504] [0:1] [6.7192259451711163e-05:0.99993280774054827] [6.7192259451711163e-05:0.99997760258018276] [2871391553.5001211:3835615553.5001211] [0:6]
tree_sizes=1183 1172 1178 1191 1170 1174 1170 1190 1185 1192 1191 1182 1179 1196 1195 1183 1156 1182 1176 1180 1179 1162 1176 1169 1204 1178 1168 1191 1166 1175 1179 1176 1174 1185 1181 1190 1174 1168 1174 1180 1181 1177 1179 1173 1169 1182 1180 1173 1179 1169 1176 1172 1171 1173 1178 1174 1173 1159 1175 1165 1168 1167 1176 1175 1167 1180

Tree=0
num_leaves=10
num_cat=0
split_feature=10 10 5 7 23 7 7 88 5
split_gain=2003.34 489.846 422.948 370.254 183.957 111.546 108.671 84.5729 83.3826
threshold=205.50000000000003 441.50000000000006 1.0000000180025095e-35 3.5000000000000004 0.012579113924050636 2.5000000000000004 3.5000000000000004 84691.500000000015 1.0000000180025095e-35
decision_type=2 2 2 2 2 2 2 2 2
left_child=3 2 5 -1 8 -2 7 -4 -5
right_child=1 -3 6 4 -6 -7 -8 -9 -10
leaf_value=0.52285309000203883 0.41660820698063072 -0.32001028789372732 0.2408842697966605 0.25748189832646112 0.55997411888102577 0.062046464143336429 -0.30548562281611003 -0.14241217187508398 -0.078309678251934536
leaf_weight=678.93708181381226 200.75962257385254 747.35516214370728 75.909111022949219 102.12771844863892 76.907915115356445 132.34154224395752 241.46088933944702 160.55775785446167 188.77397346496582
leaf_count=2719 804 2993 304 409 308 530 967 643 756
internal_value=0.0691908 -0.144884 0.0166395 0.391605 0.149035 0.27595 -0.164121 -0.0192612 0.0397043
internal_weight=0 1558.38 811.029 1046.75 367.81 333.101 477.928 236.467 290.902
internal_count=10433 6241 3248 4192 1473 1334 1914 947 1165
is_linear=0
shrinkage=1


Tree=1
num_leaves=10
num_cat=0
split_feature=10 23 5 7 1 10 7 7 8
split_gain=1061.85 361.442 316.676 165.537 102.437 89.8229 101.258 69.1762 61.4409
threshold=163.50000000000003 0.0016299929327119791 1.0000000180025095e-35 7.5000000000000009 61.500000000000007 381.50000000000006 2.5000000000000004 8.5000000000000018 6.5000000000000009
decision_type=2 2 2 2 2 2 2 2 2
left_child=3 -2 5 -1 -4 6 -3 -6 -5
right_child=1 2 4 8 7 -7 -8 -9 -10
leaf_value=0.36810948255540127 -0.3461348526801406 0.34018393393627006 0.18597615914953844 0.26501699556372049 -0.15599809064027698 -0.049650249899587669 0.019835389588842286 -0.3958769268876135 -0.14025559150400793
leaf_weight=610.87586008012295 483.27151528000832 226.35351812839508 65.81564462184906 52.944797322154045 530.12462873756886 167.3448393791914 146.02799636125565 135.989501953125 90.386197283864021
leaf_count=2595 1983 952 270 217 2165 687 588 555 370
internal_value=0 -0.125433 -0.0414508 0.300083 -0.169956 0.132813 0.214765 -0.205243 0.00986748
internal_weight=0 1754.93 1271.66 754.207 731.93 539.726 372.382 666.114 143.331
internal_count=10382 7200 5217 3182 2990 2227 1540 2720 587
is_linear=0
shrinkage=0.3


Tree=2
num_leaves=10
num_cat=0
split_feature=10 10 5 7 7 88 0 0 7
split_gain=628.321 239.119 207.846 93.1876 84.597 76.782 54.2752 70.5386 50.9254
threshold=130.50000000000003 403.50000000000006 1.0000000180025095e-35 1.0000000180025095e-35 8.5000000000000018 18035.000000000004 11.500000000000002 42.500000000000007 7.5000000000000009
decision_type=2 2 2 2 2 2 2 2 2
left_child=8 2 3 -2 5 -4 -7 -8 -1
right_child=1 -3 4 -5 -6 6 7 -9 -10
leaf_value=0.34712781924327851 0.32364138490983402 -0.20754641204503063 0.24583400727731694 0.049527744404275056 -0.32467486438789694 -0.3175500424438078 0.0058781754264877533 -0.37831072871844923 0.10414464908430872
leaf_weight=404.43423765897751 193.83720198273659 758.07273726165295 69.802992448210716 262.73409321904182 120.06441980600357 78.213684216141701 332.1593442261219 48.882256984710693 96.7430549710989
leaf_count=1934 905 3295 301 1118 525 326 1390 203 404
internal_value=0 -0.0778333 0.0111552 0.16614 -0.0979022 -0.046168 -0.0907795 -0.0438598 0.300382
internal_weight=0 1863.77 1105.69 456.571 649.123 529.058 459.255 381.042 501.177
internal_count=10401 8063 4768 2023 2745 2220 1919 1593 2338
is_linear=0
shrinkage=0.3


Tree=3
num_leaves=10
num_cat=0
split_feature=10 10 5 11 7 86 9 7 7
split_gain=377.143 160.961 128.347 76.1703 64.7728 48.3346 44.0301 40.6384 39.5682
threshold=130.50000000000003 667.50000000000011 1.0000000180025095e-35 1.0000000180025095e-35 1.0000000180025095e-35 77.500000000000014 1.0000000180025095e-35 3.5000000000000004 3.5000000000000004
decision_type=2 2 2 2 2 2 2 2 2
left_child=5 2 4 6 -2 -1 -4 -8 -7
right_child=1 -3 3 -5 -6 8 7 -9 -10
leaf_value=0.33698746997382129 0.20364836289739249 -0.24521835605279027 -0.19803115083607462 0.2038875565249911 0.0035430503771062116 0.25765416308324252 0.025684110296770771 -0.17231115982125003 -0.0063478062490023475
leaf_weight=239.38372474908829 250.02855190634727 350.706134557724 363.63460114598274 69.637367412447929 347.55187614262104 112.38973572850227 235.15556459128857 154.00917591154575 93.27985754609108
leaf_count=1319 1262 1688 1613 306 1499 645 1021 696 404
internal_value=0 -0.063376 -0.0183919 -0.0952467 0.0873725 0.245397 -0.123041 -0.0527975 0.138206
internal_weight=0 1770.72 1420.02 822.437 597.58 445.053 752.799 389.165 205.67
internal_count=10453 8085 6397 3636 2761 2368 3330 1717 1049
is_linear=0
shrinkage=0.3


Tree=4
num_leaves=10
num_cat=0
split_feature=23 86 5 7 3 9 8 8 25
split_gain=231.209 120.767 65.689 50.1779 45.5168 43.7316 37.6165 47.6821 32.8331
threshold=0.0029112143196148893 87.500000000000014 1.0000000180025095e-35 2.5000000000000004 10.500000000000002 1.5000000000000002 15.500000000000002 19.500000000000004 0.9910296857675206
decision_type=2 2 2 2 2 2 2 2 2
left_child=-1 4 3 -3 8 -4 -5 -8 -2
right_child=1 2 5 6 -6 -7 7 -9 -10
leaf_value=-0.12466907790173715 0.30275412457690332 0.23392483535794745 -0.1047841764050325 -0.15931906081899661 -0.28480095679590312 0.10012121465786075 0.32787142984165535 -0.13233170211604561 0.13409822421886122
leaf_weight=802.63820320367813 232.36023634672165 165.75737853348255 378.77686086297035 73.031961038708687 15.801395922899244 124.0545579046011 47.832482501864433 34.487187907099724 190.13622577488422
leaf_count=3902 1458 977 1743 309 80 583 205 147 966
internal_value=0 0.081213 0.0134977 0.119391 0.208341 -0.0541799 -0.00319001 0.135455 0.227114
internal_weight=0 1262.24 823.94 321.109 438.298 502.831 155.352 82.3197 422.496
internal_count=10370 6468 3964 1638 2504 2326 661 352 2424
is_linear=0
shrinkage=0.3


Tree=5
num_leaves=10
num_cat=0
split_feature=10 10 0 0 3 88 7 7 3
split_gain=154.149 76.3086 73.5545 50.6767 53.9312 38.8616 35.8582 34.1722 24.8706
threshold=124.50000000000001 641.50000000000011 42.500000000000007 10.500000000000002 3.5000000000000004 570058.00000000012 8.5000000000000018 8.5000000000000018 10.500000000000002
decision_type=2 2 2 2 2 2 2 2 2
left_child=7 2 3 -2 5 6 -5 -1 -6
right_child=1 -3 -4 4 8 -7 -8 -9 -10
leaf_value=0.23084380749955621 -0.1384898487543588 -0.166908156160431 -0.26036816039566241 0.063541539888619422 0.1486108137611529 -0.13068426596255853 -0.16303843581719099 -0.058816477772284291 -0.23725479605944555
leaf_weight=278.52689637988806 164.19816303253174 315.45841598510742 92.353491008281708 452.20680563151836 356.58796513825655 175.74875935912132 72.487822040915489 41.982067957520485 15.23721134662628
leaf_count=2018 800 1798 453 2173 1735 820 349 191 70
internal_value=0 -0.0343969 -0.00288568 0.0164482 0.0402302 -0.00880585 0.0321075 0.192868 0.132487
internal_weight=0 1644.28 1328.82 1236.47 1072.27 700.443 524.695 320.509 371.825
internal_count=10407 8198 6400 5947 5147 3342 2522 2209 1805
is_linear=0
shrinkage=0.3


Tree=6
num_leaves=10
num_cat=0
split_feature=10 7 8 7 10 0 8 8 7
split_gain=96.9101 51.7468 50.899 44.9334 39.7619 44.3137 38.4213 57.0034 50.302
threshold=177.50000000000003 3.5000000000000004 3.5000000000000004 4.5000000000000009 794.50000000000011 42.500000000000007 15.500000000000002 6.5000000000000009 7.5000000000000009
decision_type=2 2 2 2 2 2 2 2 2
left_child=1 2 -1 -3 5 -2 7 -5 -8
right_child=4 3 -4 6 -6 -7 8 -9 -10
leaf_value=-0.21146728788589989 -0.0068644519239963626 -0.39721256315149411 0.22732063495840271 0.14254388247000044 -0.17152019748072306 -0.24889126679440823 0.34999780270995789 -0.28004345267666064 -0.051848608215469869
leaf_weight=25.623986452817917 1071.217203900218 22.197794370353222 276.18400945514441 54.832973882555962 186.37725493311882 72.184939980506897 61.749999657273293 59.273023888468742 50.774556174874306
leaf_count=179 5265 106 2158 267 1182 412 382 272 234
internal_value=0 0.106371 0.189765 0.00503559 -0.0432314 -0.022251 0.0452601 -0.0772483 0.169273
internal_weight=0 550.636 301.808 248.828 1329.78 1143.4 226.631 114.106 112.525
internal_count=10457 3598 2337 1261 6859 5677 1155 539 616
is_linear=0
shrinkage=0.3


Tree=7
num_leaves=10
num_cat=0
split_feature=10 5 10 7 0 7 8 6 8
split_gain=78.3353 42.679 45.5735 42.4411 35.7331 35.4722 35.4662 29.0867 29.5055
threshold=78.500000000000014 1.0000000180025095e-35 519.50000000000011 1.0000000180025095e-35 7.5000000000000009 8.5000000000000018 3.5000000000000004 1.0000000180025095e-35 16.500000000000004
decision_type=2 2 2 2 2 2 2 2 2
left_child=-1 2 3 6 -3 7 -2 8 -6
right_child=1 4 -4 -5 5 -7 -8 -9 -10
leaf_value=0.26023342082885842 -0.66535744926021667 -0.2885664622274865 -0.071006657717179719 0.025472214399465065 -0.086645139313157801 -0.18184984493965511 0.22146598254145744 0.1514022034484212 0.040672106699564586
leaf_weight=100.34853517264128 3.6527934595942488 54.570876985788345 225.63989029824734 333.84230727702379 404.85848087072372 133.66492056101561 187.21360199898481 83.997828140854836 274.51009491086006
leaf_count=1071 21 285 1338 1638 2073 780 1335 460 1456
internal_value=0 -0.0118568 0.0416266 0.0900847 -0.0540288 -0.0396005 0.202719 -0.0145851 -0.0352088
internal_weight=0 1701.95 750.349 524.709 951.602 897.031 190.866 763.366 679.369
internal_count=10457 9386 4332 2994 5054 4769 1356 3989 3529
is_linear=0
shrinkage=0.3


Tree=8
num_leaves=10
num_cat=0
split_feature=88 9 23 2 0 3 5 88 8
split_gain=49.5631 45.5993 31.9729 28.6275 27.9469 27.4827 20.142 21.8164 18.3884
threshold=339896.50000000006 2.5000000000000004 0.0029895433014567887 1.0000000180025095e-35 41.500000000000007 3.5000000000000004 1.0000000180025095e-35 10851.000000000002 12.500000000000002
decision_type=2 2 2 2 2 2 2 2 2
left_child=1 3 -3 4 5 6 -1 -8 -2
right_child=8 2 -4 -5 -6 -7 7 -9 -10
leaf_value=0.10899833049113394 -0.12520903402663827 -0.0088405842847586822 0.26158673882446876 -0.044403604312649801 -0.19126532849594033 0.17576853203949341 0.2502808439856008 -0.10068069845182827 -0.022117137666019516
leaf_weight=127.09744692593813 269.90763988345861 57.402678236365318 124.34730481356382 427.81316517293453 35.654976315796375 173.87211019545794 17.800239540636539 122.79619588702917 367.75724677741528
leaf_count=844 1518 305 981 2537 210 1111 115 661 2121
internal_value=0 0.0394987 0.176397 0.0119204 0.0624064 0.083092 0.0226711 -0.0554827 -0.0658204
internal_weight=0 1086.78 181.75 905.034 477.221 441.566 267.694 140.596 637.665
internal_count=10403 6764 1286 5478 2941 2731 1620 776 3639
is_linear=0
shrinkage=0.3


Tree=9
num_leaves=10
num_cat=0
split_feature=23 9 10 0 48 7 7 8 85
split_gain=39.8265 26.2375 28.9156 26.7474 24.3019 23.9638 45.8267 23.8736 22.6372
threshold=0.016001024065540197 1.0000000180025095e-35 276.50000000000006 7.5000000000000009 1.0000000180025095e-35 2.5000000000000004 4.5000000000000009 1.5000000000000002 227.50000000000003
decision_type=2 2 2 2 2 2 2 2 2
left_child=1 5 3 -3 -5 7 -7 -1 -9
right_child=-2 2 -4 4 -6 6 -8 8 -10
leaf_value=-0.31587235034305511 0.26411917098215709 -0.25845952632554292 -0.022223246771354174 0.14381486105552693 -0.031958911236616205 -0.26115886258087223 -0.036778726901161379 0.090409224803106272 -0.095167501451730876
leaf_weight=17.845277145504951 49.876815535128117 18.860078103840351 479.48570273816586 302.42454521358013 92.156874477863312 109.56168089434505 321.07763644680381 204.44187247008085 82.677956685423851
leaf_count=99 712 110 2700 2031 546 574 1777 1364 484
internal_value=0 -0.00665326 0.0279021 0.0859891 0.102774 -0.0485889 -0.0941128 0.0157463 0.0368952
internal_weight=0 1628.53 892.927 413.441 394.581 735.604 430.639 304.965 287.12
internal_count=10397 9685 5387 2687 2577 4298 2351 1947 1848
is_linear=0
shrinkage=0.3


Tree=10
num_leaves=10
num_cat=0
split_feature=2 3 69 10 3 9 10 62 4
split_gain=26.5063 21.3282 20.9777 24.8994 21.787 17.6607 16.8326 16.0578 16.0248
threshold=1.0000000180025095e-35 4.5000000000000009 1.0000000180025095e-35 395.50000000000006 10.500000000000002 6.5000000000000009 363.50000000000006 1.0000000180025095e-35 1.5000000000000002
decision_type=2 2 2 2 2 2 2 2 2
left_child=1 5 3 4 -2 7 8 -1 -3
right_child=2 6 -4 -5 -6 -7 -8 -9 -10
leaf_value=0.0028383114566143813 0.077597476963553097 0.094675451330284363 -0.10826465336205107 -0.094785241418889707 -0.17314869583713774 0.28480753817423654 0.01610569545131639 -0.27127558887523601 0.28413061715842647
leaf_weight=556.71361389756203 268.71410071849823 120.31090846657753 264.20856456831098 169.33243887126446 34.773695573210716 18.817426484078169 126.66550607979298 19.397680275142193 60.501875326037407
leaf_count=3523 1762 833 1583 1014 201 161 720 107 499
internal_value=0 0.0360092 -0.0406488 -0.00278751 0.048618 0.00283135 0.10009 -0.00662927 0.158707
internal_weight=0 902.407 737.029 472.82 303.488 594.929 307.478 576.111 180.813
internal_count=10403 5843 4560 2977 1963 3791 2052 3630 1332
is_linear=0
shrinkage=0.3


Tree=11
num_leaves=10
num_cat=0
split_feature=23 7 0 51 21 0 8 7 86
split_gain=26.7954 24.2861 21.2826 23.174 23.4314 20.4736 18.7343 27.3949 21.4203
threshold=0.016001024065540197 10.500000000000002 41.500000000000007 1.0000000180025095e-35 286.50000000000006 7.5000000000000009 3.5000000000000004 7.5000000000000009 447.50000000000006
decision_type=2 2 2 2 2 2 2 2 2
left_child=1 2 3 4 5 -1 -7 8 -8
right_child=-2 -3 -4 -5 -6 6 7 -9 -10
leaf_value=-0.1854968952626177 0.25062458626859535 -0.21503125595315981 -0.12875338237603109 -0.033055919309841149 -0.04551136715220145 -0.060572311338578801 0.15130523615250482 -0.047697897460414307 -0.10176033036763911
leaf_weight=26.041706427931786 37.661940265446901 46.945417664945126 102.602623693645 591.09348305314779 197.91523920744658 71.177603617310524 416.88490599021316 90.329724073410034 32.086369171738625
leaf_count=153 702 298 664 3534 1263 371 2797 451 179
internal_value=0 -0.00370644 0.00285712 0.0123736 0.0445554 0.0725745 0.0837329 0.102819 0.133122
internal_weight=0 1575.08 1528.13 1425.53 834.436 636.52 610.479 539.301 448.971
internal_count=10412 9710 9412 8748 5214 3951 3798 3427 2976
is_linear=0
shrinkage=0.3


Tree=12
num_leaves=10
num_cat=0
split_feature=4 10 8 8 8 7 7 23 7
split_gain=20.4413 19.6104 22.4751 39.0026 39.1357 41.2458 28.2811 24.708 23.4692
threshold=1.5000000000000002 794.50000000000011 14.500000000000002 20.500000000000004 26.500000000000004 3.5000000000000004 1.0000000180025095e-35 0.0035149493451939713 1.5000000000000002
decision_type=2 2 2 2 2 2 2 2 2
left_child=1 2 6 -4 5 8 7 -1 -5
right_child=-2 -3 3 4 -6 -7 -8 -9 -10
leaf_value=-0.026840763594859755 0.080208024668509625 -0.12918203894747751 0.12051825223294896 -0.17760739081216462 0.079351160312902361 -0.35777805071091667 -0.07430895089388509 0.22715037257032494 0.11721469935447333
leaf_weight=83.349978640675545 258.9641992431134 116.43469830602407 286.67223208770156 46.79490452632308 136.834487805143 51.619002655148506 483.27314549684525 58.13877378590405 49.449213115498424
leaf_count=457 1880 954 1823 332 965 284 2745 648 344
internal_value=0 -0.011938 -0.000473576 0.0425074 -0.0361217 -0.142885 -0.0397841 0.0779792 -0.0263165
internal_weight=0 1312.57 1196.13 571.37 284.698 147.863 624.762 141.489 96.2441
internal_count=10432 8552 7598 3748 1925 960 3850 1105 676
is_linear=0
shrinkage=0.3


Tree=13
num_leaves=10
num_cat=0
split_feature=24 10 67 1 20 1 15 0 61
split_gain=19.4522 15.2931 11.1506 15.1098 12.8865 12.5313 11.4633 10.394 11.7662
threshold=-0.98201068871634556 60.500000000000007 1.0000000180025095e-35 1402.5000000000002 -8281.4999999999982 412.50000000000006 372.49798382859439 11.500000000000002 1.0000000180025095e-35
decision_type=2 2 2 2 2 2 2 2 2
left_child=-1 -2 4 5 -3 -4 -7 8 -6
right_child=1 2 3 -5 7 6 -8 -9 -10
leaf_value=0.23754360267511421 0.21400985476641263 -0.19657987985497946 -0.099334857598171983 -0.18446929960213115 -0.077420862981683727 -0.077211984651325796 0.15828219710414637 0.013825353263713041 0.34697343795712182
leaf_weight=28.580110939219594 26.401213588193059 29.581834867596626 88.114252485334873 74.942996378988028 177.85385289043188 30.266576692461967 46.736947013065219 1031.0016861669719 5.5683365166187277
leaf_count=303 639 195 559 451 1119 180 301 6631 33
internal_value=0 -0.0100689 -0.0141294 -0.0732509 -0.00269441 -0.0223476 0.0658239 0.00211115 -0.0635852
internal_weight=0 1510.47 1484.07 240.061 1244.01 165.118 77.0035 1214.42 183.422
internal_count=10411 10108 9469 1491 7978 1040 481 7783 1152
is_linear=0
shrinkage=0.3


Tree=14
num_leaves=10
num_cat=0
split_feature=6 10 23 8 8 0 8 4 4
split_gain=14.8666 21.9201 11.884 11.1202 28.8992 22.6079 20.3437 17.5799 19.0561
threshold=1.0000000180025095e-35 608.50000000000011 0.016001024065540197 20.500000000000004 14.500000000000002 11.500000000000002 26.500000000000004 1.5000000000000002 1.0000000180025095e-35
decision_type=2 2 2 2 2 2 2 2 2
left_child=2 -2 3 4 7 -6 -5 8 -1
right_child=1 -3 -4 6 5 -7 -8 -9 -10
leaf_value=-0.0087007375308128694 0.13411897031066747 -0.11990407565172914 0.21788866514289532 -0.13883543764219897 -0.15709320957036632 0.10147795609494463 0.012543297027102711 0.070668632700586931 -0.11882369621645821
leaf_weight=327.47966607660055 141.26463927514851 38.536773517727852 19.381616333499551 162.0320804361254 33.567101135849953 286.85397087037563 156.97549670375884 117.86033430695534 248.51792028546333
leaf_count=2116 1054 280 562 1070 212 1796 1038 810 1509
internal_value=0 0.0794841 -0.0122145 -0.0156438 -0.000268876 0.0741779 -0.0644474 -0.0346782 -0.0562788
internal_weight=0 179.801 1352.67 1333.29 1014.28 320.421 319.008 693.858 575.998
internal_count=10447 1334 9113 8551 6443 2008 2108 4435 3625
is_linear=0
shrinkage=0.3


Tree=15
num_leaves=10
num_cat=0
split_feature=10 5 1 8 22 85 9 7 15
split_gain=10.4753 14.611 11.6563 13.0194 11.9391 11.8987 10.2856 10.0207 10.9931
threshold=143.50000000000003 1.0000000180025095e-35 925.50000000000011 23.500000000000004 7.7065358741145454e-05 747.50000000000011 2.5000000000000004 2.5000000000000004 371.72981855111681
decision_type=2 2 2 2 2 2 2 2 2
left_child=1 7 5 4 -4 -2 -3 -1 -9
right_child=2 6 3 -5 -6 -7 -8 8 -10
leaf_value=0.24095972874315405 0.017036786359939281 -0.043603733166620064 0.23911231082828516 -0.14596731275243524 -0.033745073612208396 -0.26740417763564078 0.17538595861953934 -0.31591297640554239 0.099945560091771371
leaf_weight=47.323426331393421 712.45059393905103 118.65549725294113 14.412605307996271 96.497672412544489 430.87440031021833 12.963230930268763 22.510655416175723 5.9362146425992242 50.12870813626796
leaf_count=942 4337 926 85 590 2618 114 357 52 418
internal_value=0 0.0546529 -0.0131005 -0.0463722 -0.0246428 0.0117644 -0.00816362 0.140031 0.0533961
internal_weight=0 244.555 1267.2 541.785 445.287 725.414 141.166 103.388 56.0649
internal_count=10439 2695 7744 3293 2703 4451 1283 1412 470
is_linear=0
shrinkage=0.3


Tree=16
num_leaves=10
num_cat=0
split_feature=7 0 0 0 10 85 10 93 85
split_gain=10.18 9.97543 8.80739 9.17835 9.56286 10.7673 9.08277 13.2232 7.92393
threshold=10.500000000000002 54.500000000000007 4.5000000000000009 42.500000000000007 501.50000000000006 361.50000000000006 207.50000000000003 3.5000000000000004 171.50000000000003
decision_type=2 2 2 2 2 2 2 2 2
left_child=2 -2 -1 -4 6 8 7 -5 -6
right_child=1 -3 3 4 5 -7 -8 -9 -10
leaf_value=-0.20832315941489279 -0.18401552044352576 0.37442478909802362 0.012772785340037359 0.17660376303342304 0.042460846999841734 -0.16905735527529672 -0.25008762645010835 -0.23724193146079126 0.6519701949891249
leaf_weight=16.747719421982765 39.115863118320704 2.620705544948577 1359.8472109455615 14.4324724432081 3.7645253390073758 5.656313344836235 33.187770869582891 12.456815268844364 3.56649075075984
leaf_count=110 284 25 9469 86 33 53 257 71 33
internal_value=0 -0.144742 0.00462883 0.00719305 -0.0960063 0.133531 -0.146353 -0.015986 0.362698
internal_weight=0 41.7366 1449.66 1432.91 73.0644 12.9873 60.0771 26.8893 7.33102
internal_count=10421 309 10112 10002 533 119 414 157 66
is_linear=0
shrinkage=0.3


Tree=17
num_leaves=10
num_cat=0
split_feature=9 10 85 8 41 8 7 7 7
split_gain=10.3004 13.0811 7.81085 10.2169 8.71432 8.21422 19.236 47.1562 44.6914
threshold=5.5000000000000009 873.50000000000011 23.500000000000004 21.500000000000004 1.0000000180025095e-35 15.500000000000002 4.5000000000000009 3.5000000000000004 7.5000000000000009
decision_type=2 2 2 2 2 2 2 2 2
left_child=2 -2 3 4 -1 -4 7 -7 -8
right_child=1 -3 5 -5 -6 6 8 -9 -10
leaf_value=0.11078867476051459 0.18337657615843544 -0.27416987722451208 -0.031079689695495172 -0.070474175665353814 -0.31160280984297029 0.011744160322791859 0.19624515622009919 -0.34747226601818865 -0.063799853141054366
leaf_weight=133.10658179782331 48.374105819500983 5.8852496519684783 694.94230044540018 42.494597759097815 4.050873849540948 274.43159233592451 134.28838316164911 36.840353917330503 106.08367284759879
leaf_count=1176 495 51 4620 377 25 1972 816 209 681
internal_value=0 0.131601 -0.000957859 0.0574299 0.0971749 -0.00939301 0.0179307 -0.0312832 0.0815901
internal_weight=0 54.2594 1426.24 179.652 137.157 1246.59 551.644 311.272 240.372
internal_count=10422 546 9876 1578 1201 8298 3678 2181 1497
is_linear=0
shrinkage=0.3


Tree=18
num_leaves=10
num_cat=0
split_feature=24 9 8 7 8 7 7 86 74
split_gain=8.6346 7.7117 21.5213 17.7727 15.6292 13.5983 13.4916 13.502 12.2645
threshold=-1.2954545454545452 1.0000000180025095e-35 7.5000000000000009 7.5000000000000009 3.5000000000000004 8.5000000000000018 9.5000000000000018 214.50000000000003 1.0000000180025095e-35
decision_type=2 2 2 2 2 2 2 2 2
left_child=-1 2 3 4 -2 -5 -7 -8 -6
right_child=1 -3 -4 5 8 6 7 -9 -10
leaf_value=0.2074019798405525 -0.13394382489557369 0.018805664153904837 -0.059811889505126836 0.30266878603362402 -0.038107108099696106 -0.2951753175618283 -0.081641879684984472 0.39069988675401002 0.20134565362327111
leaf_weight=17.589546544477344 51.255732269957662 799.63965361006558 467.21398392599076 37.354107948020101 39.019944196566939 7.8414596319198635 10.678405527025463 10.284408900886772 37.206925602629781
leaf_count=261 304 5763 3143 217 245 48 65 85 329
internal_value=0 -0.00100661 -0.0249755 0.0590117 -0.00660528 0.184509 0.0286065 0.153968 0.0793484
internal_weight=0 1460.49 660.855 193.641 127.483 66.1584 28.8043 20.9628 76.2269
internal_count=10460 10199 4436 1293 878 415 198 150 574
is_linear=0
shrinkage=0.3


Tree=19
num_leaves=10
num_cat=0
split_feature=20 21 10 6 10 87 20 3 88
split_gain=8.07375 11.9149 8.3654 7.54535 11.2903 7.42854 6.77786 6.52839 16.5824
threshold=-6008.9999999999991 -30.499999999999996 169.50000000000003 1.0000000180025095e-35 720.50000000000011 4.5000000000000009 760.50000000000011 3.5000000000000004 19754.000000000004
decision_type=2 2 2 2 2 2 2 2 2
left_child=1 2 -1 7 -5 -3 -6 8 -2
right_child=3 5 -4 4 6 -7 -8 -9 -10
leaf_value=0.25207960443678684 0.092558454531062331 -0.05182092079851406 -0.10413948959309967 0.098794190453581079 -0.19522068912365995 -0.34053771766555846 0.20909256393790304 0.023288960164260946 -0.03853050738732499
leaf_weight=10.114222128875555 99.646012935321778 13.695792388170956 12.952172275632618 136.49696619436145 19.822417121380571 19.600548565387726 4.116732455790042 491.98040259070694 653.23483533691615
leaf_count=120 884 87 87 1075 170 125 37 3542 4285
internal_value=0 -0.110954 0.0541867 0.00432987 0.0654521 -0.224423 -0.122702 -0.00357171 -0.0211282
internal_weight=0 56.3627 23.0664 1405.3 160.436 33.2963 23.9391 1244.86 752.881
internal_count=10412 419 207 9993 1282 212 207 8711 5169
is_linear=0
shrinkage=0.3


Tree=20
num_leaves=10
num_cat=0
split_feature=18 18 2 15 7 7 8 7 5
split_gain=6.38121 6.9038 6.95849 6.56466 6.07299 11.316 32.5877 24.951 11.1498
threshold=14552106.500000002 14635036.000000002 1.0000000180025095e-35 371.37699348333211 10.500000000000002 9.5000000000000018 19.500000000000004 8.5000000000000018 1.0000000180025095e-35
decision_type=2 2 2 2 2 2 2 2 2
left_child=4 -2 -3 -4 5 7 8 -1 -7
right_child=1 2 3 -5 -6 6 -8 -9 -10
leaf_value=0.011765672704964859 -0.33763334792772265 0.0098010814689013827 0.15772690856484378 -0.10070795654111726 -0.12055812756263033 0.28383580730945351 -0.14444879669783259 -0.26272138719774502 0.027054139418782264
leaf_weight=986.86170881520957 6.3058412754908195 160.49671573983505 9.0552836498245579 124.88164262194186 30.822977539151907 54.556165065616369 32.491803117096424 30.208542939275503 21.193104319274426
leaf_count=7143 41 1165 64 888 239 299 235 206 148
internal_value=0 -0.0393219 -0.0323445 -0.0826889 0.00969705 0.0133193 0.105293 0.00348188 0.212673
internal_weight=0 300.739 294.434 133.937 1156.13 1125.31 108.241 1017.07 75.7493
internal_count=10428 2158 2117 952 8270 8031 682 7349 447
is_linear=0
shrinkage=0.3


Tree=21
num_leaves=10
num_cat=0
split_feature=10 9 86 92 88 15 0 22 8
split_gain=6.6397 8.90004 9.31137 9.7395 7.75439 6.68301 6.60952 7.521 6.4391
threshold=926.50000000000011 4.5000000000000009 262.50000000000006 3701393153.5001216 8657824.0000000019 371.52340846606455 38.500000000000007 0.00035887314990040682 26.500000000000004
decision_type=2 2 2 2 2 2 2 2 2
left_child=1 4 5 -4 8 -3 -2 -8 -1
right_child=6 2 3 -5 -6 -7 7 -9 -10
leaf_value=-0.010757429406036814 -0.1095137231018191 -0.24091507077881247 -0.17922853838366107 0.26524135544056737 0.33556989875952498 0.20244061446012176 -0.21330336069910152 0.32562089984907633 0.056875045266704886
leaf_weight=1130.8455691318959 78.225195605307817 2.8343742778524748 15.733171310275795 5.5956479907035819 5.586732640862464 48.045452637132257 3.0658404417335969 6.4419574216008186 142.14850954618305
leaf_count=7740 713 37 90 26 35 576 29 60 1055
internal_value=0 0.0042383 0.106318 -0.0590566 -0.0015679 0.175538 -0.0806913 0.149777 -0.00318497
internal_weight=0 1350.79 72.2086 21.3288 1278.58 50.8798 87.733 9.5078 1272.99
internal_count=10361 9559 729 116 8830 613 802 89 8795
is_linear=0
shrinkage=0.3


Tree=22
num_leaves=10
num_cat=0
split_feature=7 10 8 8 8 10 49 8 23
split_gain=7.01685 14.8218 16.3206 10.1658 10.9505 12.265 9.39505 9.33618 8.9305
threshold=1.0000000180025095e-35 177.50000000000003 3.5000000000000004 10.500000000000002 26.500000000000004 730.50000000000011 1.0000000180025095e-35 22.500000000000004 0.0021905831317900882
decision_type=2 2 2 2 2 2 2 2 2
left_child=1 7 -3 8 6 -6 -5 -1 -4
right_child=-2 2 3 4 5 -7 -8 -9 -10
leaf_value=0.26879693168157714 -0.015822725822054629 -0.33817025130747075 0.019301561343196695 0.024574115799464082 0.31707076295004133 -0.20886870479445344 -0.12436100564529604 -0.014280463743105033 0.25149839956206471
leaf_weight=34.728577679488808 1143.1281251679175 11.305253721773623 31.54320939257741 85.960778675973415 15.615704871714117 4.8950767070054999 67.768009692430496 14.852741196285931 27.904404204338789
leaf_count=743 7760 68 199 587 108 42 450 221 241
internal_value=0 0.0360644 0.00564653 0.0229991 -0.01363 0.189474 -0.0412802 0.184735 0.129539
internal_weight=0 294.574 244.992 233.687 174.24 20.5108 153.729 49.5813 59.4476
internal_count=10419 2659 1695 1627 1187 150 1037 964 440
is_linear=0
shrinkage=0.3


Tree=23
num_leaves=10
num_cat=0
split_feature=7 7 8 8 7 7 7 23 8
split_gain=5.19822 33.6151 33.5156 35.1955 64.0573 26.4608 26.3653 21.859 19.2704
threshold=6.5000000000000009 5.5000000000000009 6.5000000000000009 26.500000000000004 9.5000000000000018 8.5000000000000018 8.5000000000000018 0.0051679931627584006 3.5000000000000004
decision_type=2 2 2 2 2 2 2 2 2
left_child=1 8 5 4 -4 -2 -5 -8 -1
right_child=2 -3 3 6 -6 -7 7 -9 -10
leaf_value=-0.12671957557558056 0.27427902722424852 -0.4071409808764766 -0.28878743011657898 0.31926377290124713 0.05496915270130863 -0.023970821451957395 -0.16389242179274618 0.49585703727598096 0.011466321432322873
leaf_weight=100.23898192215711 73.358837739564478 18.262152753770351 84.220798805356026 38.732880464754999 114.66275531612337 41.862650912255049 25.746143020689491 4.9393984824419013 920.37486737733707
leaf_count=629 435 108 548 241 771 277 195 30 7166
internal_value=0 -0.00948429 0.0313604 -0.0268002 -0.0909771 0.1663 0.15637 -0.0511505 -0.0021636
internal_weight=0 1038.88 383.523 268.302 198.884 115.221 69.4184 30.6855 1020.61
internal_count=10400 7903 2497 1785 1319 712 466 225 7795
is_linear=0
shrinkage=0.3


Tree=24
num_leaves=10
num_cat=0
split_feature=3 14 68 88 7 69 23 10 24
split_gain=5.17145 8.74268 5.9324 10.5588 10.6237 10.8206 9.81859 9.70297 12.0868
threshold=1.0000000180025095e-35 1735.9769768529989 1.0000000180025095e-35 1727651.0000000002 3.5000000000000004 1.0000000180025095e-35 0.0018814692097475327 381.50000000000006 12.303195488721807
decision_type=2 2 2 2 2 2 2 2 2
left_child=1 -1 3 4 5 -2 -7 -4 -9
right_child=2 -3 7 -5 -6 6 -8 8 -10
leaf_value=-0.061119794643818316 0.070823830573469831 0.27682007883932763 0.065489875220535634 -0.11574901214034179 -0.042823093687741308 -0.19364088715738645 0.0074681619849734466 -0.033918649952090825 0.34856029040279363
leaf_weight=164.59846701007336 255.28268183162436 6.6768135204911223 317.11216140305623 74.386350253596902 266.32988878386095 27.266345307230949 102.02687477320433 190.70987776853144 7.2141673155128947
leaf_count=1201 2069 42 2495 545 1780 212 774 1250 41
internal_value=0 -0.0471416 0.00839439 -0.00908853 0.00318408 0.0350603 -0.0355538 0.0329987 -0.0190939
internal_weight=0 171.275 1240.33 725.292 650.906 384.576 129.293 515.036 197.924
internal_count=10409 1243 9166 5380 4835 3055 986 3786 1291
is_linear=0
shrinkage=0.3


Tree=25
num_leaves=10
num_cat=0
split_feature=10 79 0 4 15 74 24 92 21
split_gain=4.59495 7.95047 5.11335 5.74855 6.96226 6.751 6.3399 6.9514 6.87332
threshold=143.50000000000003 1.0000000180025095e-35 6.5000000000000009 1.5000000000000002 372.37704764164175 1.0000000180025095e-35 60.05798028444579 2891393153.5001216 -378.49999999999994
decision_type=2 2 2 2 2 2 2 2 2
left_child=1 2 -1 4 6 -6 7 -4 -9
right_child=-2 -3 3 -5 5 -7 -8 8 -10
leaf_value=-0.23519682122473981 -0.0076953858128494665 0.20739009485073881 0.30138236359363108 0.15186995072302487 0.072343313337313239 -0.22052425017018981 0.23547603942091422 0.062469454524973746 -0.21719089176238535
leaf_weight=6.2932778578251591 1183.2127912659198 22.360867046751082 2.8141827518120399 28.505976906977594 95.297653056215495 7.1436091531068078 4.5366412745788685 10.143808193039147 32.440918582491577
leaf_count=38 7701 643 33 375 999 118 66 114 311
internal_value=0 0.0404508 0.0199841 0.0295162 0.00618467 0.0509021 -0.0851276 -0.119487 -0.150625
internal_weight=0 209.537 187.176 180.883 152.377 102.441 49.9356 45.3989 42.5847
internal_count=10398 2697 2054 2016 1641 1117 524 458 425
is_linear=0
shrinkage=0.3


Tree=26
num_leaves=10
num_cat=0
split_feature=7 8 22 7 1 7 0 73 8
split_gain=4.51433 14.4609 13.2938 12.3667 10.4648 8.84675 11.0888 11.0949 10.8055
threshold=9.5000000000000018 19.500000000000004 0.0083683473389355757 8.5000000000000018 2647.0000000000005 10.500000000000002 55.500000000000007 1.0000000180025095e-35 6.5000000000000009
decision_type=2 2 2 2 2 2 2 2 2
left_child=3 2 5 -1 -5 -2 7 -7 -9
right_child=1 -3 -4 4 -6 6 -8 8 -10
leaf_value=0.0012142042555306997 0.17806470401421551 -0.10237085182393899 -0.20425121221299883 -0.28222627414261309 0.10558326830655346 -0.23507142943248105 0.54753596646001546 0.51117061433190103 -0.097833228951557924
leaf_weight=1186.9878305702005 86.022060845047235 42.140562305226922 11.277602460235356 24.271751726046205 8.0664840806275588 15.341996029019359 2.3023268058896056 4.0376279056072235 5.8469880633056164
leaf_count=8976 519 345 67 191 75 126 18 33 53
internal_value=0 0.048713 0.0999317 -0.00381123 -0.18535 0.130942 -0.0168821 -0.0784892 0.164142
internal_weight=0 166.969 124.829 1219.33 32.3382 113.551 27.5289 25.2266 9.88462
internal_count=10403 1161 816 9242 266 749 230 212 86
is_linear=0
shrinkage=0.3


Tree=27
num_leaves=10
num_cat=0
split_feature=20 66 41 8 8 92 7 8 8
split_gain=4.00588 4.20629 7.86159 6.97173 13.2954 9.51537 8.87205 13.3055 11.9934
threshold=-8281.4999999999982 1.0000000180025095e-35 1.0000000180025095e-35 27.500000000000004 23.500000000000004 3775610753.5001216 2.5000000000000004 1.0000000180025095e-35 8.5000000000000018
decision_type=2 2 2 2 2 2 2 2 2
left_child=-1 2 3 4 6 -6 7 -2 -8
right_child=1 -3 -4 -5 5 -7 8 -9 -10
leaf_value=-0.10719895637463289 -0.38930111664783101 -0.016996979356669294 -0.40146082670204936 0.11600726872854447 -0.068654163903215312 -0.3909307952657165 0.069442827369177673 0.076545474808633732 -0.048650652152696372
leaf_weight=30.803382157580927 5.1280211284756652 613.08934180159122 3.5014120601117602 60.545049590989947 61.064946229569614 9.081104798242448 118.64367680018768 252.78088190127164 220.30930486740544
leaf_count=249 31 4712 21 488 498 64 766 2037 1483
internal_value=0 0.00132088 0.0166841 0.018984 0.0100929 -0.112966 0.0246418 0.0665123 -0.00727101
internal_weight=0 1344.14 731.054 727.553 667.008 70.1461 596.862 257.909 338.953
internal_count=10349 10100 5388 5367 4879 562 4317 2068 2249
is_linear=0
shrinkage=0.3


Tree=28
num_leaves=10
num_cat=0
split_feature=8 7 7 10 7 7 8 7 7
split_gain=4.05563 16.4673 28.2619 35.3564 24.7287 13.3554 15.5741 13.0449 35.7397
threshold=15.500000000000002 4.5000000000000009 7.5000000000000009 453.50000000000006 3.5000000000000004 9.5000000000000018 19.500000000000004 5.5000000000000009 6.5000000000000009
decision_type=2 2 2 2 2 2 2 2 2
left_child=-1 4 3 7 -2 -4 -7 -3 -9
right_child=1 2 5 -5 -6 6 -8 8 -10
leaf_value=-0.013659259929387664 0.0035031433151175156 0.34041830186853245 -0.21153890827636221 -0.051601943305948722 -0.25947263133151072 0.15943071401323736 -0.10417690083053073 -0.49396255624307167 0.25245999800367364
leaf_weight=769.24147312925197 319.77476950059645 65.093193743843585 29.201092772185802 48.023992039263248 35.257452100515366 38.685690650716424 41.03600987419486 6.574669435620307 30.757355844601989
leaf_count=5635 2726 475 225 291 236 240 350 36 206
internal_value=0 0.0190173 0.0764019 0.160445 -0.0229564 -0.0398951 0.0239469 0.259624 0.115986
internal_weight=0 614.404 259.372 150.449 355.032 108.923 79.7217 102.425 37.332
internal_count=10420 4785 1823 1008 2962 815 590 717 242
is_linear=0
shrinkage=0.3


Tree=29
num_leaves=10
num_cat=0
split_feature=34 85 3 88 86 20 15 19 85
split_gain=5.43524 7.73696 5.517 6.02566 8.19123 4.25949 5.36525 8.64125 9.07973
threshold=1.0000000180025095e-35 85.500000000000014 10.500000000000002 7288.0000000000009 54.500000000000007 192.50000000000003 380.84943549807412 27.500000000000004 277.50000000000006
decision_type=2 2 2 2 2 2 2 2 2
left_child=2 -2 5 -4 -5 -1 -7 -8 -9
right_child=1 -3 3 4 -6 6 7 8 -10
leaf_value=0.015683690851505123 0.53234441754310491 0.004433104979269094 0.29986870105133745 -0.43959188304638208 -0.077012888139787114 -0.033998662187705281 0.0064105810416240864 0.095048401963267276 0.60824582707129138
leaf_weight=697.54790642228909 3.611782990396021 6.3339460752904415 2.5518575590103856 6.2662445418536654 34.309256250038743 467.29262976394966 121.40730199357495 11.248578965663908 3.9017297178506842
leaf_count=5484 23 53 16 47 268 3474 912 87 27
internal_value=0 0.213195 -0.00379867 -0.108707 -0.137899 -0.000279735 -0.0187178 0.0335027 0.243132
internal_weight=0 9.94573 1344.53 43.1274 40.5755 1301.4 603.85 136.558 15.1503
internal_count=10391 76 10315 331 315 9984 4500 1026 114
is_linear=0
shrinkage=0.3


Tree=30
num_leaves=10
num_cat=0
split_feature=39 88 1 10 88 20 72 7 24
split_gain=4.28775 3.95267 8.66319 6.92209 5.55574 7.52536 6.47201 3.95043 3.6104
threshold=1.0000000180025095e-35 -66593.499999999985 -78.499999999999986 342.50000000000006 -107813.49999999999 -1586.4999999999998 1.0000000180025095e-35 2.5000000000000004 81.22216985366731
decision_type=2 2 2 2 2 2 2 2 2
left_child=1 3 -3 -1 5 -5 -7 -8 -4
right_child=-2 2 8 4 -6 6 7 -9 -10
leaf_value=0.15700531936794862 -0.31341473380947332 0.2501432117242684 0.0049158559218773186 -0.32527368065432588 -0.44616651336868168 0.28985807443882416 -0.19900876174353457 0.16610723773402331 -0.14970918776672246
leaf_weight=7.5306361839175215 3.3424581857398143 12.397861162200568 1286.7705538221635 8.161782808601858 4.5118523687124279 4.9342950638383636 9.0823412425816041 3.2409110814332971 13.211756725329904
leaf_count=108 21 217 9657 56 26 30 58 20 193
internal_value=0 0.00295652 0.00571566 -0.0924482 -0.156832 -0.0975006 0.0166343 -0.100127 0.0032847
internal_weight=0 1349.84 1312.38 37.4618 29.9312 25.4193 17.2575 12.3233 1299.98
internal_count=10386 10365 10067 298 190 164 108 78 9850
is_linear=0
shrinkage=0.3


Tree=31
num_leaves=10
num_cat=0
split_feature=74 8 0 5 21 10 8 0 86
split_gain=4.4683 15.6902 11.4814 14.5912 11.5262 10.2644 9.17113 8.87054 8.5627
threshold=1.0000000180025095e-35 3.5000000000000004 19.500000000000004 1.0000000180025095e-35 232.50000000000003 805.50000000000011 6.5000000000000009 42.500000000000007 67.500000000000014
decision_type=2 2 2 2 2 2 2 2 2
left_child=-1 8 3 4 -3 7 -5 -4 -2
right_child=1 2 5 6 -6 -7 -8 -9 -10
leaf_value=-0.009943420050152002 0.12152664906304483 0.11677646094495485 0.15674210830821902 0.11069761998791132 -0.072703644710226334 -0.08296379774339939 -0.30776331356617159 -0.36278318699190287 -0.25874573505193471
leaf_weight=1038.1317318785004 6.5273258816450861 67.952039180789143 120.94845660589635 5.8541221152991083 49.519867893308401 20.500266268849373 19.625243922229856 2.5500559955835334 23.241968503221869
leaf_count=7480 36 824 1227 30 339 193 126 20 141
internal_value=0 0.0307359 0.0523289 -0.00792575 0.0369336 0.111957 -0.211325 0.144527 -0.174706
internal_weight=0 316.719 286.95 142.951 117.472 143.999 25.4794 123.499 29.7693
internal_count=10416 2936 2759 1319 1163 1440 156 1247 177
is_linear=0
shrinkage=0.3


Tree=32
num_leaves=10
num_cat=0
split_feature=23 14 1 14 50 22 22 20 86
split_gain=3.6086 4.40276 4.98383 4.88555 6.70517 4.90236 4.56795 4.86493 4.00849
threshold=0.0087337909992372242 1515.024772764011 9463.5000000000018 1510.550113517311 1.0000000180025095e-35 0.0013596199349304942 0.0072728234422934522 -1040.4999999999998 61.500000000000007
decision_type=2 2 2 2 2 2 2 2 2
left_child=-1 3 -3 5 8 -2 7 -7 -5
right_child=1 2 -4 4 -6 6 -8 -9 -10
leaf_value=-0.0061787470957389698 0.15243281114512811 0.09955219365932251 -0.29638187192943927 0.08471064491532096 0.27710968595823376 0.22392947894840751 0.19255552070043538 -0.39504587778048345 -0.4360458921064696
leaf_weight=1230.6080770501867 12.171460321638738 79.363310718676075 2.4697954105213276 1.4692098586820046 1.5677824299782512 1.0841345889493821 2.2620752421207726 4.8315278680529428 6.1829488622024655
leaf_count=8471 198 1364 34 72 27 26 63 87 80
internal_value=0 0.050084 0.0857926 -0.0485133 -0.223321 0.0343081 -0.140097 -0.272617 -0.33704
internal_weight=0 111.402 81.8331 29.5691 9.21994 20.3492 8.17774 5.91566 7.65216
internal_count=10422 1951 1398 553 179 374 176 113 152
is_linear=0
shrinkage=0.3


Tree=33
num_leaves=10
num_cat=0
split_feature=9 0 8 88 8 85 7 76 14
split_gain=3.47474 7.88333 7.54274 8.6224 8.60004 11.8148 7.96744 6.98067 7.93407
threshold=1.0000000180025095e-35 41.500000000000007 7.5000000000000009 278997.00000000006 17.500000000000004 106.50000000000001 8.5000000000000018 1.0000000180025095e-35 1519.4934501718333
decision_type=2 2 2 2 2 2 2 2 2
left_child=2 -2 7 4 -4 -6 -7 8 -1
right_child=1 -3 3 -5 5 6 -8 -9 -10
leaf_value=0.15130944814837552 0.022425790750606512 -0.10549258532069374 -0.12558486337302652 0.011808913917208322 -0.099794610774914319 0.14964177702856937 -0.18886592373674504 -0.1083816184767817 0.0096248708468402392
leaf_weight=53.647413200698793 692.08705872367136 45.738926884718239 134.52193873468786 177.64017225895077 60.318822416942567 40.770042357966304 6.9132039584219447 25.920392914675176 103.82197676063515
leaf_count=385 5560 357 1035 1305 553 260 65 187 746
internal_value=0 0.0144267 -0.0162529 -0.0383964 -0.0751162 -0.0119521 0.0990446 0.0344448 0.0582364
internal_weight=0 737.826 603.554 420.164 242.524 108.002 47.6832 183.39 157.469
internal_count=10453 5917 4536 3218 1913 878 325 1318 1131
is_linear=0
shrinkage=0.3


Tree=34
num_leaves=10
num_cat=0
split_feature=23 7 7 8 8 7 7 8 86
split_gain=3.63125 3.55684 11.1948 10.7478 14.6297 23.8705 11.4955 9.86749 9.76225
threshold=0.00064453814677107788 6.5000000000000009 5.5000000000000009 6.5000000000000009 26.500000000000004 8.5000000000000018 8.5000000000000018 10.500000000000002 323.50000000000006
decision_type=2 2 2 2 2 2 2 2 2
left_child=-1 2 -2 6 5 -5 -3 -7 -9
right_child=1 3 -4 4 -6 7 -8 8 -10
leaf_value=-0.16222992576194703 -0.0055134699498449406 0.17393971560343738 -0.26914662495803954 -0.22309854601531814 0.11784936636306277 -0.1604160405330948 -0.024982255305660984 0.0075555283532848161 0.2302621721786352
leaf_weight=12.050489917397497 967.51199243916199 71.549604855943471 14.193356007337568 52.266588212922215 58.806330669671297 22.165893279016018 40.844305282458663 77.248903213068843 22.475954035297036
leaf_count=127 7745 424 105 380 464 180 274 562 170
internal_value=0 -0.000253872 -0.00946661 0.0259087 -0.0108856 -0.0545777 0.10187 0.0183296 0.0586904
internal_weight=0 1327.06 981.705 345.358 232.964 174.157 112.394 121.891 99.7249
internal_count=10431 10304 7850 2454 1756 1292 698 912 732
is_linear=0
shrinkage=0.3


Tree=35
num_leaves=10
num_cat=0
split_feature=21 8 52 2 20 25 10 0 92
split_gain=3.86565 3.17819 7.95243 9.33279 9.66024 7.65056 7.48573 7.25557 8.32299
threshold=-1690.9999999999998 12.500000000000002 1.0000000180025095e-35 1.0000000180025095e-35 316.50000000000006 0.026631016765218205 926.50000000000011 46.500000000000007 3644455553.5001216
decision_type=2 2 2 2 2 2 2 2 2
left_child=-1 7 3 4 6 -6 -3 -2 -9
right_child=1 2 -4 -5 5 -7 -8 8 -10
leaf_value=-0.25430696632493738 -0.020949192081006308 0.10900593126360621 0.059728043873393685 -0.047420861924151396 0.22537960980065697 -0.056569789848500841 -0.13892866376195218 0.05159687029017037 0.48828392384243718
leaf_weight=4.7943517351523033 570.12993483827449 125.46699241991155 241.19501711288467 249.70968774310313 8.971890209708361 98.926805451046675 11.558230914175509 17.25764457508922 4.6219718456268302
leaf_count=39 4197 1131 1886 2006 134 742 102 149 41
internal_value=0 0.00196939 0.0151294 -0.00665813 0.0349136 -0.0321493 0.0876427 -0.0143866 0.153109
internal_weight=0 1327.84 735.829 494.634 244.924 107.899 137.025 592.01 21.8796
internal_count=10427 10388 6001 4115 2109 876 1233 4387 190
is_linear=0
shrinkage=0.3


Tree=36
num_leaves=10
num_cat=0
split_feature=85 15 92 21 85 15 10 25 24
split_gain=3.9034 3.24648 6.79411 8.60509 7.92382 14.2498 8.0865 7.99251 15.4724
threshold=1154.0000000000002 371.99954285281711 3038964353.5001216 122.50000000000001 517.50000000000011 373.11015502368957 1245.0000000000002 1.2157976827094477 3.5977063520801971
decision_type=2 2 2 2 2 2 2 2 2
left_child=1 -1 3 -3 -4 6 7 8 -6
right_child=-2 2 4 -5 5 -7 -8 -9 -10
leaf_value=0.030261546846087464 -0.24997712122361304 -0.017436165949846476 -0.0080126112696658064 -0.28365006220272798 -0.0057960320711311318 0.0026217847317813398 -0.10461456357624814 0.78010569854381973 0.7748737530094002
leaf_weight=261.67291081463918 5.1045499853789797 28.702561188722029 958.55832112813368 17.196670234203339 6.6271771118044871 34.443984348326921 2.8377054184675208 3.8301742393523446 2.9569399207830429
leaf_count=2096 64 236 7414 120 60 305 34 34 22
internal_value=0 0.000384338 -0.00703641 -0.119252 -0.00187376 0.113094 0.339828 0.434246 0.262747
internal_weight=0 1316.83 1055.15 45.8992 1009.25 50.696 16.252 13.4143 9.58412
internal_count=10385 10321 8225 356 7869 455 150 116 82
is_linear=0
shrinkage=0.3


Tree=37
num_leaves=10
num_cat=0
split_feature=8 8 85 93 8 7 92 19 1
split_gain=4.09409 8.27862 9.35199 8.26402 12.06 12.4873 11.4938 10.9938 8.6193
threshold=23.500000000000004 15.500000000000002 23.500000000000004 2.5000000000000004 24.500000000000004 1.5000000000000002 3767834753.5001216 13.500000000000002 61.500000000000007
decision_type=2 2 2 2 2 2 2 2 2
left_child=1 2 -1 4 5 -2 -5 -7 -8
right_child=3 -3 -4 6 -6 7 8 -9 -10
leaf_value=0.078642115868375287 -0.74082129602615754 0.044625318988651325 -0.02370352245236312 -0.045818774941411761 0.073011780918025446 0.40623468036642935 0.17349340195513224 -0.32182426243397871 -0.35813198625043763
leaf_weight=91.03081234334968 2.8996781855821592 350.8713069204241 656.70414603175595 116.77111785439774 78.904686034657061 2.5774464355781674 2.8879529852420118 4.1709594875574112 18.377306538168341
leaf_count=866 19 2776 4767 1008 727 24 34 39 137
internal_value=0 0.00664396 -0.0111974 -0.0376012 0.0338114 -0.274025 -0.0833683 -0.0345178 -0.283498
internal_weight=0 1098.61 747.735 226.589 88.5528 9.64808 138.036 6.74841 21.2653
internal_count=10397 8409 5633 1988 809 82 1179 63 171
is_linear=0
shrinkage=0.3


Tree=38
num_leaves=10
num_cat=0
split_feature=23 7 8 92 21 76 20 92 21
split_gain=4.4679 3.67846 6.58153 8.92053 7.00752 5.61018 5.52413 6.44621 5.32045
threshold=0.0087337909992372242 3.5000000000000004 9.5000000000000018 3267751553.5001216 -11.499999999999998 1.0000000180025095e-35 670.50000000000011 3777597953.5001216 -240.49999999999997
decision_type=2 2 2 2 2 2 2 2 2
left_child=-1 2 3 4 8 -5 -3 -8 -2
right_child=1 6 -4 5 -6 -7 7 -9 -10
leaf_value=-0.0067093069783952623 -0.073173853154744659 0.07740265788711477 0.20058352368309382 0.24798985163948695 0.26171479396313152 -0.24601190434790318 -0.041912083901297144 -0.49132392609636799 -0.66625838182964947
leaf_weight=1219.4469386842102 2.4517907572444524 36.881431930698454 30.710602815495804 8.5563248666003329 1.311113897711041 2.2227881816215804 19.319302609190348 2.876749960705637 3.0024172260891651
leaf_count=8480 48 407 1012 171 16 29 185 22 65
internal_value=0 0.0569917 0.117965 -0.0282774 -0.286308 0.139437 0.00658874 -0.110148 -0.42944
internal_weight=0 107.333 48.255 17.5444 6.76532 10.7791 59.0775 22.1961 5.45421
internal_count=10435 1955 1341 329 129 200 614 207 113
is_linear=0
shrinkage=0.3


Tree=39
num_leaves=10
num_cat=0
split_feature=25 7 23 25 3 14 71 19 21
split_gain=2.8441 6.32607 6.05849 5.16457 4.11605 6.31657 4.67421 4.25111 8.46555
threshold=2.9924447991487102 8.5000000000000018 0.0017021288924428375 3.1371359223300974 1.0000000180025095e-35 1526.9700013402532 1.0000000180025095e-35 3.5000000000000004 274.50000000000006
decision_type=2 2 2 2 2 2 2 2 2
left_child=-1 3 -3 -2 5 6 -5 8 -6
right_child=1 2 -4 4 7 -7 -8 -9 -10
leaf_value=0.0084293480751369328 -0.30042544200549459 0.094735839246185616 -0.30345669753560467 -0.043780065789272085 0.36423540198147419 0.026052565449875557 -0.49404022170618273 -0.0022006872308707919 -0.097521370606025309
leaf_weight=1154.3044471410103 4.9034704873338333 4.3470510132610825 12.858592405915259 3.5718059893697518 7.9412126746028644 10.473993403837083 4.8229376659728587 108.968255298445 5.8713646978139877
leaf_count=9218 36 41 78 26 68 73 37 797 40
internal_value=0 -0.0337582 -0.203026 -0.0132332 -0.00222069 -0.130689 -0.316293 0.0179937 0.171565
internal_weight=0 163.759 17.2056 146.553 141.65 18.8687 8.39474 122.781 13.8126
internal_count=10414 1196 119 1077 1041 136 63 905 108
is_linear=0
shrinkage=0.3


Tree=40
num_leaves=10
num_cat=0
split_feature=67 22 0 19 92 15 22 19 51
split_gain=3.59404 5.6063 5.30877 7.9124 5.82185 6.29976 11.106 7.41644 6.47397
threshold=1.0000000180025095e-35 0.046536796536796543 34.500000000000007 10.500000000000002 2924225153.5001216 372.42014983145089 0.0013802629072204231 14.500000000000002 1.0000000180025095e-35
decision_type=2 2 2 2 2 2 2 2 2
left_child=-1 2 4 -4 -2 6 -6 -8 -7
right_child=1 -3 3 -5 5 8 7 -9 -10
leaf_value=0.0099281007534347543 0.21232183989495626 0.25391829284089251 0.037716379451766653 -0.2914949728414935 -0.2614272030445644 0.061502202040363323 -0.15409193919454159 0.17311562599492425 -0.077358181692074007
leaf_weight=1093.4281377156731 8.5474214674904925 5.4577652970328918 10.588782265782358 16.334546288475394 25.184561470989138 70.26800379762426 11.106955677503722 12.922894035000352 52.197550744749606
leaf_count=8710 67 47 87 128 199 546 86 99 380
internal_value=0 -0.0326556 -0.0408277 -0.16377 -0.0220403 -0.0343191 -0.124357 0.0218145 0.00223937
internal_weight=0 212.608 207.151 26.9233 180.227 171.68 49.2144 24.0298 122.466
internal_count=10349 1639 1592 215 1377 1310 384 185 926
is_linear=0
shrinkage=0.3


Tree=41
num_leaves=10
num_cat=0
split_feature=20 88 24 50 21 0 3 19 9
split_gain=3.77062 3.54841 7.6627 4.60903 5.0833 5.49471 3.43377 7.03865 3.25191
threshold=-20122.999999999996 -82655.999999999985 -0.60714717667208962 1.0000000180025095e-35 430.50000000000006 26.500000000000004 2.5000000000000004 12.500000000000002 5.5000000000000009
decision_type=2 2 2 2 2 2 2 2 2
left_child=-1 3 -3 4 5 6 7 -2 -4
right_child=1 2 8 -5 -6 -7 -8 -9 -10
leaf_value=-0.25200849447218521 -0.35157449932738188 0.28991930814980565 -0.0031385110374553544 -0.37374627155010159 -0.2455333334038268 -0.16518390761156551 0.29996144418465176 0.27527167768996386 0.080578689775748266
leaf_weight=4.8790516257286063 2.4932740684598773 7.7168716166634104 1230.4794161631726 4.207414384931325 7.8653381820768109 7.1856445204466572 6.3009965750388801 2.9395612385123968 42.701343049062416
leaf_count=41 17 230 9397 30 76 57 53 23 502
internal_value=0 -0.000878659 0.00156759 -0.100326 -0.0510283 0.0342713 0.158255 -0.0180265 -0.000298711
internal_weight=0 1311.89 1280.9 30.9922 26.7848 18.9195 11.7338 5.43284 1273.18
internal_count=10426 10385 10129 256 226 150 93 40 9899
is_linear=0
shrinkage=0.3


Tree=42
num_leaves=10
num_cat=0
split_feature=77 15 19 93 8 49 8 88 86
split_gain=2.72223 9.17578 11.0137 7.56989 7.47993 8.48619 7.00909 7.70789 6.78358
threshold=1.0000000180025095e-35 371.91791359487701 7.5000000000000009 1.0000000180025095e-35 25.500000000000004 1.0000000180025095e-35 13.500000000000002 570058.00000000012 276.50000000000006
decision_type=2 2 2 2 2 2 2 2 2
left_child=-1 2 8 -3 5 6 7 -5 -2
right_child=1 3 -4 4 -6 -7 -8 -9 -10
leaf_value=-0.0080201926697900539 0.21962068500381318 -0.17851142196070643 0.077732621532002125 0.10607715194383009 -0.18533056466181058 -0.046466339866247298 0.22072427644300557 -0.21073190065198624 0.83613578908814035
leaf_weight=1133.4262621731032 4.3358054950367686 18.111372553277761 24.136592725059018 27.096330677159131 12.969912748550994 47.168157441541553 31.537243767408654 8.7011517137289029 2.6587504930794239
leaf_count=9002 37 146 184 195 124 342 263 69 15
internal_value=0 0.0319598 0.178345 0.000129919 0.0261383 0.050827 0.118814 0.0271421 0.495916
internal_weight=0 176.715 31.1311 145.584 127.473 114.503 67.3347 35.7975 6.99456
internal_count=10377 1375 236 1139 993 869 527 264 52
is_linear=0
shrinkage=0.3


Tree=43
num_leaves=10
num_cat=0
split_feature=41 46 23 85 86 3 21 93 85
split_gain=2.88692 2.95753 8.45653 7.29817 4.32254 3.80131 3.72612 7.70035 2.8329
threshold=1.0000000180025095e-35 1.0000000180025095e-35 0.0018814692097475327 37.500000000000007 52.500000000000007 2.5000000000000004 -441.99999999999994 1.5000000000000002 330.50000000000006
decision_type=2 2 2 2 2 2 2 2 2
left_child=1 8 -3 5 -5 -4 -6 -8 -1
right_child=-2 2 3 4 6 -7 7 -9 -10
leaf_value=0.0020129016766520977 -0.22526987159381334 0.42974087823426632 0.060370153320778455 0.25072464709485992 0.14372367322554142 0.51840760662792418 0.11957977388245636 -0.30550670310634392 -0.037877587930572207
leaf_weight=1082.6672520198626 4.6862497590482226 4.876225263811647 3.414228874724361 3.0313823893666294 3.861706677824265 2.9004236329346895 5.34676469862461 11.233210369944571 187.52520375046879
leaf_count=8716 35 42 28 18 24 23 33 69 1443
internal_value=0 -0.00151437 0.0842805 0.0212766 -0.0570115 0.294359 -0.107774 -0.16896 -0.00388953
internal_weight=0 1304.86 34.6639 29.7877 23.4731 6.31465 20.4417 16.58 1270.19
internal_count=10431 10396 237 195 144 51 126 102 10159
is_linear=0
shrinkage=0.3


Tree=44
num_leaves=10
num_cat=0
split_feature=8 14 77 8 0 10 92 20 15
split_gain=3.5038 6.75829 7.82726 6.75787 10.1604 9.58345 8.12873 6.3253 6.34506
threshold=23.500000000000004 1508.9879464092221 1.0000000180025095e-35 26.500000000000004 18.500000000000004 691.50000000000011 3206148353.5001216 971.50000000000011 377.72371471821214
decision_type=2 2 2 2 2 2 2 2 2
left_child=-1 2 -2 4 6 -5 -3 -8 -9
right_child=1 3 -4 5 -6 -7 7 8 -10
leaf_value=0.004642807968862404 -0.20875863666231817 0.2217094901808819 0.20403742795087007 0.065593337684327069 -0.20679289479947913 -0.17317450310132146 -0.16642416108888175 -0.14944714767312417 0.45791781875569254
leaf_weight=1088.7696260469966 31.028824895387515 11.781805547885595 4.3312444034963837 100.16708518587984 32.934336464153603 17.291416620835662 17.48038383573294 2.4473705021664491 2.9257793603464961
leaf_count=8451 280 110 39 904 303 156 141 21 26
internal_value=0 -0.0367934 -0.155954 -0.013645 -0.0888676 0.0298305 0.0246771 -0.0795933 0.192578
internal_weight=0 220.388 35.3601 185.028 67.5697 117.459 34.6353 22.8535 5.37315
internal_count=10431 1980 319 1661 601 1060 298 188 47
is_linear=0
shrinkage=0.3


Tree=45
num_leaves=10
num_cat=0
split_feature=0 8 74 34 20 8 83 8 74
split_gain=2.80877 15.4135 5.89895 5.28253 6.12713 3.8864 2.49431 2.44865 7.80176
threshold=6.5000000000000009 3.5000000000000004 1.0000000180025095e-35 1.0000000180025095e-35 60.500000000000007 16.500000000000004 1.0000000180025095e-35 3.5000000000000004 1.0000000180025095e-35
decision_type=2 2 2 2 2 2 2 2 2
left_child=1 -1 6 7 -5 -4 -3 8 -2
right_child=3 2 5 4 -6 -7 -8 -9 -10
leaf_value=0.44515942050586493 -7.7743985669323252e-05 -0.3231747134304867 0.17864514378343135 0.52593133666382141 0.018281627235642622 -0.21592584058156644 -0.089624846110935089 0.0090046841709408871 -0.17123019841810697
leaf_weight=3.8328299075365058 136.55054294737056 13.201366996392609 5.8738643303513545 3.2518455162644369 5.0292619504034519 2.9518551179207861 6.6203028112649909 1099.943148582126 28.549664448946714
leaf_count=26 897 122 46 23 36 25 62 9027 176
internal_value=0 -0.0831436 -0.160555 0.00550128 0.237065 0.0419707 -0.249489 0.0038879 -0.0301222
internal_weight=0 32.4802 28.6474 1273.32 8.28111 8.82572 19.8217 1265.04 165.1
internal_count=10440 281 255 10159 59 71 184 10100 1073
is_linear=0
shrinkage=0.3


Tree=46
num_leaves=10
num_cat=0
split_feature=92 85 92 48 22 28 85 24 3
split_gain=3.18373 10.5952 6.27506 5.37847 5.97144 5.12627 4.91059 9.90326 8.73831
threshold=3014340353.5001216 463.50000000000006 3022548353.5001216 1.0000000180025095e-35 0.0014524335909811999 1.0000000180025095e-35 517.50000000000011 0.57167029248247536 8.5000000000000018
decision_type=2 2 2 2 2 2 2 2 2
left_child=1 5 3 4 -2 -1 -4 -8 -9
right_child=2 -3 6 -5 -6 -7 7 8 -10
leaf_value=-0.023909159491026642 0.0013025027936959628 -0.28651009728091253 6.0050901684352573e-05 -0.084722427187824786 0.6226824155040237 0.29052956534802221 -0.13801125909230458 0.11631625897089977 0.66518842347277207
leaf_weight=159.98831325070933 2.1102283450309169 13.503134043887256 1055.0336194420233 2.6447447771206498 3.5774309739936143 4.2831536880694321 13.441910639405249 46.72015717998147 2.28177661076188
leaf_count=1278 23 134 8345 23 28 31 143 407 21
internal_value=0 -0.0362314 0.00691315 0.258443 0.411699 -0.0148127 0.00491736 0.0863016 0.148643
internal_weight=0 177.775 1125.81 8.3324 5.68766 164.271 1117.48 62.4438 49.0019
internal_count=10433 1443 8990 74 51 1309 8916 571 428
is_linear=0
shrinkage=0.3


Tree=47
num_leaves=10
num_cat=0
split_feature=19 1 25 74 85 20 7 91 88
split_gain=2.47248 5.90968 6.10057 9.92425 8.47365 7.732 7.70761 7.52374 8.57897
threshold=24.500000000000004 202.50000000000003 0.66997536945812819 1.0000000180025095e-35 380.50000000000006 -1068.4999999999998 1.5000000000000002 0.82839096936032985 570058.00000000012
decision_type=2 2 2 2 2 2 2 2 2
left_child=-1 -2 6 5 -5 -4 -3 -7 -9
right_child=1 2 3 4 -6 7 -8 8 -10
leaf_value=-0.0049226440464551812 0.10286578882492213 0.13478259123255809 -0.26040840721703096 -0.43326047366834181 0.06720870100049986 -0.057933902560444873 -0.011289000390704162 0.41882382270794616 -0.065093966450706003
leaf_weight=1025.7098234753357 68.793296782299876 45.898057651356794 8.098680801689623 10.232633601874111 4.0694131404161444 19.929772395640612 108.25552184763364 7.8530886769294721 5.2309298664331436
leaf_count=8227 592 395 58 72 32 114 817 53 49
internal_value=0 0.0269324 0.00181195 -0.0830948 -0.293518 -0.00712041 0.032512 0.0581125 0.2303
internal_weight=0 278.361 209.568 55.4145 14.302 41.1125 154.154 33.0138 13.084
internal_count=10409 2182 1590 378 104 274 1212 216 102
is_linear=0
shrinkage=0.3


Tree=48
num_leaves=10
num_cat=0
split_feature=15 6 19 25 10 21 7 5 10
split_gain=2.98596 2.69723 5.65511 7.8096 6.98598 9.73632 7.18419 6.97507 6.15186
threshold=370.91729575402582 1.0000000180025095e-35 6.5000000000000009 0.044367618071074678 256.50000000000006 -798.49999999999989 2.5000000000000004 1.0000000180025095e-35 488.50000000000006
decision_type=2 2 2 2 2 2 2 2 2
left_child=-1 -2 3 -3 6 -6 -4 -8 -5
right_child=1 2 4 8 5 -7 7 -9 -10
leaf_value=-0.22858274343646573 -0.009194429535315787 -0.23236329120052113 0.23875260533609716 0.095892593262603465 0.46226769631727915 -0.080505458042233247 0.14160937256879264 -0.15306363198253733 0.39623326975354395
leaf_weight=4.8408687422052017 1146.9738646204351 3.824275049846622 17.91555048187729 17.90856342762709 2.5944860186427823 66.601015605032444 14.257877914700657 13.626058383611962 9.2194050773978216
leaf_count=40 9033 48 345 160 17 462 116 124 56
internal_value=0 -0.00430259 0.0340369 0.146709 0.00318197 -0.0568323 0.0934708 -0.00255589 0.203538
internal_weight=0 1292.92 145.947 30.9522 114.995 69.1955 45.7995 27.8839 27.128
internal_count=10401 10361 1328 264 1064 479 585 240 216
is_linear=0
shrinkage=0.3


Tree=49
num_leaves=10
num_cat=0
split_feature=92 85 20 10 85 86 88 86 8
split_gain=3.05459 4.1839 2.5525 6.23478 5.9718 5.79327 6.94664 7.69895 6.66979
threshold=2879210753.5001216 117.50000000000001 1199.5000000000002 315.50000000000006 774.50000000000011 367.50000000000006 626593.50000000012 359.50000000000006 20.500000000000004
decision_type=2 2 2 2 2 2 2 2 2
left_child=1 -1 4 -4 -2 6 -5 -8 -7
right_child=2 -3 3 5 -6 8 7 -9 -10
leaf_value=0.35867151222486465 0.0090671112440839467 -0.029171855424294502 -0.062565658087827214 -0.18989652627304104 -0.18417060139726979 -0.040752953685861584 0.13635231064307435 0.62973205389638531 0.131131834644584
leaf_weight=4.4806973133236152 955.53326816356275 4.8629693053662777 176.64474813209381 4.0396421346813467 14.089891999028621 99.537923658266664 17.576976865530018 3.0005540698766699 24.971636136993766
leaf_count=50 7692 35 1401 23 184 712 117 20 213
internal_value=0 0.165987 -0.00155946 -0.024512 0.00616114 0.0206249 0.151984 0.222149 -0.0058746
internal_weight=0 9.34367 1295.39 325.771 969.623 149.127 24.6172 20.5775 124.51
internal_count=10447 85 10362 2486 7876 1085 160 137 925
is_linear=0
shrinkage=0.3


Tree=50
num_leaves=10
num_cat=0
split_feature=22 76 14 15 19 0 7 25 86
split_gain=2.93096 6.03529 7.0484 5.55691 4.81023 6.39632 7.54536 8.67541 6.23324
threshold=0.0063092110500756323 1.0000000180025095e-35 1592.357033928495 372.35173613859746 25.500000000000004 19.500000000000004 2.5000000000000004 2.2682459583216525 85.500000000000014
decision_type=2 2 2 2 2 2 2 2 2
left_child=-1 4 3 -3 5 -2 8 -8 -7
right_child=1 2 -4 -5 -6 6 7 -9 -10
leaf_value=0.012425069296000684 -0.085599196320933851 -0.001826433914121184 0.14995190187050145 -0.30387799114131636 0.099693604733549768 0.20255517077252996 0.21887901415498445 -0.14100240308877401 -0.2052451630018654
leaf_weight=1093.3449933667434 77.841420580167323 7.8456676141358974 5.506613263860344 17.717820469522849 31.817985826171935 25.928578297374774 7.3989580809138706 24.911602237960324 3.4367064200341693
leaf_count=8749 634 68 37 139 260 274 63 177 30
internal_value=0 -0.0268326 -0.147315 -0.213075 -0.00460168 -0.0286711 0.043294 -0.0564132 0.152067
internal_weight=0 202.405 31.0701 25.5635 171.335 139.517 61.6758 32.3106 29.3653
internal_count=10431 1682 244 207 1438 1178 544 240 304
is_linear=0
shrinkage=0.3


Tree=51
num_leaves=10
num_cat=0
split_feature=23 14 52 0 24 20 4 8 24
split_gain=2.56429 6.46512 5.16587 9.38061 9.78123 7.41529 7.03165 6.51532 7.52101
threshold=0.0018814692097475327 1483.3730488261742 1.0000000180025095e-35 30.500000000000004 3.1143631255017401 -475.49999999999994 1.5000000000000002 26.500000000000004 0.1953387533875339
decision_type=2 2 2 2 2 2 2 2 2
left_child=1 -1 -3 4 5 7 -5 8 -4
right_child=-2 2 3 6 -6 -7 -8 -9 -10
leaf_value=0.2677943779360436 0.0040489673638781677 -0.060226132236790964 -0.091505425917043776 0.051435880975583402 0.1894862810153056 -0.187405106530253 0.36834208810423735 -0.34739903981619208 0.28468165929650813
leaf_weight=6.0140609424561253 990.89915386261418 205.71707877423614 8.6618280764669233 16.620475929230452 13.231754459440706 30.83880952745676 9.8328960761427897 2.7902812846004954 9.6438113152980787
leaf_count=44 8030 1634 66 138 101 250 67 19 75
internal_value=0 -0.0274516 -0.033884 0.0252689 -0.0360535 -0.0948348 0.174099 0.0417505 0.109086
internal_weight=0 303.351 297.337 91.6199 65.1665 51.9347 26.4534 21.0959 18.3056
internal_count=10424 2394 2350 716 511 410 205 160 141
is_linear=0
shrinkage=0.3


Tree=52
num_leaves=10
num_cat=0
split_feature=68 88 93 7 0 8 19 8 0
split_gain=3.17637 8.08059 10.9607 7.05131 10.9133 10.6637 10.7316 6.81636 7.65087
threshold=1.0000000180025095e-35 3381910.5000000005 1.5000000000000002 6.5000000000000009 13.500000000000002 6.5000000000000009 11.500000000000002 3.5000000000000004 7.5000000000000009
decision_type=2 2 2 2 2 2 2 2 2
left_child=-1 3 -3 7 -5 6 -6 8 -2
right_child=1 2 -4 4 5 -7 -8 -9 -10
leaf_value=-0.011972655990892339 0.30457461329098728 0.55272963722538526 0.062545582972655764 0.20061097209813183 -0.099249318240535914 -0.05246182815747024 0.25058022239534733 0.0039668522530266438 -0.16175101172933767
leaf_weight=711.11114285106305 2.9707096070051184 5.2743645440787104 14.62471443787217 39.794166087172925 10.934547087410463 68.957552695181221 25.791721338406205 370.42717949091457 37.882142273709178
leaf_count=5757 19 41 108 298 72 513 161 3180 255
internal_value=0 0.0179775 0.203321 0.0111681 0.067808 0.0170592 0.146494 -0.00892733 -0.124413
internal_weight=0 576.657 19.8991 556.758 145.478 105.684 36.7263 411.28 40.8529
internal_count=10404 4647 149 4498 1044 746 233 3454 274
is_linear=0
shrinkage=0.3


Tree=53
num_leaves=10
num_cat=0
split_feature=85 74 8 8 87 20 91 21 14
split_gain=3.94052 3.50852 6.62258 7.00989 6.3164 8.44052 7.44063 6.77734 5.21713
threshold=1.0000000180025095e-35 1.0000000180025095e-35 3.5000000000000004 11.500000000000002 8.5000000000000018 -3499.9999999999995 0.79618347966314296 430.50000000000006 1518.6697499397076
decision_type=2 2 2 2 2 2 2 2 2
left_child=-1 -2 -3 4 6 -6 -4 -7 -8
right_child=1 2 3 -5 5 7 8 -9 -10
leaf_value=0.29153758726733531 -0.011371024131853192 -0.11107888926796856 0.11515676029654992 0.0043881440035171025 -0.24617768741061219 0.18602395351155229 0.14509830014409703 0.55538213794656444 -0.20927354857161712
leaf_weight=3.5811537139816201 989.85003899014555 28.102602707222104 45.245400262181647 169.43469475407619 2.8080252893269089 22.670029896078635 4.7628935612738159 5.431010738015174 12.860752172768114
leaf_count=62 7401 181 515 1754 32 242 39 47 106
internal_value=0 -0.00285339 0.0260568 0.0408901 0.10645 0.216387 0.0510577 0.26627 -0.112078
internal_weight=0 1281.17 291.315 263.213 93.7781 30.9091 62.869 28.101 17.6236
internal_count=10379 10317 2916 2735 981 321 660 289 145
is_linear=0
shrinkage=0.3


Tree=54
num_leaves=10
num_cat=0
split_feature=20 22 70 72 19 0 8 1 1
split_gain=2.47109 4.83877 7.90288 8.23182 7.79057 5.62336 7.45058 10.7064 5.3028
threshold=1867.0000000000002 0.00077399427172350932 1.0000000180025095e-35 1.0000000180025095e-35 7.5000000000000009 45.500000000000007 6.5000000000000009 1843.5000000000002 -33.499999999999993
decision_type=2 2 2 2 2 2 2 2 2
left_child=1 2 3 5 8 -1 -7 -8 -4
right_child=-2 -3 4 -5 -6 6 7 -9 -10
leaf_value=0.046875582462431592 -0.027187164360633162 -0.0057521842247768981 -0.010294363747445627 -0.049607558449822599 0.075125141421893901 -0.11315391274660128 -0.070560688859125822 0.64429828726543292 0.45055057169900325
leaf_weight=117.47057965921704 245.11383348307572 777.99320969294058 2.848522383137607 94.581099069095217 33.342556163435802 3.111268347129224 2.6601180415600538 5.2407575696706772 9.7274816534481907
leaf_count=937 1868 6248 34 804 384 21 31 45 71
internal_value=0 0.00624493 0.0408886 0.0174042 0.153487 0.0667353 0.266833 0.414198 0.349931
internal_weight=0 1046.98 268.982 223.064 45.9186 128.483 11.0121 7.90088 12.576
internal_count=10443 8575 2327 1838 489 1034 97 76 105
is_linear=0
shrinkage=0.3


Tree=55
num_leaves=10
num_cat=0
split_feature=7 85 0 8 69 14 0 0 21
split_gain=2.60497 7.86798 6.71884 4.1621 4.39006 3.36428 2.97671 5.66243 7.51583
threshold=10.500000000000002 111.50000000000001 45.500000000000007 4.5000000000000009 1.0000000180025095e-35 1511.3861715651562 42.500000000000007 46.500000000000007 -297.49999999999994
decision_type=2 2 2 2 2 2 2 2 2
left_child=6 2 3 -2 -5 -3 -1 -8 -9
right_child=1 5 -4 4 -6 -7 7 8 -10
leaf_value=0.0050376942569650852 0.21943230819921036 0.046056655436454229 0.46222075283213948 -0.27595981888316407 0.071654291385201241 -0.31129067439676955 -0.19318532682252673 -0.26778542858835019 0.057351823303748641
leaf_weight=1190.6452617608011 4.0111084338277641 2.7823369558900586 2.4333530105650416 6.4680003207176906 5.8159442842006683 11.801006004214285 19.594042996875942 7.2519874004647127 35.597754744812846
leaf_count=9570 26 30 21 57 46 122 169 64 296
internal_value=0 -0.0826784 0.0460673 -0.0285435 -0.115181 -0.24388 0.00167799 -0.0618917 -0.000245873
internal_weight=0 33.3117 18.7284 16.2951 12.2839 14.5833 1253.09 62.4438 42.8497
internal_count=10401 302 150 129 103 152 10099 529 360
is_linear=0
shrinkage=0.3


Tree=56
num_leaves=10
num_cat=0
split_feature=85 85 92 21 4 24 92 85 85
split_gain=2.43967 5.89823 8.32866 6.88884 8.65168 6.27131 5.57534 5.57447 6.20006
threshold=171.50000000000003 222.50000000000003 2919905153.5001216 -66.499999999999986 1.5000000000000002 10.64632113359097 3570497153.5001216 144.50000000000003 134.50000000000003
decision_type=2 2 2 2 2 2 2 2 2
left_child=7 2 -2 5 -5 -4 -6 8 -1
right_child=1 -3 3 4 6 -7 -8 -9 -10
leaf_value=-0.0077948894323015541 -0.2482885116231543 -0.0036184326771034471 0.043767732113044452 0.19095416832376844 -0.20982905896642901 -0.26709631096277592 0.15634355740247152 -0.080355561674521472 0.12243249254516425
leaf_weight=693.83418879355304 6.3812178298830977 338.93470479268581 33.13076950609684 62.973022086545825 8.7516707293689233 6.5438379775732747 5.7923315726220599 90.545590730383992 34.015563119202852
leaf_count=6231 41 2518 215 419 56 41 35 630 236
internal_value=0 0.0168641 0.0728215 0.0913338 0.143082 -0.0103192 -0.0636306 -0.0103815 -0.00162509
internal_weight=0 462.508 123.573 117.192 77.517 39.6746 14.544 818.395 727.85
internal_count=10422 3325 807 766 510 256 91 7097 6467
is_linear=0
shrinkage=0.3


Tree=57
num_leaves=10
num_cat=0
split_feature=21 88 19 22 4 7 24 20 87
split_gain=2.72393 6.42309 7.60622 3.93255 3.51947 4.00921 3.96654 3.33248 3.25534
threshold=-716.49999999999989 501296.00000000006 21.500000000000004 0.069047619047619066 1.5000000000000002 1.0000000180025095e-35 0.35551215277777787 -1698.9999999999998 5.5000000000000009
decision_type=2 2 2 2 2 2 2 2 2
left_child=1 3 -3 4 5 7 -7 -1 -8
right_child=-2 2 -4 -5 -6 6 8 -9 -10
leaf_value=-0.089635180889224453 -0.00678096746476913 -0.23879026253719285 0.16543417309746652 -0.27344955719683572 0.31310758572518643 0.2981099076552533 0.14201621820051458 0.38526769523277327 -0.05246568345998015
leaf_weight=1.4767217542976139 1213.0318498819834 11.718631569296123 5.9206427698954931 1.9048874173313368 6.8784747389145187 4.4499894601758561 10.97853169380687 5.6136594228446475 23.210507026407868
leaf_count=25 9724 82 45 17 95 41 96 86 183
internal_value=0 0.0530131 -0.102253 0.10375 0.11997 0.0877005 0.0477778 0.286997 0.0111861
internal_weight=0 72.152 17.6393 54.5128 52.6079 45.7294 38.639 7.09038 34.189
internal_count=10394 670 127 543 526 431 320 111 279
is_linear=0
shrinkage=0.3


Tree=58
num_leaves=10
num_cat=0
split_feature=93 10 7 14 86 19 22 68 87
split_gain=2.4658 6.78274 8.01038 8.53277 7.88417 7.17023 6.72089 5.48598 4.90903
threshold=1.0000000180025095e-35 221.50000000000003 8.5000000000000018 1526.2991792843579 530.50000000000011 14.500000000000002 0.001244555553490332 1.0000000180025095e-35 6.5000000000000009
decision_type=2 2 2 2 2 2 2 2 2
left_child=1 2 3 5 -3 6 -1 -5 -6
right_child=-2 4 -4 7 8 -7 -8 -9 -10
leaf_value=0.0642665721339125 0.0058066960913197348 -0.10975091387719793 -0.17634620070798282 0.32331258777206573 -0.057482209464570728 0.10633484676984653 -0.41132322812888239 0.059684678479892388 0.24200373168161704
leaf_weight=4.3131375010125357 1101.4228608698468 96.898877636529505 11.414967730641363 15.413327469257638 9.113897483795883 13.384720597299745 6.0152418634388596 13.336515411036089 9.7920390591025335
leaf_count=43 8932 666 83 178 74 142 56 144 77
internal_value=0 -0.0320466 0.0461897 0.0958747 -0.0752155 -0.0371295 -0.219204 0.204278 0.0999756
internal_weight=0 179.683 63.8779 52.4629 115.805 23.7131 10.3284 28.7498 18.9059
internal_count=10395 1463 646 563 817 241 99 322 151
is_linear=0
shrinkage=0.3


Tree=59
num_leaves=10
num_cat=0
split_feature=21 87 22 20 88 14 10 85 15
split_gain=2.414 9.40913 5.59854 5.40162 5.71992 4.98087 6.65359 5.11109 4.49634
threshold=466.50000000000006 5.5000000000000009 0.00035887314990040682 5334.5000000000009 5427834.5000000009 1530.5498635469778 629.50000000000011 564.50000000000011 373.11015502368957
decision_type=2 2 2 2 2 2 2 2 2
left_child=-1 2 -2 4 8 6 -4 -8 -3
right_child=1 3 5 -5 -6 -7 7 -9 -10
leaf_value=0.0059438883636118269 -0.3016533918476752 0.1007902137721461 0.3544778615472855 -0.28145211347013654 0.40762896437176283 -0.1841441736381482 -0.14022360316433963 0.17456809060256123 -0.040463598249131837
leaf_weight=1126.5632931899163 12.441934296861289 38.77291268017143 3.7439772188663509 4.300716243684291 3.221148654818534 20.955769276246428 16.214663734659556 5.9280804041773072 41.476982296444476
leaf_count=9033 132 346 23 36 32 201 152 61 365
internal_value=0 -0.0348595 -0.126646 0.0275206 0.0450967 -0.077339 0.0110601 -0.0538596 0.0279946
internal_weight=0 147.056 59.2844 87.7718 83.471 46.8425 25.8867 22.1427 80.2499
internal_count=10381 1348 569 779 743 437 236 213 711
is_linear=0
shrinkage=0.3


Tree=60
num_leaves=10
num_cat=0
split_feature=9 21 85 20 92 86 22 0 14
split_gain=2.62892 9.50081 9.08237 7.07094 7.85516 9.36612 8.12489 6.41122 6.33244
threshold=2.5000000000000004 25.500000000000004 237.50000000000003 -1040.4999999999998 3733663553.5001216 52.500000000000007 0.001581028655988162 41.500000000000007 1513.2698447443161
decision_type=2 2 2 2 2 2 2 2 2
left_child=-1 2 7 -3 6 -6 -5 -2 -8
right_child=1 3 -4 4 5 -7 8 -9 -10
leaf_value=-0.0043989464922426702 0.17459087885966387 -0.17262172285318775 -0.14162559741000835 -0.12608796709310055 -0.16838384081183275 0.32864041748190159 0.33174187375748038 -0.17802049845593659 0.0046087124106915858
leaf_weight=1089.4261822934495 65.376058244204614 22.553850411903113 10.674146693199871 35.618512177839875 4.3006647527217892 12.122907800599931 6.6882289424538639 4.5779067403636864 20.41540263989009
leaf_count=8547 972 172 60 286 33 78 48 40 152
internal_value=0 0.0344732 0.111043 -0.0264896 0.0160147 0.197308 -0.0326979 0.150363 0.0900954
internal_weight=0 182.328 80.6281 101.7 79.1457 16.4236 62.7221 69.954 27.1036
internal_count=10388 1841 1072 769 597 111 486 1012 200
is_linear=0
shrinkage=0.3


Tree=61
num_leaves=10
num_cat=0
split_feature=22 1 21 88 92 86 88 93 8
split_gain=2.53005 6.93421 5.36539 5.29814 5.83295 4.91366 7.24702 3.54666 4.10021
threshold=7.7065358741145454e-05 12189.000000000002 437.50000000000006 -278636.99999999994 3321146753.5001216 182.50000000000003 2905215.0000000005 4.5000000000000009 12.500000000000002
decision_type=2 2 2 2 2 2 2 2 2
left_child=2 -2 5 4 -4 6 7 -1 -9
right_child=1 -3 3 -5 -6 -7 -8 8 -10
leaf_value=0.017342996565611689 0.00022356252399509502 -0.44739531775773289 0.52742716646498911 -0.27786670426375909 -0.23375954452346301 0.25412743394515597 -0.47153881765608296 0.36131673237333467 0.030558279538458185
leaf_weight=32.851368898409419 1196.6212684845086 2.598791758529841 1.4169696769677105 6.9535828437656146 1.2740797661244867 12.53683617711067 1.8054671809077252 6.4226229883497563 6.7629425247432664
leaf_count=428 9618 19 21 83 21 75 10 70 97
internal_value=0 -0.000941469 0.0575178 -0.144991 0.187683 0.0908347 0.0457548 0.0711211 0.199322
internal_weight=0 1199.22 70.0239 9.64463 2.69105 60.3792 47.8424 46.0369 13.1856
internal_count=10442 9637 805 125 42 680 605 595 167
is_linear=0
shrinkage=0.3


Tree=62
num_leaves=10
num_cat=0
split_feature=14 13 21 9 86 21 21 86 72
split_gain=2.4735 2.69957 2.58551 5.93764 8.79465 6.7039 5.62142 4.86105 7.46755
threshold=2035.2220163083769 2302.5000000000005 53.500000000000007 3.5000000000000004 240.50000000000003 -192.49999999999997 40.500000000000007 300.50000000000006 1.0000000180025095e-35
decision_type=2 2 2 2 2 2 2 2 2
left_child=1 -1 3 6 -5 -6 -3 8 -8
right_child=-2 2 -4 4 5 -7 7 -9 -10
leaf_value=-0.18948333989512697 0.2155972040374893 -0.016584065684257899 0.012550831995430682 0.16883704945335282 -0.35449555444196484 0.085116770912173623 -0.21137827589608629 -0.39591768299773711 0.19356592500897324
leaf_weight=6.395814446732401 4.168334293877705 585.79642524500377 604.30556841660291 32.984198160702363 5.5239268280565739 6.1187783852219564 12.211939342319971 5.6228392347693434 5.5655713765881947
leaf_count=57 38 5080 4372 670 35 35 82 34 53
internal_value=0 -0.00261796 -0.00158951 -0.0146585 0.0903384 -0.129744 -0.0224211 -0.16498 -0.0826906
internal_weight=0 1264.53 1258.13 653.824 44.6269 11.6427 609.197 23.4003 17.7775
internal_count=10456 10418 10361 5989 740 70 5249 169 135
is_linear=0
shrinkage=0.3


Tree=63
num_leaves=10
num_cat=0
split_feature=0 8 20 18 72 18 18 93 7
split_gain=4.032 7.29669 5.05003 2.67342 3.28889 2.31941 4.00759 4.83473 12.0931
threshold=6.5000000000000009 3.5000000000000004 831.00000000000011 6754914.0000000009 1.0000000180025095e-35 2534552.5000000005 5144104.5000000009 3.5000000000000004 8.5000000000000018
decision_type=2 2 2 2 2 2 2 2 2
left_child=1 -1 3 4 -3 -2 7 8 -7
right_child=5 2 -4 -5 -6 6 -8 -9 -10
leaf_value=0.25303083232661255 -0.033773195292546528 -0.24530443318456996 0.074773940696586674 -0.3250728521346925 0.14141929478321111 0.12583511473339329 -0.0026151447865223709 -0.009630509313102208 -0.16680852419290668
leaf_weight=3.7874515205621746 151.56407137948554 4.2242603898048463 5.5935887917876235 12.230600575450806 2.9445089502260089 93.982250317640137 897.39241446525557 82.112038387916982 14.22039678134024
leaf_count=24 1230 50 53 117 28 778 7368 668 117
internal_value=0 -0.111658 -0.170985 -0.241949 -0.0876481 0.000929345 0.00577883 0.0452575 0.0867561
internal_weight=0 28.7804 24.993 19.3994 7.16877 1239.27 1087.71 190.315 108.203
internal_count=10433 272 248 195 78 10161 8931 1563 895
is_linear=0
shrinkage=0.3


Tree=64
num_leaves=10
num_cat=0
split_feature=7 8 7 7 23 0 8 10 0
split_gain=2.77933 12.6016 29.714 13.1781 22.6528 10.3815 9.89362 8.53725 8.49872
threshold=4.5000000000000009 15.500000000000002 7.5000000000000009 5.5000000000000009 0.0022148421403763519 31.500000000000004 23.500000000000004 473.50000000000006 52.500000000000007
decision_type=2 2 2 2 2 2 2 2 2
left_child=-1 2 8 4 -3 -5 -6 -7 -2
right_child=1 3 -4 5 6 7 -8 -9 -10
leaf_value=-0.011937542968686982 -0.2864653160999705 -0.039512876411741921 0.020400458987088917 0.05288182675142987 0.29622856571728834 -0.21439583618282307 -0.24815043561280456 0.17952841436667435 0.19061627097697575
leaf_weight=793.89551957458025 41.607576034963131 33.975405432283878 189.87299386330415 107.83826874801889 55.124163678847253 25.802358330227438 2.7930612713098517 5.6757758045569053 3.2959056049585334
leaf_count=6918 286 210 1357 836 466 231 21 58 29
internal_value=0 0.0172355 -0.031691 0.0668763 0.154715 0.00857527 0.267986 -0.141591 -0.249653
internal_weight=0 465.986 234.776 231.209 91.8926 139.316 57.9172 31.4781 44.9035
internal_count=10412 3494 1672 1822 697 1125 487 289 315
is_linear=0
shrinkage=0.3


Tree=65
num_leaves=10
num_cat=0
split_feature=85 14 20 23 19 92 10 86 85
split_gain=2.20997 4.72678 6.41064 6.04095 5.37664 5.25528 4.63973 8.86677 5.56397
threshold=183.50000000000003 1584.3412460054794 -4971.9999999999991 0.0056338475211070915 14.500000000000002 3599786753.5001216 322.50000000000006 289.50000000000006 189.50000000000003
decision_type=2 2 2 2 2 2 2 2 2
left_child=1 -1 3 -3 -4 -6 7 -2 -8
right_child=6 2 4 -5 5 -7 8 -9 -10
leaf_value=-0.02028436208495837 0.032349955423593806 -0.36354110544464546 0.11060461061121461 0.17808218161448314 0.23261792224046876 -0.02451455876277616 0.24768582423262914 0.28245233982780737 -0.0032098194678995434
leaf_weight=660.49828917213017 63.349550461396575 5.9559581279754621 71.447446582838893 2.2260731753194705 7.3529826714657238 77.364151813439094 7.6217129901051512 15.507524808868764 339.23947678226978
leaf_count=5827 429 41 634 40 66 666 51 95 2534
internal_value=0 -0.00895489 0.0364972 -0.214333 0.0503121 -0.000903902 0.017646 0.0830735 0.00266856
internal_weight=0 824.845 164.347 8.18203 156.165 84.7171 425.718 78.8571 346.861
internal_count=10383 7274 1447 81 1366 732 3109 524 2585
is_linear=0
shrinkage=0.3


end of trees

feature_importances:
Column_7=75
Column_8=70
Column_10=44
Column_0=38
Column_85=28
Column_20=22
Column_21=22
Column_88=21
Column_86=20
Column_23=19
Column_92=18
Column_14=15
Column_19=15
Column_22=15
Column_15=14
Column_3=13
Column_9=13
Column_1=12
Column_5=12
Column_24=12
Column_4=8
Column_25=8
Column_93=8
Column_74=7
Column_18=5
Column_87=5
Column_2=4
Column_6=4
Column_72=4
Column_41=3
Column_68=3
Column_69=3
Column_76=3
Column_34=2
Column_48=2
Column_49=2
Column_50=2
Column_51=2
Column_52=2
Column_67=2
Column_77=2
Column_91=2
Column_11=1
Column_13=1
Column_28=1
Column_39=1
Column_46=1
Column_61=1
Column_62=1
Column_66=1
Column_70=1
Column_71=1
Column_73=1
Column_79=1
Column_83=1

parameters:
[boosting: gbdt]
[objective: binary]
[metric: auc,l2]
[tree_learner: serial]
[device_type: cpu]
[linear_tree: 0]
[data: ]
[valid: ]
[num_iterations: 200]
[learning_rate: 0.3]
[num_leaves: 10]
[num_threads: -1]
[deterministic: 0]
[force_col_wise: 0]
[force_row_wise: 0]
[histogram_pool_size: -1]
[max_depth: 9]
[min_data_in_leaf: 20]
[min_sum_hessian_in_leaf: 0.001]
[bagging_fraction: 0.933124]
[pos_bagging_fraction: 1]
[neg_bagging_fraction: 1]
[bagging_freq: 1]
[bagging_seed: 3]
[feature_fraction: 0.938402]
[feature_fraction_bynode: 1]
[feature_fraction_seed: 2]
[extra_trees: 0]
[extra_seed: 6]
[early_stopping_round: 2]
[first_metric_only: 0]
[max_delta_step: 0]
[lambda_l1: 0]
[lambda_l2: 0.52408]
[linear_lambda: 0]
[min_gain_to_split: 0]
[drop_rate: 0.1]
[max_drop: 50]
[skip_drop: 0.5]
[xgboost_dart_mode: 0]
[uniform_drop: 0]
[drop_seed: 4]
[top_rate: 0.2]
[other_rate: 0.1]
[min_data_per_group: 100]
[max_cat_threshold: 32]
[cat_l2: 10]
[cat_smooth: 10]
[max_cat_to_onehot: 4]
[top_k: 20]
[monotone_constraints: ]
[monotone_constraints_method: basic]
[monotone_penalty: 0]
[feature_contri: ]
[forcedsplits_filename: ]
[refit_decay_rate: 0.9]
[cegb_tradeoff: 1]
[cegb_penalty_split: 0]
[cegb_penalty_feature_lazy: ]
[cegb_penalty_feature_coupled: ]
[path_smooth: 0]
[interaction_constraints: ]
[verbosity: 1]
[saved_feature_importance_type: 0]
[max_bin: 255]
[max_bin_by_feature: ]
[min_data_in_bin: 3]
[bin_construct_sample_cnt: 200000]
[data_random_seed: 1]
[is_enable_sparse: 1]
[enable_bundle: 1]
[use_missing: 1]
[zero_as_missing: 0]
[feature_pre_filter: 1]
[pre_partition: 0]
[two_round: 0]
[header: 0]
[label_column: ]
[weight_column: ]
[group_column: ]
[ignore_column: ]
[categorical_feature: ]
[forcedbins_filename: ]
[objective_seed: 5]
[num_class: 1]
[is_unbalance: 0]
[scale_pos_weight: 1]
[sigmoid: 1]
[boost_from_average: 1]
[reg_sqrt: 0]
[alpha: 0.9]
[fair_c: 1]
[poisson_max_delta_step: 0.7]
[tweedie_variance_power: 1.5]
[lambdarank_truncation_level: 30]
[lambdarank_norm: 1]
[label_gain: ]
[eval_at: ]
[multi_error_top_k: 1]
[auc_mu_weights: ]
[num_machines: 1]
[local_listen_port: 12400]
[time_out: 120]
[machine_list_filename: ]
[machines: ]
[gpu_platform_id: -1]
[gpu_device_id: -1]
[gpu_use_dp: 0]
[num_gpu: 1]

end of parameters

pandas_categorical:null
