tree
version=v3
num_class=1
num_tree_per_iteration=1
label_index=0
max_feature_idx=2
objective=binary sigmoid:1
feature_names=Column_0 Column_1 Column_2
feature_infos=[0:1] [0:11] [3:3881]
tree_sizes=5262 5309 5339 5359 5345 5373 5350 5356

Tree=0
num_leaves=50
num_cat=0
split_feature=2 2 0 1 2 1 1 0 2 2 0 1 1 1 1 0 1 1 2 1 2 2 1 1 2 1 2 1 1 1 1 2 0 2 1 1 2 1 2 2 0 1 2 2 2 2 1 2 1
split_gain=1802.21 476.494 369.684 328.298 165.405 105.607 81.488 65.3929 59.0161 52.0419 44.2826 40.8694 33.3238 30.5702 30.3431 28.2682 21.3647 21.0291 18.0679 16.8333 15.5394 15.4049 14.8153 11.7394 10.6183 10.3372 9.90012 9.66561 10.8067 6.58191 9.07596 6.06121 6.38913 5.92861 5.44162 4.99381 4.95014 4.70627 4.63636 5.02363 4.62112 3.80457 3.76659 3.73816 3.52818 3.37002 3.29851 3.16439 3.06907
threshold=205.50000000000003 437.50000000000006 1.0000000180025095e-35 3.5000000000000004 87.500000000000014 3.5000000000000004 1.0000000180025095e-35 1.0000000180025095e-35 153.50000000000003 651.50000000000011 1.0000000180025095e-35 8.5000000000000018 4.5000000000000009 10.500000000000002 8.5000000000000018 1.0000000180025095e-35 2.5000000000000004 10.500000000000002 125.50000000000001 4.5000000000000009 477.50000000000006 351.50000000000006 4.5000000000000009 1.5000000000000002 257.50000000000006 7.5000000000000009 300.50000000000006 2.5000000000000004 4.5000000000000009 9.5000000000000018 8.5000000000000018 113.50000000000001 1.0000000180025095e-35 62.500000000000007 7.5000000000000009 7.5000000000000009 153.50000000000003 1.5000000000000002 402.50000000000006 265.50000000000006 1.0000000180025095e-35 9.5000000000000018 801.50000000000011 329.50000000000006 163.50000000000003 130.50000000000003 5.5000000000000009 388.50000000000006 7.5000000000000009
decision_type=2 2 2 2 2 2 2 2 2 2 2 2 2 2 2 2 2 2 2 2 2 2 2 2 2 2 2 2 2 2 2 2 2 2 2 2 2 2 2 2 2 2 2 2 2 2 2 2 2
left_child=3 2 6 8 33 21 26 17 31 15 16 12 -9 24 19 20 -10 22 35 -7 -3 37 -6 44 27 36 -2 -8 -29 30 -27 -1 -33 -5 -35 -14 -24 -4 39 -26 -36 -17 -11 -39 -12 -13 -41 -28 -30
right_child=1 9 5 4 7 14 13 11 10 42 23 45 18 -15 -16 41 -18 -19 -20 -21 -22 -23 25 -25 38 29 47 28 48 -31 -32 32 -34 34 40 -37 -38 43 -40 46 -42 -43 -44 -45 -46 -47 -48 -49 -50
leaf_value=0.29513445940053923 0.27307582330638669 0.12106006412574233 0.08764067280253475 0.2942223687846563 0.039649880006478094 -0.044690499325769836 0.24466669629801724 -0.01255509897878497 0.27965213900222785 -0.020474689591878273 0.16705136020823985 0.039311309847956319 0.23024972261193583 -0.039458316501794113 -0.052671082220169432 -0.002823474113250346 0.093879852714129117 -0.011356234559342024 0.097956173308006406 0.04502363616449348 0.035874053715811774 0.045424356779735497 0.26981660737119456 0.19000503247138772 0.066614552245503583 0.1601047845628831 0.22935544625033294 0.071722103719277716 0.22670394369912544 0.20354399487465841 0.01791713123664615 0.286148936889349 0.23815055735972751 0.26746856536095681 0.23131354291332162 0.14257025396359641 0.1880472634222965 0.129128117399676 0.077893691193037948 0.16299507944536129 0.12465679149362006 -0.055259592704538216 -0.046481276504370353 0.069708929770259678 0.090978547955732819 -0.021769143540157618 0.12309027453419465 0.17386615067148892 0.15935647932783703
leaf_weight=307.18248429894447 69.508445352315903 26.408226549625397 69.259311139583588 44.595024079084396 5.7300868928432456 26.906494975090027 17.937663316726685 19.68160280585289 79.22467964887619 131.04459589719772 7.4740263819694546 17.68852910399437 15.695455402135849 7.9722948074340811 86.947840243577957 128.55325376987457 6.4774895310401908 4.9826842546463004 59.792211055755615 101.39762458205223 110.8647246658802 52.567318886518478 19.930737018585205 52.816453099250793 7.7231605947017661 15.944589614868166 41.356279313564301 10.463636934757231 11.21103957295418 18.186797529459 5.2318184673786154 80.22121649980545 64.276626884937286 18.68506595492363 7.9722948074340803 11.709307998418808 15.695455402135847 83.958229690790176 12.954979062080382 51.072513610124588 7.723160594701767 21.674676507711411 260.34525230526924 11.211039572954176 21.674676507711411 37.37013190984726 34.878789782524109 17.68852910399437 19.930737018585205
leaf_count=1233 279 106 278 179 23 108 72 79 318 526 30 71 63 32 349 516 26 20 240 407 445 211 80 212 31 64 166 42 45 73 21 322 258 75 32 47 63 337 52 205 31 87 1045 45 87 150 140 71 80
internal_value=0.117833 0.0461241 0.10196 0.224373 0.143153 0.0426719 0.186593 0.102846 0.267106 -0.0142215 0.215542 0.0655534 0.101944 0.141789 -0.00681722 0.0186777 0.265509 0.173123 0.128846 0.0252184 0.052177 0.0920724 0.185798 0.16227 0.151278 0.197752 0.246704 0.184794 0.156862 0.160936 0.122359 0.286017 0.265666 0.268299 0.231066 0.194746 0.236385 0.107296 0.132162 0.139972 0.182018 -0.0113651 -0.0381078 0.121747 0.111366 -0.00370941 0.147022 0.213812 0.185956
internal_weight=0 1413.84 734.946 945.963 326.615 432.248 302.698 247.639 619.348 678.891 167.667 161.937 106.879 174.145 215.252 287.501 85.7022 85.7022 87.197 128.304 137.273 216.996 80.7195 81.9652 166.173 74.9894 128.553 59.5431 41.6054 39.3632 21.1764 451.68 144.498 78.9755 34.3805 27.4048 35.6262 164.429 106.629 93.6745 15.6955 150.228 391.39 95.1693 29.1487 55.0587 85.9513 59.0448 31.1418
internal_count=9472 5675 2950 3797 1311 1735 1215 994 2486 2725 673 650 429 699 864 1154 344 344 350 515 551 871 324 329 667 301 516 239 167 158 85 1813 580 317 138 110 143 660 428 376 63 603 1571 382 117 221 345 237 125
is_linear=0
shrinkage=1


Tree=1
num_leaves=50
num_cat=0
split_feature=2 2 0 1 2 1 1 0 2 2 0 1 1 1 0 1 1 1 2 2 1 1 1 1 1 2 1 2 1 1 1 1 1 1 1 2 2 2 1 2 2 2 2 1 1 1 2 2 2
split_gain=1481.81 383.146 299.742 275.821 139.23 85.4264 68.354 53.6099 49.9776 42.4988 36.5363 32.1647 27.6441 25.0661 22.4623 20.6434 17.9256 17.5015 15.8679 14.4674 14.0631 13.99 12.8775 14.0409 19.1038 12.5992 12.312 11.6895 9.08808 8.68666 7.42466 6.7011 5.5352 5.48054 7.53638 5.22142 5.06638 4.9483 4.83633 4.74 4.64818 7.75918 4.23477 4.01962 3.62323 3.61984 3.2531 3.0758 3.06473
threshold=205.50000000000003 437.50000000000006 1.0000000180025095e-35 3.5000000000000004 87.500000000000014 3.5000000000000004 2.5000000000000004 1.0000000180025095e-35 153.50000000000003 651.50000000000011 1.0000000180025095e-35 8.5000000000000018 4.5000000000000009 8.5000000000000018 1.0000000180025095e-35 10.500000000000002 2.5000000000000004 10.500000000000002 380.50000000000006 125.50000000000001 4.5000000000000009 4.5000000000000009 5.5000000000000009 9.5000000000000018 8.5000000000000018 351.50000000000006 4.5000000000000009 477.50000000000006 1.5000000000000002 7.5000000000000009 1.0000000180025095e-35 1.0000000180025095e-35 3.5000000000000004 9.5000000000000018 8.5000000000000018 78.500000000000014 93.500000000000014 369.50000000000006 1.0000000180025095e-35 294.50000000000006 260.50000000000006 279.50000000000006 159.50000000000003 7.5000000000000009 1.5000000000000002 2.5000000000000004 136.50000000000003 183.50000000000003 329.50000000000006
decision_type=2 2 2 2 2 2 2 2 2 2 2 2 2 2 2 2 2 2 2 2 2 2 2 2 2 2 2 2 2 2 2 2 2 2 2 2 2 2 2 2 2 2 2 2 2 2 2 2 2
left_child=3 2 6 8 35 25 18 17 36 14 16 12 -9 21 27 20 -10 26 31 43 32 -7 37 24 -24 44 -6 -3 -12 42 -20 -2 -8 34 -31 -5 -1 -22 -38 -25 -33 -42 -28 -14 -4 -16 -40 -44 -46
right_child=1 9 5 4 7 13 15 11 10 -11 28 -13 19 -15 45 -17 -18 -19 30 -21 22 -23 23 39 -26 -27 29 -29 -30 33 -32 40 -34 -35 -36 -37 38 -39 46 -41 41 -43 47 -45 48 -47 -48 -49 -50
leaf_value=0.16677364323468338 0.12822995213527233 0.0012055697310648424 -0.026392985164132722 0.15091979593415644 -0.071214941790128522 -0.14633001090746434 -0.02060275789929903 -0.1184698360269382 0.1483423406226074 -0.14005571385113372 -0.0040432323939265276 -0.1089599685344636 0.10160115511929833 -0.15327910579779011 -0.090474824437594289 -0.14271120732021336 -0.021821625552250871 -0.11785959292677682 0.05932625164499683 -0.017898134462182299 0.12105587407196812 -0.064752927247025999 0.0037209870479680586 0.088619438283881732 -0.18685916170905412 -0.065086897736032462 0.13734922063471283 -0.072982290992090415 0.065448687902116373 0.038380612577764386 -0.056197585190502976 0.11809537026331351 -0.12674937279029325 0.078075674159583275 -0.091096136504212527 0.072241903386452866 0.16273908295206177 0.0075111568549504314 0.13705978452511372 0.016282398430676841 -0.052491806193339929 0.075774493060559986 0.019441124470203186 0.02247407644174414 0.010185095114843203 -0.1277405988446067 0.094337610403916292 0.11261140218227834 -0.043569280087146216
leaf_weight=227.99893194437027 106.21836814284325 26.154057383537292 69.616234883666039 64.99028143286705 5.7477407455444327 26.986523509025574 18.933132216334347 19.999212026596069 78.210883319377899 391.59547899663448 28.903489887714386 54.988730370998383 15.296368449926376 87.439339607954025 51.999897718429565 7.9968867301940909 6.4856991767883292 4.9998387694358817 20.577420577406887 59.856297969818115 17.837307542562488 101.94832277297974 22.380342826247219 17.156335726380348 5.9710029512643805 52.722800001502037 20.87938129901886 111.46413198113441 52.524513006210327 15.897902488708498 6.7244798988103858 18.232732236385345 5.9762500822544089 18.062272280454636 5.2495788037776938 12.588548988103865 83.783157736063004 4.9822289347648612 100.58143562078476 19.184056982398033 5.2235401868820217 22.599564731121063 8.6730998754501325 11.69049297273159 83.899777203798294 98.983252823352814 33.45173305273056 5.6994656324386588 11.236344203352926
leaf_count=932 432 105 279 265 23 108 76 80 319 1567 116 220 62 350 208 32 26 20 83 240 72 408 90 69 24 211 85 446 212 64 27 74 24 73 21 51 342 20 410 77 21 91 35 47 337 396 136 23 45
internal_value=0 -0.0644423 -0.0142918 0.0976674 0.023069 -0.0673804 0.062457 -0.0137434 0.137149 -0.118459 0.0895049 -0.0474636 -0.0151737 -0.111742 -0.088813 0.0040768 0.13522 0.0501272 0.101391 0.00957636 0.0155587 -0.0827146 0.0344094 0.0111395 -0.0408884 -0.0229672 0.0617787 -0.058966 0.0410053 0.0727655 0.0299956 0.113943 -0.0495681 0.039021 0.00385557 0.139118 0.154688 0.0974796 0.14141 0.0517367 0.0791845 0.0508118 0.108411 0.0691383 -0.00921067 -0.115512 0.127091 0.060806 0.00349082
internal_weight=0 1414.04 733.843 936.559 324.619 433.849 299.994 247.04 611.94 680.197 166.125 161.831 106.842 216.374 288.601 120.418 84.6966 85.2093 179.576 86.8432 112.421 128.935 87.5113 64.6917 28.3513 217.475 80.2094 137.618 81.428 74.4617 27.3019 152.274 24.9094 39.2098 21.1475 77.5788 445.815 22.8195 217.816 36.3404 46.0558 27.8231 35.2519 26.9869 164.752 150.983 134.033 14.3726 95.1361
internal_count=9474 5672 2950 3802 1309 1738 1212 993 2493 2722 673 649 429 866 1155 484 345 344 728 349 452 516 352 260 114 872 324 551 328 301 110 618 100 158 85 316 1820 92 888 146 186 112 143 109 661 604 546 58 382
is_linear=0
shrinkage=0.1


Tree=2
num_leaves=50
num_cat=0
split_feature=2 2 0 1 2 1 1 2 0 2 0 1 1 1 1 0 1 2 2 1 1 1 1 1 2 2 2 1 1 1 1 1 2 1 1 2 2 2 0 2 2 2 2 2 1 2 1 2 2
split_gain=1215.79 313.765 244.434 231.886 114.255 69.306 56.7942 44.3596 43.7451 34.1604 32.2317 26.5214 22.9269 21.2123 20.5205 18.073 17.2536 13.4406 12.3074 11.9847 10.9699 10.8534 11.4606 15.8385 10.5035 9.82461 9.80863 8.61841 12.6674 7.92984 6.1458 5.73114 5.02149 4.84281 4.81144 4.55148 4.16037 4.0469 3.98045 3.97792 7.80723 3.61042 3.59248 3.52005 3.4123 3.13646 3.03966 2.84105 2.82869
threshold=205.50000000000003 437.50000000000006 1.0000000180025095e-35 3.5000000000000004 87.500000000000014 3.5000000000000004 2.5000000000000004 136.50000000000003 1.0000000180025095e-35 651.50000000000011 1.0000000180025095e-35 8.5000000000000018 4.5000000000000009 8.5000000000000018 2.5000000000000004 1.0000000180025095e-35 10.500000000000002 380.50000000000006 125.50000000000001 4.5000000000000009 4.5000000000000009 5.5000000000000009 9.5000000000000018 8.5000000000000018 477.50000000000006 163.50000000000003 351.50000000000006 4.5000000000000009 7.5000000000000009 1.5000000000000002 1.0000000180025095e-35 1.0000000180025095e-35 62.500000000000007 3.5000000000000004 7.5000000000000009 294.50000000000006 369.50000000000006 95.500000000000014 1.0000000180025095e-35 260.50000000000006 279.50000000000006 279.50000000000006 153.50000000000003 801.50000000000011 9.5000000000000018 134.50000000000003 7.5000000000000009 251.50000000000003 380.50000000000006
decision_type=2 2 2 2 2 2 2 2 2 2 2 2 2 2 2 2 2 2 2 2 2 2 2 2 2 2 2 2 2 2 2 2 2 2 2 2 2 2 2 2 2 2 2 2 2 2 2 2 2
left_child=3 2 6 7 32 26 17 -1 27 15 14 12 -10 19 -9 24 20 31 37 -7 33 36 23 -23 -3 -12 -4 -6 42 -27 -19 41 -5 -8 -34 -24 -22 -14 -36 -33 -41 -2 -29 -11 -17 -13 -20 -21 -28
right_child=1 9 5 4 8 13 16 10 11 43 25 45 18 -15 -16 44 -18 30 46 47 21 22 35 -25 -26 29 48 28 -30 -31 -32 39 34 -35 38 -37 -38 -39 -40 40 -42 -43 -44 -45 -46 -47 -48 -49 -50
leaf_value=0.14742232928897978 0.13657207441495037 0.0027992760267198185 -0.0086134443121629167 0.15151501436267165 -0.065039624088395823 -0.13331938808052257 -0.016242752752458581 0.13927672953616205 -0.10758245780651417 -0.11065591171997911 0.086275982507890148 -0.060163298701482897 -0.0082984894497446782 -0.1394066797694129 -0.018989107758658211 -0.096997839358221788 -0.1308366532610426 0.053979160402827242 0.0036727729982117853 -0.030458553747726824 0.11115888202620901 0.0033640323750555069 0.082232087176840885 -0.16993566048199477 -0.067263440709938269 -0.023847802296840141 -0.089559170706042912 0.12883862244839681 0.018442955514234284 0.049646850603828785 -0.051117717608069324 0.10872672155733763 0.12804232411965999 -0.11534814726783943 0.094760845122725812 0.011926997484112746 0.0068766837356439812 0.083866890485170181 -0.0038847692803101875 -0.054283596262938195 0.072173698495118677 0.093635836096805702 0.058410651049836365 -0.13450254632443856 -0.14483780162073884 -0.11611198818559954 -0.041268337517061354 -0.068508507537213326 -0.039349425244917663
leaf_weight=376.32447150349617 56.686900615692139 26.401210308074951 164.52645090222359 42.604388222098351 5.7485680878162375 26.755191028118134 18.702646374702457 105.10633181035519 19.914407730102539 130.15964156389236 43.754106521606445 18.474533796310425 5.8884342610836056 86.331315144896507 8.6620617359876615 129.05765253305435 7.9339938163757315 20.449220433831218 33.945578813552856 29.997079968452454 17.575392618775371 22.374472796916965 17.260324880480766 5.9955308586359015 110.46197062730789 21.708955943584442 18.248236700892448 18.953539147973061 43.709527358412743 41.814121603965759 6.7410207688808432 17.916326105594635 18.041639775037766 5.9967850893735877 7.7504252493381482 19.413489818572998 4.9800701141357413 21.106130346655846 7.6388961672782898 5.4877391159534481 22.18233659863472 47.379429936408997 15.495972663164137 258.24698427319527 21.568914815783501 36.344496816396713 25.958383798599243 71.493040591478348 34.246690794825554
leaf_count=1582 236 106 660 179 23 108 75 440 80 524 179 74 24 349 35 518 32 83 136 120 72 90 70 24 442 87 73 79 177 170 27 74 75 24 32 78 20 86 31 22 90 196 63 1042 87 146 104 286 137
internal_value=0 -0.0582846 -0.0127322 0.0895932 0.0210454 -0.0607334 0.0569781 0.126407 -0.0122297 -0.107312 0.0901817 -0.042569 -0.0132755 -0.10092 0.127173 -0.0806969 0.00386738 0.0928867 0.00920949 -0.0742281 0.0143396 0.0309172 0.00974858 -0.0373205 -0.0538175 0.0502276 -0.0207496 0.0460464 0.0548579 0.0245477 0.0271281 0.104603 0.127397 -0.0434839 0.0935245 0.0461817 0.0892708 0.0641398 0.0482634 0.0723771 0.0461824 0.117985 0.0994309 -0.126783 -0.10466 -0.0985209 -0.0161212 -0.0576253 -0.0580071
internal_weight=0 1404.57 728.674 918.945 321.575 431.598 297.076 597.37 245.54 675.896 221.046 161.632 106.813 214.577 113.768 287.49 120.233 176.843 86.8985 128.245 112.299 87.5993 65.0438 28.37 136.863 107.277 217.021 83.9076 78.159 63.5231 27.1902 149.653 76.0353 24.6994 33.431 36.6738 22.5555 26.9946 15.3893 45.5864 27.6701 104.066 34.4495 388.407 150.627 54.819 59.904 101.49 52.4949
internal_count=9467 5665 2946 3802 1309 1733 1213 2493 992 2719 911 650 430 863 475 1153 485 728 350 514 453 354 262 114 548 436 870 342 319 257 110 618 317 99 138 148 92 110 63 186 112 432 142 1566 605 220 240 406 210
is_linear=0
shrinkage=0.1


Tree=3
num_leaves=50
num_cat=0
split_feature=2 2 0 1 2 1 1 2 0 2 0 1 1 1 1 0 1 1 1 2 1 2 2 2 1 2 1 1 1 2 0 2 1 1 1 1 0 2 2 2 1 2 1 2 1 1 1 2 2
split_gain=1010.18 255.761 200.533 197.296 96.2552 57.198 47.8965 39.7008 34.9483 30.8177 27.7023 21.8464 19.1591 18.3356 17.515 15.9116 14.1545 13.1801 9.96732 9.91637 8.65339 8.19261 8.16705 7.27389 6.80383 6.76918 6.22957 5.49269 5.31941 4.81123 5.95082 4.55328 4.39095 6.26154 4.17139 3.64835 3.38605 3.26833 3.25787 3.74606 3.09151 3.05224 2.70861 2.69445 2.52992 12.4198 7.49631 2.51955 3.94714
threshold=205.50000000000003 437.50000000000006 1.0000000180025095e-35 3.5000000000000004 87.500000000000014 3.5000000000000004 1.0000000180025095e-35 153.50000000000003 1.0000000180025095e-35 651.50000000000011 1.0000000180025095e-35 8.5000000000000018 4.5000000000000009 8.5000000000000018 10.500000000000002 1.0000000180025095e-35 10.500000000000002 2.5000000000000004 4.5000000000000009 125.50000000000001 4.5000000000000009 351.50000000000006 477.50000000000006 300.50000000000006 1.5000000000000002 257.50000000000006 7.5000000000000009 2.5000000000000004 4.5000000000000009 113.50000000000001 1.0000000180025095e-35 62.500000000000007 9.5000000000000018 8.5000000000000018 7.5000000000000009 7.5000000000000009 1.0000000180025095e-35 153.50000000000003 265.50000000000006 410.50000000000006 9.5000000000000018 923.50000000000011 1.5000000000000002 177.50000000000003 5.5000000000000009 6.5000000000000009 7.5000000000000009 380.50000000000006 410.50000000000006
decision_type=2 2 2 2 2 2 2 2 2 2 2 2 2 2 2 2 2 2 2 2 2 2 2 2 2 2 2 2 2 2 2 2 2 2 2 2 2 2 2 2 2 2 2 2 2 2 2 2 2
left_child=3 2 6 7 31 21 23 29 16 15 17 12 -10 18 25 22 20 -9 -7 35 -6 42 -3 -2 -12 27 37 -8 -29 -1 -31 -5 33 -28 -33 -14 -36 -22 -27 -40 -17 -11 -4 -26 -20 -46 -47 -23 -49
right_child=1 9 5 4 8 13 14 10 11 41 24 -13 19 -15 -16 40 -18 -19 44 -21 26 47 -24 -25 43 38 32 28 -30 30 -32 34 -34 -35 36 -37 -38 -39 39 -41 -42 -43 -44 -45 45 46 -48 48 -50
leaf_value=0.14218914216357822 0.12304762143969313 0.0025289306182462797 -0.022906515844662342 0.14221492009215703 -0.059520781950459282 -0.12207527561950855 0.098550640684703705 0.12800770979301404 -0.098258542736584478 -0.10610892128209706 -0.0057715227192969175 -0.089371111378710899 0.089524450271685055 -0.12824651775007681 -0.12089714775201313 -0.08791505203580828 -0.10971337945330238 -0.018206670712053594 -0.028823733527294879 -0.013775152863658838 0.12053480200194913 -0.082650223444506635 -0.059215099535071758 0.071517397044303752 0.078484272561664306 -0.049655238065443121 0.033180862851439639 -0.029625968569205369 0.051444350577840664 0.13580935375183376 0.089917677837032473 0.1192173885317685 0.068348340695823462 -0.084934519086255544 0.087804978481157994 0.014565039025893414 -0.0035353618236961103 0.053316124456457475 0.021317152656527519 -0.041015178182017303 -0.13337789825542473 -0.12717312187730898 0.0029230211894695698 0.031400237886454192 -0.15966175907309782 0.0051905245160531223 -0.069934349148236208 -0.0044231970879137416 -0.071926701895833223
leaf_weight=282.66671860218048 64.584933042526245 26.396647065877914 69.701715677976608 40.992173999547958 5.7366055548191062 26.058652862906456 17.035572052001953 73.663223907351494 19.718011617660522 201.96639597415924 29.113052308559418 54.123524025082588 15.145589053630829 84.941942244768143 7.8072099685668936 127.79054225981236 4.984692931175231 6.4954256117343894 33.699837446212769 59.680794790387154 18.629581928253174 18.444936275482178 111.19689297676086 56.907628312706947 24.122781246900558 7.6902781128883353 15.813235282897951 10.227859184145926 30.647374346852303 73.951234221458435 61.050831034779549 17.531687766313553 17.600834727287292 5.2460696697235099 7.6060897409915906 11.592898219823837 7.6423720568418503 15.370789676904677 88.049754023551941 9.9840649366378766 21.175900474190712 181.04488475620747 95.140361592173576 27.602644354104996 10.482546240091322 20.217207700014114 37.192047744989395 18.983467936515808 15.236730843782423
leaf_count=1237 277 106 279 179 23 107 72 319 80 825 117 219 63 350 32 517 20 26 135 239 80 74 446 237 99 31 64 41 126 321 259 75 72 21 32 47 31 63 357 40 87 743 382 113 42 81 149 76 61
internal_value=0 -0.053184 -0.0119137 0.0828727 0.0194398 -0.0553305 0.0518071 0.117584 -0.0109634 -0.0976744 0.0747046 -0.0382163 -0.0116035 -0.0921125 0.0175935 -0.0724458 0.0412671 0.11609 -0.0673455 0.00896951 0.0519922 -0.0191504 -0.0474298 0.0996072 0.0328492 0.0248202 0.0614108 0.0520351 0.0309595 0.133918 0.115782 0.118782 0.0327903 0.00150332 0.086491 0.0585428 0.0443589 0.0922849 0.00960272 0.0146567 -0.0951325 -0.116338 -0.00806317 0.0543159 -0.0523675 -0.0635291 -0.0438035 -0.0531418 -0.0355423
internal_weight=0 1392.61 723.034 896.081 317.415 430.099 292.935 578.666 243.643 669.571 160.997 160.261 106.137 212.592 171.442 286.56 83.3818 80.1586 127.65 86.4193 78.3971 217.507 137.594 121.493 80.8385 163.635 72.6605 57.9108 40.8752 417.669 135.002 73.7723 38.6601 21.0593 32.7801 26.7385 15.2485 34.0004 105.724 98.0338 148.966 383.011 164.842 51.7254 101.592 67.8918 57.4093 52.6651 34.2202
internal_count=9472 5673 2949 3799 1308 1736 1213 2491 991 2724 674 648 429 864 699 1156 343 345 514 349 323 872 552 514 329 667 300 239 167 1817 580 317 157 85 138 110 63 143 428 397 604 1568 661 212 407 272 230 211 137
is_linear=0
shrinkage=0.1


Tree=4
num_leaves=50
num_cat=0
split_feature=2 2 0 1 2 1 1 2 1 1 1 2 1 0 1 2 1 1 1 2 1 1 1 0 2 2 1 0 2 1 1 1 2 2 2 2 2 1 1 1 2 1 1 1 2 2 1 1 1
split_gain=842.952 253.219 203.051 131.849 67.2194 66.4696 51.6132 25.7463 18.906 18.8713 18.4315 17.9064 17.0262 13.6379 13.6049 11.9991 11.9312 10.7074 9.47982 9.05974 8.91721 9.83565 15.4613 8.73063 8.31937 7.34119 6.83877 6.80177 5.21401 4.76616 4.70658 4.21528 3.8193 3.69637 3.45287 3.3191 5.55748 3.28781 3.13396 3.11935 3.02779 2.9486 8.35644 13.1807 5.33889 2.94585 2.73965 2.63394 3.42665
threshold=177.50000000000003 437.50000000000006 1.0000000180025095e-35 3.5000000000000004 87.500000000000014 3.5000000000000004 2.5000000000000004 651.50000000000011 8.5000000000000018 8.5000000000000018 10.500000000000002 134.50000000000003 4.5000000000000009 1.0000000180025095e-35 4.5000000000000009 257.50000000000006 4.5000000000000009 1.0000000180025095e-35 7.5000000000000009 329.50000000000006 5.5000000000000009 9.5000000000000018 8.5000000000000018 1.0000000180025095e-35 140.50000000000003 477.50000000000006 1.0000000180025095e-35 1.0000000180025095e-35 294.50000000000006 1.5000000000000002 3.5000000000000004 1.5000000000000002 388.50000000000006 62.500000000000007 344.50000000000006 99.500000000000014 117.50000000000001 5.5000000000000009 2.5000000000000004 7.5000000000000009 369.50000000000006 7.5000000000000009 6.5000000000000009 5.5000000000000009 348.50000000000006 801.50000000000011 10.500000000000002 1.0000000180025095e-35 1.5000000000000002
decision_type=2 2 2 2 2 2 2 2 2 2 2 2 2 2 2 2 2 2 2 2 2 2 2 2 2 2 2 2 2 2 2 2 2 2 2 2 2 2 2 2 2 2 2 2 2 2 2 2 2
left_child=3 2 6 11 33 19 15 13 12 14 16 -1 -6 25 -7 -2 30 27 24 31 40 22 -22 -10 -14 -3 32 -13 -23 -28 -8 -4 -17 -5 -31 -20 -37 -26 -15 -35 -18 42 43 -16 -44 -9 -25 -21 -49
right_child=1 7 5 4 8 9 10 45 23 -11 -12 17 18 38 41 26 20 -19 35 47 21 28 -24 46 37 -27 29 -29 -30 34 -32 -33 -34 39 -36 36 -38 -39 -40 -41 -42 -43 44 -45 -46 -47 -48 48 -50
leaf_value=0.13050353115537824 0.11247901688806872 0.0042730245143822341 -0.018128126867837421 0.13434252998280777 -0.06356189649443976 -0.11994971498722357 -0.016979785533236924 -0.092290497474506988 0.0045359034568350498 -0.11927122011194916 -0.12382041125287807 0.13618067776404302 0.090197418556361486 -0.06531354924837629 -0.027910000368409543 0.089988349147245211 0.094418617058601315 0.062750249420861201 -0.063136686211737778 -0.080821276994205549 0.0096052702238962357 0.082648058922564313 -0.14992538871668873 -0.084189433544290898 0.040999572687675727 -0.054457139494328483 -0.013725918608175295 0.043857343477810166 0.0093841766389988358 0.090732191615515656 -0.11079012976067953 0.012549579783350116 0.03429124078491249 0.11156096360202727 0.00088241741221715085 0.089762541748879543 -0.0055186120280761265 -0.03328289340553682 -0.098872692025395129 0.044947555326902575 0.0071403865330127679 -0.066530461990234435 0.044445793618487162 -0.14930904210071264 -0.052247869104513879 -0.1139419744130344 -0.015723946882021504 0.0071083255582746353 -0.046087797791239983
leaf_weight=340.70020434260368 88.776159211993217 26.143450811505318 73.97555485367775 38.720472291111946 19.314433500170708 31.045137614011765 21.205704450607303 126.92902103066444 22.667596355080605 95.167566671967506 9.3638659417629224 47.53173092007637 38.038214400410652 51.251843824982643 40.148538395762444 62.335393220186234 22.408938676118854 83.413713827729225 5.9267380237579337 13.203352764248846 26.68019437789917 19.127237319946289 6.9398772567510596 33.77483206987381 15.916428253054621 110.75735855102539 16.716042339801788 10.867591246962546 19.371532082557678 11.26812067627907 6.4645305573940268 110.5993639677763 17.191103845834732 16.952672600746158 6.6250839382410041 6.6375542879104605 32.28520193696022 8.4243961274623853 95.748608112335205 14.844052374362944 4.9771367013454428 43.047492623329163 17.228621661663059 10.849336579442022 7.4870833754539481 248.405009791255 7.5925099700689307 16.446569919586182 42.844668179750443
leaf_count=1554 395 105 296 177 79 130 85 526 93 401 39 215 163 209 161 270 94 355 24 53 108 79 28 138 65 446 68 45 78 46 26 447 71 75 27 27 130 34 395 62 20 173 69 44 30 1043 31 66 172
internal_value=0 -0.0432051 -0.00682651 0.0869333 0.0295541 -0.0471861 0.052832 -0.0895694 -0.00144526 -0.0843628 0.00521949 0.11787 0.0209389 -0.0664527 -0.0616123 0.0847074 0.0155162 0.086894 0.036558 -0.0115895 0.0316472 0.0128117 -0.0263465 -0.0453601 0.0614885 -0.0432866 0.0624021 0.119918 0.0468301 0.0244561 -0.0416697 0.00022627 0.0784619 0.112304 0.059085 0.00136097 0.0123755 0.0150228 -0.0876364 0.0825364 0.0792817 -0.0455826 -0.033037 -0.0558575 0.0143555 -0.106856 -0.07222 -0.0413103 -0.0314452
internal_weight=0 1500.73 841.494 743.608 261.095 502.043 339.451 659.235 190.578 244.974 136.539 482.513 126.543 283.901 149.806 202.912 127.175 141.813 107.229 257.07 99.5049 72.1188 33.6201 64.0349 62.379 136.901 114.136 58.3993 38.4988 34.6092 27.6702 184.575 79.5265 70.5172 17.8932 44.8495 38.9228 24.3408 147 31.7967 27.3861 118.761 75.7136 50.9979 24.7157 375.334 41.3673 72.4946 59.2912
internal_count=9467 6200 3476 3267 1098 2042 1434 2724 784 1008 557 2169 522 1155 607 877 518 615 443 1034 407 293 136 262 262 551 482 260 157 141 111 743 341 314 73 181 157 99 604 137 114 477 304 205 99 1569 169 291 238
is_linear=0
shrinkage=0.1


Tree=5
num_leaves=50
num_cat=0
split_feature=2 2 0 1 1 2 1 2 1 1 1 2 1 0 1 0 1 2 2 2 2 0 0 1 1 1 2 2 2 1 2 1 2 2 2 1 2 2 1 1 1 2 1 1 1 1 2 0 2
split_gain=704.366 211.122 167.595 114.666 57.0825 56.9891 43.5852 23.3611 18.8311 18.2987 18.9413 17.1171 16.1479 13.6749 11.6544 10.8452 9.80407 8.80581 8.41302 8.10864 7.81741 6.29698 6.01002 5.11218 4.46756 7.40532 4.29697 3.88476 3.78473 3.71351 3.70397 3.21058 3.12465 2.71119 2.97289 2.7218 2.5231 2.50196 2.46788 7.60287 10.9688 4.74117 2.36923 2.90029 2.35487 2.31132 7.18338 2.29747 4.64095
threshold=177.50000000000003 437.50000000000006 1.0000000180025095e-35 3.5000000000000004 3.5000000000000004 78.500000000000014 1.0000000180025095e-35 613.50000000000011 10.500000000000002 8.5000000000000018 4.5000000000000009 134.50000000000003 8.5000000000000018 1.0000000180025095e-35 4.5000000000000009 1.0000000180025095e-35 1.0000000180025095e-35 117.50000000000001 329.50000000000006 257.50000000000006 279.50000000000006 1.0000000180025095e-35 1.0000000180025095e-35 7.5000000000000009 2.5000000000000004 4.5000000000000009 801.50000000000011 99.500000000000014 477.50000000000006 1.5000000000000002 588.50000000000011 2.5000000000000004 143.50000000000003 265.50000000000006 380.50000000000006 5.5000000000000009 462.50000000000006 159.50000000000003 7.5000000000000009 6.5000000000000009 5.5000000000000009 348.50000000000006 1.0000000180025095e-35 1.5000000000000002 5.5000000000000009 1.0000000180025095e-35 520.50000000000011 1.0000000180025095e-35 113.50000000000001
decision_type=2 2 2 2 2 2 2 2 2 2 2 2 2 2 2 2 2 2 2 2 2 2 2 2 2 2 2 2 2 2 2 2 2 2 2 2 2 2 2 2 2 2 2 2 2 2 2 2 2
left_child=3 2 6 11 18 -5 20 13 19 10 -7 47 14 28 -6 32 21 23 29 24 -2 -13 44 -12 -8 -26 -9 -25 -3 -4 31 36 -11 -21 35 -35 -15 -23 39 40 -16 -41 -20 -44 -19 46 -30 -1 -49
right_child=1 7 4 5 12 9 8 26 -10 15 17 16 -14 30 38 -17 -18 22 42 33 -22 37 -24 27 25 -27 -28 -29 45 -31 -32 -33 -34 34 -36 -37 -38 -39 -40 41 -42 -43 43 -45 -46 -47 -48 48 -50
leaf_value=0.13281832126007004 0.1144512266076962 0.0018718845200146864 -0.015713790781435359 0.1156416775210905 -0.11151015553199189 -0.063603259940459192 0.083054592030400179 -0.083044290267998366 -0.11554679690148027 0.040977969192201265 0.10286259630175759 0.12930461484833672 -0.1106558218642647 -0.11209516319731094 -0.026681982988302634 -0.068187655642596906 0.057436013024982815 0.084825581656709115 -0.075577801424264957 -0.047158220248664229 0.064809044997728271 0.07998774486596047 -0.0022663954819743368 -0.020014497501094401 -0.031768751222804557 0.052255392530343697 -0.10567932914576871 0.079902841319216086 0.048005953787316161 0.013114660686844682 -0.026853806077734091 -0.098336692804655249 -0.030519961281328358 0.036802229806700192 -0.019378140619138735 -0.001992134344919105 -0.044399680178997585 -0.011769245205975415 -0.06100247887305639 0.043728258179304487 -0.13846030883527444 -0.047706270601208925 0.0064324102055699859 -0.042486938479348653 0.022632938577959585 -0.056958428473348061 -0.046270310484680312 0.12123302598635517 0.07282157062282256
leaf_weight=180.98079776763916 73.278504818677902 26.385132342576981 73.742793351411819 56.470883935689926 30.168270885944366 20.008397057652473 25.653864338994026 169.33386385440826 9.1079178005456907 15.270217135548593 26.086108162999153 44.986863926053047 91.892337396740913 6.7974786758422843 39.849729955196381 44.089732304215431 82.167775169014931 13.473656728863716 13.386348262429236 7.6668071895837775 64.488702297210693 5.8245623707771284 47.483680546283722 7.8672870844602567 13.175400793552397 42.410068035125732 241.81343597173691 6.3052747249603271 9.8820775747299177 110.46839909255505 12.974319219589232 72.941424116492271 9.0281484574079496 44.165174230933189 22.919649884104729 30.065167352557182 30.345886945724487 4.9694168567657471 43.073473438620567 16.983238190412525 10.611145079135893 7.4657830595970145 16.450713843107224 42.98231728374958 12.082313567399979 44.963452965021133 32.363804057240486 112.76291236281395 30.340402752161026
leaf_count=871 340 106 295 265 130 83 117 710 39 63 116 214 399 28 160 182 355 59 54 31 280 25 191 32 53 178 1044 26 40 447 54 307 37 182 92 122 125 20 174 68 44 30 66 173 50 182 131 543 139
internal_value=0 -0.039345 -0.00593382 0.0812017 -0.0426799 0.0276917 0.0488964 -0.0820867 0.0183452 0.00266693 0.0242023 0.11099 -0.0776524 -0.0566793 -0.0566424 -0.0390827 0.0804599 0.0400842 -0.00986312 0.0254192 0.0917797 0.112938 0.0189705 0.0771493 0.048953 0.0321521 -0.0965567 0.0265355 -0.0312903 0.00155406 -0.0797222 -0.0856874 0.0142727 0.00692013 0.0115777 0.0212523 -0.0591248 0.0400683 -0.0418819 -0.0302995 -0.0521824 0.0151118 -0.0384147 -0.0290514 0.0571758 -0.0412409 -0.0236812 0.123729 0.111483
internal_weight=0 1477.81 830.006 720.198 497.075 258.166 332.931 647.801 195.164 201.695 133.307 462.033 240.044 236.654 148.152 68.3881 137.949 113.298 257.031 186.056 137.767 55.7808 73.0397 40.2587 81.2393 55.5855 411.147 14.1726 113.594 184.211 123.059 110.085 24.2984 104.817 97.15 74.2303 37.1434 10.794 117.983 74.9099 50.4609 24.449 72.8194 59.433 25.556 87.2093 42.2459 324.084 143.103
internal_count=9472 6201 3474 3271 2040 1104 1434 2727 814 839 557 2167 1005 973 606 282 614 474 1035 775 620 259 300 174 348 231 1754 58 459 742 514 460 100 427 396 304 153 45 476 302 204 98 293 239 109 353 171 1553 682
is_linear=0
shrinkage=0.1


Tree=6
num_leaves=50
num_cat=0
split_feature=2 2 0 1 2 1 1 2 0 1 2 1 1 1 2 0 1 1 1 2 1 1 1 2 2 1 1 1 1 0 1 2 1 2 1 2 1 2 2 1 1 2 1 2 2 0 1 2 2
split_gain=596.108 177.006 137.449 101.89 48.6996 47.4353 39.4018 20.3433 15.8821 15.0432 14.4541 12.9758 12.3054 10.6349 10.403 9.91749 8.8476 8.81563 7.78898 7.68811 7.59804 8.91421 13.3071 6.52193 5.15872 4.9087 4.59959 6.82912 4.18605 3.86312 3.71139 3.65921 3.56577 3.34969 3.19454 3.41456 3.10705 3.01361 2.79991 2.65705 4.22251 2.50587 2.48197 2.46545 2.43352 3.36363 5.95581 2.41423 2.30902
threshold=175.50000000000003 437.50000000000006 1.0000000180025095e-35 3.5000000000000004 78.500000000000014 3.5000000000000004 2.5000000000000004 679.50000000000011 1.0000000180025095e-35 8.5000000000000018 134.50000000000003 10.500000000000002 8.5000000000000018 4.5000000000000009 257.50000000000006 1.0000000180025095e-35 1.0000000180025095e-35 4.5000000000000009 4.5000000000000009 117.50000000000001 5.5000000000000009 9.5000000000000018 8.5000000000000018 329.50000000000006 536.50000000000011 1.0000000180025095e-35 4.5000000000000009 7.5000000000000009 1.0000000180025095e-35 1.0000000180025095e-35 1.5000000000000002 294.50000000000006 3.5000000000000004 388.50000000000006 1.5000000000000002 344.50000000000006 9.5000000000000018 251.50000000000003 329.50000000000006 7.5000000000000009 6.5000000000000009 300.50000000000006 7.5000000000000009 159.50000000000003 85.500000000000014 1.0000000180025095e-35 1.5000000000000002 520.50000000000011 923.50000000000011
decision_type=2 2 2 2 2 2 2 2 2 2 2 2 2 2 2 2 2 2 2 2 2 2 2 2 2 2 2 2 2 2 2 2 2 2 2 2 2 2 2 2 2 2 2 2 2 2 2 2 2
left_child=3 2 6 10 -5 23 14 15 26 13 44 17 18 -7 -2 24 29 32 -10 42 -19 22 -22 30 28 33 -6 43 47 -12 -4 -23 -8 -16 38 41 -17 39 -27 40 -15 -36 -20 -28 -1 -46 -47 -3 -9
right_child=1 7 5 4 8 9 11 48 12 -11 16 -13 -14 37 25 36 -18 20 19 -21 21 31 -24 -25 -26 34 27 -29 -30 -31 -32 -33 -34 -35 35 -37 -38 -39 -40 -41 -42 -43 -44 -45 45 46 -48 -49 -50
leaf_value=0.1281438673883083 0.10001971755865227 0.025641218198147266 -0.016149835498197242 0.10925570381027488 -0.042725361960450237 -0.1040940078353418 -0.016615773514939463 -0.083133786801294018 -0.061046516679670294 -0.10303205618966527 0.12294739700932189 -0.10832123437633157 -0.061870727485297754 -0.024241771451412025 0.077710993423278196 -0.06793871174366678 0.054594250157963466 0.06941690942879522 0.085906246831702227 -0.0061660020362929004 0.0047097360306360856 0.070617929164092569 -0.14231758139545572 -0.034339661141274708 -0.053815629205715733 -0.048637912094356993 0.10431192492442161 0.021406651457555902 -0.039104155020616503 0.048106469286760579 0.01241949667449195 0.0091712509222950638 -0.099638002356630964 0.025436980469184103 0.026985430568041643 -0.0069068345687938173 -0.11107286102355357 -0.050003567771396806 0.029999681796042527 -0.047527541470324869 0.052450569925020119 0.12448185085096429 0.016420753242920395 0.021471102502298271 0.12170877704745282 0.039608166414425799 0.10625242897338159 -0.046272170707751095 -0.10248417742567351
leaf_weight=158.7157551497221 83.610152766108513 23.617448091506962 75.487093180418015 53.713963642716408 5.3724654763936988 29.199976712465286 21.439577758312229 161.57570387423038 14.425844088196753 90.244573175907135 41.177423596382141 8.8184020668268186 42.394303724169731 21.306244626641273 58.947111785411835 134.78822876513004 78.039892062544823 27.354509383440018 15.285794630646706 46.49028292298317 26.803995534777641 19.142130985856056 7.0793600380420676 72.332510679960251 86.045419782400131 8.552211672067644 19.589790180325512 38.655360579490662 34.033515095710754 10.17621874809265 111.48285934329033 19.366154879331589 6.1460819691419593 16.851572945713997 5.5884529203176516 6.8453812450170508 21.669071331620216 70.436343356966972 7.8722690194845191 17.316631346940994 9.7195825874805468 5.4564922749996185 8.2665485590696335 5.0106390863656989 79.37065052986145 20.30577141046524 49.627608060836792 4.9136793613433829 165.81418007612228
leaf_count=811 403 95 302 264 22 130 86 705 61 405 207 39 177 86 269 570 343 117 69 187 109 81 29 292 354 35 92 159 138 43 452 78 25 71 23 28 96 287 32 70 39 23 34 21 403 100 243 20 740
internal_value=0 -0.0359992 -0.00553719 0.0769228 0.0257612 -0.0386988 0.0444477 -0.0757866 0.00242816 -0.0708271 0.105959 0.00316198 -0.0185139 -0.0506878 0.0733162 -0.0568971 0.0768611 0.011582 0.0036654 0.0175929 0.0254112 0.00814079 -0.0288694 -0.00904075 -0.0380226 0.0523997 0.0408817 0.0484777 -0.0158516 0.109191 0.000863042 0.0406224 -0.0376526 0.0665201 0.0203145 0.048537 -0.074508 -0.0368812 -0.0113427 -0.0172024 0.000577677 0.0808496 0.0630058 0.0887794 0.117926 0.106368 0.0876436 0.0122297 -0.0931859
internal_weight=0 1459.86 827.4 686.618 249.205 497.526 329.874 632.457 195.491 238.223 437.413 136.15 126.863 147.979 193.724 305.067 129.394 127.332 84.4685 70.0426 99.7462 72.3916 33.8834 259.302 148.61 110.113 68.6283 63.2558 62.5646 51.3536 186.97 38.5083 27.5857 75.7987 34.3148 17.8903 156.457 118.779 16.4245 48.3425 31.0258 11.0449 23.5523 24.6004 308.02 149.304 69.9334 28.5311 327.39
internal_count=9465 6229 3511 3236 1086 2063 1448 2718 822 1017 2150 564 528 612 884 1273 593 525 351 290 414 297 138 1046 607 481 294 272 253 250 754 159 111 340 141 74 666 482 67 195 125 46 103 113 1557 746 343 115 1445
is_linear=0
shrinkage=0.1


Tree=7
num_leaves=50
num_cat=0
split_feature=2 2 0 1 2 1 1 2 2 1 0 0 0 1 1 1 1 1 1 1 1 2 2 1 2 1 2 2 2 2 1 1 2 2 2 2 1 1 1 2 1 2 2 1 2 2 2 2 2
split_gain=501.529 146.642 109.418 88.7519 42.1213 41.5967 33.9344 22.2039 14.048 13.0738 12.9048 12.7667 12.7513 10.5874 10.3322 9.87507 8.34363 8.07621 7.95793 7.45084 11.6533 7.35472 7.12588 4.52897 5.42419 4.21333 7.14575 3.97123 3.9652 7.82324 3.88846 3.81296 3.67901 3.61226 3.54962 3.49466 3.37847 3.87528 3.12171 2.90755 2.86494 2.84675 2.83461 2.95734 2.8371 2.73921 2.72039 2.62681 2.32203
threshold=175.50000000000003 410.50000000000006 1.0000000180025095e-35 3.5000000000000004 78.500000000000014 3.5000000000000004 2.5000000000000004 613.50000000000011 113.50000000000001 8.5000000000000018 1.0000000180025095e-35 1.0000000180025095e-35 1.0000000180025095e-35 8.5000000000000018 10.500000000000002 4.5000000000000009 2.5000000000000004 5.5000000000000009 4.5000000000000009 9.5000000000000018 8.5000000000000018 257.50000000000006 130.50000000000003 1.5000000000000002 163.50000000000003 1.0000000180025095e-35 531.50000000000011 555.50000000000011 143.50000000000003 165.50000000000003 3.5000000000000004 2.5000000000000004 801.50000000000011 588.50000000000011 127.50000000000001 143.50000000000003 1.0000000180025095e-35 1.5000000000000002 7.5000000000000009 388.50000000000006 4.5000000000000009 603.50000000000011 329.50000000000006 1.5000000000000002 388.50000000000006 294.50000000000006 348.50000000000006 365.50000000000006 329.50000000000006
decision_type=2 2 2 2 2 2 2 2 2 2 2 2 2 2 2 2 2 2 2 2 2 2 2 2 2 2 2 2 2 2 2 2 2 2 2 2 2 2 2 2 2 2 2 2 2 2 2 2 2
left_child=3 2 6 8 -5 42 21 11 -1 18 16 25 28 22 15 30 -10 -17 -7 20 -19 -2 -14 24 34 26 -3 -28 38 -30 -8 -13 -9 -33 -12 -18 39 48 -6 -23 -24 -29 43 -4 47 -21 -20 -44 -38
right_child=1 7 5 4 12 9 14 32 10 -11 23 31 13 -15 -16 17 35 19 46 45 -22 36 40 -25 -26 -27 27 41 29 -31 -32 33 -34 -35 -36 -37 37 -39 -40 -41 -42 -43 44 -45 -46 -47 -48 -49 -50
leaf_value=0.11718693331186453 0.094154402859185818 0.025417096867404926 -0.014554122367354492 0.1038295383514307 0.083350368287571128 -0.09442230759154159 -0.018600465226519994 -0.070346875709101808 0.11363615094087834 -0.096453449220146537 -0.024932119193411342 -0.043039111783899436 0.036025135854497091 -0.056536963329407199 -0.099796702122077974 0.075133501394811286 0.072179810572816527 0.0069733317955195098 -0.02553695704123379 0.065001060333672242 -0.1328573080898092 0.072657795943393985 -0.070832125976153654 0.067535471589138446 -0.05690347532111413 -0.040121311811135055 -0.097658612332803832 0.0063515900495594501 -0.039332671719172402 0.083018356366470564 -0.10649886912401688 -0.083920515580211907 -0.09158841115266031 -0.010067882304405943 0.060368245689538663 -0.043244483929102129 -0.04401352517511236 0.057438354499613813 0.029710250413046198 0.0067896271191190544 -0.0090860094725283575 -0.07211279457840479 -0.020495592306206307 0.010910428778979787 0.01366860496350368 0.0099140677522956515 -0.065158375635890692 -0.074799552253712459 0.029957228083369397
leaf_weight=228.72525963187218 79.870978206396103 35.518676623702049 75.484864130616188 51.548112139105797 19.72303780913353 26.45882984995842 20.194871380925182 162.80758392810822 88.086796596646309 82.983267575502396 5.8475818336010041 52.295921236276627 38.170722365379333 41.866764977574348 8.0778932273387891 24.390898793935776 3.9603122323751432 25.043420061469082 90.395774319767952 18.811257243156433 6.8977340757846823 57.717068210244179 8.6406210213899595 57.362495422363281 6.4434649646282187 67.217323303222656 7.8032476902008083 15.601905822753908 14.615440383553507 6.9918421506881705 6.0589206665754309 85.90657864511013 225.89332610368729 7.4527013301849356 19.646129369735718 4.8514322638511658 8.596783980727194 15.955093026161194 26.328252524137497 7.7865322083234778 37.19847010076046 5.6069349050521842 30.940668925642967 112.31816303730011 14.125660255551336 17.353517666459084 21.475042194128036 12.279179334640501 6.8520225584506997
leaf_count=1236 402 145 302 266 95 122 81 710 460 386 28 219 166 177 37 107 20 102 368 81 29 271 37 263 26 274 32 64 61 29 25 377 1040 32 87 20 35 67 109 33 149 23 125 456 57 70 88 50 28
internal_value=0 -0.0330887 -0.00335516 0.072166 0.0243307 -0.0337426 0.0432942 -0.0674126 0.100308 -0.0650797 0.079115 -0.0455538 0.00277733 -0.0160249 0.0037554 0.0114904 0.104438 0.0268463 -0.0457618 0.00880603 -0.0260101 0.0715 0.00454607 0.0508767 0.0199346 -0.0227693 -0.00439459 -0.040562 0.0375118 0.00197889 -0.0417165 -0.0658989 -0.0828727 -0.0781759 0.0406213 0.0104963 0.0521404 0.0242139 0.0538298 0.0650242 -0.021854 -0.0164635 -0.00531914 0.0006549 -0.0245944 0.039442 -0.0335977 -0.0371235 -0.0113607
internal_weight=0 1436.17 770.068 660.007 245.083 466.461 303.607 666.104 414.923 221.313 186.198 277.403 193.535 125.877 126.829 118.751 96.8985 92.4968 138.33 68.1059 31.9412 176.778 84.0098 89.2997 31.9372 131.748 64.5308 29.0121 67.6586 21.6073 26.2538 145.655 388.701 93.3593 25.4937 8.81174 96.9075 31.4039 46.0513 65.5036 45.8391 21.2088 245.149 187.803 57.3455 36.1648 111.871 43.2198 15.4488
internal_count=9467 6238 3322 3229 1089 1954 1368 2916 2140 964 904 1166 823 529 532 495 500 389 578 282 131 836 352 404 141 538 264 119 294 90 106 628 1750 409 115 40 434 130 204 304 186 87 990 758 232 151 456 175 63
is_linear=0
shrinkage=0.1


end of trees

feature_importances:
Column_1=190
Column_2=162
Column_0=40

parameters:
[boosting: gbdt]
[objective: binary]
[metric: auc,l2]
[tree_learner: serial]
[device_type: cpu]
[linear_tree: 0]
[data: ]
[valid: ]
[num_iterations: 200]
[learning_rate: 0.1]
[num_leaves: 50]
[num_threads: -1]
[deterministic: 0]
[force_col_wise: 0]
[force_row_wise: 0]
[histogram_pool_size: -1]
[max_depth: 9]
[min_data_in_leaf: 20]
[min_sum_hessian_in_leaf: 0.001]
[bagging_fraction: 0.997064]
[pos_bagging_fraction: 1]
[neg_bagging_fraction: 1]
[bagging_freq: 1]
[bagging_seed: 3]
[feature_fraction: 0.974549]
[feature_fraction_bynode: 1]
[feature_fraction_seed: 2]
[extra_trees: 0]
[extra_seed: 6]
[early_stopping_round: 2]
[first_metric_only: 0]
[max_delta_step: 0]
[lambda_l1: 0]
[lambda_l2: 0.891255]
[linear_lambda: 0]
[min_gain_to_split: 0]
[drop_rate: 0.1]
[max_drop: 50]
[skip_drop: 0.5]
[xgboost_dart_mode: 0]
[uniform_drop: 0]
[drop_seed: 4]
[top_rate: 0.2]
[other_rate: 0.1]
[min_data_per_group: 100]
[max_cat_threshold: 32]
[cat_l2: 10]
[cat_smooth: 10]
[max_cat_to_onehot: 4]
[top_k: 20]
[monotone_constraints: ]
[monotone_constraints_method: basic]
[monotone_penalty: 0]
[feature_contri: ]
[forcedsplits_filename: ]
[refit_decay_rate: 0.9]
[cegb_tradeoff: 1]
[cegb_penalty_split: 0]
[cegb_penalty_feature_lazy: ]
[cegb_penalty_feature_coupled: ]
[path_smooth: 0]
[interaction_constraints: ]
[verbosity: 1]
[saved_feature_importance_type: 0]
[max_bin: 255]
[max_bin_by_feature: ]
[min_data_in_bin: 3]
[bin_construct_sample_cnt: 200000]
[data_random_seed: 1]
[is_enable_sparse: 1]
[enable_bundle: 1]
[use_missing: 1]
[zero_as_missing: 0]
[feature_pre_filter: 1]
[pre_partition: 0]
[two_round: 0]
[header: 0]
[label_column: ]
[weight_column: ]
[group_column: ]
[ignore_column: ]
[categorical_feature: ]
[forcedbins_filename: ]
[objective_seed: 5]
[num_class: 1]
[is_unbalance: 0]
[scale_pos_weight: 1]
[sigmoid: 1]
[boost_from_average: 1]
[reg_sqrt: 0]
[alpha: 0.9]
[fair_c: 1]
[poisson_max_delta_step: 0.7]
[tweedie_variance_power: 1.5]
[lambdarank_truncation_level: 30]
[lambdarank_norm: 1]
[label_gain: ]
[eval_at: ]
[multi_error_top_k: 1]
[auc_mu_weights: ]
[num_machines: 1]
[local_listen_port: 12400]
[time_out: 120]
[machine_list_filename: ]
[machines: ]
[gpu_platform_id: -1]
[gpu_device_id: -1]
[gpu_use_dp: 0]
[num_gpu: 1]

end of parameters

pandas_categorical:null
